%YAML:1.0
---
detectionoutput: !!opencv-object-detector-hog
   winSize: [ 64, 128 ]
   blockSize: [ 16, 16 ]
   blockStride: [ 8, 8 ]
   cellSize: [ 8, 8 ]
   nbins: 9
   derivAperture: 1
   winSigma: 4.
   histogramNormType: 0
   L2HysThreshold: 2.0000000000000001e-01
   gammaCorrection: 1
   nlevels: 64
   signedGradient: 0
   SVMDetector: [ -9.89275798e-03, -1.60777029e-02, -1.38530869e-03,
       -1.36238877e-02, -6.96699647e-03, -1.86360814e-02,
       -5.52556105e-03, 1.12492600e-02, 1.80345792e-02, -1.08185504e-02,
       -1.37728332e-02, 8.51488300e-03, -7.41092116e-03, 6.19643787e-03,
       -2.61485595e-02, -1.77311841e-02, -3.69063835e-03, 1.27384858e-03,
       1.04854731e-02, -1.50912430e-03, 9.29022487e-03, -1.19907791e-02,
       4.61141532e-03, -2.17315201e-02, -9.49233118e-03, 1.97394993e-02,
       3.77456136e-02, -1.70675002e-03, -1.24704111e-02, 2.06777430e-03,
       -1.28705874e-02, 1.93921756e-02, -2.28591878e-02, -1.43100210e-02,
       1.27179949e-02, 3.14662978e-02, -7.41494540e-03, -6.19345577e-03,
       6.14278810e-03, -4.24892223e-03, 1.01901116e-02, -1.81327090e-02,
       -7.49951135e-03, 5.59859956e-03, 2.26654066e-03, -1.77417370e-03,
       1.91472925e-03, 9.79795773e-03, -3.21239629e-03, 4.71985759e-03,
       -1.39920805e-02, -1.14220865e-02, -3.17686325e-04,
       -1.70963141e-03, -5.78658050e-03, -4.20461362e-03, 4.61321883e-03,
       -1.08234482e-02, 2.25561764e-02, -2.11509150e-02, -3.62964743e-03,
       1.45910000e-02, 2.20085941e-02, -8.37563630e-03, 1.45833027e-02,
       1.41490698e-02, -5.25154034e-03, 2.03013178e-02, -1.27667692e-02,
       1.19322492e-03, -8.29625409e-04, -2.02480378e-03, 5.50685450e-03,
       4.55889356e-04, 9.50288400e-03, 7.09798606e-03, 2.54503661e-03,
       -7.84432609e-03, -3.97490850e-03, -9.15208147e-05, 7.34899309e-04,
       1.57870762e-02, -7.17016286e-04, 8.19364656e-03, -2.83602765e-03,
       -9.20135807e-03, -1.74356475e-02, -1.15800770e-02,
       -5.24075609e-03, 1.12092793e-02, 6.31528767e-03, 1.41718872e-02,
       9.94086824e-03, 9.52481572e-03, 2.15516314e-02, -8.60844832e-03,
       6.63772551e-03, 3.46993585e-03, -1.87276083e-03, 2.64042970e-02,
       2.31584199e-02, 1.37504758e-02, 8.06426397e-04, 1.02814902e-02,
       -1.91009194e-02, 2.03378825e-03, 2.35551340e-03, 7.39225047e-03,
       1.59305613e-02, 1.60773715e-03, 2.92058242e-03, -8.47887155e-03,
       -4.38121893e-03, -4.16803313e-03, -8.90252646e-03, 4.85858833e-03,
       1.14017166e-02, 1.94810778e-02, 9.68963373e-03, 1.28737856e-02,
       -3.11704772e-03, -1.01210549e-02, -5.88415598e-04,
       -1.02680945e-03, 1.27923833e-02, 1.01641119e-02, 2.00291555e-02,
       3.37135680e-02, 1.05323289e-02, -1.16554201e-02, 1.15055416e-03,
       -5.71311265e-03, -4.39842883e-03, -2.84957630e-03,
       -1.09486026e-03, 3.18260007e-02, 2.12741923e-02, 2.20718533e-02,
       -5.57560241e-03, 4.16535139e-03, 1.26582687e-03, -1.60270720e-03,
       2.71271006e-03, 9.94467828e-03, 1.59672834e-02, 6.64794631e-03,
       1.38768787e-02, -7.15999911e-03, -1.59579813e-02, -1.30323470e-02,
       -8.22557881e-03, -3.47499875e-03, 3.46375443e-03, 1.57623105e-02,
       1.21648517e-02, 1.62181687e-02, 3.14109237e-03, -1.72101408e-02,
       -1.22948484e-02, -1.17294211e-02, -1.57744158e-02, 3.39482096e-03,
       2.21621506e-02, 2.30826270e-02, 2.03412361e-02, 2.92987633e-03,
       3.82988900e-03, -7.89701473e-03, -9.76147782e-03, -2.62547866e-03,
       -2.28185137e-03, 3.22194323e-02, 3.37361842e-02, 1.88600626e-02,
       1.09851994e-02, 1.07017979e-02, -1.74385309e-03, -3.84883676e-03,
       -5.15928213e-03, 7.92214554e-03, 4.31440910e-03, 4.08428907e-03,
       1.14060082e-02, -1.65866187e-03, -1.82921961e-02, -5.57335233e-03,
       -6.99365465e-03, -3.62261990e-03, 3.43032158e-03, 2.32723774e-04,
       -6.54922798e-03, 4.97126207e-03, -8.30004085e-03, -1.84179004e-02,
       2.45726085e-03, 5.08316932e-03, 1.10204034e-02, 5.62388857e-04,
       2.02354882e-02, 1.27795432e-02, 5.27936826e-03, 2.21390929e-03,
       -8.86872702e-04, -3.11414641e-03, 5.60671603e-03, 1.00797554e-02,
       1.55247077e-02, 1.44569790e-02, 1.25456117e-02, 2.06812266e-02,
       1.79764407e-03, -1.05865048e-02, -8.92030832e-04, 9.48440284e-03,
       1.59161538e-02, 1.79832652e-02, -1.99810974e-03, -9.96857230e-03,
       1.83266366e-03, -3.14531638e-03, -1.68621875e-02, 3.94805102e-03,
       6.77015819e-03, 4.06961655e-03, 1.94914301e-03, -2.06366228e-03,
       -1.49752749e-02, 6.59165438e-04, 9.71641578e-03, -1.23973927e-02,
       -1.11214444e-03, -4.30167792e-03, -8.29966273e-04, 1.29074766e-03,
       2.37125121e-02, 3.18139000e-03, 1.33690583e-02, 2.15448393e-03,
       -8.46752245e-03, 2.66633974e-03, 9.09110252e-03, 8.38072319e-03,
       2.45618410e-02, 2.71765124e-02, -6.40471745e-03, 4.12396342e-03,
       1.20069571e-02, -7.11362809e-03, -4.84546326e-04, 1.50926248e-03,
       5.70629351e-03, 2.64587365e-02, -1.00301742e-03, -1.81994680e-02,
       7.31590495e-04, 8.51949211e-03, -8.43700115e-03, -6.75766217e-03,
       -7.65483268e-03, 3.49877332e-03, 1.19596412e-02, 3.08603887e-03,
       -9.15054511e-03, 2.00486300e-03, 1.06249319e-03, -1.17497286e-02,
       -1.59231946e-02, -1.16730155e-02, 7.79663632e-03, 1.46422535e-02,
       1.83551218e-02, -2.61016493e-03, 1.24703273e-02, 1.25416853e-02,
       -3.52057093e-03, -5.58361784e-03, -1.74608533e-04, 4.98843985e-03,
       1.92350112e-02, 1.97035205e-02, 5.60620055e-03, 5.02269249e-03,
       -6.61044905e-04, 4.55071498e-03, -1.26964338e-02, -3.48713226e-03,
       1.15395626e-02, 2.52434611e-02, -8.80202337e-04, -5.25230775e-03,
       6.10435801e-03, 4.63235145e-03, 2.31881189e-04, -1.58439428e-02,
       -1.52511932e-02, 6.26142882e-03, 6.93151401e-03, -5.56148635e-03,
       -1.15649989e-02, 8.12829845e-03, 5.26568107e-03, 9.98859573e-03,
       -1.64583756e-03, -2.21485947e-03, 5.81099326e-03, -1.54431222e-03,
       1.57889221e-02, 6.09660929e-04, 1.08820479e-03, 2.78712064e-03,
       2.15088353e-02, -1.12469671e-02, -2.43582530e-03, 1.86207127e-02,
       2.07830537e-02, -2.23891530e-03, -6.69711223e-03, 1.85578631e-03,
       1.38428761e-02, 2.87999995e-02, -6.89333677e-03, 1.73244125e-03,
       2.12453455e-02, 1.09802978e-02, -3.97588965e-03, -1.17656048e-02,
       2.79264175e-03, 6.73519820e-03, 2.01758929e-02, 2.67426507e-03,
       5.30073931e-03, 4.00598021e-03, 2.53161299e-03, -6.82752719e-03,
       -1.64744407e-02, 2.91076349e-03, -7.08383683e-04, 2.14975737e-02,
       -4.63091349e-03, 1.04732402e-02, -1.97288068e-03, 7.88160227e-03,
       1.36118324e-03, -8.04509595e-03, 5.63262030e-04, 3.08117829e-03,
       3.18829194e-02, -8.78486503e-03, 1.87967019e-03, 1.69730559e-02,
       1.22681921e-02, 4.61497018e-03, -1.13394447e-02, -2.17814092e-03,
       -1.00947181e-02, 2.39950176e-02, -3.81476292e-03, 5.71476575e-03,
       9.98570956e-03, 2.40401477e-02, -1.44608656e-03, -5.48030995e-03,
       1.50263784e-02, -1.88950260e-04, 1.65197048e-02, -1.23252720e-02,
       -3.37626599e-03, 5.06835477e-03, 1.85653344e-02, -2.61790748e-03,
       -1.14491675e-02, 8.75182357e-03, -1.26798879e-02, 1.40222283e-02,
       -5.84148429e-03, -6.44678657e-04, 1.10914251e-02, 1.33371288e-02,
       1.53925503e-02, 6.05013105e-04, 9.24287084e-03, -2.88218702e-03,
       2.52152253e-02, 4.59706457e-03, 3.78041575e-03, 1.55155435e-02,
       3.69630456e-02, 4.21961537e-03, 4.35447507e-03, 1.13636367e-02,
       -7.15671945e-03, 2.08551474e-02, -1.12963957e-03, -1.65679411e-03,
       1.38799427e-02, 1.71335787e-02, -3.22073931e-04, -7.37980194e-03,
       7.14417873e-03, -1.34012131e-02, 1.96470451e-02, -1.83974102e-04,
       1.32413711e-02, 1.61974132e-02, 1.28612882e-02, -6.34391035e-04,
       -5.58116613e-03, 1.35738412e-02, -1.14339124e-02, 1.77387167e-02,
       -6.69569476e-03, 1.13398377e-02, 1.02418922e-02, 7.89259002e-03,
       1.19165471e-02, 5.01667522e-03, 1.06212124e-02, -1.13944774e-02,
       2.54424214e-02, -1.06572369e-02, 7.61433411e-03, 1.50729753e-02,
       1.90462805e-02, 1.87416896e-02, 1.42488291e-03, 1.18146809e-02,
       -1.63734406e-02, 2.28081234e-02, -1.78064145e-02, 8.99144821e-03,
       2.04835422e-02, 2.22508535e-02, -1.73408655e-03, -7.37084309e-03,
       9.65625886e-03, -3.32280109e-03, 2.38291547e-02, -8.74672644e-03,
       3.37296119e-03, 2.16965307e-03, 6.83429558e-03, -2.57920031e-03,
       -7.59357400e-03, 3.04764207e-03, -1.69118568e-02, 2.02909615e-02,
       -1.40588870e-03, 1.65033750e-02, -3.23444069e-03, 2.41727871e-03,
       1.00826807e-02, 5.17387083e-03, 9.70296189e-03, -1.23219695e-02,
       2.34383326e-02, -1.50417769e-02, 6.63588801e-03, 1.58960354e-02,
       1.30130155e-02, 4.29287972e-03, 7.38674914e-03, 3.68555658e-03,
       -1.97574534e-02, 3.52603868e-02, -1.11930519e-02, 1.40660722e-02,
       1.47448052e-02, 7.16452207e-03, 2.51733512e-03, -3.93294496e-03,
       -2.82354676e-03, -1.55152939e-02, 7.21836463e-03, 2.11580121e-03,
       1.44651644e-02, -2.63581285e-03, 2.11134716e-03, 7.02965213e-03,
       6.91566942e-03, 1.05170887e-02, -4.97362670e-03, 6.38349447e-03,
       -5.98324602e-03, 8.86772666e-03, 4.77959448e-03, 4.20267088e-03,
       9.89545020e-04, 7.34868925e-03, 2.44365307e-03, -1.83855444e-02,
       2.72641834e-02, -9.31567326e-03, 1.44753642e-02, 7.58636091e-03,
       2.98715243e-03, -3.12428828e-03, 5.96517976e-03, 1.00185582e-02,
       -1.49646215e-02, 3.72093730e-02, 3.27738700e-03, 2.01633610e-02,
       1.42161297e-02, 3.61758575e-04, -3.83828953e-03, -2.77619995e-03,
       8.66850838e-03, -6.11312641e-03, 8.21139105e-03, 1.59301248e-03,
       9.73721314e-03, 3.57816741e-03, 1.40282325e-04, -1.40629970e-02,
       3.83654120e-03, 2.71693934e-02, -1.73832499e-03, 2.44122632e-02,
       5.04626008e-03, 1.63872931e-02, -2.60392728e-04, -1.14203282e-02,
       -3.15418025e-03, -3.29990103e-03, 2.45699473e-03, -1.61918290e-02,
       3.59098241e-02, 7.35513913e-03, 1.37501098e-02, 5.29226009e-03,
       -3.44232176e-05, -4.04464034e-03, 6.29305840e-04, 1.00388397e-02,
       -1.42238671e-02, 4.74922508e-02, 9.43506882e-03, 1.84177049e-02,
       2.24534818e-03, -5.20782487e-04, -4.75449674e-03, -1.62991136e-02,
       -5.42790815e-03, -1.18817948e-02, 4.81826300e-03, -1.77225340e-02,
       -1.74778663e-02, -7.89896399e-03, 1.78071726e-02, -1.43374950e-02,
       -2.82539017e-02, -9.00434051e-03, -1.06147407e-02, 1.29091116e-02,
       -1.43166035e-02, -2.03631241e-02, -8.59501399e-03, 1.85690429e-02,
       1.75013840e-02, -7.09006854e-04, 2.49797618e-03, -7.38342898e-03,
       8.65989644e-03, -3.10416408e-02, -4.09079827e-02, -1.36669166e-02,
       4.03690524e-02, 8.30092188e-03, -7.84230419e-03, 1.64095331e-02,
       -2.11077859e-03, 2.01844629e-02, -1.60348900e-02, -2.87356768e-02,
       -2.24072742e-03, 4.09202129e-02, -2.11936180e-02, -2.05859784e-02,
       -7.71380588e-03, -1.20543605e-02, 1.09993210e-02, -1.18229808e-02,
       -1.93140600e-02, -2.32097879e-03, 7.31341541e-03, -2.16744188e-02,
       -8.74027377e-04, -1.03846947e-02, -1.78458411e-02, 1.20796412e-02,
       -1.28973993e-02, -1.40912291e-02, -1.62439123e-02,
       -1.87040847e-02, -6.81044022e-03, -1.06796660e-02, 4.27374756e-03,
       -1.70284249e-02, 1.37013085e-02, -1.01811821e-02, -2.46477965e-02,
       9.81232058e-03, 3.68046649e-02, -8.82190932e-03, 9.48716234e-03,
       5.41977398e-03, -1.70775540e-02, 1.64349061e-02, -1.07505545e-02,
       -1.18276374e-02, 6.21675700e-03, 1.72259863e-02, -6.53612008e-03,
       -2.81255622e-03, -1.01652686e-02, -8.69237445e-03, 1.81002393e-02,
       2.77150981e-03, -2.22206558e-03, -3.35811544e-03, -1.56929884e-02,
       3.80372629e-03, -2.33876333e-03, -1.74699593e-02, -1.66833159e-02,
       4.46734368e-04, -6.13393215e-03, -1.03336526e-02, -1.25950016e-02,
       -1.72892939e-02, -1.71456928e-03, 1.15270931e-02, -5.71870245e-03,
       1.00046163e-03, 2.26671323e-02, 8.66414455e-04, 2.92861555e-03,
       1.25685930e-02, 1.19143603e-02, 1.10382456e-02, 2.11788132e-03,
       -5.99606102e-03, -1.51255913e-03, 2.41078809e-02, 5.36704343e-03,
       -4.55412734e-03, 4.74891718e-03, 5.35403285e-03, 4.47758241e-03,
       8.38049222e-03, -6.69330824e-03, -1.41974911e-02, 2.53485690e-04,
       4.47731325e-03, -5.65862702e-03, -1.38782384e-02, -1.92864239e-02,
       -3.01626301e-03, 4.29238938e-03, 1.80473411e-03, -1.46915158e-02,
       9.70492198e-04, -7.02162506e-03, -7.27487262e-03, -2.92290864e-03,
       -1.29350377e-02, 9.98380128e-03, 3.42260161e-03, 6.24573848e-04,
       -7.50749488e-04, 2.70613097e-02, 1.71789750e-02, 2.35252286e-04,
       1.51078368e-03, 3.08993179e-03, 5.10989781e-03, 1.07067339e-02,
       1.75007265e-02, 6.95676170e-03, 2.18105018e-02, -9.92751867e-03,
       -1.44090839e-02, 4.41107946e-03, 6.86987815e-03, -3.12524987e-03,
       8.68789502e-05, 2.19018594e-03, -5.22530032e-03, -7.70434132e-03,
       -6.25101523e-03, -1.09679028e-02, 1.53207628e-03, -1.62258111e-02,
       1.01861693e-02, 7.04010529e-03, -5.27987583e-03, -3.49303777e-03,
       1.13514729e-03, 3.70380562e-03, -8.14314466e-04, -3.53896315e-03,
       -1.33799603e-02, 2.07253848e-03, 1.42394081e-02, 1.04161939e-02,
       4.62834304e-03, -8.33573402e-04, -2.39309873e-02, -2.34747473e-02,
       1.71053968e-03, 1.43881814e-04, 3.67880128e-02, 3.88395600e-02,
       9.96665005e-03, 2.02213530e-03, -3.74850607e-03, -1.09061813e-02,
       -4.68413997e-03, 5.99712506e-03, 8.21541436e-03, 6.27874257e-03,
       3.54682887e-03, -8.32311437e-03, -4.12844820e-03, -8.99724290e-03,
       -6.58470904e-03, 6.59107347e-04, -3.28470743e-03, -7.35279359e-03,
       -3.33987502e-03, -1.55619939e-03, -2.94522732e-03, 1.77618011e-03,
       -1.25103015e-02, -4.09490103e-03, -1.82890554e-03, 3.26068536e-03,
       -7.32165482e-03, 3.02300155e-02, 2.19243094e-02, 5.95526723e-03,
       -2.94121751e-03, -2.24967506e-02, -1.27022266e-02,
       -1.50592253e-03, -2.65255221e-03, 1.07131703e-02, 2.78365053e-02,
       1.38339214e-02, 1.47649809e-03, -8.69467761e-03, -1.29708396e-02,
       4.59334347e-03, -2.02564476e-03, 7.98904523e-03, 6.55393349e-03,
       3.56857548e-03, -5.14662126e-03, -9.83748585e-03, -2.11108499e-03,
       -1.35530718e-02, -1.14850432e-03, -4.54352878e-04, 4.25342657e-03,
       1.30360853e-03, 1.01060010e-02, -1.36999181e-02, -1.32826604e-02,
       -6.04065950e-04, -1.43315792e-02, 7.43394135e-04, -4.45491169e-03,
       7.27022241e-04, 2.02903757e-03, 1.97235532e-02, 1.25929490e-02,
       -2.01870920e-03, -1.68953289e-03, 9.96975461e-04, 1.14528248e-02,
       -1.76240492e-03, 6.58471463e-03, 1.63650922e-02, 2.63712034e-02,
       1.03778485e-02, -5.15626650e-03, 8.23643710e-03, 6.93792652e-04,
       5.56331221e-03, -4.53023426e-03, 7.96161406e-03, 1.58043336e-02,
       9.37280990e-03, -4.62946203e-03, -3.73731367e-03, -1.46157097e-03,
       -1.12387622e-02, -2.54426035e-03, -5.14571555e-03, 2.96648475e-03,
       1.97059661e-03, 3.58397141e-03, -7.18829688e-03, -1.14813792e-02,
       -1.53641040e-02, -1.85487140e-02, -8.69579054e-03,
       -6.08300464e-03, 6.18311437e-03, 5.62522002e-03, 2.96535026e-02,
       8.74645077e-03, -6.37843856e-04, 1.11958804e-02, -2.97502824e-03,
       5.84391924e-03, 3.91494250e-03, 2.25098021e-02, 2.58430410e-02,
       3.62537056e-02, -8.77711631e-04, -3.88501189e-03, 3.28580616e-03,
       -1.22083183e-02, 8.83596111e-03, 4.16876392e-05, 1.87321454e-02,
       3.71517837e-02, -6.75692176e-03, -1.31296134e-02, -1.63940489e-02,
       -9.52927861e-03, 3.24548944e-03, -2.93530920e-03, 7.01272208e-03,
       1.81341562e-02, 7.46936398e-03, -1.48618883e-02, -2.13804524e-02,
       -1.50202140e-02, -5.56584494e-03, 1.83117967e-02, -8.56351107e-03,
       -3.06646433e-03, 1.13484124e-02, 5.75500249e-04, 1.81438774e-02,
       -3.21639748e-03, -2.20866001e-04, 1.19608538e-02, 2.74979044e-03,
       1.17967222e-02, 1.23293709e-03, 2.13018935e-02, 3.32888812e-02,
       8.55495501e-03, 6.29126048e-03, 8.25529080e-03, 4.49108146e-03,
       3.44629446e-03, 1.62850332e-03, -3.33209056e-03, -7.69812090e-04,
       1.27905048e-02, -2.96602142e-03, -9.49616823e-03, -7.34512508e-03,
       -4.65370063e-03, 2.49942411e-02, -9.02628340e-03, -3.72223556e-03,
       1.08918892e-02, 1.14702368e-02, 3.41172121e-03, -1.52436120e-03,
       -1.00881476e-02, -1.26844998e-02, -4.28936153e-04,
       -1.14009641e-02, -4.39194497e-03, 9.91901569e-03, 1.81074310e-02,
       1.16280979e-02, 9.80420783e-03, 1.67585202e-02, 4.07830114e-03,
       1.16654104e-02, -1.21696177e-03, 8.22374038e-03, 3.42933880e-03,
       1.61098223e-02, 1.37870554e-02, -6.16700202e-03, 4.70615807e-04,
       -1.28109716e-02, -6.13111677e-03, -1.22093838e-02, 7.04497844e-03,
       1.82484873e-02, 1.79549884e-02, 1.07524814e-02, 2.18301569e-03,
       5.26072690e-04, -1.01171918e-02, 1.38037149e-02, 5.50964009e-03,
       3.32825328e-03, 1.96448471e-02, 2.61215847e-02, -6.84546400e-03,
       -4.58508451e-03, -2.19447701e-03, -1.27860922e-02, 8.85898713e-03,
       -6.94038579e-03, -1.90979824e-03, 6.48748782e-03, 5.36905881e-03,
       2.15966925e-02, 4.98564448e-03, 3.50270490e-03, -9.05426033e-03,
       9.78515018e-03, 4.67114529e-04, 1.99533869e-02, 2.50987001e-02,
       2.76961736e-02, -3.31182755e-03, -1.22190835e-02, -1.26813948e-02,
       -2.04783715e-02, 1.38859702e-02, -1.00007178e-02, 1.46678910e-02,
       7.48348329e-03, 7.50645390e-03, 7.46852858e-03, 2.95480294e-03,
       7.87928421e-03, -7.20802089e-03, 1.84611343e-02, -1.18259741e-02,
       6.13375101e-03, 1.47974966e-02, 1.28050940e-02, 1.34894205e-02,
       -1.07450457e-03, 7.28293695e-03, -1.70805827e-02, 1.41945826e-02,
       -1.37766497e-02, 1.19238151e-02, 2.11017262e-02, 1.83374006e-02,
       7.17044249e-03, 2.28382327e-04, 4.38208831e-03, -1.69034824e-02,
       2.19504200e-02, -9.59191099e-03, 1.70719624e-02, 1.63423717e-02,
       1.12845600e-02, 1.31321931e-02, -2.27298727e-03, 4.89406148e-03,
       -2.43011154e-02, 2.56335661e-02, -1.36314863e-02, 1.52768185e-02,
       1.86309200e-02, 1.63765829e-02, 7.81510305e-03, 5.99017739e-03,
       2.19729962e-03, -1.72327925e-02, 1.48462811e-02, -7.31303776e-03,
       5.50813368e-03, 1.48305874e-02, 9.33956821e-03, 5.45546366e-03,
       3.59332189e-03, -5.30781923e-03, -1.59052908e-02, 2.28085984e-02,
       -7.08985608e-03, 5.67434682e-03, 1.17458142e-02, 8.00532289e-03,
       1.23927454e-02, 1.78030273e-03, 2.79770256e-03, -1.33666247e-02,
       2.67328192e-02, -9.19897668e-03, 7.83323683e-03, 1.77251659e-02,
       1.29480436e-02, 1.28174415e-02, -4.65345220e-04, 2.12776405e-03,
       -7.80407107e-03, 2.33546458e-02, 4.56467969e-03, 1.32581675e-02,
       1.85009521e-02, 2.11370122e-02, -3.58449202e-03, 1.92065688e-03,
       -1.41464535e-03, -1.67194270e-02, 1.57377068e-02, -8.86262953e-03,
       5.38347289e-03, 6.94547407e-03, 1.40962808e-03, -4.52399161e-03,
       -2.36830136e-04, 2.70841969e-03, -1.64397284e-02, 3.15425880e-02,
       7.80745037e-03, 2.33364291e-02, 1.21579627e-02, -1.05052500e-03,
       6.44082529e-03, -1.37313304e-03, 1.56981347e-03, -1.41237509e-02,
       9.42210387e-03, -2.12227693e-03, 5.26774535e-03, 1.40427221e-02,
       1.51836118e-02, 5.00954036e-03, -6.60484703e-03, 1.48607302e-03,
       -1.85131542e-02, 2.33731046e-02, 6.96392218e-03, 3.13787125e-02,
       1.86664574e-02, 1.60815939e-02, 2.26703077e-03, 6.41155173e-04,
       2.08976702e-03, -1.14896186e-02, 2.62531154e-02, 4.19822289e-03,
       7.84027949e-03, -2.42396258e-03, -9.20717895e-04, 1.02099602e-03,
       1.13448396e-03, 3.33819096e-03, -5.71843702e-03, 3.15105058e-02,
       -1.66693062e-04, 1.79526815e-03, -9.64780804e-03, -3.94633435e-06,
       3.04247835e-03, -6.22407300e-03, 7.83973467e-03, -1.40164848e-02,
       1.93197690e-02, 7.04772212e-03, 1.52859362e-02, 3.33550316e-03,
       1.21029783e-02, -1.47802476e-03, -3.01811518e-03, 1.51982186e-02,
       -1.60688057e-03, 3.90343666e-02, 8.76204669e-03, 1.03964405e-02,
       7.33455585e-04, 2.90253269e-03, 2.76374491e-03, -4.78181290e-03,
       -5.14555350e-03, -1.06830690e-02, -5.20094158e-03,
       -2.02764850e-02, -3.30898874e-02, -1.12426998e-02, 2.06219107e-02,
       -8.23904760e-03, -1.49989137e-02, -4.51959344e-03,
       -1.30048236e-02, 1.57048106e-02, -2.55183899e-03, -2.76321452e-02,
       -1.02630071e-02, 1.89735107e-02, 2.54030842e-02, 2.67200544e-03,
       2.01535621e-03, -8.28210847e-04, -1.28020928e-03, -1.49576999e-02,
       -2.49789357e-02, -1.21378265e-02, 3.73006277e-02, 9.71569959e-03,
       -1.21805388e-02, -8.73614289e-03, -3.62514169e-03, 2.17641722e-02,
       9.71151225e-04, -1.55522553e-02, -2.89769308e-03, 4.15490903e-02,
       -1.49235800e-02, -1.81381684e-02, -8.61683860e-03,
       -2.03457419e-02, 3.60162347e-03, -3.69483634e-04, -2.82825995e-02,
       -5.93986223e-03, 1.56425219e-02, -1.23185916e-02, -8.02583992e-03,
       -1.19052585e-02, -1.88541580e-02, 3.65623389e-03, -1.42871663e-02,
       -2.94664074e-02, -2.20155586e-02, -4.38163802e-03, 5.91189880e-03,
       -4.90494072e-03, -2.86458572e-03, -3.94301303e-03, 1.58389807e-02,
       5.66160306e-03, -9.37663391e-03, -1.64542726e-04, 2.55617779e-02,
       1.03720101e-02, 9.82008502e-03, 1.06248157e-02, 2.81930296e-03,
       9.65381972e-03, -4.44996683e-03, -3.07150166e-02, -1.92477349e-02,
       1.54878180e-02, -1.20562268e-02, -1.07586840e-02, -2.23498084e-02,
       -1.01641510e-02, 7.98516441e-03, -4.31375159e-03, -1.13613717e-02,
       -1.38805201e-03, 8.28803517e-04, -1.76551472e-02, -1.65349301e-02,
       -1.96992215e-02, -6.73269713e-03, 1.24337394e-02, -3.11418599e-03,
       -2.09754631e-02, -9.16336011e-03, -1.38682360e-03, 8.59389175e-03,
       -4.24509402e-03, -7.97756761e-03, -3.74411792e-03, 1.13047687e-02,
       6.48584333e-04, -1.27515988e-02, 2.32495461e-03, 2.94275098e-02,
       -3.99238756e-03, -2.38880180e-02, -1.21700214e-02, 1.08286589e-02,
       8.20848905e-03, 2.84778397e-03, -1.76597219e-02, 3.98849882e-03,
       2.37937123e-02, -1.36883035e-02, -1.67594161e-02, -1.20386230e-02,
       -6.08421722e-03, 1.62483212e-02, 1.53559148e-02, -8.05534422e-03,
       -4.54817287e-04, 1.02436636e-03, -1.44577818e-02, -1.66510437e-02,
       -4.64750407e-03, 1.23114209e-04, -1.13324588e-03, -1.51301790e-02,
       -2.38005072e-02, 6.60470745e-04, -6.92566065e-03, -1.55416510e-05,
       -1.62377972e-02, -1.25875250e-02, 4.77113295e-03, 1.49301868e-02,
       1.24662379e-02, -5.96766500e-03, 1.02406079e-02, 2.38564443e-02,
       -7.58002716e-05, -1.40410587e-02, -1.18986040e-03, 1.71955284e-02,
       1.17459726e-02, -4.02234308e-03, -1.43109541e-02, 2.00518649e-02,
       1.93876904e-02, -1.95738692e-02, -1.10247396e-02, -8.41227081e-03,
       2.18723388e-03, -1.05941817e-02, -1.95022710e-02, -1.83722265e-02,
       1.34991566e-02, -8.83422699e-03, 2.55552004e-04, 1.96566526e-03,
       -5.47017111e-03, -1.30189420e-03, -2.48587560e-02,
       -1.18210455e-02, -6.90035382e-03, 1.10562081e-02, -4.90832981e-03,
       -3.72063997e-03, -2.24689078e-02, -6.18934352e-03, 1.26540214e-02,
       -1.66084291e-03, -4.36245371e-03, -5.62557066e-03, 2.26732083e-02,
       1.03495037e-02, 1.63165573e-02, -3.35663697e-03, 9.21626389e-03,
       1.82415955e-02, -1.83210559e-02, -6.13280945e-03, -7.01966812e-04,
       2.86539551e-02, 1.83334854e-02, 8.06095265e-03, -1.86318497e-03,
       -5.82168577e-03, -9.54716094e-03, -3.20656858e-02,
       -8.94574542e-03, -1.02354446e-02, 1.14411805e-02, 8.54565483e-03,
       5.40695572e-03, -3.79804755e-03, -1.18043637e-02, -1.91654302e-02,
       -3.18712071e-02, -4.53701150e-03, -1.31036108e-02, 9.88400728e-03,
       -9.76421870e-04, 1.22875730e-02, 4.88993421e-04, 2.63554859e-03,
       -2.06021083e-04, -2.90843472e-02, -6.60718698e-03,
       -5.05737681e-03, 2.36043911e-02, 1.32930009e-02, 2.35758554e-02,
       6.69935439e-03, -1.07238051e-02, -8.90988018e-03, -1.88286602e-02,
       -5.44735754e-04, -1.57263745e-02, 1.40215307e-02, 1.37305297e-02,
       -6.06116420e-03, -1.09689021e-02, -2.17154138e-02,
       -1.21604772e-02, -2.12954078e-02, 6.63910387e-03, -8.80465936e-03,
       5.97073138e-03, -1.12213837e-02, 1.30778470e-03, -9.57578234e-03,
       -2.28944682e-02, -1.13579328e-03, -2.74799578e-02,
       -4.49835695e-03, -1.98337026e-02, -1.23070432e-02,
       -9.68676433e-03, 5.21800807e-03, -1.58038631e-03, -1.58254039e-02,
       6.13436289e-03, -9.11469385e-03, 9.55003966e-03, -4.50070063e-03,
       1.09720342e-02, -3.84829077e-03, 1.92485638e-02, -1.00449310e-03,
       -4.64586308e-03, 2.12824047e-02, -1.27769662e-02, 1.26672052e-02,
       -9.69276670e-03, 4.64654528e-03, 5.84261667e-04, 9.64022521e-03,
       -1.12574091e-02, -2.17269100e-02, 2.65442487e-03, -2.46451348e-02,
       5.62831713e-03, -1.56249674e-02, 8.03891220e-04, 7.84550328e-03,
       1.66844428e-02, -2.34392565e-02, -2.74900571e-02, -2.03986656e-05,
       -2.92851217e-02, 5.75308129e-03, -1.86729357e-02, -4.53871908e-03,
       2.28293743e-02, 2.84927711e-02, -2.89067137e-03, -1.67328920e-02,
       5.65103255e-03, -1.44828381e-02, 2.32357252e-02, -9.15407389e-03,
       1.05431117e-02, 2.51863953e-02, 3.02867312e-02, -1.28412154e-02,
       -3.08329146e-02, 4.07828833e-04, -2.84436699e-02, 1.85328424e-02,
       -9.23036505e-03, 1.28958859e-02, 4.24535498e-02, 8.31567124e-03,
       -1.18379667e-02, -1.05040884e-02, 7.24050356e-03, -1.40877618e-02,
       9.25718434e-03, -1.69087481e-02, -1.80590223e-03, 1.65054742e-02,
       -4.37067915e-03, -1.41689079e-02, -1.77963097e-02,
       -2.43602390e-03, -2.01872308e-02, -2.04672199e-03,
       -2.04414912e-02, -1.85848027e-02, 1.86587870e-03, 2.99916752e-02,
       -5.33333002e-03, -1.77697744e-02, 9.22850706e-03, -2.27529909e-02,
       2.34184545e-02, 9.53679159e-03, 2.24014372e-02, 3.07788234e-02,
       1.41014466e-02, -1.15746111e-02, -2.20811442e-02, -2.76534050e-03,
       -3.04758605e-02, 1.46160014e-02, -1.14866095e-02, 1.10643934e-02,
       2.03092750e-02, 4.96469531e-03, 5.88492956e-04, 2.46190699e-03,
       1.32864725e-03, -3.66503606e-03, 2.39275023e-03, 2.16445210e-03,
       -4.75527981e-04, 9.45441518e-03, 1.44836085e-04, -7.49404635e-03,
       -2.18372676e-03, -1.30342720e-02, -1.46335280e-02,
       -1.28539279e-02, -2.69243098e-03, 1.63470817e-04, -4.57310863e-03,
       2.20794436e-02, 3.30386683e-03, 5.39909443e-03, -3.95953236e-03,
       -5.24444692e-03, 1.32773183e-02, 5.93092851e-03, 1.09708458e-02,
       2.15495415e-02, 1.22788250e-02, 5.07568056e-03, 4.82670078e-03,
       -1.23104872e-02, -8.43271241e-03, 9.55108088e-04, 2.51201889e-03,
       -1.17275594e-02, -1.25080813e-03, 1.34695033e-02, 3.09223589e-03,
       4.78198100e-03, -5.65675925e-03, 5.35412505e-03, 6.12452917e-04,
       1.41164344e-02, 1.01575339e-02, 1.20588997e-02, -5.60873747e-03,
       -1.33344512e-02, -1.42665226e-02, -1.67413857e-02, 2.63823825e-03,
       -1.53290364e-03, 6.49735704e-03, 1.83220452e-03, 1.27144810e-03,
       1.39686204e-02, 1.29503924e-02, 1.05928620e-02, 6.24771509e-03,
       1.89614762e-02, 1.40532739e-02, 1.64575707e-02, 1.10298097e-02,
       1.62971113e-02, 2.00891960e-03, -7.08472263e-03, -1.62706655e-02,
       -5.42930933e-03, 6.04394032e-03, 1.11112185e-02, 1.73750930e-02,
       1.92734890e-03, 4.37673647e-03, -1.15789310e-03, -1.54000684e-03,
       -1.31191581e-03, -8.41914397e-03, 7.07136607e-03, 3.57553083e-03,
       1.34063195e-02, 1.10688694e-02, 4.53681638e-03, 6.29609078e-03,
       -3.31897056e-04, -5.14872558e-03, -1.87083855e-02, 6.74326904e-04,
       -1.00557413e-02, 1.01125715e-02, 5.87593997e-03, 4.54151258e-03,
       1.10106943e-02, 5.74306818e-03, 2.86978111e-03, 8.59174319e-03,
       1.08084083e-02, 1.83558781e-02, 2.49145627e-02, 9.17261466e-03,
       8.73734802e-03, 2.06258222e-02, 1.08419079e-02, 3.04280175e-03,
       -5.55301644e-03, -1.07666906e-02, 2.04014801e-03, 2.09980924e-02,
       1.29663246e-02, 1.32164061e-02, 8.80661979e-03, 3.43623012e-03,
       3.30844335e-03, -8.69935285e-03, 1.20663708e-02, -1.72570255e-03,
       1.12634851e-02, 1.22526251e-02, 8.46709032e-03, -2.10816483e-03,
       -1.00991537e-03, 3.66329588e-03, -9.28160502e-04, 1.85852833e-02,
       3.83912330e-03, 1.25402799e-02, 2.13932153e-02, 8.04453157e-03,
       1.61036644e-02, 1.68153420e-02, 8.75303894e-03, -6.25477592e-03,
       -1.52607798e-03, 8.25978722e-03, 2.23656129e-02, 1.74653698e-02,
       1.36484085e-02, 1.84089222e-04, 3.20801325e-03, 9.10588540e-03,
       -6.66590815e-04, 9.67404339e-03, 1.42302308e-02, 2.43115164e-02,
       2.37644110e-02, 9.17404238e-03, -1.99101004e-03, 7.69633974e-04,
       -4.52480715e-04, -1.28763067e-02, 1.28704039e-02, 3.97110358e-03,
       1.77180115e-02, 1.84011422e-02, 5.92549471e-03, -3.65024013e-03,
       -8.66435934e-03, -1.53111783e-03, -1.62858497e-02, 2.34325044e-02,
       9.43617336e-03, 4.25945558e-02, 1.70469079e-02, 5.66415722e-03,
       -6.54052710e-04, 8.25138856e-03, 5.48278727e-03, -2.10898882e-03,
       1.51493419e-02, 4.69439197e-03, 1.90981906e-02, 1.90470126e-02,
       5.26705757e-03, 4.98248171e-03, -3.03773093e-03, -1.95616134e-03,
       -1.84856877e-02, 2.48251464e-02, 6.74540875e-03, 3.54576483e-02,
       1.60399638e-02, 7.13159936e-03, -6.15914958e-03, -9.89238918e-03,
       1.26655435e-03, -1.68156028e-02, 1.50992181e-02, 9.09332652e-03,
       2.48809159e-02, 1.10202692e-02, 4.53979243e-03, -3.81302857e-03,
       -1.50763243e-03, 1.72707196e-02, -7.19780289e-03, 2.45883148e-02,
       9.97101888e-03, 1.08397175e-02, 8.00898205e-03, 4.92019346e-03,
       7.63496477e-03, -3.29289469e-03, -4.16584639e-03, -1.60856787e-02,
       1.62594952e-02, 7.70955521e-04, 2.00543590e-02, 1.61178503e-02,
       6.81823306e-03, 7.56809441e-03, 6.32564398e-03, 1.42186722e-02,
       -6.98349206e-04, 2.56829429e-02, 1.06495284e-02, 1.14804627e-02,
       8.77008587e-03, 7.49043329e-03, 1.31490314e-02, -4.71092528e-03,
       -2.12498498e-03, -1.79519679e-03, -6.42822543e-03,
       -1.34912403e-02, -2.73358412e-02, -2.22147722e-02, 2.27040872e-02,
       5.57409716e-04, -1.70344450e-02, -5.77120529e-03, -1.73760671e-02,
       -5.92727400e-03, -2.12363503e-03, -1.01808775e-02,
       -1.15042608e-02, 1.59780793e-02, 2.62572393e-02, 9.48715897e-04,
       -2.41067959e-04, -1.84058640e-02, -4.85222833e-03,
       -1.54917203e-02, -4.19991985e-02, -8.17806739e-03, 4.48891744e-02,
       1.87924504e-02, 8.80104210e-03, 2.66229846e-02, 5.07229287e-03,
       -1.03055779e-02, -8.96059908e-03, -2.26403419e-02,
       -1.08525855e-02, 3.18098292e-02, -4.66626650e-03, -1.02517959e-02,
       -8.81559215e-03, -1.16413524e-02, -2.88544619e-03,
       -2.13745353e-03, -1.39669562e-02, -1.81595813e-02, 2.64165131e-03,
       1.78142855e-05, -3.02596553e-03, -2.13312311e-03, -6.39348524e-03,
       -1.04550673e-02, -1.03471270e-02, -3.33944485e-02,
       -3.55684683e-02, -2.79802619e-03, 1.40579678e-02, 9.24074370e-03,
       2.00199205e-02, 8.00397899e-03, -1.91118140e-02, -1.50412908e-02,
       -2.34610867e-02, -1.31907407e-02, 1.43203093e-02, 2.65918244e-02,
       5.54527808e-03, 1.18208984e-02, 6.46194769e-03, -1.49370814e-02,
       -8.71019531e-03, -2.37254500e-02, -1.50554106e-02, 2.54990067e-02,
       1.85022934e-03, -1.00768171e-02, -1.56804640e-02, -1.30771275e-03,
       -7.46753300e-03, 1.86496216e-03, -2.60012783e-02, -1.50362384e-02,
       1.55185610e-02, -1.02918772e-02, -3.80141735e-02, -2.16133054e-02,
       1.04592461e-02, -8.98255967e-03, -3.46554816e-03, -3.55528630e-02,
       -2.27170810e-02, 1.06283734e-02, 1.68889426e-02, -9.27393034e-04,
       1.78376737e-03, 1.64770968e-02, 2.76505970e-03, 7.00440537e-03,
       -2.48688441e-02, -1.53875295e-02, 3.34229507e-02, 3.45262728e-04,
       -2.84670833e-02, -1.10644447e-02, 2.08703857e-02, 2.15247758e-02,
       1.39925620e-02, -2.87232995e-02, -2.25821640e-02, 2.26501375e-02,
       -7.00458745e-03, -2.55345907e-02, -1.55604975e-02, 5.85537776e-03,
       -8.06807820e-03, 5.87917771e-03, -1.94734298e-02, -4.57343459e-03,
       2.16411743e-02, -6.34809909e-03, -2.55614780e-02, -1.98774915e-02,
       -3.29117430e-03, -7.21790735e-03, -1.08364811e-02,
       -2.50194743e-02, 3.32753581e-04, 1.06146056e-02, 1.12542463e-02,
       -1.47529524e-02, -1.52174029e-02, 1.54130040e-02, 7.63490470e-03,
       8.41533765e-03, -1.33308806e-02, 8.01424554e-04, 3.65999788e-02,
       1.32882167e-02, -1.07258512e-02, -8.67524743e-03, 2.44096271e-03,
       -1.05198156e-02, -2.58510094e-03, -2.69669406e-02, 1.61870811e-02,
       2.22991072e-02, -7.73767615e-03, -3.81618030e-02, -2.61400100e-02,
       -4.05970821e-03, -9.19547211e-03, -3.58759752e-03,
       -1.39846811e-02, 8.06123391e-03, 9.15420707e-03, -3.49246361e-03,
       -3.04710586e-02, -1.34370876e-02, 3.26255290e-03, -2.50953473e-02,
       -6.84794132e-03, -1.42197898e-02, 8.24218336e-03, 7.35016773e-03,
       -7.20808399e-04, -2.39657070e-02, -1.86893903e-02,
       -4.12233220e-03, -1.28586339e-02, -4.84876102e-03,
       -1.07568083e-02, 1.64686218e-02, 1.30586354e-02, -2.28834595e-03,
       -1.24104070e-02, 2.54089991e-03, 1.02122147e-02, -1.74459685e-02,
       1.19765997e-02, -7.97864515e-03, 1.58824343e-02, 1.38589004e-02,
       -4.62479051e-03, -2.10905503e-02, -1.64689925e-02,
       -9.63824615e-03, -3.53014655e-02, 3.68924026e-04, -5.46862464e-03,
       1.45950494e-02, 9.01713385e-04, -4.54240973e-04, -1.29456930e-02,
       -2.59546731e-02, -7.70767359e-03, -2.99662724e-02,
       -6.76589832e-03, -1.94718819e-02, 1.07580796e-02, -2.06996803e-03,
       -1.16846024e-03, -1.62140336e-02, -6.27470016e-03,
       -8.94429814e-03, -3.06828301e-02, 1.80861503e-02, -1.13460212e-03,
       1.42568080e-02, 1.02296220e-02, 2.00364497e-02, 1.73600810e-03,
       1.19477615e-03, 1.33961514e-02, -1.97700541e-02, 1.64100491e-02,
       -1.82810239e-02, 6.30428921e-03, 1.31914411e-02, -8.36508162e-03,
       -1.73243620e-02, -2.69643776e-02, 6.65364647e-03, -1.15505159e-02,
       2.35155877e-03, -1.69130079e-02, 1.06348365e-03, -1.27449920e-02,
       -1.08050127e-02, -2.69076377e-02, -3.00428458e-02, 1.35809844e-02,
       -1.02020483e-02, 1.26698874e-02, -1.67193003e-02, -4.06678580e-03,
       -1.21427737e-02, 9.02780332e-03, -2.40399409e-03, -1.63278822e-02,
       1.58161242e-02, -1.10517526e-02, 2.25279555e-02, -1.77167896e-02,
       1.85539236e-03, -8.38096719e-04, 1.58755425e-02, -1.44856423e-02,
       -4.26623560e-02, 2.08809972e-02, -1.26747405e-02, 3.36635225e-02,
       -1.05216401e-02, -1.32049536e-02, -2.58159009e-03, 9.31424438e-04,
       -2.27336455e-02, -2.67196000e-02, 7.19641335e-04, -1.75803024e-02,
       1.99699365e-02, -1.69795174e-02, -1.42063305e-03, -1.23064127e-03,
       1.93075358e-03, -3.02658770e-02, -3.89030576e-02, -8.29835481e-05,
       -2.15131622e-02, 1.85819231e-02, -1.82852093e-02, 3.20893992e-03,
       -1.95867452e-03, 2.16601510e-02, -1.49765899e-02, -3.74128260e-02,
       8.99865665e-03, -8.56811274e-03, 3.64061445e-02, -4.01035836e-03,
       -2.00138497e-03, 1.21656843e-02, 1.90821812e-02, -1.49422381e-02,
       -4.58853170e-02, 9.03727300e-03, -1.57487448e-02, 3.25048603e-02,
       -1.04380837e-02, 4.62545548e-03, 6.16367254e-03, 1.52585888e-02,
       -1.40679842e-02, -2.25262847e-02, 1.19951637e-02, -1.28400018e-02,
       2.77761854e-02, 4.42657340e-03, 1.01980539e-02, 3.99608305e-03,
       -1.02573005e-03, -2.56255455e-02, -2.97651459e-02,
       -1.35571731e-03, -3.04447450e-02, 1.32044731e-02, -2.14381497e-02,
       -1.25992680e-02, -9.37740691e-03, 2.33197603e-02, 1.23615202e-03,
       -1.37579590e-02, 2.74689049e-02, -9.48390734e-05, 4.26475443e-02,
       2.79644719e-05, 1.17881000e-02, -1.03961572e-03, -1.21777458e-02,
       -1.43259363e-02, -2.50719190e-02, 3.95278726e-03, -8.96275975e-03,
       2.51638554e-02, -2.47743130e-02, -1.56631730e-02, -2.71429047e-02,
       4.69361618e-03, -1.17862578e-02, -9.99264885e-03, 5.78414416e-03,
       -5.95392007e-03, 1.98756419e-02, 7.62298238e-03, 1.20600150e-03,
       3.63530288e-03, -1.22026040e-03, -1.28127355e-02, -1.98306423e-02,
       -2.41575227e-03, -1.84148606e-02, 7.07379961e-03, -7.32633343e-04,
       -1.64163578e-02, -1.46497004e-02, 1.97088695e-03, -4.48615616e-03,
       -6.98982878e-03, 1.38686448e-02, 1.56732965e-02, 5.50061390e-02,
       2.03666016e-02, 2.73978082e-03, -8.59959982e-03, -1.95417833e-03,
       -1.39098242e-02, -2.41603348e-02, 7.33856577e-03, -1.51683288e-02,
       3.53968590e-02, 7.66747631e-03, -1.78210959e-02, -2.30213795e-02,
       8.56045820e-03, 3.22328159e-03, -3.58985295e-03, 1.20766833e-02,
       1.17814653e-02, 1.76030993e-02, 1.09929880e-02, 2.35602260e-03,
       -2.98005925e-03, -7.24913459e-03, -1.04404725e-02,
       -2.67436765e-02, -2.58517731e-03, 2.47551478e-04, 1.03860823e-02,
       1.22632449e-02, -5.14793256e-03, -1.41825918e-02, -4.41636097e-08,
       -3.72407562e-03, -9.02971346e-03, 1.14357239e-02, 9.10516083e-03,
       3.80615331e-02, 2.39108149e-02, 1.35935359e-02, 6.08941307e-04,
       -2.13827100e-02, -2.65546292e-02, -2.47420296e-02,
       -4.05524159e-03, -7.90768862e-03, 1.98985655e-02, 2.22759191e-02,
       1.14222663e-02, -7.03480514e-03, 3.87270772e-03, -3.45996511e-03,
       -1.13462470e-02, 1.62624416e-03, 9.35923215e-03, 1.28443185e-02,
       1.74026657e-02, 8.55359714e-03, 4.46975045e-03, -1.54935475e-03,
       -1.23380944e-02, -9.91232321e-03, -2.60639470e-03,
       -9.93149448e-03, 3.20850452e-03, 6.47217548e-03, 6.29482558e-03,
       2.60617887e-03, -6.80584041e-03, -7.68171623e-03, -2.34948890e-03,
       1.15144020e-02, 1.45393526e-02, 2.37725731e-02, 2.89439186e-02,
       2.45019235e-02, 4.22155857e-03, -8.61093309e-03, -1.82617996e-02,
       -9.38511547e-03, 2.24475539e-03, 1.12021724e-02, 3.66219645e-03,
       1.07700061e-02, 8.30557011e-03, -1.53514638e-03, 7.43575511e-04,
       -6.00711675e-03, 1.05641154e-03, -1.48476858e-03, -2.52729980e-04,
       9.62478947e-03, 1.45612843e-02, 1.01007754e-02, 2.35175923e-03,
       9.97007941e-04, -3.18852044e-03, 4.13599861e-04, -5.56110637e-04,
       7.51031097e-03, 1.30680492e-02, 2.37471815e-02, 2.45093517e-02,
       9.21042264e-03, 2.96720327e-03, -7.33254757e-03, 3.82430712e-03,
       2.09545856e-03, 1.69426724e-02, 9.18290298e-03, 1.00399209e-02,
       7.57523393e-03, 7.97813106e-03, 7.24997977e-03, -5.63264871e-03,
       5.61123714e-04, 3.35636362e-03, 2.44331304e-02, 1.97704323e-02,
       2.13106200e-02, 1.33648608e-02, 1.02957785e-02, -1.94719096e-03,
       7.51729263e-03, -3.01041221e-03, -4.37498857e-05, 1.22505501e-02,
       4.54833265e-03, 2.01203283e-02, 2.00563706e-02, 3.75166396e-03,
       -2.94992910e-03, -1.77751435e-03, 3.29898554e-04, -8.04325845e-03,
       2.00303365e-02, 3.91761074e-03, 1.84143111e-02, 1.24807106e-02,
       4.38857498e-03, 9.53592593e-04, -4.05933568e-03, -6.71931310e-03,
       3.32936388e-03, 3.06152292e-02, 7.31886504e-03, 2.81324126e-02,
       1.60721596e-02, 3.30574089e-03, 1.39986537e-03, 8.90702941e-05,
       3.14159039e-03, 2.02693301e-03, 3.46324146e-02, 1.56719610e-03,
       1.57852452e-02, 7.90771656e-03, -1.39245857e-03, 1.76841661e-03,
       -5.71995741e-03, -1.16458966e-03, -9.73210391e-03, 1.62968971e-02,
       -4.23844066e-03, 1.26398923e-02, 9.82312206e-03, 6.91762427e-03,
       5.88414865e-03, 2.86316965e-03, 2.75572389e-03, -3.81981884e-03,
       2.03118902e-02, 1.58319634e-03, 5.71742468e-03, 4.25623357e-03,
       9.95179731e-03, 5.01315400e-04, 7.71179097e-04, 6.65378524e-03,
       5.48854796e-03, 2.60613225e-02, -4.44762729e-04, 5.91318356e-03,
       9.89054330e-04, -6.75553316e-03, 7.91840628e-03, -2.04242417e-03,
       2.45426665e-03, -2.57544380e-05, 3.80428098e-02, 1.51178828e-02,
       3.08794603e-02, 7.64403306e-03, -1.19620317e-03, 4.87965206e-03,
       -1.89412665e-02, -3.04836258e-02, -2.75497623e-02,
       -2.42916122e-02, -1.75797939e-02, -3.64923701e-02,
       -1.09109422e-02, 3.56657356e-02, 9.05149244e-03, -9.10715852e-03,
       -1.25152888e-02, -2.47255201e-03, -2.88294312e-02,
       -1.23024639e-02, -3.40491496e-02, -2.01218650e-02, 2.13895943e-02,
       7.18365423e-03, -4.32658708e-03, -8.06433335e-03, -1.12481099e-02,
       -3.02165039e-02, -1.76198408e-02, -3.72970663e-02,
       -1.90940704e-02, 2.32346151e-02, 2.51357276e-02, 1.53442267e-02,
       -1.06078442e-02, -1.07776485e-02, -3.37651335e-02,
       -1.28110929e-03, -3.38105187e-02, -2.52519250e-02, 2.64131259e-02,
       -1.14280765e-03, -5.77730965e-03, -5.15721506e-03, 5.00521809e-03,
       -3.36557925e-02, -1.77176320e-04, -1.83690954e-02,
       -1.14946067e-02, 7.71393673e-03, -1.02322269e-03, -8.63634702e-03,
       -1.86689105e-02, -5.02946088e-04, -2.73685344e-02, 1.33823464e-03,
       -3.04043591e-02, -1.54837016e-02, 7.01320637e-03, 2.21488904e-02,
       1.55959055e-02, -1.46779492e-02, -4.12216084e-03, -3.46608609e-02,
       6.99943770e-03, -2.82037202e-02, -1.20458985e-02, 2.75053363e-02,
       1.84802953e-02, -6.30160468e-03, -2.66819596e-02, 3.38202599e-03,
       -2.52188742e-02, 1.25235273e-02, -2.76132412e-02, -6.55305292e-03,
       3.65343541e-02, -3.49376537e-03, -1.05840955e-02, -7.87073467e-03,
       1.29684918e-02, -6.69472432e-03, 1.43503826e-02, -2.92402133e-02,
       -2.67385058e-02, 6.52412465e-03, -1.11430520e-02, -2.48036925e-02,
       -3.10819317e-02, 1.37101831e-02, 9.24323872e-03, 1.71835590e-02,
       -3.00612301e-02, -3.05323843e-02, -8.19522189e-04, 1.09893745e-02,
       -4.99174185e-03, -7.78263761e-03, 1.93852689e-02, -1.55701926e-02,
       1.46978442e-02, -2.76462063e-02, -3.65742040e-03, 3.29673588e-02,
       -1.12478547e-02, -2.26008836e-02, -2.14173980e-02, 2.24840753e-02,
       -1.28462333e-02, 2.19270252e-02, -2.46206541e-02, 2.37578410e-03,
       3.01879216e-02, 4.52714274e-03, -1.90671626e-02, -3.22668701e-02,
       5.40905818e-03, 4.06560255e-03, 1.16731226e-02, -2.10981015e-02,
       -1.89097598e-02, 1.83365121e-02, -6.08171278e-04, -2.66452301e-02,
       -3.09243593e-02, -5.77185862e-03, -2.04940215e-02, 1.17726147e-03,
       -3.25073935e-02, -1.03946151e-02, -1.65346707e-03, 5.53835463e-03,
       -1.33385118e-02, -2.13592499e-02, 2.12633386e-02, -1.10272616e-02,
       1.63137056e-02, -2.54137330e-02, 9.21752676e-03, 3.74238901e-02,
       -2.60521192e-03, -9.15995706e-03, -1.37305958e-02, 2.06797477e-02,
       -1.36633944e-02, 3.44263343e-03, -4.30743173e-02, -1.08375167e-02,
       1.91278178e-02, -1.16551667e-02, -2.68346146e-02, -2.45709214e-02,
       -3.08638974e-03, -1.22659924e-02, 1.41918538e-02, -1.06135029e-02,
       -5.95528458e-04, -2.85895308e-03, -1.22232018e-02,
       -2.86081191e-02, -2.67196409e-02, -4.64281114e-03,
       -1.39001254e-02, 1.42463297e-02, -8.14589858e-03, -3.85194737e-03,
       -5.49185975e-03, -1.51207615e-02, -1.33889560e-02,
       -1.34185748e-02, 1.50287682e-02, -1.69655588e-02, 1.45385321e-02,
       -2.29592863e-02, -1.59324962e-03, 2.81009753e-03, -1.76371709e-02,
       -2.26770174e-02, -1.90875698e-02, 1.71024222e-02, -7.35385669e-03,
       2.10426264e-02, -1.02031678e-02, -5.83737949e-03, -6.67994516e-03,
       -5.52820135e-03, -2.73882672e-02, -1.57304872e-02,
       -4.36855946e-03, -1.77890752e-02, 2.42487788e-02, 3.16173187e-03,
       8.07019044e-03, 6.79322938e-03, 1.05990060e-02, -1.43669909e-02,
       -1.77065786e-02, 1.03555135e-02, -1.91460997e-02, 1.55581655e-02,
       -1.12042557e-02, 2.29512341e-03, 1.20723816e-02, -1.39707513e-02,
       -2.26081125e-02, -2.56323386e-02, 1.05821704e-02, -8.85074027e-03,
       2.73374002e-02, -1.34565886e-02, -1.86859220e-02, -1.04099065e-02,
       -4.04795492e-03, -2.16750335e-02, -3.07303984e-02, 1.52861932e-02,
       -1.41402762e-02, 2.40483936e-02, -1.45002017e-02, -1.98039338e-02,
       -8.71684775e-03, 1.27413506e-02, -4.06022416e-03, -1.55293234e-02,
       1.16643012e-02, -1.43698547e-02, 2.16760207e-02, -1.63208004e-02,
       -3.38443974e-03, 8.59329849e-03, 1.64640341e-02, -1.66244693e-02,
       -4.13978025e-02, 7.91539624e-03, -1.27341086e-02, 2.67144535e-02,
       -3.99573706e-03, 4.06066282e-03, 1.25711141e-02, 6.28907094e-03,
       -1.50464596e-02, -2.90119480e-02, 1.49475494e-02, -1.19506503e-02,
       2.12246943e-02, -1.87800340e-02, -2.29615048e-02, -1.02427164e-02,
       1.72684323e-02, -1.19995112e-02, -3.46497670e-02, 3.15703172e-03,
       -2.45023016e-02, 1.69306379e-02, -2.47175638e-02, -1.08321141e-02,
       2.81298044e-03, 2.24069729e-02, -1.28415702e-02, -3.54905650e-02,
       8.18296615e-03, -7.10997963e-03, 3.21520567e-02, -3.33826779e-03,
       5.18154120e-03, 1.50861638e-02, 1.94216296e-02, -1.44123454e-02,
       -4.22452837e-02, 7.49211526e-03, -2.14035511e-02, 2.16469653e-02,
       -1.13121979e-02, -1.76702801e-03, 8.66108295e-03, 2.14544870e-02,
       -9.87903774e-03, -3.13151479e-02, 4.06955741e-03, -1.40323322e-02,
       2.60121562e-02, -1.24115543e-02, -7.33335875e-03, 8.52037128e-03,
       5.86500205e-03, -1.18820872e-02, -4.39461060e-02, 6.71908958e-03,
       -2.42328905e-02, 2.82036159e-02, -2.45929379e-02, -1.13129336e-02,
       -4.98863729e-03, 1.08993938e-02, -9.51416697e-03, -2.60693673e-02,
       2.20611971e-02, 1.81419123e-03, 3.99708599e-02, 5.27513353e-03,
       1.70892850e-02, 1.06113367e-02, -1.99107230e-02, -2.07206327e-02,
       -3.05093583e-02, 8.20441358e-03, -2.64807255e-03, 2.87519526e-02,
       -1.37236584e-02, -5.93997119e-03, -2.45523248e-02, 4.30767843e-03,
       1.63403072e-03, -1.49397291e-02, 3.35486233e-02, 5.96780749e-03,
       4.99144495e-02, -1.57145001e-02, 2.14675977e-03, 9.99629730e-04,
       -2.85774339e-02, -1.52380317e-02, -2.86824629e-02, 1.22012440e-02,
       -2.19494682e-02, 2.84257028e-02, -3.39418538e-02, -1.72807481e-02,
       -2.40085833e-02, 8.32535326e-03, 2.25753104e-03, -6.42653042e-03,
       1.44269811e-02, 1.82803851e-02, 5.41208014e-02, 7.88589474e-03,
       2.73361290e-03, -2.32876907e-03, -5.25620952e-03, -1.02960709e-02,
       -1.89547241e-02, 2.39304081e-03, -2.72925962e-02, 2.87360735e-02,
       -3.63026420e-03, -1.94420684e-02, -1.49607100e-02, 2.08776700e-03,
       1.52054708e-03, -7.06500001e-03, 2.39983965e-02, 7.60529563e-03,
       4.08014692e-02, -5.78346197e-03, -3.66459414e-03, 7.28627481e-03,
       -7.60056870e-03, -1.56059712e-02, -2.61433739e-02,
       -1.11691930e-04, -1.60134807e-02, 2.89980434e-02, -1.02938330e-02,
       -1.35682020e-02, -5.81879355e-03, -6.42291922e-03,
       -1.03029814e-02, -1.15953572e-02, 5.16864425e-03, 4.88693593e-04,
       3.38482037e-02, 2.25635376e-02, 1.01079913e-02, 2.32039625e-03,
       -2.41628326e-02, -2.59378105e-02, -1.66003294e-02,
       -2.67954729e-03, -1.44582111e-02, 1.21008791e-02, 1.08399792e-02,
       7.41346786e-03, -8.40536784e-03, -4.37762029e-03, -7.04408064e-03,
       -7.68379262e-03, 1.71452612e-02, 1.28523391e-02, 3.43456604e-02,
       1.19750202e-02, 5.02035429e-04, 7.21626775e-03, -1.67783815e-02,
       -1.23332236e-02, -8.18511099e-03, 1.19602857e-02, -7.39733130e-03,
       2.85734460e-02, 1.73010351e-03, -5.64834755e-03, -1.32276230e-02,
       -1.35915577e-02, -6.48052292e-03, -1.01446384e-03, 9.17782262e-03,
       -1.43459649e-03, 1.31679513e-02, 6.01426326e-03, 8.98408983e-03,
       -2.71915365e-03, -1.48011036e-02, -2.15586480e-02,
       -2.07982343e-02, -2.88676610e-03, 1.51031818e-02, 5.51631069e-03,
       -1.38942734e-04, 4.84919612e-04, -4.85979812e-03, -9.29831062e-03,
       3.02442955e-03, 6.57449663e-03, 1.63708720e-02, 8.52436200e-03,
       2.13072598e-02, 2.49192910e-03, 6.85456162e-03, 5.28509589e-03,
       -9.60041676e-03, -1.32002197e-02, -1.51704047e-02,
       -2.01955228e-03, 2.59608626e-02, 2.06086207e-02, 4.23159171e-03,
       1.71700970e-03, 1.99744455e-03, -4.57223831e-03, -1.97968110e-02,
       -1.96882673e-02, -1.07174329e-02, 2.53520124e-02, 1.32548390e-02,
       5.96201140e-03, 8.37456144e-04, 1.75461464e-03, -2.65835202e-03,
       -1.87687185e-02, -1.69272795e-02, -6.36757864e-03, 1.71999782e-02,
       1.53028276e-02, 7.73932785e-03, -3.86646343e-03, -1.71879434e-03,
       -1.26948173e-03, -1.17259743e-02, -1.56598091e-02,
       -3.02249426e-03, 3.76021415e-02, 2.75875144e-02, 9.45876259e-03,
       7.42878905e-03, 7.72442482e-03, -2.36342242e-03, -1.17370505e-02,
       -1.81414541e-02, -1.79599377e-03, 2.66013127e-02, 1.93018727e-02,
       4.83358419e-03, 5.41161746e-03, -5.07245830e-04, 3.00985528e-03,
       -1.18516097e-02, -8.80342163e-03, 2.49836303e-04, 2.16975156e-02,
       1.40954051e-02, 1.88131258e-02, 4.80499305e-03, -1.64128433e-03,
       4.68595978e-03, -6.24391576e-03, 6.84972474e-05, 1.05882809e-03,
       2.38689370e-02, 7.10013031e-04, 9.31788515e-03, -2.36782013e-03,
       -6.91767363e-03, 7.42765237e-03, -4.79843328e-03, -9.64530464e-03,
       2.65626516e-03, 2.49479860e-02, 1.84729416e-02, 1.05973454e-02,
       8.27896316e-03, 2.80752871e-03, 1.29154408e-02, -3.24737187e-03,
       -5.30879293e-03, 3.08896787e-03, 1.45869739e-02, 6.04868494e-03,
       3.44116101e-03, 5.87141933e-03, 8.03890917e-03, -2.64506973e-03,
       1.89873914e-03, 1.05030220e-02, 5.66250877e-03, 1.56370029e-02,
       2.45509995e-03, 2.55929120e-03, -5.40875737e-03, -1.48111423e-02,
       -6.57898746e-03, -3.76806501e-03, 6.62391679e-03, -1.01891428e-03,
       1.56149222e-02, 2.16206741e-02, 3.37761156e-02, 5.39362477e-03,
       -1.43205877e-02, 1.52561895e-03, 4.43868665e-03, 7.71939056e-03,
       9.82408226e-03, 1.69016253e-02, -5.26762661e-03, -8.93939286e-03,
       6.18188735e-03, 1.91892625e-03, -1.02464771e-02, 1.20252091e-03,
       1.53013580e-02, 9.61763039e-03, 2.32786965e-02, 2.07768660e-02,
       3.16615552e-02, 9.32489522e-03, -1.05363587e-02, 7.55555404e-04,
       -9.84455086e-03, -1.39720459e-02, -5.47593227e-03,
       -1.77769754e-02, 1.42747327e-03, -2.04615053e-02, -1.48760313e-02,
       1.71683785e-02, 3.34670278e-03, 8.92934448e-04, -1.53761301e-02,
       -1.30064469e-02, -3.14483829e-02, 1.42040513e-02, -2.09988672e-02,
       -7.93686975e-03, 9.35058296e-03, -4.68463451e-03, 7.91706331e-03,
       5.79237100e-03, 5.11768879e-03, -2.48670839e-02, -2.18457938e-03,
       -2.22758260e-02, -1.41868722e-02, 8.64042062e-03, 2.76221475e-03,
       3.68005334e-04, 4.57207812e-03, -7.72729842e-03, -3.41487341e-02,
       7.82123022e-03, -2.18197480e-02, -3.83574422e-03, 5.02514560e-03,
       7.73778930e-03, 6.67767506e-03, -8.28411058e-03, -5.48377167e-03,
       -2.89147459e-02, 1.54633066e-02, -8.34794343e-03, 1.04803871e-03,
       1.89276803e-02, 1.61743611e-02, -9.16201249e-03, -1.99203715e-02,
       2.92680762e-03, -1.00344485e-02, 1.15898307e-02, -2.06136797e-02,
       -1.23178377e-03, 2.05352753e-02, 2.30189622e-03, -2.41883378e-03,
       -1.36503028e-02, -5.31767681e-03, -2.67909598e-02, 1.03011187e-02,
       -1.73874330e-02, -4.02695406e-03, 1.52080152e-02, -9.87605378e-03,
       -1.66975986e-02, -2.84633469e-02, 4.44010552e-03, -1.93151198e-02,
       1.76967867e-03, -2.54461039e-02, 7.59138260e-03, 1.11130150e-02,
       -6.48697186e-03, -5.07728895e-03, -9.12150927e-03, 1.24149658e-02,
       -1.67894550e-02, 7.36657390e-03, -1.43908821e-02, 7.60345859e-03,
       1.92524493e-02, -2.97876000e-02, -1.42207742e-02, -1.55034633e-02,
       2.08907425e-02, -1.82842296e-02, 1.54185658e-02, -2.11580619e-02,
       -7.50163384e-03, 6.09810930e-03, -6.10445510e-04, 8.54577404e-04,
       -7.76641443e-03, 1.96042415e-02, -2.49011796e-02, -2.06294749e-03,
       -2.62050219e-02, 1.90012138e-02, 2.43476760e-02, -1.16777821e-02,
       3.13017335e-05, -8.54118541e-03, 2.66654436e-02, -1.98146198e-02,
       6.70135161e-03, -1.96662098e-02, 3.52479122e-03, 1.75421704e-02,
       -1.06881401e-02, -1.15765976e-02, -8.89068004e-03, 3.01516019e-02,
       -1.12619530e-02, 9.27902106e-03, -1.64371040e-02, -9.18210112e-03,
       1.44719873e-02, -1.40908984e-02, -1.28281079e-02, -1.63563211e-02,
       2.18528640e-02, -1.78090297e-02, -4.62065358e-03, -4.57556844e-02,
       -3.27812769e-02, -9.41870641e-03, -2.51749228e-03,
       -4.49759653e-03, -5.85495168e-03, 3.48399431e-02, -1.92917529e-02,
       6.34952681e-03, -1.40847545e-02, 1.86387531e-03, 2.07247902e-02,
       -9.64300334e-03, -1.33516770e-02, -1.22914333e-02, 1.96748357e-02,
       -4.33524549e-02, 6.06213987e-04, -4.17367704e-02, -1.84236616e-02,
       -1.04107230e-03, -1.26135219e-02, -1.09611899e-02,
       -1.33346897e-02, 1.93362478e-02, -1.11622522e-02, 3.68668605e-03,
       -2.51238644e-02, -1.68992467e-02, -1.00059845e-02,
       -1.49417166e-02, -1.91952363e-02, -2.73917969e-02, 1.48146469e-02,
       -1.14883678e-02, 1.98394228e-02, -1.36455754e-02, -1.20313428e-02,
       -1.90349966e-02, 1.13489584e-03, -3.33155785e-03, -1.37110399e-02,
       1.81631353e-02, -3.26495804e-02, -6.13173144e-03, -3.02810408e-02,
       -1.07188812e-02, 6.88581681e-03, 7.14494288e-03, -1.05930157e-02,
       -2.72228736e-02, 1.54287303e-02, -2.59207115e-02, 3.38275498e-03,
       -1.61643438e-02, -1.19472388e-02, -2.89696106e-03,
       -8.90543684e-03, -1.78520698e-02, -2.17305049e-02, 2.20538247e-02,
       3.66325327e-03, 2.91123316e-02, -1.02211433e-02, -1.78592149e-02,
       -1.70468427e-02, -7.62076722e-03, -2.39530373e-02,
       -2.75542475e-02, 1.98715869e-02, -1.48630934e-03, 1.55722992e-02,
       -2.71386262e-02, -3.34205814e-02, -2.19836868e-02, 1.37273148e-02,
       -1.43088959e-02, -2.27539763e-02, 2.31918953e-02, -5.96808968e-03,
       2.36443970e-02, -1.00093298e-02, -2.55771517e-03, -3.86704644e-03,
       5.20769972e-03, -1.56226642e-02, -2.22984850e-02, 2.73129046e-02,
       -1.01895221e-02, 1.17743006e-02, -1.83944032e-02, -2.16140356e-02,
       -9.66348313e-03, -2.97766272e-03, -2.26621162e-02,
       -2.44972631e-02, 3.20393369e-02, 1.04638664e-02, 2.28837524e-02,
       -9.15134139e-03, -1.63324997e-02, -1.77612994e-02, 6.21801708e-03,
       -1.71298590e-02, -3.21246237e-02, 1.55213112e-02, -6.23703934e-03,
       1.19833173e-02, -1.03300046e-02, -1.14490017e-02, -7.66492216e-03,
       -4.61046677e-03, -1.76578946e-02, -1.64299607e-02, 2.93292608e-02,
       5.59392665e-03, 1.32121639e-02, -2.66391132e-02, -2.33598650e-02,
       -2.10629534e-02, -4.08145646e-03, -1.83214210e-02,
       -2.77543981e-02, 2.76530869e-02, 4.21965960e-03, 1.62681006e-02,
       -1.87627953e-02, -2.47578025e-02, -2.57305652e-02, 6.55134860e-03,
       -1.45063866e-02, -2.18095761e-02, 1.24192256e-02, -7.96069112e-03,
       2.58622225e-02, -8.95492826e-03, -8.32938030e-03, 7.56048015e-04,
       -1.95040193e-03, -1.60280764e-02, -3.01569216e-02, 1.46336695e-02,
       -1.46952551e-02, 3.16248052e-02, -9.26777255e-03, -5.57675899e-04,
       -1.07657174e-02, -7.53625156e-03, -1.98118556e-02,
       -1.86830405e-02, 2.79591102e-02, 2.31361180e-03, 2.39255223e-02,
       -1.91855095e-02, -1.93787180e-02, -1.54211018e-02,
       -2.65499726e-02, -3.64371538e-02, -4.03445996e-02, 1.16634872e-02,
       -8.26714281e-03, 2.95364857e-02, -1.63217857e-02, -2.07227934e-02,
       -3.42822485e-02, 8.86782445e-03, 5.93996188e-03, -5.27894078e-03,
       2.92701814e-02, -3.62667278e-03, 3.99163067e-02, -2.14598235e-03,
       2.84738350e-03, -9.64207866e-05, -1.20249875e-02, -6.57008728e-03,
       -2.36142762e-02, 9.20001604e-03, -2.87377220e-02, 1.75694544e-02,
       -2.09058560e-02, -1.73937585e-02, -1.91625971e-02,
       -1.26908934e-02, -2.28112377e-02, -3.21813561e-02, 1.22552523e-02,
       1.60110372e-04, 3.72298881e-02, -3.95583455e-03, -1.51059330e-02,
       -2.41637845e-02, -2.94984691e-02, -3.29797603e-02,
       -3.30494307e-02, 8.02644901e-03, -1.92410145e-02, 1.60870124e-02,
       -2.10227948e-02, -2.72323992e-02, -3.74857001e-02, 9.02567524e-04,
       -1.29274076e-05, -8.21279921e-03, 1.81385819e-02, -5.63002983e-03,
       1.81568060e-02, -1.32849459e-02, -4.39092750e-03, 1.86716113e-03,
       -2.38605915e-03, -1.22656953e-02, -2.09174156e-02, 6.21613720e-03,
       -2.55824849e-02, 1.30178099e-02, -1.57586597e-02, -1.61244180e-02,
       4.04814864e-03, -1.13398964e-02, -1.98813975e-02, -9.19560064e-03,
       2.94981133e-02, 1.36452513e-02, 3.67040038e-02, -1.42313931e-02,
       -1.63923483e-02, -1.96242779e-02, -1.71508584e-02,
       -1.68234948e-02, -1.94870178e-02, 3.16291936e-02, -7.57866423e-04,
       3.04665286e-02, -2.15467252e-02, -2.08740979e-02, -1.68767925e-02,
       2.99193151e-03, -3.15650785e-03, -1.09004567e-03, 9.26146656e-03,
       1.01723848e-03, 1.64729785e-02, -6.42057182e-03, -9.44280438e-03,
       1.28616039e-02, -1.04990769e-02, -7.38249160e-03, -6.39168080e-03,
       6.05713343e-03, -9.62717365e-03, 5.17443568e-03, -1.72494091e-02,
       -1.20953741e-02, -5.37395151e-03, 1.02154436e-02, 9.44821816e-03,
       2.28600926e-03, 2.82684173e-02, 2.95995884e-02, 3.65783311e-02,
       -1.41795212e-02, -1.02671552e-02, 1.08368341e-02, 1.08434388e-03,
       -1.26872619e-03, -5.75289922e-03, 1.77380480e-02, 1.05504682e-02,
       2.05451753e-02, -2.74807792e-02, -1.56686269e-02, 3.14562698e-03,
       -6.37457240e-03, -3.85004492e-03, 2.17867689e-03, 1.18043665e-02,
       4.27952362e-03, 2.03192513e-03, -9.36952326e-03, -6.22843811e-03,
       5.35012630e-04, -6.98463153e-03, -1.09803574e-02, -1.17795658e-03,
       7.48791557e-04, 8.62560794e-03, 2.65249028e-03, -1.32988440e-02,
       -1.35274371e-02, -4.40962426e-03, 2.21196515e-03, 3.16517660e-04,
       8.01166985e-03, 3.22150476e-02, 2.30632853e-02, 1.47495670e-02,
       -2.20561679e-02, -1.94938947e-02, -9.52116214e-04, 1.01821627e-02,
       -3.02468496e-03, 1.15634790e-02, 2.23335046e-02, 1.48430951e-02,
       1.27729988e-02, -2.28200294e-02, -1.84279289e-02, 6.24962570e-03,
       1.03222928e-03, -7.56880455e-03, -3.23679228e-03, 1.66697355e-04,
       1.89859532e-02, 8.96664429e-03, -9.26535856e-03, -7.88332522e-03,
       6.97883312e-04, -4.39076015e-04, -1.03365732e-02, -1.49022695e-02,
       -1.47083746e-02, 1.06817828e-02, 2.97870894e-04, -6.98169647e-03,
       -1.47256199e-02, -6.25515403e-03, 1.55862132e-02, -2.78189220e-03,
       8.63795634e-03, 1.64575055e-02, 2.93816626e-02, 2.67751981e-02,
       -1.03771649e-02, -1.25419581e-02, 5.57076512e-03, 2.97536049e-03,
       -1.31107969e-02, -1.70918815e-02, -1.24894371e-02, 1.35051943e-02,
       2.50679031e-02, 3.57833831e-03, -1.28036700e-02, -1.48011057e-03,
       2.75984476e-03, -3.25025618e-03, -1.22848721e-02, -5.71981911e-03,
       1.39660975e-02, 3.71699268e-03, -1.74806663e-03, -4.06930316e-03,
       -1.55860442e-03, 5.29833883e-03, -2.20186356e-03, -1.15146358e-02,
       -2.01870897e-03, -2.80377758e-03, 1.75517146e-03, 1.92485796e-03,
       4.71719028e-03, 4.84870328e-03, 7.61106936e-03, 7.59372255e-03,
       -5.08733280e-03, -2.86676502e-03, 2.26577353e-02, 2.45938227e-02,
       1.16369287e-02, -6.57600956e-03, 1.55722548e-03, 1.56639609e-02,
       1.43029243e-02, 2.73256120e-03, -5.38537838e-03, -1.93192507e-03,
       1.51026230e-02, 8.19360837e-03, -8.51487461e-03, 1.73152122e-03,
       8.39553250e-04, 1.35724153e-03, -3.07871588e-03, 4.24633222e-03,
       1.28226988e-02, 4.50611551e-04, 4.49434388e-03, 3.58440122e-03,
       1.06545759e-03, -9.18150600e-03, -3.08817695e-03, 3.60192498e-03,
       -3.06053506e-03, 2.55376976e-02, 1.82820391e-02, 2.38989815e-02,
       -3.54062719e-03, -1.14711840e-02, 9.02796350e-03, 7.17617990e-03,
       3.19727784e-04, -8.18007253e-03, 6.27707737e-03, 1.09030018e-02,
       1.08029544e-02, 4.79969487e-04, 6.84840081e-04, -9.28898435e-03,
       -2.50709654e-05, -1.21525710e-03, -1.67432111e-02, 1.40626440e-02,
       2.32643113e-02, 2.94007268e-02, 1.09298099e-02, -1.16112279e-02,
       -1.42014446e-03, -5.65765100e-03, 1.04768677e-02, 1.35777788e-02,
       -2.20490098e-02, -3.41181480e-03, -1.33202281e-02, 3.63678555e-03,
       2.68289205e-02, 1.33106075e-02, -1.98048656e-03, -3.09869950e-03,
       6.10630959e-03, -2.15147715e-02, 1.66796334e-02, 3.97833018e-03,
       1.27586303e-02, 2.78875586e-02, -2.33996361e-02, -3.63425352e-02,
       -7.70286471e-03, 1.58481561e-02, -3.91939469e-02, -1.06818294e-02,
       -2.82232463e-02, -1.23407105e-02, 1.32693341e-02, -5.97032532e-03,
       -2.41074730e-02, -1.75793562e-02, 4.31914208e-03, -5.45620434e-02,
       -6.32720441e-03, -1.83766503e-02, -8.29143822e-03, 2.33899597e-02,
       7.82779139e-03, -6.01743115e-03, -2.11438015e-02, 4.49381862e-03,
       -2.03492902e-02, 1.23009905e-02, -7.94979371e-03, 9.67672002e-03,
       2.33969595e-02, 3.19150463e-03, -7.68721849e-03, -2.10048277e-02,
       1.37292361e-02, -8.02608766e-03, 1.24115469e-02, -1.42385196e-02,
       1.18827363e-02, 2.09800508e-02, 4.38524847e-04, -5.50652202e-03,
       -1.46825230e-02, 5.37343137e-03, -4.91007343e-02, -5.24439197e-03,
       -2.10194774e-02, -1.07491193e-02, 1.34507939e-02, 5.18622436e-03,
       5.37780672e-03, -1.01672374e-02, 2.38980744e-02, -3.18408385e-02,
       1.63635716e-03, -2.17499398e-02, -1.01893293e-02, 1.03887813e-02,
       -2.36979988e-03, -8.13565310e-03, -1.48565378e-02, 2.40848307e-02,
       -1.74356103e-02, 3.09194508e-03, -2.02497132e-02, 8.94175493e-04,
       1.64449569e-02, -4.95861098e-03, -3.68586346e-03, -1.25712324e-02,
       2.16861181e-02, -2.08663773e-02, 4.10259888e-03, -2.07770355e-02,
       -1.03571592e-02, 1.26083503e-02, 3.64037417e-03, -8.42971494e-05,
       -4.51457314e-03, 3.03501133e-02, -4.24722023e-02, -4.72991494e-03,
       -2.47992966e-02, -1.90303493e-02, -1.30767480e-03, 6.30251830e-03,
       -1.21679883e-02, -1.12649668e-02, 2.91846804e-02, -5.43774888e-02,
       5.30330930e-03, -2.77381912e-02, -2.26855371e-02, 3.92869068e-03,
       6.36928109e-03, 4.91080247e-03, 4.11989540e-03, 2.77211089e-02,
       -1.59024596e-02, 1.12260422e-02, -8.21306836e-03, -4.42719599e-03,
       1.45297879e-02, -7.15398882e-03, -7.75427837e-03, -1.67199373e-02,
       1.98238846e-02, -5.69567420e-02, -7.48325256e-04, -3.48472334e-02,
       -1.69256106e-02, -7.52895884e-03, 1.40612740e-02, 7.45537225e-03,
       -8.78860150e-03, 2.22476274e-02, -5.57579808e-02, 1.73578002e-02,
       -2.64738295e-02, -1.57056991e-02, 1.20184487e-02, -6.33720076e-04,
       2.85496796e-03, -9.20211803e-03, 2.88917730e-03, -7.95456991e-02,
       8.12863745e-03, -2.97788791e-02, -2.94159371e-02, -9.08529945e-03,
       3.87157709e-03, 1.43912237e-03, -7.59216491e-03, 2.30544619e-02,
       -3.65256183e-02, -3.08849919e-03, -1.76575929e-02,
       -5.12991054e-03, 2.64060614e-03, 5.64555824e-03, -1.10570453e-02,
       -2.47916318e-02, 2.56183408e-02, -2.02569179e-02, 1.35738729e-02,
       -1.21430894e-02, -1.26493061e-02, -9.90546588e-03, 4.37886035e-03,
       6.88609667e-03, -4.66665532e-03, 1.80964731e-02, -6.41232133e-02,
       4.70188167e-03, -3.74901965e-02, -2.64458153e-02, -2.70788511e-03,
       -1.12981326e-03, -1.42691284e-02, -1.67380031e-02, 1.84270572e-02,
       -5.42296022e-02, 7.83490948e-03, -2.19969451e-02, -2.14670841e-02,
       -6.01626467e-03, 7.08362320e-03, -1.26400534e-02, -2.06050575e-02,
       2.75444556e-02, 4.11083968e-03, 1.69233289e-02, -1.25868786e-02,
       -2.10708454e-02, -6.12392509e-03, 2.08271737e-03, -1.47127556e-02,
       -2.11027153e-02, 2.85090134e-02, -7.48620834e-04, 1.53804393e-02,
       -1.88793223e-02, -3.13431770e-02, -1.58353299e-02, 1.12662115e-03,
       -1.89996287e-02, -1.81864649e-02, 2.69934088e-02, -2.84481328e-02,
       2.28463914e-02, -1.24802216e-04, -1.54088279e-02, -6.01718063e-03,
       -7.80569622e-03, -2.57812869e-02, -2.47851498e-02, 4.27571125e-02,
       -2.30405927e-02, 2.53976751e-02, -2.89324727e-02, -3.59069407e-02,
       -2.33961735e-02, -4.99138189e-03, -1.52105894e-02,
       -1.34298699e-02, 3.05265579e-02, -2.05363357e-03, 1.56325251e-02,
       -2.12133415e-02, -2.32429076e-02, -1.55201973e-02,
       -7.13287853e-03, -1.59705672e-02, -2.55229138e-02, 1.92681514e-02,
       -5.96212083e-03, 1.04085580e-02, -2.23187432e-02, -4.09433320e-02,
       -1.47204893e-02, -1.72650851e-02, -2.39453558e-02,
       -1.54871987e-02, 4.75723147e-02, -6.65126648e-03, 2.74697579e-02,
       -1.99409332e-02, -2.36630626e-02, -1.41476700e-02,
       -8.51591956e-03, -1.99750066e-02, -3.29293087e-02, 2.67955698e-02,
       -1.66572165e-02, 2.03064345e-02, -3.41282226e-02, -2.98935883e-02,
       -3.73079034e-04, -2.45187292e-03, -8.32037348e-03,
       -1.16399443e-02, 2.90146768e-02, 8.07514787e-03, 2.57271826e-02,
       -1.73841175e-02, -3.29256393e-02, -8.85218941e-03,
       -2.06008758e-02, -2.73202769e-02, -2.77629048e-02, 2.06500869e-02,
       5.69936493e-03, 2.03886572e-02, -1.18085425e-02, -2.32274141e-02,
       -3.01873460e-02, 3.86566762e-03, -1.00508388e-02, -2.00078283e-02,
       1.55349979e-02, -1.58839393e-02, 3.02297659e-02, -3.65393721e-02,
       -2.17956118e-02, 9.60267894e-03, -5.89398388e-03, -2.42256671e-02,
       -3.28805596e-02, 1.93517674e-02, -1.68106873e-02, 2.84136422e-02,
       -3.22411247e-02, -2.15947200e-02, 9.98852076e-04, -1.51176350e-02,
       -2.02577505e-02, -2.14641690e-02, 1.97579060e-02, 8.44294764e-03,
       3.60246897e-02, -1.54137844e-03, -1.36287985e-02, -2.14381665e-02,
       -3.03289853e-02, -3.47584523e-02, -2.83718444e-02, 1.30068772e-02,
       -1.33327628e-02, 2.11920999e-02, -7.86623079e-03, -2.06199382e-02,
       -4.29824963e-02, -4.33940068e-03, -1.92581061e-02,
       -1.66956391e-02, 4.17945087e-02, -6.89548999e-03, 3.68697122e-02,
       -2.22971253e-02, -1.61812343e-02, 1.38193415e-03, -2.10925285e-02,
       -3.42544056e-02, -2.36552823e-02, 3.64661925e-02, -3.03750206e-02,
       3.29378173e-02, -3.19298469e-02, -2.59172413e-02, -1.30018424e-02,
       -2.32014563e-02, -2.06434224e-02, -1.61815248e-02, 3.02178916e-02,
       1.19663933e-02, 4.00999859e-02, -1.20549789e-02, -2.61679422e-02,
       -3.19124982e-02, -2.37867720e-02, -9.10589937e-03,
       -1.59654412e-02, 3.91821563e-02, 2.14615017e-02, 3.89012955e-02,
       -3.48144956e-02, -3.40479277e-02, -3.63704115e-02,
       -1.22477487e-02, -1.85086280e-02, -1.62296239e-02, 4.51310612e-02,
       1.06792022e-02, 3.91803496e-02, -2.68000197e-02, -2.38325149e-02,
       -1.46094030e-02, -1.56680308e-02, -1.81138236e-02,
       -2.63564140e-02, 4.11851853e-02, 2.12861914e-02, 4.22259904e-02,
       -4.24672030e-02, -4.78845015e-02, -2.31733825e-02,
       -1.92247313e-02, -1.46978616e-03, -9.62320133e-04, 3.28397192e-02,
       3.12368404e-02, 4.16465327e-02, -2.25720536e-02, -2.90030465e-02,
       -2.73381528e-02, -1.80460811e-02, -8.51883087e-03,
       -1.18039837e-02, 2.34298613e-02, 4.32600453e-03, 1.24174077e-02,
       -3.81482765e-02, -3.29568088e-02, -2.33991891e-02,
       -1.13410940e-02, -8.00177455e-03, -3.84433637e-03, 5.14032654e-02,
       3.14153433e-02, 4.04394232e-02, -2.55077295e-02, -3.34585533e-02,
       -1.84772070e-02, -6.82194205e-03, -1.32292015e-02,
       -1.51099106e-02, 3.32722589e-02, 9.46795975e-04, 1.84269175e-02,
       -3.95885892e-02, -4.03002799e-02, -2.04058792e-02, 2.00465508e-03,
       -1.41556503e-03, 3.63527169e-03, 4.04314026e-02, 3.35697643e-02,
       9.76483058e-03, -3.36765498e-02, -2.95455325e-02, -2.95796595e-03,
       -1.97395287e-03, -1.63258016e-02, 2.22329167e-03, 2.95909345e-02,
       2.49723718e-02, 1.35938982e-02, -2.52561457e-02, -2.67585646e-02,
       -2.37648818e-03, -6.45698037e-07, -2.55223177e-03,
       -2.17691716e-03, 4.58010994e-02, 2.48139910e-02, 2.28136592e-02,
       -3.56065556e-02, -3.30926664e-02, -1.45375580e-02,
       -3.81660415e-03, -1.37541741e-02, -7.05728028e-03, 3.07819340e-02,
       2.24613398e-02, 1.67307798e-02, -3.94025594e-02, -4.36249673e-02,
       -1.36741931e-02, -5.70986420e-04, -8.20422359e-03, 8.73936620e-03,
       2.75488086e-02, 3.49678844e-02, 2.49520279e-02, -1.78481620e-02,
       -2.16878615e-02, -2.10060272e-03, -3.51120834e-03,
       -3.26902489e-03, -1.01084998e-02, -4.81148064e-03, 1.63207352e-02,
       2.74821036e-02, -2.20019673e-03, -8.01933929e-03, -8.33076332e-03,
       -2.44331174e-03, -1.67376094e-03, 3.79942777e-03, 3.06514520e-02,
       3.06113642e-02, 2.20230948e-02, -3.77390534e-02, -4.31423448e-02,
       -8.66212230e-03, 5.90240117e-04, 9.06445272e-03, -1.32155640e-03,
       9.41374048e-04, 6.96961302e-03, 2.09698696e-02, -2.08679698e-02,
       -2.68125627e-02, -1.07045174e-02, 9.24247038e-03, 1.15283839e-02,
       1.29555829e-03, 1.19966644e-04, 1.88044831e-02, 2.14854367e-02,
       2.60156207e-03, -9.82144338e-05, 2.76376563e-03, 7.98436161e-03,
       3.06774094e-03, -1.16892986e-03, -1.17390342e-02, 2.43300616e-04,
       1.11176092e-02, 2.01858557e-03, -1.38945703e-03, 4.46843496e-03,
       9.75679234e-03, 2.19185520e-02, 6.92759641e-03, 1.00417191e-03,
       8.41979869e-03, 1.56827699e-02, -8.75161309e-03, -1.60903428e-02,
       -5.22316201e-03, 4.04219427e-05, -2.68642651e-03, -9.24386270e-03,
       -1.08004799e-02, 1.35364821e-02, 1.82877835e-02, -3.09173542e-04,
       -9.97629389e-03, -1.79767807e-03, 7.20632263e-03, 3.07222945e-03,
       3.87896225e-03, -9.88230295e-03, 6.66175829e-03, 5.50170382e-03,
       4.26011207e-03, 7.80509203e-04, 1.58218096e-03, -2.07523233e-03,
       -7.59048344e-05, 1.90296897e-03, -1.04864575e-02, 1.42551614e-02,
       7.14789797e-03, 1.21637620e-02, 7.31025543e-03, -9.52619128e-03,
       5.72312204e-03, -4.04510833e-03, -1.03582796e-02, -1.38082020e-02,
       1.56916007e-02, 1.98824834e-02, 1.31961405e-02, -5.55210607e-03,
       5.82069442e-05, 2.31865095e-03, 5.66956215e-03, -1.76452205e-03,
       -1.18956314e-02, 1.84929818e-02, 5.45623200e-03, 1.03810560e-02,
       1.54035061e-03, -6.04524929e-03, -2.07977653e-01 ]
