%YAML:1.0
---
detectionoutput: !!opencv-object-detector-hog
   winSize: [ 64, 128 ]
   blockSize: [ 16, 16 ]
   blockStride: [ 8, 8 ]
   cellSize: [ 8, 8 ]
   nbins: 9
   derivAperture: 1
   winSigma: 4.
   histogramNormType: 0
   L2HysThreshold: 2.0000000000000001e-01
   gammaCorrection: 1
   nlevels: 64
   signedGradient: 0
   SVMDetector: [ -7.39483256e-03, -3.69661651e-03, -8.70591495e-03,
       -3.39519233e-03, -1.10359117e-02, -1.16397894e-03, 1.40887790e-03,
       4.03256807e-03, -1.57587184e-03, -9.25941020e-03, -1.71147175e-02,
       -2.07742788e-02, -6.57366216e-03, -1.61242895e-02,
       -7.68567622e-03, -2.83130305e-03, 3.54966847e-04, 7.60916620e-04,
       -7.29927979e-03, -1.23445615e-02, -1.60336643e-02,
       -4.71690996e-03, -1.29634384e-02, 5.47956617e-04, -1.15663745e-03,
       4.91790194e-03, -1.61343487e-03, -1.00740725e-02, -1.54843545e-02,
       -2.01664064e-02, -4.87571582e-03, -2.12832391e-02,
       -9.37278382e-03, -8.28927662e-03, 3.83475958e-03, -2.77814455e-03,
       -7.56671885e-03, -1.09343408e-02, -1.23802414e-02, 1.46463921e-03,
       -9.78282932e-03, -5.30370325e-03, 6.83080079e-03, 3.84543464e-03,
       -2.97874119e-03, -7.95931183e-03, -7.00421585e-03,
       -8.61992314e-03, -3.73070291e-03, -1.92477461e-02,
       -3.82085401e-03, 4.71789110e-03, 4.27046372e-03, -6.55739475e-03,
       -2.38744705e-03, -6.06455747e-03, -1.41048320e-02, 2.21844343e-03,
       -1.03132864e-02, -1.00399423e-02, 2.18474399e-03, 6.94162538e-03,
       1.12389517e-03, 6.68628979e-03, 5.94810676e-03, -1.13814836e-02,
       -1.69297699e-02, -2.90386919e-02, -9.40320548e-03,
       -1.66226551e-03, 4.84685274e-03, 2.31418130e-03, -6.63060090e-03,
       -2.76352535e-03, -5.76342549e-03, -5.40892780e-03,
       -1.70020331e-02, -3.63995391e-03, 3.09508690e-03, 1.46797893e-03,
       -6.15400774e-03, -9.72467102e-03, -1.12850228e-02,
       -8.41168594e-03, 1.10190897e-03, -6.19753636e-03, -7.37663079e-03,
       1.08205033e-02, -5.25034557e-04, -1.25336703e-02, 1.03387488e-02,
       3.40930652e-03, -1.05277542e-02, -1.67960487e-02, -2.45698020e-02,
       -5.75411133e-03, 2.85631535e-03, 1.03350263e-02, 7.54477223e-03,
       -1.20448554e-03, -5.90225402e-03, -8.93002562e-03,
       -7.00564217e-03, -3.34793795e-03, -1.16305267e-02, 4.70727636e-03,
       -9.34658223e-04, 2.09228997e-03, -1.06499167e-02, -1.46734221e-02,
       -1.19895488e-02, 1.45057798e-03, -9.38155048e-04, -2.59484607e-03,
       1.81876346e-02, 4.46027284e-03, -5.68232685e-03, -1.13382190e-02,
       -1.40724787e-02, -1.44028617e-02, -4.73465072e-03,
       -1.39026847e-02, -6.40640734e-03, 1.80606847e-03, -4.33982536e-03,
       -8.81837774e-03, -5.09125227e-03, -7.61452923e-03,
       -8.22482444e-03, -6.08592469e-04, -2.66732625e-03,
       -1.40983546e-02, -3.14555451e-04, 1.84923608e-03, 7.27829232e-04,
       -4.88110213e-03, -1.38629247e-02, -1.64392162e-02, 2.25823163e-03,
       -1.06387716e-02, -1.42282480e-02, -6.62814593e-03,
       -4.23922669e-03, -2.86511728e-03, -6.05702447e-03,
       -6.44202810e-03, -4.52172989e-03, 4.30042949e-03, -8.77998210e-03,
       -1.32663008e-02, -4.97574918e-03, -1.10820066e-02,
       -6.21389784e-03, -7.96897279e-04, -8.45749583e-03, 1.32475735e-03,
       1.35869486e-02, 2.87089497e-05, -7.96117354e-03, -1.94018707e-02,
       -2.35035941e-02, -7.78215192e-03, -1.24767993e-03,
       -7.33359344e-03, -5.75804105e-03, 8.14280938e-03, 6.87047723e-04,
       -9.37584508e-03, -9.38208960e-03, -1.03964191e-02,
       -4.11274639e-04, 3.39580933e-03, -5.34113543e-03, 3.85919074e-03,
       1.89820286e-02, 1.63306866e-03, -1.69208106e-02, -2.21761223e-02,
       -1.70430131e-02, 3.15653800e-04, 4.12747700e-04, -7.30687845e-03,
       -5.08599589e-03, 1.27871083e-02, 5.96927619e-03, -3.08882841e-03,
       -1.50582464e-02, -1.76749416e-02, -3.65851587e-03, 1.71873742e-03,
       -1.11528933e-02, -1.09841302e-02, 1.62227498e-03, -2.80754082e-03,
       -1.60754323e-02, -1.77858640e-02, -1.95710752e-02,
       -4.80214646e-03, -1.95228285e-03, -6.85336860e-03,
       -2.08259025e-03, 1.48632247e-02, 1.49727203e-02, -6.18890207e-03,
       -1.87556278e-02, -1.69848427e-02, -6.21952303e-03, 5.04375296e-03,
       -7.49272574e-03, -5.87394054e-04, 8.82238848e-04, 1.02993436e-02,
       -7.44205248e-03, -1.69342440e-02, -1.75565351e-02,
       -6.54490199e-03, 1.88383332e-03, -8.87471344e-03, -5.43567259e-03,
       4.93700430e-03, 4.21281718e-03, -9.07325186e-03, -9.44045652e-03,
       -7.21802469e-03, -1.39438943e-03, -4.65385150e-03,
       -6.61118980e-03, -8.09522718e-03, -5.31811384e-04,
       -2.52005784e-03, -2.98817689e-03, -9.36107524e-03,
       -7.16202520e-03, -6.99412404e-03, 1.23008043e-02, -6.98988617e-04,
       9.89698805e-04, 1.31697592e-03, 1.09727047e-02, 2.82704760e-03,
       -1.06418098e-03, -6.07262738e-03, -1.92180346e-03, 6.18754607e-03,
       -3.69722256e-03, -1.02989832e-02, -1.03579294e-02,
       -2.30130553e-03, -3.81925306e-03, -3.40941758e-03,
       -5.16591407e-03, -5.68070682e-03, 2.11719819e-03, 3.33489431e-03,
       1.61031028e-03, 1.46717392e-03, 3.00983456e-03, -4.93352488e-03,
       -6.43748045e-03, -3.93660273e-03, -3.56173539e-03, 4.01303609e-04,
       1.21156673e-03, -6.46216189e-03, -1.04943551e-02, -5.97990770e-03,
       -1.17541412e-02, -7.38080032e-03, -1.39547908e-03,
       -8.51441990e-04, 2.85875797e-03, -1.32725923e-03, -3.84075497e-03,
       -2.47650314e-04, 1.94436265e-03, -6.40316575e-04, 6.31835032e-03,
       1.83697289e-03, -6.68370747e-04, -4.21556970e-03, -1.23752411e-02,
       -1.32941911e-02, -7.20303878e-03, -2.48239189e-03,
       -8.73463601e-03, -1.99635909e-03, -3.45556904e-03, 3.29458126e-04,
       4.90066316e-03, 5.11806319e-03, 4.56774374e-03, -8.97420628e-04,
       -1.95154361e-03, -8.01330991e-03, -3.31986439e-03,
       -1.31743588e-03, 3.21659283e-03, 2.73885042e-03, 3.17059201e-03,
       9.37306229e-03, -1.69896777e-03, 8.37034546e-03, -6.09104196e-03,
       -4.41259611e-03, 1.77340861e-03, 2.40405416e-03, -3.13370628e-03,
       -2.82521872e-03, 5.04867826e-03, 2.70929118e-03, 5.81662590e-03,
       -1.00501524e-02, -5.20883314e-03, -8.02577287e-03,
       -4.06420557e-03, -5.56084141e-03, -9.94238886e-04, 2.18287972e-03,
       -1.49858021e-03, 5.67254517e-03, -8.95673968e-03, -8.01054016e-03,
       -1.15824658e-02, -8.04611389e-03, -4.73469449e-03,
       -7.71522010e-03, -4.99801850e-03, -7.35340361e-03, 3.03872349e-03,
       -1.53170545e-02, -4.84726531e-03, -7.54145789e-04,
       -1.95104128e-03, 1.62917667e-03, -1.49807765e-03, 7.94693304e-04,
       -9.44538601e-03, 2.18966696e-03, -9.96324699e-03, 9.32694413e-03,
       3.13765183e-03, 8.38057749e-05, -6.30913954e-03, -9.26742237e-03,
       -6.77878130e-03, -5.69440611e-03, 2.26953253e-03, -1.16905523e-02,
       -5.62304910e-03, -4.38572699e-03, -2.11581029e-03,
       -5.23615209e-03, -9.64246318e-03, 4.21426678e-03, -2.74257269e-04,
       9.51143447e-03, -1.21945273e-02, -5.66594955e-03, 6.57173339e-04,
       -5.24459872e-03, -2.36531277e-03, -1.23028578e-02,
       -5.59456181e-03, -7.85705540e-03, -1.00063933e-02,
       -5.40235173e-03, 8.08275491e-03, -3.36266647e-04, -3.68943810e-03,
       1.79078162e-03, -1.15355793e-02, -6.98920200e-03, -3.91028123e-03,
       -5.41672530e-03, -9.37189441e-03, -2.08540540e-03,
       -3.32134101e-03, -6.04616571e-03, -9.26333014e-03,
       -8.38444941e-03, 2.02798680e-03, -8.80808511e-04, -1.63958373e-03,
       -1.26425633e-02, -3.65882460e-03, -2.36596167e-03,
       -8.72950349e-03, -7.01992866e-03, -1.15287034e-02,
       -2.32651201e-03, 2.29700701e-03, 5.30278124e-03, -9.36540868e-03,
       3.54845263e-03, 1.51206084e-04, -2.43629562e-03, 3.04188416e-03,
       -2.44755694e-03, -3.69649217e-03, 1.20736600e-03, 2.34990846e-03,
       -5.63403638e-03, -5.87033853e-03, -2.71515129e-03,
       -9.94432019e-04, -3.29956878e-03, -9.77651402e-03,
       -7.90066272e-03, 2.24864623e-03, 1.90190133e-03, -1.17048612e-02,
       -1.64177194e-02, 3.60156468e-04, -9.29706672e-04, -1.55455654e-03,
       -9.50864516e-03, -2.98324483e-03, 1.26938261e-02, 1.52189462e-02,
       -7.66964979e-04, -4.32371424e-04, -1.12154905e-03, 3.47094750e-03,
       -4.74037929e-03, -7.63959624e-03, -1.93161238e-03, 1.35000981e-02,
       5.81450481e-03, -9.06692818e-03, -2.40468085e-02, -1.64459869e-02,
       -1.15368832e-02, -4.22249874e-03, -1.30907511e-02,
       -8.32555536e-03, 3.90436221e-03, 1.77521706e-02, -2.65138154e-03,
       -1.20960064e-02, -8.26876611e-04, -1.97254820e-03,
       -3.90838180e-03, -1.91134270e-02, -2.23832652e-02, 1.28282397e-03,
       2.24300846e-02, -7.33352685e-03, -1.00540575e-02, -9.79541615e-03,
       -1.50199037e-03, -7.36486446e-03, -8.22407287e-03,
       -4.21549706e-03, 1.39296250e-02, 2.22513955e-02, -7.51773966e-03,
       -2.13234778e-02, -2.12228969e-02, -1.47111742e-02,
       -9.46045481e-03, -1.64505541e-02, -2.16466878e-02, 9.08810832e-03,
       3.23169678e-02, -1.07212057e-02, -1.91320963e-02, -2.74106804e-02,
       -1.45395109e-02, 4.90067620e-03, -1.70315560e-02, -1.88165549e-02,
       6.49373932e-03, 1.38534233e-02, -1.19666094e-02, -1.35529703e-02,
       -1.49531616e-02, 4.59398376e-03, 4.78980690e-03, -7.51724560e-03,
       -1.07646296e-02, 4.71703382e-03, 1.30302142e-02, -1.40504073e-02,
       -2.20477730e-02, -1.63515098e-02, -1.47139165e-03,
       -3.75462254e-03, -1.82857290e-02, -1.82025712e-02, 9.50397644e-03,
       2.52613220e-02, -2.96553643e-03, -1.76784154e-02, -2.32669543e-02,
       -1.09185148e-02, -3.16743692e-03, -1.95660871e-02,
       -1.66215543e-02, 9.78691736e-04, 1.63960196e-02, -1.07362997e-02,
       -2.06877906e-02, -1.74182076e-02, -5.12902718e-03,
       -7.33711058e-03, -9.89945419e-03, -1.25693781e-02, 4.02153889e-03,
       1.99651364e-02, -7.04354141e-03, -1.77133176e-02, -1.73037220e-02,
       -4.66106459e-03, -7.42184464e-03, -1.18909115e-02,
       -1.04911942e-02, 9.49289463e-03, 2.44420953e-02, -3.88227147e-03,
       -1.32037243e-02, -1.62237994e-02, -8.38451460e-03,
       -1.06431823e-02, -2.26346087e-02, -1.51790967e-02, 1.68244878e-03,
       2.34932899e-02, -1.17315194e-02, -1.86356306e-02, -1.68972332e-02,
       -1.47038111e-02, -1.89698637e-02, -2.26591919e-02,
       -1.39261503e-02, 9.64331347e-03, 2.84685269e-02, -1.64855961e-02,
       -2.24134307e-02, -2.94367466e-02, -1.81899853e-02,
       -2.56060855e-03, -8.91286414e-03, -1.66582204e-02,
       -7.40600703e-03, -1.32319294e-02, 1.71735836e-03, -4.52025840e-03,
       1.14004943e-03, 1.90274627e-03, -4.73435456e-03, -1.01916036e-02,
       -1.56648327e-02, -8.76690261e-03, -1.96570456e-02,
       -9.70354956e-03, -4.94291959e-03, 6.20444631e-03, 3.28129681e-04,
       -2.11737538e-03, -1.19598983e-02, -1.99390426e-02,
       -5.87179326e-03, -1.46871991e-02, -6.79436559e-03,
       -9.89439245e-03, -2.11574277e-03, 5.41805057e-03, -4.13682731e-03,
       -1.71258748e-02, -1.56425219e-02, -1.05553549e-02,
       -1.53602418e-02, -1.81111880e-02, -7.07226107e-03, 9.26753797e-04,
       3.70514090e-03, -2.98973406e-03, -9.36619844e-03, -1.57293919e-02,
       -5.89155359e-03, -1.39550176e-02, -1.09329531e-02, 3.62513610e-03,
       3.31863714e-03, 1.54672610e-03, 5.95976971e-03, -8.83187051e-04,
       -1.35481935e-02, -1.76980346e-02, -2.47639678e-02,
       -6.73191343e-03, 6.12777367e-04, -3.98986667e-05, 2.06565295e-04,
       2.87571806e-03, -1.39833828e-02, -1.45456353e-02, -1.03831971e-02,
       -1.39338374e-02, -1.01734223e-02, -4.47141612e-03,
       -1.89358939e-03, 4.33976622e-03, 6.50091330e-03, -1.01325847e-02,
       -1.58962309e-02, -1.79877039e-02, -1.56152900e-02,
       -2.16132612e-03, 3.46459239e-03, -2.14893743e-03, 6.45050174e-03,
       3.78441624e-03, -8.29610415e-03, -1.16900913e-02, -1.71974562e-02,
       -2.15052031e-02, -4.95474460e-03, 8.56504031e-03, 3.58377583e-03,
       2.96424446e-03, -6.48454856e-03, -1.75245479e-02, -1.19903227e-02,
       -6.64644130e-03, -1.32862125e-02, -5.92218619e-03, 8.24474380e-04,
       -6.92631723e-03, -3.51217866e-04, 2.43374519e-03, -1.04604000e-02,
       -6.73017045e-03, -1.01306774e-02, -1.13588953e-02,
       -1.49513624e-04, 5.48935635e-03, 3.19460337e-03, 6.36404892e-03,
       -3.83173535e-03, -1.40965674e-02, -6.53113937e-03, 5.77290310e-04,
       -6.76927669e-03, -3.36615951e-03, 5.98995248e-03, 4.64738114e-04,
       -3.11465468e-03, -7.92303588e-03, -1.54688228e-02,
       -1.49162197e-02, -3.10540898e-03, -9.49479081e-03,
       -9.91686806e-03, -4.93079564e-03, -7.89298117e-03,
       -4.84462269e-03, -1.19407950e-02, -1.78861953e-02,
       -1.70836691e-02, 1.83057925e-03, -6.84096944e-03, -7.39229098e-03,
       -1.07759889e-02, -1.50299408e-02, -9.06278193e-03,
       -6.57573692e-05, -1.10953059e-02, -9.32023861e-03,
       -3.64368735e-03, -7.67997559e-03, -4.17562667e-03, 4.56361845e-03,
       3.03684478e-03, 2.05186056e-03, -3.79113830e-03, -1.22705633e-02,
       -1.37824127e-02, -2.55569280e-03, -7.91927427e-03,
       -3.33673507e-03, 1.76018744e-03, -5.19747939e-03, 2.69412948e-03,
       -8.70113820e-03, -1.45097654e-02, -1.06555037e-02, 5.80352452e-03,
       8.42912588e-03, -6.35565631e-03, -4.34258301e-03, -9.81333945e-03,
       -7.32190441e-03, -2.73529370e-03, -8.60117376e-03,
       -5.01878513e-03, 8.71603191e-03, 1.13346882e-03, -1.37785105e-02,
       -2.11270712e-02, -1.58175696e-02, -7.12389639e-03,
       -3.99338827e-03, -1.39026232e-02, -7.33459229e-03, 6.54925965e-03,
       9.61025339e-03, -5.05413488e-03, 1.25117495e-03, -1.60244084e-03,
       -5.45421382e-03, -4.33678535e-04, -9.07179061e-03,
       -3.25359474e-03, 4.72198892e-03, -4.72063152e-03, -1.34016201e-02,
       -7.89226312e-03, -2.12652143e-03, -4.11989121e-03,
       -1.83447252e-03, -6.44735945e-03, -1.84224686e-03, 1.18453726e-02,
       7.90456589e-03, -5.46673732e-03, -1.73012875e-02, -1.40832160e-02,
       -2.64367531e-03, -6.55927788e-03, -9.56078246e-03,
       -5.54924831e-04, -3.04508815e-03, 8.00532941e-03, -8.25092476e-03,
       -1.84951052e-02, -1.79377552e-02, -9.55286901e-03, 2.59994110e-03,
       -1.53956027e-03, 2.26010964e-03, 9.20517836e-03, 2.47432175e-03,
       -1.15887364e-02, -1.00470763e-02, -6.72283699e-04, 2.36203545e-03,
       -5.93041070e-03, -1.19201634e-02, -4.97273263e-03,
       -4.14917571e-03, 8.40441883e-03, -1.00319590e-02, -1.56958420e-02,
       -1.34288371e-02, -7.15363072e-03, 4.07947041e-03, -2.17359071e-03,
       -1.39957538e-03, -9.64785181e-03, 6.54009357e-03, -2.75035156e-03,
       -6.89757010e-03, -5.45760896e-03, -4.11673449e-03, 2.54700566e-03,
       -5.57785155e-03, -1.16310976e-02, -1.29765477e-02,
       -2.66505172e-03, -1.31008718e-02, -6.27328362e-03,
       -7.60257291e-03, -1.98088749e-03, 4.11603786e-03, -9.56054032e-03,
       -9.95827466e-03, -3.16960877e-03, 8.71060509e-03, 1.58643781e-03,
       -4.81733819e-03, -5.64934313e-03, -7.17431540e-04, 6.38379389e-03,
       -3.35999695e-03, -1.26732700e-02, -9.57268104e-03, 4.64835763e-03,
       3.56381922e-03, -3.93588655e-03, -4.65892814e-03, -7.32469372e-04,
       -2.73835054e-03, -6.56561647e-03, -9.73755959e-03,
       -4.07261774e-03, 4.18587122e-03, -6.04206789e-03, 3.00366385e-03,
       -1.68686861e-03, 5.11191844e-04, -5.14239585e-03, -1.68020111e-02,
       -1.17531130e-02, -3.96602927e-03, -3.98240099e-03,
       -1.08611770e-02, -2.42629647e-03, -1.34305086e-03, 1.49202230e-03,
       7.46734627e-03, 2.12649233e-03, -5.15596895e-03, -1.40391057e-03,
       5.04550524e-03, -4.11217974e-04, 2.54343124e-03, 2.49769120e-03,
       7.94730522e-03, -2.53802584e-03, -1.24009028e-02, -1.32824834e-02,
       -9.71889589e-03, -1.00242961e-02, -1.60455592e-02,
       -2.67717405e-03, 2.46744859e-03, 7.42673827e-03, -5.74836158e-04,
       -6.56076055e-03, -3.01265740e-03, -4.97270608e-04,
       -1.04627560e-03, -9.74366348e-03, -2.54125916e-03,
       -3.35065159e-03, -4.02928563e-03, -3.61204753e-03,
       -2.71986076e-03, -2.18031183e-03, -4.29050857e-03,
       -7.69370468e-03, -1.07493652e-02, -1.08591374e-02,
       -1.30866151e-02, -1.00076627e-02, 2.22878740e-03, -3.74405063e-03,
       -6.52933586e-03, -2.20809854e-03, -1.40648359e-03,
       -7.81749096e-03, 5.00676734e-03, 9.91013646e-03, 6.91064633e-03,
       5.01937233e-03, -3.40398285e-03, -2.21423386e-03, -7.13540427e-03,
       -1.21192792e-02, -1.67732500e-02, -1.10813871e-03, 3.55446362e-04,
       -2.04392942e-03, -3.88967129e-03, -6.22940529e-03,
       -4.70292429e-03, -6.70983316e-03, -3.35188024e-03,
       -1.68780014e-02, -9.33155417e-03, -5.91129623e-03,
       -1.55409845e-03, -7.87923485e-03, -1.03470730e-02, 3.24851251e-03,
       4.37706010e-03, 1.88784562e-02, -1.08369403e-02, -4.27027605e-03,
       5.89764351e-03, -7.30767715e-05, -4.50099539e-03, -8.59207008e-03,
       -8.11473187e-03, -9.86475032e-03, -7.37668667e-03,
       -1.76608991e-02, -1.04956301e-02, -6.25908328e-03, 3.50062572e-03,
       -9.71854851e-03, -1.31791048e-02, -5.71912108e-03,
       -1.04047928e-03, 1.83986947e-02, -7.89707061e-03, -8.32830206e-04,
       -1.34236366e-03, 5.69939660e-03, -1.65807121e-02, -9.62109771e-03,
       2.21400638e-03, 1.86082500e-03, 8.21921416e-03, -9.40085482e-03,
       -4.94254427e-03, -1.11775030e-03, -1.07881827e-02,
       -1.81759838e-02, -1.18051209e-02, -7.33996741e-04, 8.37356132e-03,
       1.32381795e-02, -1.37604005e-03, 2.60013551e-03, -3.60243372e-04,
       -9.49249417e-03, -1.80648640e-02, -1.84215959e-02,
       -8.69273767e-03, -1.26375863e-03, 5.99225983e-03, -1.35900138e-03,
       -7.77359912e-03, -3.85047309e-03, -3.90470726e-03,
       -2.39910949e-02, -1.32893305e-02, -2.74795550e-03, 8.16323608e-03,
       8.72819405e-03, 7.03176437e-03, 1.06652989e-03, -4.57385927e-03,
       -1.57749169e-02, -1.01823751e-02, -1.15166362e-02,
       -1.94196252e-03, 1.52465692e-02, 1.57565381e-02, 4.99599101e-03,
       -6.95007970e-04, -4.72307112e-03, -6.93923328e-03,
       -1.60203297e-02, -1.13980900e-02, -4.13698889e-03, 1.52402902e-02,
       1.63055735e-03, -9.80643183e-03, -2.32133754e-02, -1.88872535e-02,
       -1.64738335e-02, -1.68189798e-02, -9.03406367e-03,
       -2.13504559e-03, 1.25319175e-02, 8.12332518e-03, 1.19269658e-02,
       4.62476397e-03, -4.13612975e-03, -1.81213655e-02, -1.05128884e-02,
       -1.25192860e-02, -5.50628593e-03, 1.02963364e-02, 2.26705521e-03,
       -1.14993098e-04, -1.02072693e-02, -1.43520664e-02,
       -1.38736628e-02, -1.19386604e-02, -8.87015834e-03,
       -3.64578282e-03, 1.90506745e-02, 1.47639830e-02, -7.40257232e-03,
       -2.09485739e-02, -1.76798757e-02, -1.29548581e-02,
       -1.07322009e-02, -1.62156634e-02, -1.41396457e-02, 1.60326231e-02,
       2.39266753e-02, -7.69538851e-03, -1.53137632e-02, -2.15695128e-02,
       -9.23984032e-03, -8.97773728e-03, -1.41759655e-02,
       -9.95572470e-03, 1.47345252e-02, 1.26852784e-02, -3.96058848e-03,
       -1.02993231e-02, -6.71993196e-03, -5.77855483e-03,
       -1.09886909e-02, -1.76972933e-02, -1.16053782e-02, 1.36463987e-02,
       1.93713028e-02, -6.50173193e-03, -1.69140045e-02, -1.25257270e-02,
       -4.35205922e-03, -4.70779929e-03, -1.99475121e-02,
       -1.14258267e-02, 1.02071175e-02, 1.80502255e-02, -1.23703619e-02,
       -1.28403381e-02, -1.10840173e-02, 1.39335083e-04, -5.23780566e-03,
       -2.12663300e-02, -1.44448737e-02, 3.23210773e-03, 1.77165177e-02,
       -9.35997535e-03, -1.23601826e-02, -7.67703541e-03,
       -2.76717264e-03, -6.61239168e-03, -1.71202887e-02,
       -9.64300893e-03, 1.23712104e-02, 1.26412604e-02, -1.06532760e-02,
       -1.16187250e-02, -1.01040350e-02, 2.33079353e-03, -1.08404411e-02,
       -2.08207052e-02, -1.06103336e-02, 1.37902470e-02, 1.60324834e-02,
       -8.58978834e-03, -4.18618973e-03, -8.17910023e-03,
       -4.14098054e-03, -1.41174560e-02, -2.84156762e-02,
       -2.05530673e-02, 6.27100933e-03, 2.44641714e-02, -7.34673580e-03,
       -1.60228182e-02, -1.04210470e-02, -1.12968506e-02,
       -2.15710327e-02, -2.80563980e-02, -1.55141223e-02, 9.67219099e-03,
       2.95576062e-02, -1.28248725e-02, -2.14252584e-02, -2.29476560e-02,
       -1.73621643e-02, -1.26376050e-02, -2.18297038e-02,
       -1.19923642e-02, 1.64496377e-02, 2.32886132e-02, -2.07461556e-03,
       -1.35432687e-02, -9.31600016e-03, -1.17700770e-02,
       -1.57425143e-02, -2.05570869e-02, -1.11238286e-02, 9.41479579e-03,
       2.55124867e-02, -8.05448290e-05, -2.11669896e-02, -1.67081915e-02,
       -1.54487099e-02, -4.73248120e-03, -1.03247305e-02,
       -1.12297218e-02, -4.73382697e-03, -6.02891669e-03,
       -1.20458035e-02, -6.51857490e-03, -1.05809816e-03, 4.11488861e-03,
       8.04121955e-04, -1.11412881e-02, -8.66757613e-03, -4.14997479e-03,
       -1.36621045e-02, -2.05574483e-02, -8.81540310e-03, 3.19313840e-03,
       9.80847422e-03, -9.14001837e-03, -1.10104773e-02, -6.57588337e-03,
       -7.14729447e-03, -1.50943333e-02, -1.36306370e-02,
       -4.89782961e-03, 2.01970129e-03, 8.18993617e-03, -2.32742750e-03,
       -6.82608085e-03, -9.34685394e-03, -3.75806191e-03,
       -1.71725973e-02, -2.08769962e-02, -1.20399753e-02, 2.97754281e-03,
       3.17244348e-03, -1.72897708e-03, -1.38284331e-02, -1.10415984e-02,
       -6.72981003e-03, -1.26944575e-02, -1.27774784e-02,
       -7.68562639e-03, 1.12136651e-03, 7.32093723e-03, -1.04704301e-03,
       -1.11347958e-02, -1.15698148e-02, -1.09151322e-02,
       -9.96411219e-03, 3.34874471e-03, 3.47453333e-03, -8.67369759e-04,
       7.98783079e-03, -7.28484616e-03, -1.23590408e-02, -8.69212393e-03,
       -4.73722070e-03, -1.68409124e-02, -1.50112268e-02,
       -8.00516922e-03, -1.48447129e-04, 4.45160922e-03, -4.56253253e-03,
       -1.64473373e-02, -1.30583746e-02, -5.86839300e-03,
       -1.58042200e-02, -7.08460249e-03, -6.54720515e-03,
       -3.40715400e-03, 3.48191429e-03, -2.62482627e-03, -8.17080960e-03,
       -3.14681116e-03, -5.96050266e-03, -9.15967487e-03, 1.26420823e-03,
       4.34610946e-03, 1.26305778e-04, 3.92096164e-03, -9.49080568e-03,
       -1.24776261e-02, -1.09416514e-03, 3.51630966e-03, -5.15372818e-03,
       -2.99227046e-04, 1.71731960e-03, 4.68233950e-04, -7.65505200e-03,
       -6.24743011e-03, -8.17026198e-03, -6.63350616e-03,
       -3.06036673e-03, -1.57181043e-02, -7.14214193e-03,
       -6.57347450e-03, -5.31684933e-03, 1.24728389e-03, -8.42637662e-03,
       -1.08284885e-02, -4.43940051e-03, -2.83637643e-03,
       -1.48461834e-02, -8.03913269e-03, -1.01788843e-03,
       -3.47378361e-03, -7.89182354e-03, -9.16461367e-03,
       -1.37088606e-02, -9.38968454e-03, -5.61627327e-03,
       -8.17274768e-03, -5.31423464e-03, 1.54772354e-03, -1.14500429e-03,
       -5.16551500e-03, -1.07059497e-02, -1.36336982e-02,
       -1.14703039e-02, -6.07463764e-03, -9.01929289e-03,
       -5.17682452e-03, 3.29099898e-03, -8.02616682e-03, -4.71370900e-03,
       -9.26567428e-03, -1.28425704e-02, -4.63045109e-03, 8.58818166e-05,
       -5.97409625e-03, -6.57903217e-03, -4.97067254e-03,
       -3.62706138e-03, -2.88319821e-03, -1.56220468e-02,
       -1.82631835e-02, -8.85073282e-03, 2.14108708e-03, -4.22918797e-03,
       -5.53970179e-03, -5.53459907e-03, -9.61366110e-03,
       -6.80999644e-03, -7.25072762e-03, -1.31095462e-02,
       -4.14515007e-03, 6.17120788e-03, -7.44885940e-04, -2.34514335e-03,
       -1.23255234e-03, -5.81998099e-03, -6.70416886e-03,
       -3.88226216e-03, -9.83881205e-03, -3.88088636e-03, 4.48709913e-03,
       -1.47308931e-02, -1.48249688e-02, -1.29190888e-02,
       -5.91870537e-03, -5.99555811e-03, -4.69843252e-03,
       -1.71988457e-02, -7.53763178e-03, 7.43785268e-03, -1.13018956e-04,
       -3.02547496e-03, -4.36905352e-03, -3.77979409e-03, 1.79161259e-04,
       -4.84456914e-03, -2.12548357e-02, -1.25879198e-02, 5.84363053e-03,
       -8.06775969e-03, -1.60254892e-02, -1.17893340e-02, 3.72617552e-03,
       2.18299712e-04, -7.00721459e-04, -7.19391974e-03, 4.85989824e-03,
       7.90488534e-03, -3.10709910e-03, -1.68357827e-02, -5.43211913e-03,
       4.24097572e-03, 2.31192796e-03, -1.36096578e-03, -1.22891776e-02,
       -3.08060390e-03, -8.96624639e-04, -4.90785902e-03,
       -1.70387514e-02, -1.73858590e-02, -1.29583748e-02,
       -6.29095593e-04, -3.13801662e-04, -9.12900083e-03, 3.98875447e-03,
       9.40454658e-03, -1.94290653e-03, -1.47537338e-02, -1.11739626e-02,
       2.12416146e-03, 1.00497007e-02, 1.03501265e-03, -8.32274836e-03,
       -1.64460251e-03, 7.32830551e-04, -1.27892001e-02, -2.28265189e-02,
       -1.40211498e-02, -3.65951704e-03, 8.88956152e-03, 5.17565873e-04,
       -8.97577684e-03, -1.13510592e-02, -1.54432235e-03, 1.73072401e-03,
       7.07754516e-04, -8.97054467e-03, -1.56501569e-02, -6.04938192e-04,
       -2.66024319e-04, -2.90055061e-03, -1.30812265e-02,
       -6.85757305e-03, 2.88196141e-03, 5.80500718e-03, -6.95830258e-03,
       -1.32860383e-02, -5.97545784e-03, 3.03819333e-03, -5.52865304e-03,
       -1.71683810e-03, -2.20850133e-03, -7.31486315e-03,
       -5.98171400e-03, -5.12453588e-03, -6.71134389e-04, 6.98726764e-03,
       4.79588984e-03, -4.87568323e-03, -2.32079974e-03, -2.36360892e-03,
       -9.11051582e-04, -5.52656734e-03, -4.53424035e-03,
       -6.19211118e-04, 8.24805535e-03, 2.88028200e-03, 4.82485484e-04,
       -5.22140041e-03, -9.52656730e-04, 8.96147569e-04, -2.31172430e-06,
       -5.35632623e-03, -5.88215701e-03, 1.27911195e-03, -3.11620464e-03,
       -1.01936180e-02, -1.37808090e-02, -7.90301245e-03,
       -9.03850608e-03, -1.71863418e-02, -8.41448922e-03,
       -5.15005365e-03, 3.13374243e-04, 1.11868046e-02, 3.73907574e-03,
       -4.67500649e-03, 2.98688095e-03, 4.48201736e-03, -4.10984224e-03,
       -1.73391090e-04, 7.87322223e-03, 1.53631475e-02, 6.39792532e-03,
       4.36660659e-04, -1.53290955e-02, -3.04241688e-03, -1.26433428e-02,
       -2.11310964e-02, -4.45196126e-03, -1.03612558e-03, 8.37454945e-03,
       -1.40048668e-03, -1.05728628e-02, -1.13770347e-02,
       -4.19656746e-03, -1.76490634e-03, -1.21243913e-02,
       -1.23152998e-03, -5.59681514e-03, 1.19596010e-03, -1.00663863e-03,
       -8.70372634e-03, -1.25158532e-02, -1.11790495e-02,
       -1.84709951e-02, -1.52011085e-02, -5.21724811e-03, 4.86855162e-04,
       -1.83283247e-03, 1.02142664e-02, -2.62487656e-03, -4.88944398e-03,
       -8.02694703e-04, 4.00546985e-03, -3.57146328e-03, 2.85560638e-03,
       3.09691229e-03, 1.08551579e-02, 8.74449592e-03, -2.71288888e-03,
       -1.50021724e-03, -4.66638058e-03, -8.75140075e-03,
       -8.41350947e-03, -7.49681727e-04, 7.75934570e-03, 8.35337117e-03,
       -3.35614313e-03, -8.30947515e-03, -6.28843391e-03,
       -9.90670640e-03, -1.04920743e-02, -1.25974771e-02,
       -1.59013420e-04, 1.01253821e-03, 6.95456564e-03, -7.59680383e-03,
       -6.88897306e-03, -4.56118537e-03, 2.13538948e-03, 2.46888259e-03,
       -1.08073009e-02, -5.24051581e-03, -3.56375938e-03, 3.94918583e-03,
       4.67376411e-03, -1.86327368e-03, 2.55149463e-03, -2.24437239e-03,
       -5.61396452e-03, -2.88611534e-03, 8.61519575e-03, 1.54469991e-02,
       1.85523387e-02, 8.49550066e-04, -4.00299300e-03, 3.20337922e-03,
       5.54891676e-03, 1.82662206e-03, -7.39474921e-03, 5.14688715e-03,
       2.73312535e-03, 8.45032558e-03, -1.47145661e-02, -1.11204525e-02,
       -3.70864663e-03, 4.10136255e-03, 9.48725268e-04, -7.29516149e-03,
       -3.03323939e-03, -5.88935241e-03, -6.08122069e-03,
       -2.07247306e-02, -6.99527981e-03, -1.09389905e-04, 6.94781914e-03,
       3.95582814e-04, 4.38177586e-03, 6.20128121e-03, -1.37896789e-03,
       -1.13058537e-02, -5.24310861e-03, -1.03568146e-02,
       -1.23014930e-03, 1.00305090e-02, 7.24915415e-03, -1.78959325e-03,
       7.32200046e-04, -4.75060951e-04, -1.68841949e-03, -4.87612421e-03,
       -2.59773899e-03, 5.36548626e-03, 9.28520784e-03, 7.72656640e-03,
       1.18343893e-03, 1.57377198e-02, 5.07079251e-03, 5.32031932e-04,
       -1.68888792e-02, -7.89795071e-03, -4.22667153e-03, 7.59777892e-03,
       1.69277890e-03, 5.64640155e-03, 3.83649161e-03, -3.05377832e-03,
       -1.66987870e-02, -1.11601856e-02, -1.41203646e-02,
       -1.02030048e-02, 7.29112653e-03, 5.09692263e-03, 9.50988615e-05,
       -6.78360276e-03, -8.68113991e-03, -8.39235261e-03,
       -4.42600809e-03, -3.94219160e-03, 5.03099104e-03, 1.06030181e-02,
       7.14788213e-03, 5.52494719e-04, 5.63495466e-03, -1.07461959e-03,
       6.83255435e-04, -6.81939488e-03, -1.45903742e-02, -2.34937505e-03,
       4.95354831e-03, 6.74282014e-03, 5.73276915e-03, -7.28237908e-03,
       -8.09167046e-03, 1.37653318e-04, -6.20782608e-03, -1.33383255e-02,
       -8.70183669e-03, 1.09474519e-02, 1.01323361e-02, -4.55724541e-03,
       -8.92007817e-03, -3.68968095e-03, -4.24628658e-03,
       -1.15414932e-02, -1.48402210e-02, -1.09063927e-02, 7.85803422e-03,
       1.08626410e-02, -1.37222130e-02, -1.31448060e-02, -9.62495524e-03,
       -8.95542745e-03, -2.32069311e-03, -1.36014977e-02,
       -6.78972760e-03, 7.18893902e-03, 8.31709430e-03, 4.05898225e-03,
       -3.24349897e-03, -3.23310657e-03, -5.32482110e-04,
       -1.39987897e-02, -1.66593194e-02, -1.15907378e-02, 7.63594930e-04,
       1.99345197e-03, -8.90609156e-03, -1.32543892e-02, -1.29132057e-02,
       -1.66006442e-02, -7.27593154e-03, -1.37751540e-02,
       -7.84322806e-03, 5.51144918e-03, 1.21676549e-02, -6.65634358e-03,
       -6.21769857e-03, -5.94055047e-03, -2.56200228e-03,
       -8.80652573e-03, -1.35265999e-02, -5.99994836e-03, 1.67553220e-02,
       1.58715677e-02, -4.93845576e-03, -6.77830214e-03, -5.80420624e-03,
       -4.35740827e-03, -1.61686409e-02, -1.57392584e-02,
       -7.64295133e-03, 2.66710529e-03, 7.38868210e-03, -3.51197948e-03,
       -5.70821436e-03, -6.79830182e-03, -8.38607363e-03,
       -1.80783533e-02, -1.64004192e-02, -3.77626042e-03, 1.19592845e-02,
       1.61702577e-02, -8.51943158e-03, -1.30962869e-02, -6.31130440e-03,
       -7.83011597e-03, -1.17391394e-02, -1.60585530e-02,
       -8.12959950e-03, 1.98169127e-02, 1.89579390e-02, -5.99178113e-03,
       -1.07695218e-02, -5.43288374e-03, -6.90083113e-03,
       -1.03510544e-02, -1.94110814e-02, -1.64966248e-02, 1.25137772e-02,
       2.28413362e-02, -2.51786294e-03, -1.33058401e-02, -8.64045043e-03,
       -8.40876438e-03, -1.84805468e-02, -1.99293308e-02,
       -9.63110942e-03, 1.13098882e-02, 1.56134451e-02, -9.33113415e-03,
       -1.62512306e-02, -9.50013939e-03, -1.39285475e-02,
       -2.51345392e-02, -2.45127119e-02, -2.06115376e-02, 1.30886370e-02,
       2.48660520e-02, -6.17702212e-03, -1.60386395e-02, -1.30110718e-02,
       -1.85659379e-02, -9.08337627e-03, -1.13594774e-02,
       -8.13948363e-03, -4.07308200e-03, -2.09788717e-02,
       -1.17078209e-02, -2.87529104e-03, 5.90948295e-03, 7.19135394e-03,
       -3.47678806e-03, -7.21386261e-03, -1.19020957e-02,
       -8.63220077e-03, -1.72969941e-02, -1.65088251e-02,
       -9.45267547e-03, 7.58308161e-04, -2.13363324e-03, -1.44350796e-03,
       -3.75623140e-03, -6.02961238e-03, -1.23630953e-03,
       -1.43857785e-02, -8.71488173e-03, 2.23079487e-03, 5.84210502e-03,
       7.63587095e-03, -6.01619424e-04, -5.99097274e-03, -2.06634086e-02,
       -2.07626615e-02, -2.08742078e-02, -1.33314785e-02,
       -1.40885520e-03, 4.30910056e-03, 8.11110344e-03, -4.68400260e-03,
       -7.03917397e-03, -6.98835123e-03, 7.63440796e-04, -1.00989491e-02,
       -5.00432681e-03, -3.47114867e-03, 1.06608204e-03, 1.64805050e-03,
       8.05650954e-04, -6.62822416e-03, -4.99091856e-03, -1.86363264e-04,
       -9.57365055e-03, -5.90581493e-03, -8.43477342e-03,
       -1.43276074e-03, 4.96342918e-03, -2.43171630e-03, -6.84562372e-03,
       -1.29524991e-02, -1.01260766e-02, -1.68609023e-02,
       -5.88477124e-03, 3.35731683e-03, 5.47629269e-03, 1.03066619e-02,
       -3.17640593e-06, -4.69343271e-03, -1.10370349e-02,
       -1.09460019e-02, -2.08588187e-02, -9.78600327e-03,
       -4.09172149e-03, -5.22692269e-03, 6.60420116e-03, 1.89872668e-03,
       -9.79292323e-04, -5.23588853e-03, -1.31098588e-03,
       -6.25532493e-03, -3.69247282e-03, -6.61480334e-03,
       -5.35051979e-04, 2.58478499e-03, 1.12552138e-03, -5.79518126e-03,
       -5.22667542e-03, 6.54921401e-03, -2.22293986e-03, -2.35278625e-04,
       2.09650327e-03, 4.35509579e-03, 1.78122707e-03, -5.69755444e-03,
       -1.11648790e-03, -8.59294180e-03, -7.05975201e-03,
       -8.99034087e-03, -4.16710926e-03, -1.18660117e-02,
       -7.66564906e-03, -3.02333012e-03, -6.46887207e-03,
       -7.47379288e-03, -4.73087421e-03, -3.22331558e-03,
       -3.12362798e-03, -9.00462153e-04, -6.87266793e-03,
       -3.33344797e-03, -1.96667342e-03, -9.45769530e-03,
       -1.24685960e-02, -3.91387055e-03, 6.30080746e-03, -4.06534132e-03,
       -1.37625439e-02, -4.12119552e-03, -3.93793639e-03,
       -4.70654853e-03, -1.53397806e-02, -1.72669832e-02,
       -4.31986433e-03, 5.18074026e-03, 2.05086870e-03, -3.30648338e-03,
       -7.21178018e-04, -4.26229602e-03, -6.00863155e-03,
       -9.40022059e-03, -1.14806267e-02, -2.76671187e-03, 5.77595667e-04,
       -7.48085557e-03, -1.66366287e-02, -1.10039040e-02,
       -7.75939506e-03, -8.55569262e-03, -1.62350740e-02,
       -1.65232848e-02, -9.36783385e-03, 9.23542865e-03, 2.68352055e-03,
       -1.57193094e-03, -2.02997332e-03, -3.11506516e-03,
       -6.61779661e-03, -1.48475925e-02, -1.95517670e-02,
       -4.80915187e-03, 1.78894249e-03, -2.86311749e-03, -2.56589358e-03,
       1.08540640e-03, 5.87350037e-03, -3.17293149e-03, -1.65954269e-02,
       -2.52577607e-02, -1.46853440e-02, 5.42367762e-03, -7.61751318e-03,
       -1.65349524e-02, -1.16260350e-02, 5.90847619e-03, -1.40883005e-03,
       -1.09244483e-02, -1.72835514e-02, -7.71884480e-03, 1.24379629e-02,
       -2.78822234e-04, -5.44378348e-03, -3.36207869e-03,
       -1.39664393e-03, -4.46081627e-03, -1.20114004e-02,
       -2.32387632e-02, -1.97538901e-02, 4.90361173e-03, -1.18676918e-02,
       -1.68105680e-02, -5.78606687e-03, -4.09674458e-03,
       -5.78353787e-03, -1.27289398e-02, -1.19973840e-02,
       -4.66425065e-03, 1.19176302e-02, 6.75798394e-03, -8.35323986e-03,
       -1.04776202e-02, 2.38630921e-03, -2.09720631e-04, -9.59720183e-03,
       -6.16453495e-03, -1.54389755e-03, 3.38706211e-03, -8.90456699e-03,
       -1.35794301e-02, -1.24119567e-02, -8.24228767e-03,
       -3.44720599e-03, -1.07312389e-02, -1.30543746e-02,
       -1.29135093e-02, 1.16604231e-02, 7.50049017e-03, -7.29100592e-03,
       -5.17633790e-03, 9.96769057e-04, -1.68139266e-03, -1.08792176e-02,
       -7.43001932e-03, -4.07937123e-03, 2.73670931e-03, -7.28839030e-03,
       -1.01427035e-02, -1.12352446e-02, -6.62404625e-03,
       -1.19183371e-02, -6.54351292e-03, -7.85193779e-03,
       -2.57745152e-03, -2.26979004e-03, -3.24427569e-03,
       -6.60821749e-03, -1.88471773e-03, -3.45231593e-03,
       -6.83764112e-04, 3.07170418e-03, -1.09025501e-02, -9.70879570e-03,
       -8.41403101e-03, -7.24915473e-04, -1.36347590e-02,
       -2.53226986e-04, 1.72474736e-03, 1.01706721e-02, 1.81980291e-03,
       -4.56803804e-03, -2.22152658e-03, 1.25012745e-03, -2.72308302e-04,
       -7.79025164e-03, -1.29139358e-02, -1.69541761e-02,
       -5.39010856e-03, 5.17539587e-03, -5.76983206e-03, -9.00341291e-03,
       -9.65682417e-03, -1.04642753e-02, -1.39008677e-02,
       -1.58442035e-02, -1.93312336e-02, 2.07226118e-03, 8.22063908e-03,
       -6.16199989e-03, -1.01050809e-02, -2.01223372e-03, 3.74006631e-05,
       -1.31829046e-02, -3.88672482e-03, 5.18535683e-03, 1.37242284e-02,
       8.81055184e-03, -2.28222879e-03, -9.68918949e-03, -1.31749664e-03,
       -9.68306884e-03, -1.68978721e-02, -6.68996107e-03,
       -4.11573006e-03, 8.35729297e-03, 8.96770321e-03, -5.83369285e-03,
       -9.21720359e-03, -2.95072910e-03, -9.23262909e-03,
       -1.35339145e-02, -8.51393677e-03, -1.14640454e-02, 6.63411943e-03,
       8.97475798e-03, -3.30141559e-03, -1.19611509e-02, -9.37609281e-03,
       -1.19299656e-02, -1.84227470e-02, -9.88953188e-03,
       -1.44079151e-02, 5.73957525e-03, 8.13420303e-03, 1.80893566e-03,
       -2.99190660e-03, 1.27996050e-03, 1.36222260e-03, -9.72904451e-03,
       -3.46592604e-03, -2.99881119e-03, 5.43943280e-03, -7.84593067e-05,
       -6.85531506e-03, -4.57970845e-03, -2.34710774e-03,
       -5.97523665e-03, -8.25681631e-03, -5.30591421e-03,
       -5.15812449e-03, -3.40926833e-03, 1.08504491e-02, 5.18725028e-05,
       -8.31138808e-03, -3.50819342e-03, -4.45177732e-03,
       -8.57701991e-03, -8.89287912e-04, -4.15704772e-03, 7.92440400e-03,
       2.92326440e-03, -5.61921857e-03, -3.66728357e-03, -2.15506367e-03,
       -7.03039253e-03, -1.13705955e-02, -2.39876774e-03, 3.92860128e-03,
       4.98474110e-03, -1.83947186e-03, -7.07108434e-03, -6.12834515e-03,
       -2.16754666e-03, -6.50918018e-03, -9.68020223e-03,
       -4.23665065e-03, -2.98345624e-03, -9.66620399e-04,
       -4.21990640e-03, -1.21799679e-02, -6.58456003e-03, 1.61024602e-03,
       -2.17661145e-03, -6.48444705e-03, 9.58089426e-04, -9.77144577e-03,
       -5.05417958e-03, 2.11632391e-03, -8.00643023e-03, -6.60765357e-03,
       7.48190051e-03, -7.78644695e-04, 1.06576516e-03, 5.26088756e-03,
       9.24682524e-03, 5.51387854e-03, -3.51461745e-03, -1.08083459e-02,
       -1.04144318e-02, 3.95314582e-03, 2.32721469e-03, 8.15623254e-03,
       1.31653040e-03, -5.15343342e-03, -1.57774333e-03, -6.88217394e-03,
       -1.61500089e-02, -1.09514035e-02, 4.04919218e-03, 1.16059631e-02,
       -1.68395659e-03, -2.56028911e-03, -2.34778924e-03,
       -3.82822310e-03, -3.40259564e-03, -7.04060495e-03,
       -2.92122923e-03, 8.88352655e-03, 1.19617991e-02, -4.21406236e-03,
       4.36006906e-03, 8.56462866e-03, 3.53945972e-04, -5.42786857e-03,
       -1.08872289e-02, -3.66677297e-03, 6.29745750e-03, 7.12869223e-03,
       4.22940636e-03, -2.45664385e-03, -5.90175390e-03, -1.85194088e-03,
       -5.87937329e-03, -7.82630499e-03, -1.65496033e-03, 8.93925317e-03,
       2.90097855e-03, -2.15001591e-03, -1.02479407e-03, 1.25451304e-03,
       -1.53161422e-03, -1.83968549e-03, -3.16311372e-03, 1.17145362e-03,
       9.77237243e-03, 6.41098246e-03, -4.01144521e-03, 1.89603446e-03,
       6.70767564e-04, 5.76925522e-04, -1.04839178e-02, -1.54025862e-02,
       -8.07263330e-03, 2.18663644e-03, 1.16047040e-02, 5.77298785e-03,
       -2.88834958e-03, -5.67999715e-03, -4.47057839e-03,
       -8.98259785e-03, -1.31488033e-02, -2.10899184e-03, 9.81649570e-03,
       5.65372640e-03, -3.06042796e-03, 1.20920630e-03, 2.33104383e-03,
       9.19485989e-04, -1.70019083e-02, -2.13882849e-02, -9.56217479e-03,
       -7.33367779e-06, 9.12487973e-03, -2.09958130e-03, -3.32748936e-03,
       -3.27065191e-03, -2.96444236e-03, -5.66164264e-03,
       -1.38651738e-02, -1.22978259e-02, 6.73906505e-03, 1.02662286e-02,
       4.29310184e-03, -3.05361510e-03, -4.61536460e-03, -2.78713618e-04,
       -1.52960820e-02, -1.99250188e-02, -1.58979017e-02,
       -1.60330522e-03, 4.85252170e-03, -3.83527577e-03, -1.13771679e-02,
       -1.22295078e-02, -7.71369273e-03, -1.00757657e-02,
       -1.95595045e-02, -8.43083113e-03, 1.09882774e-02, 1.98239144e-02,
       8.78627691e-03, 1.16522762e-03, 1.10539794e-03, 4.09331219e-03,
       -1.46866655e-02, -2.15346161e-02, -1.76485572e-02,
       -1.91841624e-03, 2.99622491e-03, 3.27510620e-03, -8.51926859e-03,
       -5.47182793e-03, -2.60042935e-03, -1.66843534e-02,
       -1.49089945e-02, -7.55429920e-03, 8.87219561e-04, 1.22160288e-02,
       -7.10846041e-04, -5.80718322e-03, -9.20204259e-03,
       -4.46211128e-03, -1.76668018e-02, -1.40969250e-02,
       -5.55893080e-03, 7.99871236e-03, 1.63559653e-02, -5.63976588e-03,
       -1.27844466e-02, -1.37570342e-02, -9.78489686e-03,
       -1.04474993e-02, -1.32591017e-02, -7.81860296e-03, 4.33121482e-03,
       1.63185317e-02, 6.19299011e-03, -7.22416257e-03, -8.22109170e-03,
       -7.59646646e-04, -1.47366421e-02, -1.52508700e-02,
       -5.04643796e-03, 8.88716895e-03, 1.60980765e-02, -1.92520872e-03,
       -1.33636799e-02, -1.63011085e-02, -1.02118971e-02,
       -2.31358577e-02, -2.05673296e-02, -9.93773248e-03, 1.17084524e-02,
       1.78957321e-02, -8.39819107e-03, -1.36397947e-02, -7.36341951e-03,
       -1.44278500e-02, -2.27596834e-02, -2.35975664e-02,
       -1.45868752e-02, 1.39634563e-02, 2.44843122e-02, -9.64505714e-04,
       -1.18068792e-02, -7.88920466e-03, -1.55908605e-02,
       -1.29351849e-02, -1.91249568e-02, -2.50669732e-03, 1.61230080e-02,
       1.28856786e-02, -9.25334916e-03, -1.34342387e-02, -6.27501495e-03,
       -8.30385927e-03, -1.29266679e-02, -1.27937486e-02,
       -3.21653322e-03, 1.33374510e-02, 1.72545332e-02, -3.83680896e-03,
       -1.35625787e-02, -8.26052856e-03, -1.03191165e-02,
       -2.28472752e-03, -5.93565824e-03, -4.43660794e-03, 8.24766757e-04,
       -5.81541192e-03, -3.13214399e-03, 3.52606201e-03, 6.89071370e-04,
       9.54287942e-04, 2.02230015e-03, -9.03828070e-03, -2.59972624e-02,
       -1.11212684e-02, -1.54607380e-02, -1.32829621e-02,
       -6.02582190e-03, 3.28395586e-03, 6.89656520e-03, -1.21795305e-03,
       -1.64559912e-02, -9.73571092e-03, 4.29924577e-03, -1.58539452e-02,
       -7.79476622e-03, -3.92103894e-03, -2.16214731e-03, 9.92988888e-03,
       1.25232374e-03, -2.74437182e-02, -2.17112657e-02, -3.66745587e-03,
       -9.02880449e-03, -1.67665631e-02, -1.24254590e-02, 2.44150171e-03,
       1.14037450e-02, 4.53594700e-03, -9.20043886e-03, -1.82746351e-02,
       -8.90061166e-03, -1.38708577e-02, -6.95974799e-03, 1.70699623e-03,
       5.21117775e-03, 1.11119915e-02, 2.64082383e-03, -5.29147359e-03,
       -1.31816911e-02, -9.37491655e-03, -2.02388018e-02,
       -1.13562448e-02, -4.18406306e-03, -4.07400122e-03, 7.00416230e-03,
       6.22460106e-03, -1.99413151e-02, -1.37667218e-02, -1.87362637e-03,
       -5.70560992e-03, -4.32321709e-03, 5.67686791e-03, 3.98819149e-03,
       8.49755295e-03, -4.09756787e-04, -1.12165129e-02, -1.63196959e-02,
       -7.08525488e-03, -1.28007885e-02, -4.74818377e-03,
       -3.79117881e-03, 3.23162484e-03, 4.88447957e-03, 1.42982090e-03,
       -1.28784869e-03, -8.39016493e-03, -9.56587773e-03,
       -1.00867981e-02, -8.78361333e-03, -1.03189759e-02,
       -5.25117479e-03, -6.75093965e-04, 3.59355239e-03, -3.76379649e-05,
       4.58206458e-04, -5.05005894e-03, 4.40584775e-03, 3.23241274e-03,
       -1.22903809e-02, -4.91703860e-03, -6.26628753e-04, 2.10500695e-03,
       -3.74327204e-03, -1.06224995e-02, -4.76182764e-03,
       -3.83584155e-03, -4.33913711e-03, -3.43761034e-03,
       -3.33830412e-03, 3.78712757e-05, 4.67640255e-03, 4.35125374e-04,
       -2.92983721e-03, 6.46931352e-04, 4.11066553e-03, -3.51471547e-03,
       -1.48535501e-02, -9.03089345e-03, -6.17443817e-03,
       -4.54853242e-03, -4.82478598e-03, -9.04327899e-04, 2.53854855e-03,
       8.17353779e-04, -8.48124269e-03, -1.17534939e-02, -6.66074827e-03,
       -6.77100057e-03, -7.11969286e-03, -7.86787271e-03, 1.33536104e-03,
       1.29337627e-02, 7.72462413e-03, -3.44465487e-03, -6.04663324e-03,
       -1.01189520e-02, -2.84851389e-03, -4.17672610e-03,
       -6.29609358e-03, -2.71913595e-03, 1.14102883e-03, -1.07526416e-02,
       -1.10416077e-02, -1.34778768e-02, -1.27233379e-02,
       -9.71584953e-03, -9.87059623e-03, -1.32811489e-02, 8.84492183e-04,
       5.97779173e-03, -8.95845704e-03, -9.67612863e-03, -1.70510560e-02,
       -1.63741019e-02, -5.80752036e-03, -3.62450513e-03,
       -1.34104099e-02, -5.84000116e-03, 8.11801665e-03, 3.22394259e-03,
       -4.82166978e-03, -6.68615894e-03, -1.08754067e-02,
       -1.08815182e-03, -9.31947120e-03, -2.19707526e-02,
       -1.72360539e-02, 4.62467643e-03, -7.64159393e-03, -1.17023215e-02,
       -6.70501124e-03, -2.70360755e-03, -3.56926373e-03,
       -4.72989166e-03, -1.67670306e-02, 5.92340424e-04, 1.13747185e-02,
       -5.52982977e-03, -7.35543855e-03, -1.67367253e-02,
       -1.65948477e-02, -2.63569551e-03, -1.08390590e-02,
       -2.27931384e-02, -1.13092223e-02, 1.01094423e-02, -7.30562629e-03,
       -7.16391578e-03, -1.62461158e-02, -9.15062893e-03,
       -4.82759019e-03, -6.32717879e-03, -1.44294277e-02,
       -1.53450025e-02, 7.95089081e-03, 5.84245799e-03, -3.79642053e-03,
       -1.85191748e-03, 2.60589481e-03, -3.75695527e-03, -8.25453084e-03,
       -1.58941578e-02, -1.53888389e-02, 3.54998047e-04, 3.05462047e-03,
       -1.57032199e-02, -1.21938409e-02, -1.37182456e-02,
       -1.01428721e-02, -4.90776263e-03, -1.41497450e-02,
       -7.09818350e-03, 1.00963600e-02, 6.42267568e-03, -2.51122005e-03,
       -8.25063698e-03, -1.25261315e-03, -2.55771633e-03,
       -8.91653541e-03, -1.40272416e-02, -1.56010762e-02, 5.28318901e-03,
       1.67596643e-03, -1.30624101e-02, -1.57244951e-02, -1.25714242e-02,
       -5.84483752e-03, -3.84311494e-03, -9.16900486e-03,
       -6.03491487e-03, 8.80422629e-03, 1.24198180e-02, -8.15823115e-03,
       -1.23942923e-02, -1.84161998e-02, -7.10185524e-03,
       -1.76560681e-03, -2.13222299e-03, -5.27381490e-04,
       -2.80357641e-03, -1.04293907e-02, -1.32981474e-02,
       -2.17479970e-02, -2.17535738e-02, -4.36773803e-03,
       -5.07362839e-03, -9.71556827e-03, -7.37708993e-03, 9.91550647e-03,
       1.04389628e-02, -3.83234047e-03, -1.24859978e-02, -1.40297050e-02,
       -2.28366256e-03, -2.52301968e-03, -4.74742474e-03,
       -2.18729535e-03, -1.83243887e-03, -1.25728780e-02,
       -4.67319088e-03, -2.17138622e-02, -1.89403929e-02,
       -2.93539860e-03, 6.60100812e-03, 1.39723800e-03, -5.57710882e-04,
       1.36321178e-03, -6.54331362e-03, -6.09572092e-03, -8.93246569e-03,
       -1.38198854e-02, 7.23500643e-03, 7.52019882e-03, -5.48792677e-03,
       -5.95537061e-03, -2.69620493e-03, -1.30017446e-02,
       -9.92421526e-03, -6.65327488e-03, -1.11801345e-02, 7.69507047e-03,
       4.98795277e-03, 6.92416215e-03, 4.03369777e-03, 1.28963453e-04,
       -4.64635901e-03, -1.87863910e-03, -1.22710671e-02,
       -1.19904336e-02, 5.97329286e-04, -2.04264978e-03, 4.66030731e-04,
       7.70141720e-04, 3.06183612e-03, -1.48582887e-02, -1.19558983e-02,
       -1.51679339e-02, -1.84713639e-02, -5.75492019e-03,
       -2.81949481e-03, -1.13050081e-02, -7.03413319e-03,
       -1.86787255e-03, -7.23130489e-03, -4.35143663e-03,
       -2.41287611e-03, -4.89063282e-03, 3.93972686e-03, 2.58310419e-03,
       -2.10263464e-03, -1.30857294e-03, 4.08421271e-03, -4.34902450e-03,
       -2.04942375e-03, -2.89134076e-03, -2.75180419e-03,
       -3.64081177e-04, -8.59686825e-03, -4.37047752e-03, 3.33896349e-03,
       4.86701215e-03, -6.37941470e-04, -8.63104779e-03, -1.20637584e-02,
       -1.01897568e-02, -1.12613337e-02, -7.90001359e-03,
       -5.43868868e-03, 3.01280594e-03, 1.11776739e-02, 3.82945500e-03,
       3.26739950e-03, -3.17626260e-03, -8.61543044e-03, -6.03588112e-03,
       1.26804085e-03, -6.45348569e-03, -7.25669414e-03, 5.21751307e-03,
       4.04618075e-03, 3.35134333e-03, -2.28189304e-03, -2.61947094e-03,
       8.40185385e-04, -9.42178909e-03, -1.80552062e-02, -9.45492368e-03,
       8.49301927e-03, 6.72221137e-03, 1.32277329e-02, -2.28451774e-03,
       -5.82527649e-03, 2.36142473e-03, -5.92195895e-03, -1.02654239e-02,
       -1.97051582e-03, 5.51333651e-03, -2.55832492e-06, -1.08286762e-03,
       2.41253781e-03, -4.12528962e-03, 1.59170668e-04, -1.09929545e-02,
       -1.78180467e-02, -1.37566067e-02, 8.98588856e-04, -1.21532315e-02,
       -8.51358287e-04, 7.32416927e-04, -6.45305961e-03, 8.29368772e-04,
       -4.08141408e-03, -1.16812233e-02, -4.56322823e-03, 6.92981668e-03,
       4.60990751e-03, 1.20650288e-02, 2.46645883e-03, 1.53047993e-04,
       4.36504232e-03, -7.49767106e-03, -1.58194080e-02, -1.13814138e-02,
       3.70556139e-03, -2.87074712e-03, 8.58066778e-05, 3.89757985e-03,
       3.38325673e-03, 4.31199791e-03, -6.91559678e-03, -2.25632787e-02,
       -1.38496039e-02, 6.50792569e-03, -1.59939716e-03, 8.89709406e-03,
       1.39868204e-02, 8.39899667e-03, 5.10832574e-03, -7.67199416e-03,
       -1.50436917e-02, -1.73559505e-02, 2.15385412e-03, -9.83655453e-03,
       -4.29032277e-03, 4.44430206e-03, 7.98048265e-03, 4.73081367e-03,
       -7.96711259e-03, -1.19231176e-02, -3.39743728e-03, 4.84227622e-03,
       3.09741148e-03, 1.96391324e-04, 1.64445664e-03, 2.16127583e-03,
       3.70958121e-03, -8.03986564e-03, -1.33683952e-02, 1.60175166e-03,
       1.20020891e-02, 1.30601898e-02, 1.36349967e-03, -1.09420512e-02,
       -6.63214596e-03, -7.79901864e-04, -3.97123583e-03,
       -8.66422057e-03, -5.39455423e-03, 7.38346390e-03, -3.13592167e-03,
       -1.93914736e-03, 5.27616218e-03, 9.11001209e-03, 5.24945278e-03,
       -6.18787389e-03, -9.59342998e-03, -5.31990081e-03, 1.12134796e-02,
       8.00643023e-03, -1.64642045e-03, -5.53182466e-03, -3.15423333e-03,
       3.29225860e-03, -1.31412428e-02, -1.85632538e-02, -4.70158271e-03,
       1.22103859e-02, 2.36098859e-02, 1.28817428e-02, -3.70377628e-03,
       -3.88992345e-03, 2.88467822e-06, -1.55364061e-02, -2.31968462e-02,
       -1.45210223e-02, 1.64162845e-03, 2.73196143e-03, -7.50476494e-04,
       -1.07376343e-02, -1.53514894e-03, -2.54937541e-03,
       -7.29573704e-03, -1.54852672e-02, -9.07850172e-03, 9.07032192e-03,
       1.90787390e-02, 6.18444383e-03, -3.09482869e-03, -7.63698108e-03,
       1.87917810e-03, -1.00550894e-02, -1.68833584e-02, -1.10876737e-02,
       -1.68251921e-03, 6.85744034e-03, -2.52678664e-03, -9.93078668e-03,
       -1.34179108e-02, -3.49444314e-03, -1.34307565e-02,
       -1.71918031e-02, -1.19336918e-02, 1.27838843e-03, 4.41186922e-03,
       3.71952960e-03, -3.86281125e-03, -1.68897235e-03, 1.11082115e-03,
       -7.58181140e-03, -1.69215761e-02, -1.14526171e-02,
       -3.82197031e-04, 4.93234117e-03, -5.75052807e-03, -4.53214580e-03,
       -8.48870259e-03, 3.93457391e-04, 5.34882129e-04, -1.76358223e-02,
       -1.13129141e-02, -9.90614295e-04, 5.79104200e-03, 3.17343557e-03,
       -1.12755038e-03, -1.39827980e-03, 5.11033414e-03, 3.11123906e-03,
       -1.62138641e-02, -1.52067756e-02, -7.20348721e-03, 1.29905692e-03,
       -9.99351311e-03, -5.44186588e-03, -6.93309819e-03, 3.25243548e-03,
       -6.93969987e-03, -1.74288582e-02, -1.16270557e-02, 2.06746277e-03,
       4.17743530e-03, -1.63806062e-02, -1.09738540e-02, -9.60014202e-03,
       7.90036225e-04, -5.69329737e-03, -1.25870537e-02, -1.25692952e-02,
       5.26755024e-03, 1.32691376e-02, -1.21519594e-02, -1.43638002e-02,
       -9.66148265e-03, -4.47933236e-03, 6.27915899e-04, -1.33993989e-02,
       -1.35919675e-02, -2.39798171e-03, 2.63187196e-03, -1.39016630e-02,
       -1.81583837e-02, -1.11766784e-02, 3.65478243e-03, -4.80711926e-03,
       -9.44923703e-03, -1.12555856e-02, 1.36202131e-03, 7.71962898e-03,
       -6.98569929e-03, -1.80167761e-02, -1.20321922e-02,
       -1.49673352e-03, 7.74547283e-04, -1.85346473e-02, -6.90716086e-03,
       9.70051065e-03, -1.29509680e-02, -6.78374898e-03, -6.69769477e-03,
       3.22117965e-04, 9.08914953e-03, -1.78961549e-03, -2.59791911e-02,
       -1.62891783e-02, 3.66363535e-03, -7.66009092e-03, -1.26847932e-02,
       -1.28671229e-02, -3.14696401e-04, 5.36250509e-03, -7.50347693e-03,
       -1.61891412e-02, -1.13514261e-02, 6.46769861e-03, -2.02319622e-02,
       -1.97463334e-02, -1.82311945e-02, -2.52436940e-03, 2.47640489e-03,
       2.95862974e-05, -1.65043734e-02, -2.05575302e-02, -3.69794108e-03,
       -2.36262288e-02, -1.72338877e-02, -1.56218624e-02,
       -8.08178331e-04, 6.47607958e-03, -2.07220600e-03, -2.18711179e-02,
       -1.50404936e-02, -3.27476091e-03, -6.66944636e-03,
       -5.90693112e-03, -1.33800926e-03, 3.78562458e-04, 3.11251590e-03,
       -3.68535140e-04, -1.10681709e-02, -2.03805845e-02,
       -9.15269088e-03, -1.14574283e-02, -9.10728332e-03,
       -1.40839862e-03, -6.48700539e-03, 1.68146253e-05, 5.26806619e-03,
       -1.51141556e-02, -2.26916540e-02, -6.87402813e-03,
       -1.78392064e-02, -1.09026609e-02, -4.00566077e-03, 1.22514809e-03,
       1.23038804e-02, 3.02170240e-03, -1.21877054e-02, -2.10390408e-02,
       -1.40637169e-02, -2.00969465e-02, -1.63423829e-02,
       -4.52491455e-03, -5.31218806e-03, 4.36354661e-03, 2.47277319e-03,
       -6.22871285e-03, -1.64116621e-02, -6.50761742e-03,
       -6.62869355e-03, -4.03678743e-03, -9.99772106e-04,
       -2.98522180e-03, 3.89996823e-03, -1.64213229e-03, -4.20378894e-03,
       -6.55409368e-03, 2.57898890e-03, -4.68787504e-03, -5.94654307e-03,
       -1.27138523e-02, -7.56240962e-03, -5.93078928e-03,
       -2.48529785e-03, -1.02244979e-02, -1.44764334e-02,
       -8.39699898e-03, -1.12327794e-02, -9.04868450e-03, 3.34689836e-03,
       -1.42106600e-03, 4.05518105e-03, -8.04122537e-03, -1.34644667e-02,
       -1.40987998e-02, -9.17885453e-04, -8.17125197e-03,
       -1.19574843e-02, -4.85275360e-03, -7.77893327e-03,
       -4.78080846e-03, -1.39318197e-03, -7.53039028e-03,
       -3.60462558e-03, 8.34273733e-03, -1.22588938e-02, -8.93184915e-03,
       -9.81049053e-03, -7.92559795e-03, -3.77208623e-03,
       -7.82383513e-03, -8.70148279e-03, 3.09635326e-03, 1.21537559e-02,
       -4.02876642e-03, -4.32763621e-03, -1.32226599e-02,
       -9.25106928e-03, -3.37109924e-03, -7.68833933e-03,
       -1.38338441e-02, -1.01900175e-02, 3.60208750e-03, -1.11695249e-02,
       -1.36412429e-02, -1.50910551e-02, -8.32462870e-03,
       -2.15808349e-03, -1.31969759e-02, -1.14299450e-02, 5.18893998e-04,
       7.88190030e-03, -7.07182335e-03, -1.13103027e-02, -2.14142296e-02,
       -7.38320919e-03, -4.78003221e-03, 1.28209603e-03, -5.79808094e-03,
       1.20977778e-02, 1.74925569e-02, -3.49828950e-03, -1.25319818e-02,
       -2.23338567e-02, -1.21616684e-02, -2.54874703e-05,
       -2.12781224e-03, -1.23014813e-02, 4.47087968e-03, 2.25420091e-02,
       -5.80352871e-03, -8.03829730e-03, -1.64323784e-02,
       -9.79452301e-03, -1.99153228e-03, -9.77047440e-03,
       -2.68803490e-03, 5.43435849e-03, 6.57138694e-03, -8.54946114e-03,
       -2.25641858e-02, -2.75665466e-02, -1.01174265e-02,
       -1.15827098e-03, -1.20001864e-02, -9.29282606e-03, 2.76405364e-03,
       1.78252868e-02, -7.00553646e-03, -1.57795269e-02, -2.14413907e-02,
       -1.42471660e-02, -1.01530245e-02, -6.32193917e-03,
       -1.65008083e-02, -1.31517954e-04, 1.85409971e-02, 4.91847470e-03,
       -9.55550640e-04, -1.02464259e-02, -2.36125989e-03, 9.96568997e-05,
       -6.24628225e-03, -1.67847946e-02, -1.38753336e-02, 1.09096812e-02,
       -5.96403982e-03, -1.04441848e-02, -1.38722323e-02,
       -5.96552482e-03, 1.14641257e-03, -1.47057101e-02, -1.89493001e-02,
       2.47429544e-03, 1.82118099e-02, 6.34817081e-03, -4.77384077e-03,
       -1.35894101e-02, -6.79178815e-03, -5.30557008e-03,
       -1.24583123e-02, -2.42894720e-02, -1.38793448e-02, 8.78176466e-03,
       -2.87421304e-03, -4.18644911e-03, -5.82514377e-03,
       -3.66929942e-03, -5.58740133e-03, -4.94355196e-03,
       -1.00118555e-02, -3.39375855e-03, 1.40602207e-02, 7.94574153e-03,
       -2.64134072e-03, -9.22416057e-03, -7.77047127e-04, 2.35333107e-03,
       -1.92272523e-03, -4.34928387e-03, -4.53604758e-03,
       -8.10744334e-03, -1.14776799e-02, -1.59198989e-03,
       -1.18661765e-02, -7.38379266e-03, 1.59602356e-03, -7.67975720e-03,
       -1.00750662e-02, -6.57481421e-03, 1.17880320e-02, 9.83694661e-03,
       -1.99975586e-03, -8.28504935e-03, -5.71076060e-03,
       -1.32408144e-03, -3.67125752e-03, -1.36471633e-02,
       -1.24331405e-02, -7.93668721e-03, -1.60868894e-02,
       -7.14361761e-03, -1.00337379e-02, -1.85886479e-03, 2.10218233e-04,
       7.63017265e-03, 5.76227717e-03, -5.79451618e-04, -2.14500050e-03,
       -1.99594349e-03, -1.25713545e-04, -5.33411978e-03,
       -8.67840741e-03, 3.35798506e-03, -2.29115594e-05, 2.59546097e-03,
       4.20164270e-03, 1.06166943e-03, -1.26327490e-02, -1.37020638e-02,
       -1.37867983e-02, -1.46376956e-02, -8.25998187e-03, 6.26591314e-03,
       -2.70818127e-03, -2.56074895e-03, -5.07277343e-03,
       -1.23650478e-02, -1.95304025e-03, -6.58498611e-03,
       -2.20491737e-03, 1.01164002e-02, 2.92384042e-03, -5.63492579e-03,
       -4.71381145e-03, -1.25203645e-02, -2.57557239e-02,
       -1.64474826e-02, -1.32533535e-02, -8.54322501e-03,
       -2.51429621e-03, -2.14849389e-03, -5.45697007e-03, 1.05983522e-02,
       6.35013357e-03, -3.17069027e-03, -9.27691255e-03, -6.79089315e-03,
       -6.22667139e-03, -1.02203747e-03, -7.03576813e-03,
       -1.32948002e-02, 4.76334617e-03, 9.42745060e-03, 6.16531353e-03,
       2.91536329e-03, 5.09991264e-03, 2.87757022e-03, 6.66033663e-03,
       4.35622875e-03, -5.90721378e-03, -1.73652533e-03, -4.12363652e-03,
       -1.49370423e-02, -1.50181977e-02, -9.59012099e-03,
       -5.76858129e-03, 7.40798516e-03, -7.14462716e-04, -6.07070467e-03,
       -3.11205932e-03, -4.15975368e-03, -6.37412397e-03,
       -1.23406798e-02, -6.39679888e-03, -3.88359162e-03, 4.39523114e-03,
       -5.27882064e-03, -1.10916775e-02, -2.53904058e-04, 5.46244578e-03,
       -4.42062737e-03, -4.73174173e-03, 2.13749518e-04, 5.20535279e-03,
       1.01991510e-02, -6.64794259e-03, -1.70036238e-02, -3.64540564e-03,
       1.05870441e-02, -1.16134863e-02, 2.06856662e-03, 3.26764444e-03,
       -6.50967646e-04, 7.69574335e-03, -1.47708040e-03, -2.69337161e-03,
       1.42612762e-03, 1.63529662e-03, -6.69017760e-03, -1.53555600e-02,
       -7.94441812e-03, -6.54955534e-03, 3.32518457e-03, -4.32576844e-03,
       -1.18200993e-02, -4.12706868e-04, 6.65892567e-03, -8.02569464e-03,
       -1.05828475e-02, -7.08382577e-03, -8.49881954e-03,
       -1.48344110e-03, -4.10745572e-03, -1.80101153e-02,
       -5.15760528e-03, 1.17855230e-02, -1.59744010e-03, 4.54652263e-03,
       8.92330613e-03, 1.84093195e-03, 4.02656337e-03, -5.97934937e-03,
       -1.02477763e-02, -9.21272114e-03, 1.04093235e-02, -3.57180904e-03,
       -7.10742269e-03, 7.15321582e-03, 3.60642839e-03, 3.20491684e-03,
       -3.39008588e-03, -6.80773100e-03, 4.21000458e-03, 1.16007281e-02,
       -1.78489916e-03, -2.28269678e-03, -9.03763867e-04,
       -2.88215792e-03, -3.93492961e-03, -5.02804806e-03,
       -1.09461637e-03, -3.52771743e-03, 3.70558770e-03, 4.67103906e-03,
       -2.94868858e-03, -2.70118844e-03, -1.12199155e-03,
       -2.17316998e-03, -1.31578231e-02, -1.04293525e-02,
       -7.08901323e-03, 4.43434250e-03, 1.67842186e-03, -4.94183321e-03,
       2.74308375e-03, 2.69364589e-03, -4.30217246e-03, -1.09333368e-02,
       -1.39350072e-02, -6.32688636e-03, 8.67664069e-03, 6.38844538e-03,
       -3.57138971e-03, 3.44416039e-04, -1.74635195e-03, 4.70480940e-04,
       -9.31344181e-03, -5.39450673e-03, -8.80162581e-04, 7.43518397e-03,
       9.05544870e-03, -1.12128607e-03, 5.61631145e-03, 3.58994701e-03,
       -4.12494596e-03, -1.21570593e-02, -1.07792439e-02,
       -5.95912570e-03, 1.18542789e-02, 7.19209295e-03, -1.09190226e-03,
       -3.60817299e-03, -8.74420628e-03, -1.00408206e-02,
       -6.32661721e-03, -1.58025585e-02, -1.08505236e-02, 1.31112640e-03,
       1.13551831e-02, -2.63275160e-03, -3.42598348e-03, -5.80248516e-03,
       1.70904479e-03, -9.08895303e-03, -1.65163223e-02, -1.28440131e-02,
       -4.96038189e-03, 4.79849987e-03, -1.16104418e-02, -1.41656119e-02,
       -1.60312261e-02, -3.88269592e-03, -5.73462620e-03,
       -5.73287020e-03, -6.16197998e-04, 6.35141321e-03, 8.11568275e-03,
       -1.41375035e-03, -3.35903256e-03, -5.26536955e-03,
       -1.67404930e-03, -8.64639413e-03, -1.00657083e-02,
       -1.01978043e-02, -6.40091114e-03, 1.06776063e-03, -7.71575747e-03,
       -7.60292215e-03, -1.09450584e-02, -1.00177489e-02,
       -1.59722555e-03, -1.45842470e-02, -1.42287919e-02,
       -3.22796102e-03, 7.23785430e-04, -4.97442996e-03, -5.45253139e-03,
       -7.55979773e-03, 2.06443015e-03, 6.96945051e-03, -1.10198604e-02,
       -1.31188845e-02, -6.16398919e-03, 1.71724576e-04, -9.52252187e-03,
       -1.20405536e-02, -1.18659884e-02, 1.56124122e-03, 4.67595225e-03,
       -5.36342198e-03, -1.15186246e-02, -3.27047263e-03, 2.59242184e-03,
       -5.87404100e-03, -1.06742268e-03, -5.94470045e-03, 4.88276267e-03,
       7.57481623e-03, -1.39375962e-03, -8.20285548e-03, -3.77112627e-03,
       -4.74311295e-04, -1.21124620e-02, -1.28665017e-02,
       -1.72327422e-02, 3.35011887e-03, 5.01201674e-03, -9.82397702e-03,
       -1.04837557e-02, -1.87241123e-03, 3.62312235e-03, -3.61600565e-03,
       -1.29398117e-02, -8.83977395e-03, 2.39454838e-03, -2.70218379e-03,
       -1.12379743e-02, -7.50931213e-03, 4.79962351e-03, 1.19752781e-02,
       2.87295930e-04, -1.07382620e-02, -7.81604182e-03, -2.93234759e-03,
       -2.37131771e-03, -6.67087967e-03, -8.97170790e-03,
       -2.22321623e-03, 5.12416195e-03, -5.21228591e-04, -8.84111412e-03,
       -1.51028140e-02, -3.95327574e-03, -5.98327536e-03,
       -1.15376301e-02, -4.39537223e-03, 3.80864670e-03, 1.58480238e-02,
       1.75530056e-03, -1.28050577e-02, -8.81484244e-03, -6.60509663e-03,
       -1.10198511e-03, -1.16798643e-03, 2.39191140e-04, 8.99465475e-03,
       -1.20412074e-02, -1.34263495e-02, -9.11733788e-03, 1.65450794e-04,
       1.31164689e-03, 6.64763851e-03, -4.76849778e-03, -1.30956322e-02,
       -7.62886601e-03, -1.63321625e-02, -1.21278223e-02,
       -5.62212057e-03, 1.29232248e-02, 1.12274792e-02, -3.68459732e-03,
       -8.68152920e-03, -3.70735722e-03, -8.79460131e-04,
       -2.25541927e-02, -1.30468868e-02, -4.86274390e-03, 7.91822386e-04,
       3.86550766e-03, 8.16661341e-04, -1.11480793e-02, -1.28808683e-02,
       -1.64988544e-02, -2.15080716e-02, -1.55677861e-02,
       -1.40337953e-02, 1.65196916e-03, 7.87884183e-03, 9.62022506e-03,
       -8.48817267e-03, -1.56250335e-02, -9.08301119e-03,
       -2.13236343e-02, -1.26630804e-02, -3.51739326e-03, 7.34566897e-03,
       1.44988103e-02, 1.49954227e-03, -1.00511722e-02, -1.40672131e-02,
       -5.50905010e-03, -2.26186384e-02, -1.37577159e-02,
       -5.41685848e-03, 4.72660176e-04, 1.10739423e-02, 3.13919992e-03,
       -9.78447217e-03, -1.41438153e-02, -1.20961489e-02,
       -3.13849449e-02, -1.64998695e-02, -1.53419329e-02,
       -2.29999772e-03, 1.48242358e-02, -1.85341318e-03, -1.80992000e-02,
       -1.46628106e-02, -6.80314749e-03, -2.91847605e-02,
       -9.70071554e-03, -7.67769152e-03, 3.48057854e-03, 1.11607099e-02,
       -6.19757501e-03, -1.14824371e-02, -1.27266590e-02,
       -1.17772247e-03, -1.45025374e-02, -5.93114877e-03,
       -9.73409624e-04, 4.70802560e-03, 6.68692170e-03, -1.02087595e-02,
       -1.19423615e-02, -1.27083417e-02, 6.75567240e-03, -5.35110431e-03,
       -1.08695459e-02, -8.08755402e-03, -3.23221087e-03,
       -1.17549032e-03, -1.24080814e-02, -1.62959006e-02,
       -1.08243534e-02, 5.92318038e-03, -1.71461347e-02, -5.63551253e-03,
       -4.63248231e-03, 4.83846385e-03, 8.55977181e-03, -1.19727533e-02,
       -8.03246722e-03, -7.40234600e-03, 1.64813027e-02, -7.86519144e-03,
       -8.31837580e-03, -1.51162632e-02, -5.67035377e-03,
       -2.15984602e-03, -7.13163381e-03, -1.11098886e-02,
       -8.50758981e-03, 6.42549759e-03, -3.15814861e-04, -1.32066908e-03,
       -1.07145272e-02, -3.29733174e-03, -4.06158448e-04,
       -1.12120630e-02, -1.29807210e-02, -2.11351179e-03, 1.11312708e-02,
       2.79206014e-03, -4.38096002e-03, -1.55902663e-02, -4.24368819e-03,
       1.85558660e-04, -8.11869092e-03, -7.77326059e-03, -7.92079419e-03,
       9.23263002e-03, -3.19931144e-03, 3.53571057e-04, -1.23537546e-02,
       -8.14109296e-03, -8.30084179e-03, -4.33360273e-03,
       -3.84501461e-03, -5.15728723e-03, 1.06552877e-02, -3.70272575e-03,
       -3.78589681e-03, -2.44405624e-02, -9.31990892e-03,
       -6.40182337e-03, -1.00080464e-02, -7.89879821e-03,
       -1.82470621e-03, 6.35027653e-03, -6.48348987e-06, -1.25453938e-02,
       -2.02461686e-02, -1.96027919e-03, 4.58850246e-03, -1.21347178e-02,
       -6.61440426e-03, -8.86468799e-04, 1.31383417e-02, 6.08498883e-03,
       2.46763835e-03, -1.29698683e-02, -5.52770123e-03, -3.29714082e-03,
       -1.52869080e-03, -1.38258925e-04, 3.07832751e-03, 8.74675903e-03,
       -7.99797103e-03, -1.92961935e-02, -2.41384413e-02,
       -1.04528759e-02, -2.75731646e-03, -4.78266552e-03,
       -3.16153117e-03, -1.07956091e-02, 8.34200438e-03, -9.33510065e-03,
       -7.36548984e-03, -9.91121028e-03, -9.15869232e-03,
       -1.63293327e-03, -1.72215011e-02, -1.40153589e-02,
       -7.71360792e-05, 1.16761411e-02, 9.67167690e-03, 2.51574116e-03,
       -3.32693709e-03, -6.39992533e-04, -7.36099109e-03,
       -1.44320112e-02, -1.62211563e-02, -6.38381997e-03, 6.49883412e-03,
       3.59844440e-03, 4.63068299e-03, 4.46386635e-04, -6.83376659e-03,
       -9.42239724e-03, -1.06711322e-02, -9.63169802e-03,
       -6.78612059e-03, 6.01067021e-03, -4.21271566e-03, -1.82587572e-03,
       -4.76068864e-03, -6.35330006e-03, -6.47140713e-03,
       -1.27312606e-02, -1.35491313e-02, -9.96191800e-03, 2.52374774e-03,
       -1.73577297e-04, 2.05733394e-03, -6.11581700e-03, -1.40238423e-02,
       -1.22479992e-02, -5.80688193e-03, -4.08031652e-03, 1.24400097e-03,
       1.74511615e-02, 1.45750018e-02, 5.54027362e-03, -6.79206429e-03,
       -7.76468404e-03, -4.87471325e-03, -5.99215738e-03,
       -3.93739203e-03, -1.79514044e-03, 9.17868980e-04, -4.54128580e-03,
       -1.26212183e-02, -1.59003921e-02, -2.23283400e-03,
       -1.17698044e-03, -8.78227502e-03, -5.30290708e-04,
       -4.60834894e-03, 1.07324505e-02, 9.00049414e-03, 2.80489540e-03,
       -9.61592514e-03, -5.42718871e-03, -8.35293159e-03,
       -1.14640221e-02, -8.79555300e-04, -6.17130427e-03,
       -2.04972923e-03, -8.47132318e-03, -2.12681871e-02,
       -2.27515884e-02, -1.15659349e-02, -2.50574038e-03, 3.62708978e-03,
       -2.10154196e-03, 2.10473035e-03, 1.90556369e-04, -6.91348873e-03,
       -1.02956165e-02, -6.03761058e-03, 2.40069348e-03, 1.35848895e-02,
       6.82028185e-04, -6.21494139e-03, -3.28909862e-03, -6.34670537e-03,
       -1.75873414e-02, -1.37337083e-02, -1.36909913e-02,
       -6.44400623e-03, 3.35858134e-03, 3.92373797e-04, 5.26742917e-03,
       2.66923313e-03, -1.06293557e-03, -8.14023055e-03, -2.25720089e-02,
       -1.55190639e-02, -7.52649223e-03, 7.23868795e-03, -4.96604899e-03,
       1.79122901e-03, -3.24059394e-03, -9.38340463e-03, -1.96300428e-02,
       -2.07025111e-02, -1.74158849e-02, -1.79655999e-02,
       -1.95910130e-03, 2.92121619e-03, -2.90808930e-05, 1.04662403e-03,
       1.98648777e-03, -4.66760108e-03, -1.45357382e-02, -1.18125603e-02,
       -7.71377981e-03, 4.38995985e-03, -3.74595262e-03, -5.01339883e-03,
       2.22149887e-03, 4.41520847e-03, 2.19122419e-04, -1.65759902e-02,
       -1.25986412e-02, -6.48272503e-03, 2.45343719e-04, 5.74755576e-03,
       8.89396016e-03, 7.14418665e-03, -3.76783428e-04, -5.75451087e-03,
       -1.75553653e-02, -1.68962032e-02, -1.18726883e-02,
       -4.18397860e-04, 2.44380470e-04, 5.83629298e-04, 4.05393634e-03,
       1.50386977e-03, -1.41105894e-02, -2.40240283e-02, -2.35809572e-02,
       -1.35734621e-02, -3.76681890e-03, -6.02967618e-03,
       -4.53887228e-03, -3.10017611e-03, 2.15888699e-03, -1.02842622e-03,
       -1.34123648e-02, -8.13229848e-03, -2.28312286e-03, 4.25925478e-03,
       -5.08701243e-03, -6.60816114e-03, -1.47080759e-03, 8.36151280e-03,
       1.04105631e-02, -4.60126251e-03, 1.70683052e-04, 4.26195143e-03,
       3.22840200e-03, 1.39618362e-03, -5.00588492e-03, -6.06817054e-03,
       -3.67803266e-03, -1.30970795e-02, -1.62676889e-02,
       -1.76439565e-02, -7.63481762e-03, 5.05293300e-03, -4.14945418e-03,
       -1.59510374e-02, -7.41601083e-03, 1.64382847e-03, -1.04444316e-02,
       -7.00202491e-03, -1.26612047e-02, -1.18166441e-02, 2.07449379e-03,
       -1.47342170e-02, -8.63887742e-03, 3.45859420e-03, 6.72223838e-03,
       6.93338364e-03, -5.07813599e-03, -1.90792477e-03, -5.63598354e-04,
       -8.81370623e-03, -1.24332011e-02, -2.97312252e-03, 1.48954743e-03,
       4.70123906e-03, 1.16354879e-02, -3.55882337e-03, 2.23634575e-04,
       -6.70902489e-04, -7.49006541e-03, -9.31296684e-03,
       -1.15340138e-02, -2.34624674e-03, 5.84083749e-03, -2.08691624e-03,
       -3.50776827e-03, -8.41242913e-03, -1.11845741e-02,
       -6.03076769e-03, -4.37525334e-03, -1.00267688e-02,
       -1.18032536e-02, 2.92886118e-03, 2.11732855e-04, -8.34687427e-03,
       -4.24489519e-03, -6.32673688e-03, 1.69810068e-04, -9.39717796e-03,
       -4.26381733e-03, 9.09555274e-06, 6.56687189e-03, 7.06696464e-03,
       -5.22227492e-03, -1.06414009e-04, -1.86333281e-03,
       -7.40754092e-03, -1.32865263e-02, -1.31333545e-02, 1.05349219e-03,
       1.46920159e-02, 6.74665812e-03, -4.21009463e-04, -6.60353899e-03,
       -6.93480112e-03, -7.78555404e-03, -1.15096208e-03,
       -7.22628646e-03, -1.07815051e-02, 5.84001187e-03, 1.34006247e-03,
       -4.11932915e-03, -4.92080674e-03, -7.14021130e-03, 1.78282859e-03,
       -3.00832186e-03, -1.16570229e-02, -2.81118066e-03, 6.96519995e-03,
       -4.09812061e-03, -8.43141600e-03, -5.16837649e-03,
       -7.92132132e-03, 4.19940520e-03, -8.18337407e-03, -7.51241622e-03,
       1.89622422e-03, 8.84483941e-03, 2.21892493e-03, -9.38640558e-04,
       -5.65702887e-03, -4.23873030e-03, -6.47625094e-03,
       -6.50683092e-03, -8.76885373e-03, -1.06917508e-02,
       -8.48559383e-03, -3.32413265e-03, -4.03114548e-03,
       -9.53617413e-03, -6.76884409e-03, -3.67308571e-03,
       -4.56166128e-03, -8.48318357e-03, -1.73015893e-03, 1.25289932e-02,
       -8.18503834e-03, -5.59301581e-03, -5.43765118e-03,
       -3.23115219e-03, -5.11758320e-04, -1.11517282e-02,
       -1.12548405e-02, -8.51298217e-03, 1.13044214e-03, -5.23741310e-03,
       -5.45994192e-03, -9.30663478e-03, -9.54310596e-03,
       -9.77959111e-03, 4.85823583e-03, -2.86154728e-03, -7.52700493e-03,
       4.82163654e-04, -3.93293478e-04, -5.36845950e-03, -5.92668913e-03,
       -5.60674816e-03, 3.52650695e-03, 5.11540286e-03, -3.12684104e-03,
       -1.15221925e-02, -3.76299489e-03, -1.72932143e-03,
       -1.11179221e-02, -1.24429110e-02, -1.33618610e-02,
       -1.07846269e-03, -3.06946295e-03, -6.96065463e-03,
       -2.52735615e-03, 1.00178560e-02, 4.73855948e-03, -2.04238691e-03,
       -3.21931415e-03, -5.39322942e-03, -7.24945124e-03,
       -4.97551775e-03, -9.18448437e-03, -1.19496342e-02,
       -3.65933659e-03, -8.23723711e-03, -1.07739866e-02,
       -1.19499052e-02, -1.57022253e-02, -2.10088328e-03,
       -3.87777272e-03, -8.81141983e-03, -6.35071658e-03, 1.37328461e-03,
       5.52731706e-03, -3.51915509e-03, -1.12310806e-02, -1.67405624e-02,
       -8.13097786e-03, -8.62605870e-03, -8.48345738e-03, 7.54378457e-03,
       1.03065204e-02, 1.61422659e-02, -6.05047541e-03, -1.65152606e-02,
       -1.23859830e-02, -1.30297011e-02, -1.29488008e-02,
       -1.20553318e-02, -3.45726870e-03, 1.04268109e-02, 2.10674433e-03,
       -6.79649878e-03, -1.05484426e-02, -1.54878711e-02,
       -7.36859255e-03, -1.41122099e-02, -8.94928165e-03, 6.26074895e-03,
       2.82384567e-02, 1.10971872e-02, -1.36108771e-02, -1.72187630e-02,
       -1.81617159e-02, -1.46301119e-02, 1.69363904e+00 ]
