%YAML:1.0
---
detectionoutput: !!opencv-object-detector-hog
   winSize: [ 64, 128 ]
   blockSize: [ 16, 16 ]
   blockStride: [ 8, 8 ]
   cellSize: [ 8, 8 ]
   nbins: 9
   derivAperture: 1
   winSigma: 4.
   histogramNormType: 0
   L2HysThreshold: 2.0000000000000001e-01
   gammaCorrection: 1
   nlevels: 64
   signedGradient: 0
   SVMDetector: [ 4.59619751e-03, 3.20950001e-02, 2.77083926e-02,
       5.76801132e-03, -1.51553228e-02, -1.58309489e-02, -1.67012494e-02,
       -1.49966832e-02, -8.46185070e-03, 6.73222123e-03, 3.05682328e-02,
       2.81505454e-02, 2.28673546e-03, -1.56915523e-02, -1.14403293e-02,
       -2.01892741e-02, -2.26514898e-02, -1.07495133e-02, 4.16447874e-03,
       1.16585484e-02, 2.14242730e-02, 3.13103013e-02, 5.97893959e-03,
       -1.40195200e-02, -2.17965897e-02, -1.77820176e-02,
       -8.50220490e-03, -8.89438204e-03, -1.95061450e-03, 1.00252554e-02,
       3.20744701e-02, 5.97729534e-03, 2.43286113e-03, -1.04028070e-02,
       -2.22299900e-02, -1.85736045e-02, 6.84215315e-03, 8.43541324e-03,
       3.47223273e-03, -4.71067382e-03, -1.21289166e-02, 1.19874290e-04,
       -1.76304823e-03, 8.98023660e-04, 6.41674874e-03, 5.41380187e-03,
       -1.28921531e-02, -1.52804907e-02, -4.57625836e-03,
       -4.51388070e-03, 1.70294568e-02, 1.50593109e-02, 1.88982841e-02,
       1.37410332e-02, -1.20247975e-02, -8.59881379e-03, -1.71370141e-03,
       1.00503815e-02, 4.87742526e-03, 2.86520226e-03, 9.99435317e-03,
       3.24666529e-04, -1.33786639e-02, -1.76109802e-02, -2.59494577e-02,
       -2.28520893e-02, 2.06360361e-03, 3.39938030e-02, 3.13894227e-02,
       2.34035663e-02, 1.70392320e-02, -5.45028457e-03, 1.66398548e-02,
       3.94828967e-04, -3.36028123e-03, -4.37848922e-03, -1.49527146e-02,
       -3.52882338e-03, 4.04084008e-03, 3.19016562e-03, 8.17029737e-03,
       6.99020457e-03, -9.66409978e-04, 1.96647979e-02, 2.32490450e-02,
       7.96470139e-03, 2.55354261e-03, 1.22391415e-04, -1.56268980e-02,
       -2.64444225e-03, -1.15665153e-03, -7.73341395e-03,
       -8.54735542e-03, -7.46403064e-04, 1.44609930e-02, 9.88292880e-03,
       -3.66805820e-04, -2.39999895e-03, -2.89866980e-03, 1.88363921e-02,
       1.27370385e-02, 1.38099240e-02, 1.99478436e-02, 5.87012107e-03,
       -4.95195575e-03, -6.50058407e-03, -1.03880847e-02, 6.99316093e-04,
       -1.10466601e-02, -1.39059941e-03, 1.95669681e-02, 1.39345927e-02,
       -7.24803749e-03, -3.44498258e-04, -1.36340712e-03,
       -1.38765620e-02, -1.20637864e-02, 5.24228858e-03, 2.25145239e-02,
       1.17843822e-02, -1.78847229e-03, -2.80479733e-02, -1.14299869e-02,
       -1.41547285e-02, -1.53863998e-02, -7.49333017e-03, 7.77957449e-03,
       1.29798651e-02, 1.73734408e-02, 9.65459552e-03, -1.81377642e-02,
       -7.67856278e-03, -6.60316786e-03, -9.66187567e-03,
       -4.59526852e-03, 2.63470300e-02, 4.75794822e-02, 1.95170902e-02,
       -6.54164236e-03, -3.01942267e-02, -1.65849496e-02,
       -1.89493485e-02, -1.91685539e-02, -3.41215613e-03, 4.09662025e-03,
       1.63971968e-02, 1.07939905e-02, 9.61445365e-03, -1.09575288e-02,
       -9.64585226e-03, -2.01685857e-02, -2.18881927e-02,
       -1.26542756e-02, -2.57364893e-03, 1.23213429e-03, -4.62944526e-03,
       5.97552396e-03, -3.93117592e-03, -1.10749910e-02, -1.77054163e-02,
       -1.84977148e-02, -1.30009791e-02, 2.77663283e-02, 2.79743560e-02,
       1.13456920e-02, -6.21042587e-03, -2.66654044e-02, -1.78584699e-02,
       -1.67803671e-02, -1.37066534e-02, 3.02331080e-03, 3.42787914e-02,
       2.74566207e-02, 7.23205740e-03, -1.81589257e-02, -2.85528898e-02,
       -2.18666010e-02, -7.47036655e-03, 1.39526054e-02, 1.72310192e-02,
       -6.91165728e-03, -1.27947312e-02, -1.87094826e-02,
       -1.13461697e-02, -1.51825361e-02, -7.21725821e-03,
       -2.96221511e-03, -9.08224471e-03, -1.05670299e-02,
       -6.37507159e-03, -1.00852484e-02, -2.91815437e-02,
       -2.39086132e-02, -2.04369295e-02, 6.39429549e-03, 7.05939066e-03,
       6.71933056e-04, 2.17291107e-03, 2.93678492e-02, 2.21200809e-02,
       -5.60309156e-04, -1.54794948e-02, -2.48763449e-02,
       -1.91699918e-02, -1.23148421e-02, 2.53365468e-03, 1.47752212e-02,
       2.88027916e-02, 3.26269008e-02, 1.00330915e-02, -1.66638643e-02,
       -2.60866154e-02, -1.33749656e-02, -1.00188730e-02,
       -3.38563556e-03, 1.30314464e-02, -9.34452098e-03, -1.66084319e-02,
       -1.97531749e-02, -1.67876463e-02, -1.80725716e-02, 7.94576295e-03,
       4.94387979e-03, -5.39443106e-04, -7.30042739e-05, -2.45592799e-02,
       -1.62326619e-02, -1.36633161e-02, -2.92154797e-03,
       -1.38341775e-02, 5.34411334e-03, 9.55494307e-03, -7.68966915e-04,
       -1.73122864e-02, 2.73339693e-02, 3.03326473e-02, 3.11939628e-03,
       -1.62454788e-02, -2.03958657e-02, -3.15022608e-03,
       -4.21491498e-03, -7.98181922e-04, 8.63060914e-03, -1.69807323e-03,
       1.66061409e-02, 2.15308424e-02, 2.76594050e-03, -1.44891338e-02,
       -6.59336627e-04, 1.05172275e-02, -6.17634156e-04, -1.49195194e-02,
       -1.32354386e-02, -4.00304189e-03, -3.76175670e-03, 1.66437635e-03,
       -7.46795349e-03, -1.05725788e-03, -2.90569430e-03,
       -7.17937900e-03, -1.70568135e-02, 9.39214230e-03, -1.23960786e-02,
       -1.24774631e-02, 1.27090851e-03, -4.29082476e-03, -1.51200034e-03,
       -4.69247019e-03, -5.70268044e-03, 5.55943290e-04, -2.75744568e-03,
       6.19751215e-03, 2.50830576e-02, 1.47988796e-02, 3.38336779e-03,
       -2.28912802e-03, 6.80205366e-03, 1.50553486e-03, -1.55009702e-02,
       2.77856155e-03, -1.20531302e-02, -1.51015697e-02, -3.51390755e-03,
       2.88444874e-03, 1.92225954e-04, 5.39787998e-03, 1.49611337e-02,
       4.10633534e-03, 6.24669343e-03, -1.26534291e-02, -5.81625092e-04,
       5.05836448e-03, -1.09458650e-02, -1.11855008e-03, -5.95097104e-03,
       -9.06984415e-03, 1.82688516e-03, 1.03707900e-02, 7.40339421e-03,
       1.55969383e-02, 3.61250155e-02, -5.14349621e-03, 2.36592093e-03,
       -5.09621762e-03, -2.04988942e-03, 2.08093715e-03, -3.32381646e-03,
       -2.40397677e-02, -1.44519666e-02, 4.66840761e-03, -8.04372970e-03,
       1.59824931e-03, 5.59333805e-03, 1.34828594e-02, 4.70389100e-03,
       -1.28046414e-02, -2.76066158e-02, 1.07693428e-03, 2.29147207e-02,
       -1.89639302e-03, -2.81402236e-03, 7.19518820e-03, 2.36514974e-02,
       1.01607749e-02, 2.19677817e-02, 1.33569427e-02, -1.00856065e-03,
       1.12783629e-02, -6.74813660e-03, 4.13812371e-03, -1.69716857e-03,
       -2.96399184e-03, 3.46586737e-03, 7.86045659e-03, 9.58023942e-04,
       -1.84381176e-02, -1.37422970e-02, -2.32174750e-02, 6.45975742e-05,
       -4.59882547e-04, -6.46793470e-03, -7.20088324e-03, 5.82506927e-03,
       -1.53286778e-03, -2.06292607e-03, 1.44723170e-02, -7.14008976e-03,
       -8.63455981e-03, -7.36105023e-03, 1.24138128e-02, 1.74757689e-02,
       4.78919043e-04, -6.45918865e-03, -1.63211918e-03, -8.60147644e-03,
       -1.65587161e-02, -9.43776686e-03, -1.45887081e-02,
       -6.82533253e-03, 3.94097948e-03, 2.55789375e-03, 2.24728603e-03,
       -6.42406102e-03, -7.37870950e-03, -9.58566181e-03, 2.86013680e-03,
       3.57561023e-03, 3.32861766e-03, -2.00131373e-03, 6.59211911e-03,
       4.07150155e-03, -6.85209315e-03, -5.89414593e-03, -9.46618151e-03,
       7.11987587e-03, 1.37040243e-02, 7.71761220e-03, -3.06720589e-03,
       -2.18723621e-03, 4.58308728e-04, -9.10703186e-03, -5.79757290e-03,
       3.10089905e-03, 2.25722848e-04, 3.45611270e-03, 8.46484583e-03,
       4.91612824e-03, -1.59867946e-03, -6.49777823e-04, -7.75885722e-03,
       -9.53106955e-03, -4.06081835e-03, 1.26672843e-02, 2.12605856e-02,
       9.35503468e-03, -8.90234672e-03, 8.78696237e-03, -3.13928584e-03,
       -1.59779924e-03, -2.28872086e-04, -1.76876280e-02,
       -6.30195346e-03, -3.07905168e-04, -8.84631462e-03,
       -1.12329144e-02, 1.47925625e-02, -3.86373256e-03, 2.66423766e-02,
       3.81291322e-02, 8.63363384e-04, 6.01401925e-03, 1.11581583e-03,
       -8.24186765e-03, -4.91081923e-03, -1.01514421e-02, 2.29019346e-03,
       -4.09306446e-03, -7.81613309e-03, -1.06367161e-02,
       -1.42445148e-04, 1.43104664e-03, -1.07584242e-02, -2.07246039e-02,
       3.31227039e-03, -1.17826206e-03, 2.83449236e-03, 3.32991709e-03,
       1.24392915e-03, 6.32904796e-03, 2.64905463e-03, 6.54332922e-04,
       1.32151486e-04, 1.70609672e-02, -1.27584115e-02, 7.81222153e-03,
       2.28689238e-02, -1.12298550e-02, 3.98454769e-03, -5.20774024e-03,
       -2.98359571e-03, 7.04904133e-03, 1.68156754e-02, -8.14717077e-03,
       6.10112038e-04, 2.17685886e-02, -1.20019782e-02, -1.93037335e-02,
       -2.49365196e-02, -1.51509959e-02, 1.33392438e-02, 2.39531901e-02,
       -1.79826375e-02, -1.00099370e-02, -1.16289077e-04,
       -6.30461890e-03, -1.31379883e-03, -1.30708274e-02, 7.12073888e-05,
       2.22942624e-02, 2.82414816e-02, -4.37867874e-03, 1.68824033e-03,
       1.62797458e-02, -6.12042425e-03, -1.57382507e-02, -2.36866027e-02,
       -1.83753632e-02, 1.90776344e-02, 6.43615983e-03, -1.18657136e-02,
       -3.01475800e-03, 6.46462943e-03, -1.48454858e-02, -1.15283420e-02,
       -1.22377416e-02, -1.42591577e-02, 2.00223201e-03, 7.43607664e-03,
       2.65636318e-03, 2.13221069e-02, 1.78607982e-02, -1.23671172e-02,
       1.84165372e-03, 1.41945519e-02, 5.07900445e-03, 8.41930322e-03,
       2.00553071e-02, -8.02902225e-03, -7.04770349e-03, -1.47976540e-03,
       -2.33281758e-02, -1.78015549e-02, -1.15638608e-02,
       -9.70218237e-03, 1.46078141e-02, 1.82584636e-02, -4.80830204e-03,
       6.78320508e-03, 1.83343329e-02, -9.62306466e-03, -3.89641756e-03,
       6.71069045e-03, 4.94896900e-03, 1.94087252e-02, 3.73788667e-03,
       -1.36279676e-03, 8.72623175e-03, 7.47680524e-03, -2.51320302e-02,
       -5.65249939e-03, 2.38455366e-03, -7.33479159e-03, -7.02030398e-03,
       9.75593273e-03, -6.32549124e-03, -9.17605776e-03, -2.34363112e-03,
       -6.03416702e-03, 1.12965284e-02, -4.01427364e-03, -6.30682474e-03,
       -1.70259364e-03, 3.46781313e-03, -1.13281589e-02, 6.24906737e-03,
       1.57275945e-02, -3.43227759e-03, -8.55204742e-03, -5.69958100e-03,
       -1.07514346e-02, 2.82510603e-03, 1.53960204e-02, -5.62747987e-03,
       -6.10292610e-03, 4.97027626e-03, 4.15836275e-03, 4.16956702e-03,
       -9.97439586e-03, 1.50497464e-04, 7.46414997e-04, 3.37808370e-03,
       6.40751701e-03, 1.12205818e-02, 2.10641641e-02, 1.19272922e-03,
       -1.06025685e-03, -3.77952238e-03, -7.46828783e-03,
       -8.96387920e-03, -3.85229336e-03, 5.02530904e-03, 1.58995558e-02,
       2.85024494e-02, -1.11546442e-02, -4.13666060e-03, -4.90062265e-03,
       -7.59426225e-03, -1.02585685e-02, 8.53752438e-03, 1.97881907e-02,
       1.46009922e-02, 1.59526225e-02, -6.63165888e-03, -1.12411578e-03,
       -1.79232785e-03, -1.09776370e-02, -1.09085683e-02, 1.31390942e-02,
       2.10385565e-02, 1.65513009e-02, 1.90141741e-02, -1.32484240e-02,
       -2.40533426e-03, -5.37254894e-03, -5.66769810e-03,
       -2.85565108e-03, -8.79649445e-03, -5.24197659e-03,
       -4.22984269e-03, 5.19935461e-03, -8.04434624e-03, -1.85174448e-03,
       1.22094126e-02, 8.61268025e-03, -6.04143785e-03, 1.24462973e-03,
       -1.03621194e-02, -2.02221889e-02, -1.10885091e-02, 7.06740050e-03,
       1.30468877e-02, 1.79382898e-02, 1.89662501e-02, 1.22655435e-02,
       9.06928349e-03, 1.69681627e-02, 3.22907727e-04, -3.47984582e-03,
       -1.73471477e-02, -4.34159953e-03, -2.83225649e-03, 2.09434074e-03,
       2.64398288e-03, 2.51330156e-02, 1.16792582e-02, -7.31754070e-03,
       -2.56191455e-02, -3.62259038e-02, -9.09338333e-03, 6.63609570e-03,
       1.32455956e-02, 2.40654591e-02, 7.49424193e-03, -3.02758184e-03,
       -1.11857736e-02, -3.81780695e-03, 3.98529973e-03, 8.76444764e-03,
       4.88125579e-03, 1.76213635e-03, 4.81914030e-03, 1.68718572e-03,
       7.79148936e-03, 8.63703899e-03, 2.72574909e-02, 1.54166743e-02,
       -1.14246923e-03, -5.83367795e-03, -1.03987213e-02,
       -9.59530007e-03, 1.43767046e-02, 1.59760669e-03, -1.39118163e-02,
       -1.23722646e-02, -1.73301641e-02, -6.80423342e-03, 8.94963183e-03,
       7.19514955e-03, 1.43743865e-02, 6.85677677e-03, 3.40871513e-03,
       -6.25281362e-03, 9.36863187e-04, 1.36184611e-03, -7.77666876e-03,
       5.62315145e-05, -2.36128876e-03, -4.75576706e-03, -1.84697716e-03,
       4.00030194e-03, 1.07524982e-02, 2.31778901e-02, 1.29300542e-03,
       -2.77233450e-03, -8.92548356e-03, -1.05092190e-02,
       -9.71881952e-03, 2.47617997e-03, 8.06127395e-03, 8.76887608e-03,
       5.36469789e-03, 1.42342423e-03, 9.43127461e-03, -6.74275681e-03,
       -1.34338029e-02, -8.60977359e-03, -3.27361195e-04,
       -6.50475966e-03, -1.59634911e-02, -4.59767692e-03,
       -7.09862867e-03, -5.43575920e-03, -2.05064705e-03, 4.89602704e-03,
       1.47576083e-03, 4.32776939e-03, -3.38911568e-03, -1.10265724e-02,
       -2.73761642e-03, -8.83263163e-03, 4.16796887e-03, 7.60840857e-03,
       4.31841053e-03, 7.95427151e-03, -2.16745934e-03, -8.45556799e-03,
       -7.90103059e-03, -1.28513966e-02, -1.68713816e-02,
       -5.41934418e-03, -6.98367460e-03, -5.29453764e-03, 6.31405693e-03,
       2.05219667e-02, 9.25108045e-03, -4.34031663e-03, -2.06903853e-02,
       -2.64057238e-02, -1.00765387e-02, -9.52406134e-03, 1.19988462e-02,
       2.62683388e-02, -4.87076864e-03, -1.06299696e-02, -1.21225296e-02,
       -1.05535658e-02, -2.06354316e-02, -3.95936845e-03,
       -2.12909025e-03, 5.74810605e-04, 1.00767352e-02, 1.14893094e-02,
       -5.90397511e-04, -9.29886103e-03, -1.83380786e-02,
       -2.66620442e-02, 2.60138488e-03, -7.39175710e-04, 2.64042616e-02,
       3.60904522e-02, 1.45594049e-02, 4.92181908e-03, -4.97576734e-03,
       -1.55761484e-02, -2.51064338e-02, -1.21537568e-02,
       -2.20038313e-02, -7.71984411e-03, 7.00019859e-03, 2.67440639e-02,
       2.03761999e-02, 1.00884633e-02, -9.32156108e-03, -2.73086485e-02,
       -1.84688345e-02, -2.62725465e-02, -2.76893731e-02, 2.36636819e-03,
       2.02961173e-02, 1.87137525e-03, -3.51885706e-03, -1.51157305e-02,
       -3.10755298e-02, -9.57540702e-03, -1.42637081e-02, 1.73258292e-03,
       2.71935910e-02, 4.23958972e-02, 1.53140957e-02, 5.76675870e-03,
       -1.20677268e-02, -3.51281837e-02, -2.50770878e-02,
       -1.76829733e-02, -1.17052207e-02, 3.44178118e-02, 2.75275409e-02,
       2.46027689e-02, 2.23398721e-03, -1.23295421e-02, -2.07630843e-02,
       -1.06815137e-02, -2.24945564e-02, -2.26739720e-02, 1.86882366e-03,
       -2.29756488e-03, -5.47934207e-04, 3.29641136e-03, -1.19506335e-03,
       -1.53908115e-02, -1.29813589e-02, -1.68940518e-02,
       -2.35742871e-02, -1.33050997e-02, 4.36596535e-02, 1.85391232e-02,
       3.84480547e-04, -1.30114052e-02, -2.63117068e-02, -1.68991126e-02,
       -2.27757338e-02, -1.60150286e-02, 1.49771189e-02, 2.96094231e-02,
       2.50684191e-02, -3.77891888e-03, -1.04638608e-02, -2.78816763e-02,
       -1.47486134e-02, -2.61462051e-02, -1.74279008e-02, 5.69876842e-03,
       -2.11819541e-03, -6.84389658e-03, 7.63870962e-03, 6.69258786e-03,
       -2.46901670e-03, -5.19075338e-03, -4.03762981e-03,
       -6.47406094e-03, -1.16546527e-02, -8.64714012e-03,
       -1.57776382e-02, -7.45982770e-03, -4.24972456e-03,
       -9.87089006e-04, 1.66151742e-03, 2.14380375e-03, 3.54122114e-03,
       -8.86581745e-03, 2.96654105e-02, 8.05049110e-03, -1.42952483e-02,
       -4.77032224e-03, -1.19430022e-02, -3.31274210e-03,
       -4.86800354e-03, 7.24927522e-03, 2.13038567e-02, 1.29775964e-02,
       -1.50806848e-02, -1.49146225e-02, 1.28872122e-03, -5.73627325e-03,
       4.11453750e-03, 4.47052484e-03, 6.98843878e-03, 9.41490382e-03,
       -2.00855210e-02, -3.09633650e-02, -2.13701241e-02,
       -7.91288074e-03, -1.48379579e-02, -4.62924130e-03,
       -1.06177211e-03, 1.63284014e-03, -1.06677627e-02, -1.88128315e-02,
       -1.90855637e-02, 2.65592150e-03, 8.91217310e-03, -1.70144103e-02,
       -2.09032223e-02, -1.09277675e-02, 4.06370265e-03, -2.63220724e-03,
       -3.70227429e-03, -1.99169554e-02, -1.11814626e-02,
       -2.61045923e-03, -1.49994362e-02, -4.26532328e-03, 5.37927356e-03,
       1.38331775e-03, -3.60841653e-03, -1.78329938e-03, 3.62829864e-02,
       4.02445793e-02, 1.75237358e-02, -1.58043616e-02, -2.07985174e-02,
       -7.43352342e-03, -3.59151186e-03, -1.00119300e-02,
       -8.89148191e-03, -5.96443843e-03, 1.13066100e-02, 1.77199226e-02,
       -1.17190555e-02, -2.37171333e-02, -2.11320724e-02,
       -8.67339689e-03, -5.19824855e-04, -1.16360588e-02,
       -9.32134315e-03, -1.00076813e-02, -5.34914481e-03,
       -1.90654602e-02, -2.09728517e-02, -2.46326197e-02,
       -1.80762466e-02, -6.46110298e-03, 1.20996796e-02, 4.63170148e-02,
       4.93879467e-02, 2.26744339e-02, -1.49217211e-02, -2.61421781e-02,
       -2.50612758e-02, -1.59472525e-02, -3.45154200e-03, 1.56210056e-02,
       2.29846090e-02, 2.43973266e-02, -7.28192786e-03, -2.49275248e-02,
       -2.80501228e-02, -2.67767832e-02, -2.66223177e-02,
       -5.90832299e-03, -1.06910337e-02, -8.25835485e-03,
       -9.89780761e-03, -4.79974272e-03, -1.12380995e-03,
       -7.85955694e-03, -7.74831278e-03, -6.59184577e-03,
       -4.92748572e-03, -5.84723009e-03, -2.34198873e-03,
       -6.22753333e-03, -4.91764164e-03, -3.45146842e-03,
       -9.86107392e-04, -5.80054568e-03, -1.33508164e-02,
       -1.54534569e-02, 1.02401217e-02, 1.81034468e-02, 1.10638561e-02,
       -4.95462166e-03, -2.98497849e-03, -4.03812109e-03,
       -9.10505559e-03, -5.11763478e-03, -6.18393999e-04,
       -2.50981678e-03, -5.62838162e-04, -6.07590750e-03,
       -1.07925162e-02, 1.50794601e-02, 1.77599043e-02, 1.60227250e-03,
       -1.03058731e-02, -5.89119096e-04, -5.20838844e-03, 7.23901019e-03,
       3.43159609e-03, -2.89300014e-03, -7.26731168e-03, 1.90363079e-03,
       -1.28241826e-03, -1.00865019e-02, -1.63580980e-02, 3.67295672e-03,
       -4.40215366e-03, -7.24397323e-05, -5.63052995e-03,
       -8.97419918e-03, 5.88940736e-03, 6.51273923e-03, 1.64562440e-03,
       -2.86715501e-03, 3.32025648e-03, -7.43763580e-04, -5.04375016e-03,
       -5.82220964e-03, 8.05913005e-03, 9.65943001e-03, 3.82884685e-03,
       -9.03016049e-03, -4.71269479e-03, 1.05361547e-02, -2.71144323e-03,
       -2.79872143e-03, 7.73381442e-04, -2.78830412e-04, -2.80427234e-03,
       -4.06246213e-03, -2.22254355e-04, -1.14233454e-03, 1.82889439e-02,
       -1.92785785e-02, -1.84729286e-02, -1.12581057e-02,
       -1.38750365e-02, -5.17922500e-03, -7.86036346e-03, 7.87480082e-03,
       2.20553279e-02, 2.77612023e-02, -8.94655846e-03, -1.38702299e-02,
       -8.76250491e-03, -1.92635451e-02, -1.43766245e-02,
       -1.22161619e-02, 3.26422649e-03, 3.56776230e-02, 1.87487714e-02,
       -1.35046029e-02, -1.24289570e-02, -5.31571498e-03,
       -4.75213956e-03, -4.51828493e-03, -6.67216815e-03,
       -1.01386104e-03, 1.78155974e-02, 3.05931270e-02, 1.27805481e-02,
       3.12920474e-03, -1.07484674e-02, -2.07947716e-02, -1.64217837e-02,
       -1.29663413e-02, 5.26604289e-03, 3.49864364e-02, 1.87375396e-02,
       -1.83379129e-02, -2.32948270e-02, -2.07020156e-02,
       -2.79584527e-02, -1.56070581e-02, -6.33175578e-03, 7.14572845e-03,
       2.44154800e-02, 2.40702257e-02, -7.25132925e-03, -1.01522980e-02,
       -5.83049189e-03, -1.11207943e-02, -9.09929257e-03,
       -2.19344418e-03, 8.20432324e-03, 2.77548581e-02, 2.72071902e-02,
       3.92550509e-03, -6.11020857e-03, -2.15396807e-02, -2.75270622e-02,
       -2.21957862e-02, -1.74723212e-02, 3.73374112e-03, 3.33691202e-02,
       2.59469766e-02, 3.82527057e-03, 6.46459777e-03, -2.80584900e-05,
       -6.47752173e-03, -1.75616052e-02, -1.30771827e-02, 2.82764086e-03,
       3.27432528e-02, 9.58007947e-03, -8.39680433e-03, -5.90018509e-03,
       -6.42219558e-03, -9.70119517e-03, -1.91292576e-02,
       -1.17185600e-02, 2.05216085e-04, 1.29729714e-02, 2.22123116e-02,
       -7.50198215e-03, -1.44504337e-02, -1.40125891e-02,
       -1.41842542e-02, -9.35834460e-03, 1.78423605e-03, 2.29322873e-02,
       2.30668038e-02, 5.87201724e-03, -4.89250058e-03, 3.91346682e-03,
       -3.46301100e-03, -1.29599860e-02, -1.71421804e-02,
       -1.17634963e-02, -5.40473172e-03, 1.60428155e-02, 1.10233575e-02,
       -1.29401805e-02, -9.69782006e-03, -1.97795257e-02,
       -1.19476533e-02, -3.90858948e-03, 1.78218000e-02, 2.03405507e-02,
       2.14331374e-02, 1.49049843e-02, 1.66334417e-02, 2.63131893e-04,
       -2.42324965e-03, -4.87262057e-03, 1.45355240e-02, 8.32735933e-03,
       -1.24305906e-03, -1.04671076e-03, 1.14734704e-02, 9.69121512e-03,
       7.87248369e-03, -9.08355520e-04, -1.44618731e-02, 2.23338907e-03,
       6.54036459e-03, 5.04587311e-04, 3.06455093e-03, -1.04471501e-02,
       -6.49127504e-03, -4.59339190e-03, -5.34551777e-03, 2.03028340e-02,
       3.43545116e-02, 1.34473816e-02, -5.07652666e-03, -1.33391628e-02,
       -1.57712307e-02, -1.40426410e-02, 7.84354098e-03, 2.92383344e-03,
       -1.60076108e-03, 1.54123604e-02, 1.19215157e-02, 9.05761216e-03,
       -3.21618794e-03, 1.06950253e-02, 9.89521667e-03, 7.90863298e-04,
       -7.19455676e-03, -1.40649853e-02, -3.06105847e-03, 4.50213766e-03,
       6.89071883e-03, 7.17616733e-03, -7.55497720e-04, -3.42860585e-03,
       -3.71867674e-03, -6.94714813e-03, 8.29924457e-03, 2.21365374e-02,
       1.35187116e-02, -9.29407426e-04, -1.88347546e-03, -5.48797194e-03,
       -4.79856128e-04, 8.55018944e-03, -7.42281787e-03, -1.59771722e-02,
       -3.43087898e-03, 1.16952313e-02, 1.74808018e-02, 8.40241741e-03,
       5.44550503e-03, 1.80090945e-02, 1.68902436e-04, -1.21129863e-02,
       -7.73430278e-04, 5.87051827e-03, 1.24454061e-02, 1.95274316e-02,
       1.42826429e-02, -8.97911005e-03, -9.69946850e-03, -1.05988905e-02,
       -1.31939445e-03, 1.48682389e-02, 1.61291566e-02, 6.14140835e-03,
       -6.32068841e-03, -8.30592494e-03, -3.50514590e-03, 5.00854943e-03,
       -9.73418448e-03, -1.66275585e-03, 1.11261099e-04, -1.94897433e-03,
       1.68711494e-03, -3.13776499e-03, -9.83517431e-03, -3.27598391e-04,
       1.93759967e-02, -1.86360837e-03, -1.03698634e-02, 1.38464768e-03,
       5.15161175e-03, 2.61161593e-03, 9.20316856e-03, 8.17918498e-03,
       6.50005240e-05, 1.95951406e-02, 7.90627021e-03, 8.85362912e-04,
       4.62789694e-03, 3.24254297e-03, -3.09760362e-04, -6.95979083e-03,
       -1.17021129e-02, -8.17263871e-03, -9.81222373e-03,
       -2.07008235e-02, -1.20109590e-02, -1.92163531e-02,
       -1.14482800e-02, -2.35683448e-03, 3.11661861e-03, -2.68383045e-03,
       4.86257765e-03, -2.92150257e-03, -5.46655385e-03, 3.98166990e-03,
       -1.77949306e-03, -1.47262370e-04, 3.61480308e-03, -3.61764804e-04,
       -1.09340367e-03, -5.26696676e-03, 1.54614486e-02, -4.76572895e-03,
       -3.12097510e-03, -1.27633167e-02, -1.41924284e-02,
       -1.01390285e-02, -1.75076257e-02, -2.26604585e-02, 3.89347202e-03,
       2.61409562e-02, 1.83723569e-02, 2.86348555e-02, 1.06179183e-02,
       -7.16054859e-03, -6.78585656e-03, -2.71237288e-02,
       -2.55531687e-02, 3.66063183e-03, 4.84565069e-04, -7.59476051e-03,
       -5.35332039e-03, -1.74532384e-02, -1.33899059e-02,
       -1.41760297e-02, -1.55849578e-02, -6.13242202e-03, 2.04869378e-02,
       4.78192139e-03, -1.01015912e-02, -1.22827888e-02, -2.32222117e-02,
       2.27759220e-03, -1.02971327e-02, -3.75065347e-03, 1.14676934e-02,
       1.39578655e-02, 9.01517738e-03, -3.10192769e-03, 3.07377335e-03,
       -1.32608572e-02, -1.30606070e-02, -1.72534212e-02,
       -2.06091329e-02, -1.11037865e-02, 2.12821029e-02, 1.10644137e-03,
       -3.05442628e-03, -1.08107999e-02, -2.12862454e-02,
       -6.04451122e-03, -1.68764479e-02, -6.65011024e-03, 1.58758443e-02,
       2.67554671e-02, 1.11866612e-02, -3.19200382e-03, -7.17933057e-03,
       -1.94581412e-02, -4.73944051e-03, -1.41667295e-02,
       -9.33631882e-03, 1.89645980e-02, 2.45985277e-02, 1.91738235e-03,
       -7.84970075e-03, -4.42346372e-03, -2.12272964e-02,
       -1.18943751e-02, -6.97996747e-03, -7.03642471e-03, 2.23112199e-02,
       2.27134153e-02, 9.03112721e-03, -2.69518956e-03, -4.09106119e-03,
       -2.04748325e-02, -1.16566988e-02, -2.05066539e-02,
       -1.88508090e-02, 9.60307010e-03, -1.21666957e-03, -8.05152114e-03,
       4.74891625e-03, 6.81865169e-03, -1.56236626e-02, -1.10798879e-02,
       -1.97304450e-02, -2.08296236e-02, -3.61858425e-03, 1.20702209e-02,
       -3.60595598e-03, -8.11881293e-03, -5.66414744e-03,
       -1.10172536e-02, -3.21673718e-03, 4.20566328e-04, -5.64603019e-04,
       1.34623023e-02, 1.29815126e-02, 1.91701781e-02, -2.44524423e-03,
       -8.47939309e-03, -2.06325464e-02, -3.84407956e-03,
       -6.85106218e-03, 1.40607517e-04, 1.37441615e-02, -7.45979184e-03,
       -2.21788082e-02, -6.63037831e-03, 7.27742584e-03, -1.49506819e-03,
       -3.89758195e-03, -1.69687048e-02, -1.22973043e-02,
       -1.67500728e-03, 8.74681212e-03, -3.97730805e-03, -9.09486692e-03,
       -6.22316496e-03, -1.36683816e-02, -1.21434294e-02,
       -1.86129157e-02, -1.75840757e-03, 9.59709845e-03, 7.67155271e-03,
       -4.90270881e-03, -1.34759462e-02, -1.20478449e-02,
       -1.71319935e-02, -8.27350933e-03, -7.05076475e-03, 3.80222104e-03,
       1.38767567e-02, 3.70562077e-03, -2.41606645e-02, -2.00603418e-02,
       -7.57953618e-03, -9.60058533e-03, -1.10284369e-02,
       -8.80226865e-03, -7.00657163e-03, 3.73404240e-03, 1.21739442e-02,
       5.71104465e-03, 4.28044004e-03, -4.14655404e-03, -1.58359017e-02,
       -1.64906401e-02, -2.20635459e-02, -4.93878825e-03, 8.52284953e-03,
       1.47914412e-02, 4.64296807e-03, -2.16704141e-03, -1.87351310e-03,
       -8.79729260e-03, -1.95304025e-02, -2.13708486e-02,
       -6.39252039e-03, 8.31642002e-03, 2.77958927e-03, -2.34781317e-02,
       -1.56180738e-02, -1.97609817e-03, -8.64998158e-03,
       -8.20670370e-03, -3.70679027e-03, -3.26873828e-03,
       -8.32227583e-04, 1.25240756e-03, 3.70498491e-03, 2.22125016e-02,
       1.84417814e-02, -3.00795375e-03, -1.11079020e-02, -4.13657585e-03,
       -1.18476886e-03, -3.99084901e-03, 5.68233011e-03, -1.47540504e-02,
       -1.61030274e-02, -6.76220399e-04, 2.48665019e-05, -5.55428350e-03,
       -1.49910524e-02, -1.41872587e-02, -4.77968343e-03,
       -1.08790919e-02, -1.51333148e-02, -7.21180625e-03, 1.50250196e-02,
       1.67821776e-02, 1.64267905e-02, -1.09423660e-02, -1.54696638e-02,
       -2.00139210e-02, 6.99831313e-03, 1.88962538e-02, 3.29368934e-02,
       1.78549550e-02, -7.49797467e-03, -1.42414626e-02, -1.44370999e-02,
       -1.29574658e-02, -5.47243515e-03, 8.66482500e-03, 1.25393104e-02,
       9.17404983e-03, -8.92444141e-03, -1.91969872e-02, -1.84869915e-02,
       -2.31271312e-02, -2.43918020e-02, -1.06181679e-02,
       -5.97694283e-03, -4.23401408e-03, 8.73661600e-03, 2.36397516e-02,
       1.53635889e-02, 1.10555813e-02, -1.55296605e-02, -1.69660375e-02,
       -1.53371748e-02, 4.53695329e-03, -1.73342612e-03, -7.70514319e-03,
       -1.12978490e-02, -1.09437983e-02, -1.50118712e-02,
       -2.27832850e-02, -1.98311824e-02, -5.33722294e-03, 5.15268976e-03,
       5.93689084e-03, -1.48697721e-03, -1.42857740e-02, -7.59128993e-03,
       -4.61022835e-03, -1.34872589e-02, -1.56302433e-02,
       -7.63552589e-03, -4.87324968e-03, -5.70070464e-03,
       -7.87917618e-03, -1.47679830e-02, 1.10547785e-02, 1.02207214e-02,
       -4.54689143e-03, -1.05960518e-02, -5.67069650e-03, 1.02332653e-02,
       9.62598133e-04, -9.79584293e-04, -1.54246371e-02, -1.05164312e-02,
       -9.67035256e-03, -1.18030813e-02, -3.46028828e-04, 1.26982350e-02,
       3.70062119e-03, 4.25090548e-04, 5.08579100e-03, -7.43413996e-03,
       -1.73394650e-03, -3.97343189e-03, -1.81418136e-02,
       -6.59720181e-03, 1.11548398e-02, 2.92454879e-05, -1.36257131e-02,
       -1.03277881e-02, -5.56801446e-03, 6.09391183e-03, 2.95965513e-03,
       -3.30719049e-03, -7.81086460e-03, -6.42387604e-04, 1.27171660e-02,
       -6.10866910e-03, -9.79286805e-03, -8.12098850e-03,
       -4.94181225e-03, -1.51953492e-02, -2.21862458e-02,
       -1.18880179e-02, 3.65888141e-03, 1.32140471e-02, 6.50828658e-03,
       3.04636662e-03, -4.58976021e-03, -6.16427092e-03, -1.04322936e-02,
       -1.70731340e-02, -6.09708251e-03, 1.04363365e-02, 1.85708087e-02,
       1.31047377e-02, -3.56890005e-03, -1.60071440e-02, -1.63706057e-02,
       -1.71099063e-02, -1.98799353e-02, -1.13890143e-02, 1.60347223e-02,
       1.37300333e-02, -1.10733099e-02, -1.38621740e-02, -1.21130804e-02,
       -9.46642831e-03, -1.28417322e-02, -1.54664321e-02,
       -9.72106680e-03, 1.13403602e-02, 1.68071464e-02, 2.20535649e-03,
       -5.73114958e-04, -5.71238995e-03, -1.12954089e-02,
       -6.06321357e-03, -5.93911950e-03, -5.63463615e-03, 1.26059372e-02,
       2.51039509e-02, -1.33350375e-03, -1.61311273e-02, -1.95974801e-02,
       -2.31356118e-02, -2.36233938e-02, -1.79458074e-02,
       -1.09874895e-02, 1.60682593e-02, 2.05245484e-02, 3.54653434e-03,
       -7.78630888e-03, -1.00981370e-02, -1.53771006e-02,
       -8.37956183e-03, -9.98163689e-03, -7.57190213e-03, 8.76300503e-03,
       6.70898985e-03, -8.87087546e-03, -1.15077216e-02, -1.34913055e-02,
       -1.51935034e-02, -1.53345959e-02, -1.04780812e-02,
       -2.96563329e-03, 1.00771096e-02, 2.22496851e-03, -1.49268843e-02,
       -6.30954106e-04, 2.13409890e-03, -8.57194141e-03, -1.80046465e-02,
       -1.05368355e-02, -4.08329302e-03, 9.77331679e-03, 1.33198956e-02,
       -5.99197811e-03, -1.10525703e-02, -1.40351802e-02,
       -8.43106303e-03, -1.61140729e-02, -1.61232818e-02,
       -1.87819742e-03, 8.43797531e-03, 9.51685105e-03, -6.01137942e-03,
       -4.08767955e-03, -2.99585098e-03, -1.02542937e-02,
       -1.58278570e-02, -1.43136941e-02, 2.61766557e-03, 1.77613460e-02,
       -3.69540043e-03, -1.80315580e-02, -1.12162288e-02,
       -6.95398031e-03, -1.30718630e-02, -1.64495837e-02,
       -7.57733546e-03, 9.77605814e-04, 9.48990975e-03, -5.59416320e-03,
       -1.96325704e-02, -1.45863667e-02, -5.74734528e-03,
       -8.68019648e-03, -4.15605539e-03, 1.17854271e-02, 1.43053308e-02,
       6.78019691e-03, 1.21618097e-03, -1.03362203e-02, -9.11509618e-03,
       8.30126635e-04, -2.47155093e-02, -2.59173457e-02, -1.05008129e-02,
       1.27938623e-02, 1.94262173e-02, -2.50649638e-03, -1.04136635e-02,
       -1.48026971e-03, 6.34079799e-03, -1.33792059e-02, -1.69261135e-02,
       8.31684098e-03, 2.02651881e-02, 1.51639441e-02, -1.88454092e-02,
       -1.19639905e-02, -7.73188309e-04, -5.30677009e-03, 3.64732346e-03,
       6.26111915e-03, 6.87087839e-03, -2.45958893e-03, -1.48972357e-02,
       -1.72038618e-02, -4.78886114e-03, 1.90472305e-02, 1.27859600e-02,
       7.62671232e-04, 1.30300655e-03, -2.45304574e-04, -3.98674281e-03,
       -1.38786985e-02, -2.53510792e-02, -1.85393840e-02,
       -7.07310718e-03, -1.23593239e-02, -1.72518883e-02, 9.13952198e-03,
       4.63548675e-02, 5.10946363e-02, 1.28292269e-03, -1.31798154e-02,
       4.15513758e-03, 2.48274412e-02, 1.13701280e-02, -1.80719215e-02,
       8.84643814e-04, 3.42296585e-02, 4.51739617e-02, -5.42168645e-03,
       -1.34154698e-02, 2.73721898e-03, 2.36516036e-02, 1.52030140e-02,
       -5.44797722e-03, -1.17898127e-02, -6.42046705e-03,
       -5.78994351e-03, -1.13339024e-02, 2.51470320e-03, 1.87351853e-02,
       1.18782697e-02, -7.13569252e-03, -2.07851660e-02, -1.87124796e-02,
       2.42161262e-03, 1.56464223e-02, 1.41530801e-02, -8.29402264e-03,
       1.93032529e-02, 4.57439907e-02, 2.99496055e-02, -8.57818592e-03,
       -1.65777970e-02, -7.59806111e-03, 4.77780821e-03, -1.32142892e-02,
       -1.01314187e-02, 1.10231023e-02, 2.68267468e-02, 2.14347206e-02,
       1.63817138e-03, -1.99467186e-02, -1.29349045e-02, -3.86150647e-03,
       -8.96307454e-03, -8.66108108e-03, -3.47382738e-03,
       -4.28776490e-03, -1.13502825e-02, -1.71470605e-02,
       -8.95536877e-03, 1.10598207e-02, 1.88903939e-02, 1.69469453e-02,
       -1.24298530e-02, 3.27822007e-03, 3.51871620e-03, -2.75092619e-03,
       -2.39085453e-03, 1.21344265e-03, 3.50961252e-03, -6.86243176e-04,
       -5.48972981e-03, -1.69729628e-02, -1.41966529e-02, 9.29142535e-03,
       9.60971043e-03, 1.07068559e-02, 7.02383230e-04, 9.38101485e-03,
       5.70976967e-03, -2.35855835e-03, -2.58788597e-02, -5.59243932e-03,
       4.30126069e-03, 1.88454352e-02, 2.60474142e-02, 1.66951921e-02,
       1.15645835e-02, -2.00543157e-03, -1.81396194e-02, -2.19880851e-04,
       1.99327767e-02, 7.60306604e-03, -3.98469809e-03, -6.26695110e-03,
       -7.92832952e-03, -1.04827937e-02, -1.59761049e-02,
       -1.41479773e-02, 5.29141817e-03, 1.07595660e-02, 3.24047939e-03,
       2.17168611e-02, 4.73388704e-03, 2.83281854e-03, -1.21141691e-03,
       -2.67918091e-02, -2.42792368e-02, -1.59042161e-02, 2.30740360e-03,
       1.54182909e-03, 3.51359864e-04, -1.84130459e-03, -7.66725047e-03,
       -1.22329853e-02, -1.59025826e-02, -1.79628655e-02, 7.44209392e-04,
       1.16253505e-02, 9.50575992e-03, 2.47036181e-02, 7.15080183e-03,
       6.96182111e-03, -1.42799420e-02, -3.08734793e-02, -2.50436552e-02,
       1.59156788e-02, 2.54310970e-03, -2.92319246e-03, 8.09087884e-03,
       -4.17510467e-03, -8.87802895e-03, -8.66967626e-03,
       -1.69984307e-02, -5.41718630e-03, 5.41584427e-03, -1.22917872e-02,
       3.55464523e-03, 1.40737300e-03, -7.59232277e-03, -8.22383724e-03,
       -8.96123238e-03, -4.54795826e-03, 5.76520292e-03, -5.26286755e-03,
       -2.91184825e-03, -8.06034877e-05, 1.12706712e-02, -4.71564243e-03,
       -2.86878250e-03, -2.23805085e-02, -3.42741646e-02,
       -2.13391185e-02, -1.06380275e-02, -2.08924450e-02,
       -2.28756410e-03, 2.66079847e-02, -2.88542849e-03, -3.62450466e-03,
       -2.20350493e-02, -2.58788932e-02, -1.70443207e-02,
       -2.62560206e-03, -1.12428255e-02, -4.34289314e-03, 3.91658023e-03,
       -4.30351542e-03, -5.28263301e-03, -6.54713623e-03,
       -1.12367515e-02, -8.45255796e-04, -4.70707985e-03,
       -1.25427768e-02, 7.50097586e-03, 2.34674499e-03, -2.44885567e-03,
       -2.69217044e-03, -9.23653040e-03, -1.73208658e-02, 9.81564284e-04,
       -7.02606933e-03, -1.82927176e-02, -4.12656413e-03, 1.10801272e-02,
       -9.12710151e-04, -1.54499605e-03, -1.29920896e-02,
       -1.55750262e-02, -2.25973479e-03, 8.26295372e-03, 2.34580003e-02,
       7.09372386e-03, -1.93589032e-02, -1.81065965e-02, -8.90139863e-03,
       -1.30487476e-02, -1.85445510e-02, 2.51704012e-03, -8.91820900e-03,
       -1.73360165e-02, -6.65682554e-03, 3.55987623e-03, 1.91231177e-03,
       -2.75777071e-03, -1.36696529e-02, -1.69151220e-02,
       -5.32555114e-03, 1.63494386e-02, 5.37999952e-03, -8.93544964e-03,
       -4.30504652e-03, -1.10363355e-03, -2.58458219e-03,
       -1.05645154e-02, -6.15767343e-03, 8.40276014e-04, 1.19517557e-02,
       5.34144277e-03, -4.39460436e-03, -1.22047812e-02, -1.24704838e-02,
       -6.23443117e-03, -1.42082153e-02, -2.22262647e-02,
       -2.41368683e-03, 3.65557000e-02, 1.62394270e-02, -7.76557252e-03,
       -1.34772882e-02, -1.65781602e-02, -8.39988049e-03,
       -5.80362370e-03, -1.38760880e-02, 1.02066081e-02, 1.07489303e-02,
       1.03479028e-02, -1.70447910e-03, -9.13280062e-03, -1.28456680e-02,
       -1.41265513e-02, -1.44926654e-02, -6.09841757e-03, 2.68688076e-04,
       3.80842993e-03, -6.31012954e-03, -8.30906536e-03, -6.21490832e-03,
       -6.62733335e-03, -1.23861497e-02, -1.79132801e-02,
       -7.95817748e-03, -9.84196784e-04, 1.70483738e-02, 1.44825093e-02,
       -2.64149997e-03, -1.33495564e-02, -2.06310153e-02,
       -1.42942574e-02, -7.63936108e-03, -1.05372528e-02,
       -8.29230266e-05, -8.21030408e-04, -3.12092924e-03,
       -1.14179496e-02, -6.87222229e-03, -8.41315556e-03,
       -6.70826528e-03, -6.51461352e-03, -9.69694112e-04, 1.27476233e-03,
       7.97991548e-03, -3.31400265e-03, -7.70179462e-03, -1.74435659e-03,
       9.17078505e-05, -1.31882238e-03, -7.25747738e-03, -6.05730014e-03,
       4.53774817e-03, -7.56489625e-03, -1.70764257e-03, 2.66026985e-03,
       1.17146419e-02, 1.82642061e-02, 1.90650299e-02, -2.10676063e-03,
       -1.65703483e-02, -1.99662931e-02, -3.53473704e-04,
       -9.13892128e-03, -1.43641084e-02, 1.07191748e-03, 4.54005552e-03,
       2.48339493e-03, -7.38476170e-03, 1.06517598e-03, 2.44792341e-03,
       1.05809909e-03, -5.69995493e-03, 5.18956082e-03, 1.16997203e-02,
       1.38223870e-02, 9.52633657e-03, -1.14962319e-02, -1.44836167e-02,
       -5.64934174e-03, -7.87959807e-03, -4.45805956e-04, 7.99042732e-03,
       2.54410245e-02, 3.23725604e-02, 2.21841075e-02, -2.82038562e-03,
       -1.33435167e-02, -1.65343098e-02, 1.86041149e-03, -2.00732704e-03,
       -4.48107719e-03, -2.24130764e-03, 1.30077759e-02, -1.92384422e-03,
       -7.98730645e-03, -7.09327124e-03, -2.03105365e-03,
       -8.58162437e-03, -8.21712706e-03, 4.70301416e-03, 1.16003128e-02,
       2.00684406e-02, 1.09882951e-02, -4.86058969e-04, -1.38635759e-03,
       3.60711315e-03, -1.35334469e-02, -1.10842027e-02, -1.85440958e-03,
       -4.08125389e-03, 5.28310472e-03, -3.31627787e-03, -1.28561500e-02,
       1.53897936e-03, 2.98846210e-03, 2.25387979e-03, -4.89900960e-03,
       -3.62248020e-03, -8.92970804e-03, -7.43535929e-04,
       -6.63136272e-03, -8.89201369e-03, 2.34836247e-03, 1.07330792e-02,
       3.61356582e-03, 7.32171629e-03, 1.21802567e-02, 9.39952675e-04,
       -9.37693194e-03, -1.10626165e-02, -1.61104668e-02,
       -6.35834457e-03, 8.21262505e-03, 8.68185144e-03, 2.85709649e-03,
       4.96486155e-03, -6.48474507e-03, -8.32367409e-03, -1.68778207e-02,
       -2.13397443e-02, 3.72885889e-03, 1.38421925e-02, 8.29971686e-04,
       5.35167288e-03, 8.78951885e-03, -2.26716953e-03, -1.69503558e-02,
       -1.43807847e-02, -1.42639754e-02, -6.66631991e-03, 9.78340115e-03,
       1.34532619e-02, 9.51494370e-03, 8.28297809e-03, -2.49112467e-03,
       -1.30353300e-02, -1.77532211e-02, -2.46413536e-02,
       -6.48148078e-03, 1.12238256e-02, 1.72945652e-02, 3.93062364e-03,
       -3.02035315e-03, -1.45111913e-02, -2.23274138e-02,
       -2.48502865e-02, -1.50932791e-02, -1.66299695e-03, 1.28111327e-02,
       -4.41424828e-03, 5.56721538e-03, 2.01629498e-03, -5.68094430e-03,
       -1.47548569e-02, -2.02703979e-02, -2.04339270e-02,
       -5.07264026e-03, 2.08902333e-04, -2.93063233e-04, 8.91060289e-03,
       -5.21281781e-03, -1.25533482e-02, -2.32918430e-02,
       -2.51502655e-02, -1.96446031e-02, 2.16397899e-03, -5.94682002e-04,
       2.34682336e-02, -2.33414024e-03, -1.04366885e-02, -1.74002592e-02,
       -2.42044348e-02, -2.34157257e-02, -1.55473119e-02,
       -1.97001500e-03, 1.79124903e-02, 2.29726862e-02, 4.08268254e-03,
       -7.71817937e-03, -5.16444538e-03, -1.44634312e-02,
       -1.52413277e-02, -1.23537928e-02, -4.17885417e-03, 1.18141174e-02,
       4.98688547e-03, 4.71552426e-04, -4.05440666e-03, -1.20418072e-02,
       -2.46222317e-02, -1.77052338e-02, -1.26065090e-02, 5.72277466e-03,
       -1.09691732e-03, -2.35630036e-03, 2.80340039e-03, 2.53460463e-03,
       5.31909242e-03, -1.25396224e-02, -1.59581471e-02, -1.08270291e-02,
       4.05167090e-03, -8.33600573e-03, 1.16550205e-02, 3.70710150e-05,
       -8.61992873e-03, -7.18972227e-03, -1.20672379e-02,
       -1.55599704e-02, -5.76485647e-03, -1.49986718e-03, 9.99941677e-03,
       1.33503675e-02, -2.64922483e-03, -3.24709225e-03, 1.15133589e-03,
       -6.51107123e-03, -1.10245347e-02, -2.89856456e-03, 6.07017707e-03,
       1.33228274e-02, -7.48352939e-03, -6.74319593e-03, -5.58234984e-03,
       3.03074601e-03, -1.05711669e-02, -1.98722761e-02, -5.16966172e-03,
       -3.45269800e-03, -1.27969161e-02, -2.04311428e-03,
       -8.79127905e-03, -4.11123130e-03, 8.52333941e-03, -1.67374674e-03,
       -1.15777887e-02, -9.91974957e-03, -3.29268933e-03,
       -5.52420970e-03, 8.49772990e-03, -6.45507826e-03, -5.66818379e-03,
       -1.38569507e-03, -1.84192546e-02, -2.04329863e-02,
       -2.24130973e-03, 1.30145401e-02, 1.41347861e-02, 3.61528387e-03,
       4.43940546e-04, 5.83487656e-03, 7.64608476e-03, -3.54755716e-03,
       -1.38161583e-02, 1.40931609e-03, 1.15488851e-02, 9.15668719e-03,
       5.59270242e-03, -2.15151627e-03, -3.87970032e-03, -8.38213786e-03,
       -1.48858372e-02, -2.55323108e-02, -1.99118666e-02,
       -1.06779323e-03, 3.76254274e-03, 1.22973081e-02, -4.26367065e-03,
       -7.27433711e-03, -2.35447194e-03, -7.00732972e-03,
       -2.09968854e-02, -1.15572158e-02, 5.87514602e-03, 2.61749490e-03,
       -9.74817108e-03, 7.30438298e-03, -7.12402025e-03, -1.63622890e-02,
       -1.66916922e-02, -2.19644792e-03, 1.71902683e-02, 2.91226823e-02,
       1.23512791e-03, -1.25859939e-02, -7.25073833e-03, 3.99998331e-04,
       -7.14308675e-03, -1.04637844e-02, -1.57627359e-03, 2.44044159e-02,
       4.69491184e-02, 6.75822981e-03, -9.18096956e-03, 8.41705501e-03,
       -8.01072281e-04, -8.21352657e-03, -1.42595428e-03, 1.84367213e-03,
       2.95462552e-04, 6.98566483e-03, -4.92975023e-03, -2.23624501e-02,
       -2.65667625e-02, -2.06957329e-02, 1.48645253e-03, 2.60202549e-02,
       1.95695460e-02, 1.53030772e-02, 2.06501354e-02, 1.35485083e-03,
       -5.91366505e-03, 2.13792920e-03, 1.31869921e-02, 6.01201504e-03,
       -4.60067159e-03, -8.50266404e-03, 4.14872821e-03, 1.14928726e-02,
       -4.65169409e-03, -5.13989106e-03, 3.96896945e-03, 1.06406221e-02,
       1.58209354e-02, 1.29228877e-03, -1.54284919e-02, -1.35762328e-02,
       -7.40110083e-03, -6.00579288e-03, -2.18207156e-03,
       -1.96123458e-02, -1.85153428e-02, -5.05811581e-03, 1.40878875e-02,
       1.12233283e-02, 1.44487871e-02, 1.33476816e-02, 1.86107960e-02,
       7.73023348e-03, -8.88998620e-03, -1.33351218e-02, -6.39531761e-04,
       3.50314518e-03, -5.75505896e-03, -2.00841506e-03, 2.00726688e-02,
       5.17662317e-02, -4.75643016e-03, 1.89339241e-03, 2.08050534e-02,
       1.63397156e-02, 1.31383669e-02, -1.00044729e-02, -1.08448258e-02,
       -1.42375380e-02, -1.13055529e-02, -2.92830504e-02,
       -1.83434095e-02, 1.85902847e-03, 2.21937820e-02, 2.96328049e-02,
       2.34980006e-02, 7.03069801e-03, -1.15300659e-02, -2.39683110e-02,
       -1.04396222e-02, -1.83437299e-02, -1.20424600e-02,
       -9.84688173e-04, -4.90638241e-03, -1.02262357e-02,
       -4.61519836e-03, 7.49557884e-03, 1.60623901e-02, -2.77859382e-02,
       -3.07521708e-02, -1.49939824e-02, 1.13617536e-02, 3.43630314e-02,
       3.91231962e-02, 2.08517034e-02, -7.30605423e-03, -2.46471222e-02,
       -1.89261809e-02, -5.18008554e-03, -1.57720782e-03, 4.74906527e-04,
       3.01899784e-03, -2.72872834e-03, -1.00274878e-02, -1.80893596e-02,
       -1.42906820e-02, 3.93770821e-03, 1.42239109e-02, 1.22845238e-02,
       -1.29256630e-03, -8.52324348e-03, -6.73940312e-03,
       -9.25359130e-03, -1.61135308e-02, -1.07768979e-02,
       -2.93546021e-02, -2.61198096e-02, -1.41967200e-02,
       -1.48207482e-05, 2.72971927e-03, 9.09295026e-03, 4.29674145e-03,
       -1.37228342e-02, -2.07779165e-02, -1.63711496e-02, 7.91732036e-03,
       1.26768667e-02, 6.63979817e-03, -1.84213873e-02, -1.34078888e-02,
       -1.43830860e-02, -1.10235726e-02, -1.43869817e-02,
       -6.13409514e-03, 1.08579628e-03, 1.79933457e-04, -8.44042841e-03,
       -1.42397834e-02, -8.55034776e-03, -1.31261395e-02,
       -1.85623355e-02, -1.20248348e-02, -1.96074578e-03,
       -1.35635408e-02, -1.38835115e-02, -8.60286411e-03,
       -1.75863598e-02, -1.10666761e-02, -1.93081032e-02,
       -1.52683491e-02, -9.94060375e-03, -1.69845596e-02, 1.70115090e-03,
       1.58692673e-02, 5.63282659e-03, -2.05317717e-02, -2.12819800e-02,
       -2.52152495e-02, -2.16638651e-02, -2.24978589e-02, 7.66671030e-03,
       9.68840346e-03, 1.81496404e-02, 5.45521360e-03, -1.93188712e-02,
       -2.06362680e-02, -2.85212602e-02, -2.75530033e-02,
       -1.09654292e-02, -3.97424540e-03, -2.33476888e-02,
       -1.62095353e-02, -1.15921451e-02, -5.10767708e-03,
       -7.99844787e-03, -2.08472814e-02, -1.75892450e-02,
       -1.17182061e-02, 4.44733817e-03, -2.68532033e-03, -1.00130048e-02,
       -2.74182670e-02, -1.35899056e-02, -3.34079750e-03,
       -1.29497116e-02, -2.49540489e-02, -1.09711494e-02, 7.67737627e-03,
       -1.08065931e-02, -1.34950308e-02, 3.10748443e-03, -1.01460023e-02,
       -1.61628388e-02, -2.44337469e-02, -2.67817285e-02,
       -8.12191633e-04, 2.71888021e-02, -6.21820055e-03, -1.31364558e-02,
       -9.30158515e-03, -1.23221939e-02, -1.88973937e-02,
       -1.89990755e-02, -1.40525252e-02, 9.14764300e-04, -1.60882750e-03,
       -3.65162222e-03, -6.21729530e-03, -1.96675360e-02,
       -1.64570212e-02, -6.25834567e-03, -1.78643558e-02,
       -2.13799682e-02, -5.17890463e-03, 2.57827668e-03, -1.30134663e-02,
       -2.04628557e-02, -2.11083330e-02, -1.73494890e-02,
       -6.71504717e-03, -8.56398139e-03, -6.25848956e-03, 3.37984134e-03,
       1.46810506e-02, 1.03582703e-02, -2.60385638e-03, -2.04150639e-02,
       -2.62073353e-02, -1.68322902e-02, -1.29961846e-02,
       -8.32731370e-03, 1.49216279e-02, 2.37039346e-02, 2.20567193e-02,
       2.41075046e-02, -1.40717849e-02, -2.16864832e-02, -1.79107860e-02,
       -2.49348879e-02, -2.33434923e-02, 1.74752693e-03, 7.97628239e-03,
       -1.46076912e-02, -2.54948307e-02, -2.10493598e-02,
       -1.23428218e-02, -3.68972262e-03, -3.10729421e-03,
       -5.58360945e-03, -2.85462104e-03, 5.12042781e-03, -1.72658525e-02,
       -2.20758691e-02, -8.92816484e-03, -9.17444751e-03, 3.41754849e-03,
       3.80378636e-03, -7.09757535e-03, -7.61538837e-03, 4.59491089e-02,
       2.16199663e-02, -7.43395044e-03, -1.89857092e-02, -2.02043392e-02,
       -1.48021346e-02, -2.23413706e-02, -2.61279605e-02,
       -3.79203819e-03, 3.93501036e-02, 1.62973609e-02, -7.68466713e-03,
       -1.46150310e-02, -1.89328957e-02, -1.20837893e-02,
       -1.39247635e-02, -1.42134549e-02, 3.97639349e-03, -5.20577561e-03,
       -2.23909300e-02, -1.86490640e-02, 2.89731473e-03, 3.77050042e-03,
       3.44065018e-03, -2.20390433e-03, -4.19027265e-03, -9.23191849e-03,
       1.71142165e-03, -2.52162833e-02, -1.48278391e-02, 8.37417413e-03,
       9.78863519e-03, 2.05314043e-03, -7.79433036e-03, -6.03216840e-03,
       -5.66079235e-03, 1.46966344e-02, 1.03756674e-02, 3.00083542e-03,
       -3.47210397e-03, -1.03038624e-02, -6.41289866e-03,
       -3.92379239e-03, 7.62078736e-04, -2.55716196e-03, 7.35514285e-03,
       7.89067149e-03, -1.19765615e-03, 6.09536748e-03, -1.20443394e-04,
       -2.55621644e-03, -1.30206561e-02, -2.00924068e-03,
       -8.97832308e-03, -9.42622870e-03, -2.26571131e-02,
       -1.41851297e-02, 5.66378608e-03, 1.32472487e-02, 7.72263575e-03,
       4.76490799e-03, 1.03912037e-03, -2.16448738e-04, -2.15426665e-02,
       -1.05423899e-02, 5.70129079e-04, 2.26345379e-03, 2.93274620e-03,
       -4.72111488e-03, -1.47000421e-02, -9.37098451e-03,
       -7.57853221e-03, 1.94514426e-03, -7.88967405e-03, -5.35135297e-03,
       1.42090656e-02, 1.57493632e-02, 1.47051206e-02, 6.01902744e-03,
       3.60235362e-03, -1.24987215e-03, -5.24528697e-03, -4.44715098e-03,
       -5.07016107e-03, 6.38614455e-03, -1.75648695e-03, -5.51353581e-03,
       4.22014296e-03, 1.08102441e-03, -5.81701938e-03, -7.88374897e-03,
       1.21741800e-03, 1.11848507e-02, 7.20792497e-03, -1.81610428e-03,
       -1.62350722e-02, -1.74099486e-02, 3.98880057e-03, 4.71300585e-03,
       -3.08099273e-03, -8.14466737e-03, -4.33899369e-03,
       -1.05187288e-02, -1.34180002e-02, -1.10844830e-02,
       -1.39256089e-03, 1.77742692e-03, 4.41622018e-04, -3.32902116e-03,
       6.48394518e-04, 1.72674074e-03, 6.58904761e-03, -8.57364014e-03,
       -1.46117797e-02, 2.81378580e-03, 1.46100447e-02, 9.23599675e-03,
       -6.52994076e-03, -7.51801860e-03, -1.49869360e-03,
       -5.00818947e-03, -9.79128573e-03, -1.62580293e-02, 1.52801489e-02,
       1.19434828e-02, -3.22769000e-03, -7.31445500e-04, -2.16554059e-03,
       3.80518427e-03, -1.74495613e-03, -9.50067677e-03, -1.18390424e-02,
       -3.46934749e-03, 7.36131705e-03, 2.80506443e-03, 2.76945299e-03,
       5.75604616e-03, -2.46426929e-03, -8.75587109e-03, -1.61881987e-02,
       -2.13753078e-02, -8.57288204e-03, 7.45340623e-03, -6.75914460e-04,
       -5.14621940e-03, -5.48892049e-03, 6.70014834e-03, 5.44269197e-03,
       -2.17205309e-03, -1.25609664e-02, 9.05903056e-03, 3.17000854e-03,
       -4.94245719e-03, 4.00324259e-03, 2.06601364e-03, -8.58381856e-03,
       -9.47950222e-03, -6.87194942e-03, -1.80105641e-02,
       -6.02903729e-03, -5.71834622e-03, -1.41211804e-02, 4.68489435e-03,
       -4.81319235e-04, -1.69848371e-02, -1.53206429e-02,
       -1.94181241e-02, -1.46221519e-02, -3.85238440e-03, 1.01671712e-02,
       2.66556419e-03, -6.16094563e-03, -7.16676563e-03, -1.99010391e-02,
       -7.26519246e-03, -7.18755415e-03, -8.21145659e-05, 4.91284020e-03,
       1.33050913e-02, -6.47917856e-03, 6.24351343e-03, 3.01738712e-03,
       -1.60026625e-02, -1.43638970e-02, -2.91608484e-03,
       -1.23626497e-02, -6.82165893e-03, -5.21752937e-03,
       -1.49258627e-02, 1.70379505e-02, 7.99781736e-03, -1.58886109e-02,
       -1.77178401e-02, 5.98323671e-03, 2.08292669e-03, -4.90758894e-03,
       1.23597705e-03, 5.13772154e-03, -1.13740228e-02, -1.78074129e-02,
       -1.92719661e-02, -1.38080893e-02, -5.06003620e-03,
       -6.83140382e-03, 6.73087873e-03, 3.97476600e-03, -8.77228845e-03,
       -7.68182753e-03, -1.87901780e-02, -1.30573018e-02, 2.32597953e-03,
       5.15353680e-03, -4.20936942e-03, -5.66332228e-03, 1.67445501e-03,
       -8.01739469e-03, 7.77638843e-03, -1.03160888e-02, -2.40425281e-02,
       -1.71332303e-02, 4.69697127e-03, 2.14633532e-03, 1.88289012e-03,
       -3.67762579e-04, 7.24707730e-03, 8.45118368e-04, -1.52515545e-02,
       -2.01125666e-02, -2.31205579e-03, 8.91613774e-03, 1.81416911e-03,
       -7.11571192e-03, 1.93517096e-03, 2.04361789e-03, -4.73986520e-03,
       -1.54732708e-02, -1.05780279e-02, -6.79966388e-03,
       -7.36728217e-03, -1.61977913e-02, -1.70374773e-02,
       -5.45707904e-03, -5.46041364e-03, -2.06773775e-03,
       -1.71034969e-02, -3.93750099e-03, 3.42549686e-03, 2.75081117e-03,
       -1.75480619e-02, -1.85278002e-02, -1.16738267e-02,
       -4.38800780e-03, 3.49355105e-04, -1.41677912e-02, -1.71246715e-02,
       -6.10534428e-03, 4.80915332e-04, -1.37421628e-02, -1.79898273e-02,
       -3.05280089e-03, -5.03620785e-03, -2.32788545e-04,
       -1.11154318e-02, -2.11956314e-04, 1.32754380e-02, 7.31640169e-03,
       -1.06243370e-02, -1.20540271e-02, -7.48304324e-03,
       -1.02851298e-02, -1.84914283e-02, -2.06604768e-02,
       -1.01649268e-02, 2.56617088e-03, 8.66424292e-03, 1.71367601e-02,
       2.53094025e-02, 2.34207511e-02, -1.87021052e-03, -2.46820673e-02,
       -2.30852533e-02, -1.06475232e-02, 1.61061324e-02, 3.10793817e-02,
       2.89341975e-02, 2.66666599e-02, 7.52741238e-03, -6.04041340e-03,
       -9.96837113e-03, -8.01981986e-03, -6.55102171e-03, 7.34432042e-03,
       1.08284773e-02, 1.05337529e-02, 1.17191412e-02, 8.87596700e-03,
       -5.57201542e-03, -1.11419959e-02, -2.55005504e-03, 9.59462859e-03,
       1.93270370e-02, 1.37422755e-02, 1.75751634e-02, 1.46267628e-02,
       5.18237799e-03, -9.32937302e-03, -3.89234303e-03, -8.47533625e-03,
       -4.42032330e-03, 9.82860103e-03, 4.63545090e-03, 1.70161412e-03,
       4.37061954e-03, -7.60576222e-03, 1.56854559e-03, 7.41663808e-03,
       -6.63472945e-03, -1.28676957e-02, 8.48065782e-03, 3.85833648e-03,
       -6.34422619e-03, -1.23282447e-02, 4.53919079e-03, 3.59518975e-02,
       -1.38535583e-02, -9.03970283e-03, 1.21310947e-03, 8.91685952e-03,
       -3.28971515e-03, -4.20061266e-03, 9.18532815e-03, 7.71668740e-04,
       -1.29121253e-02, -1.44048245e-04, -3.65510141e-03,
       -6.45235414e-03, 4.60529095e-03, -2.87325773e-03, -7.39706820e-03,
       1.31815628e-04, 3.48658091e-03, 4.43458604e-03, -1.95711963e-02,
       -2.05476061e-02, -2.55486704e-02, -3.86605301e-04, 1.06924574e-03,
       -7.83293229e-03, 1.34602224e-03, 2.53844541e-03, 9.05662961e-03,
       -2.96799354e-02, -2.73496713e-02, -1.86029561e-02, 2.25730781e-02,
       3.30488086e-02, 2.41447426e-02, 8.63866694e-03, -1.53521281e-02,
       -2.49947738e-02, -7.05842068e-03, -1.13805234e-02,
       -1.82753466e-02, -2.90733785e-03, -1.09513188e-02,
       -1.85435242e-03, 6.05428079e-03, -6.51806011e-04, -1.51359558e-03,
       2.09504645e-03, -5.45433140e-04, -9.31660179e-03, 2.03356445e-02,
       8.93614907e-03, 1.07752318e-02, 7.37100199e-04, -7.11228047e-03,
       -5.92145231e-03, -1.93567723e-02, -2.71781124e-02,
       -1.86801124e-02, -6.72761025e-03, 7.67323049e-03, 3.10279964e-03,
       4.01292602e-03, -1.05513502e-02, -1.45377070e-02, -1.18808346e-02,
       -1.12775061e-02, -1.22563140e-02, -6.11423794e-03,
       -1.62249450e-02, -1.59871913e-02, -4.37138369e-03,
       -3.10479524e-03, -1.09348157e-02, 9.06649604e-03, -1.28624979e-02,
       -2.44874209e-02, 1.12117757e-03, -3.08495318e-03, -5.54050272e-03,
       -6.23026048e-04, 1.22808963e-02, 2.81111971e-02, 6.10956969e-03,
       -1.43208569e-02, -2.90549546e-02, -1.66726131e-02,
       -1.60460807e-02, -1.59135535e-02, -6.00971887e-03, 2.10118312e-02,
       2.14934275e-02, -1.66998040e-02, -1.39988037e-02, 4.51349933e-03,
       1.00856395e-02, -2.43289932e-03, -1.46039343e-02, -1.19205555e-02,
       -1.23934895e-02, -2.21098512e-02, -1.10676996e-02,
       -1.00267474e-02, 1.25844730e-02, 2.01626141e-02, 5.09261619e-03,
       -8.45437590e-03, -1.24048423e-02, -2.16195360e-02,
       -2.75967084e-02, -1.05518633e-02, -3.04246061e-02,
       -3.02823558e-02, -1.97265185e-02, -1.63823534e-02,
       -1.81964841e-02, -1.09002981e-02, 2.31435959e-04, -1.51850819e-03,
       -2.24929918e-02, -2.83544101e-02, -2.23792866e-02,
       -1.10301506e-02, -5.39905252e-03, -2.94042053e-03,
       -3.67502403e-03, -3.24387942e-03, -1.40720773e-02,
       -6.43980782e-03, -1.86987910e-02, -1.20882727e-02, 1.02498764e-02,
       -1.15518458e-03, -4.86373249e-03, -1.44443130e-02,
       -2.00715382e-02, -1.16667999e-02, 6.56212214e-03, -1.15561886e-02,
       -2.31396072e-02, -1.00163016e-02, -2.64306297e-03,
       -8.28549545e-03, -6.32617855e-03, -7.09065329e-03,
       -7.57451984e-04, -1.40492171e-02, -1.87019501e-02,
       -2.36203708e-02, -1.56178940e-02, -6.56659994e-03,
       -1.19690420e-02, -1.92155503e-02, -1.03670051e-02,
       -7.87581410e-03, 2.00779848e-02, -1.02105225e-02, -1.82135087e-02,
       -9.20198951e-03, -7.72258313e-03, -2.05495283e-02,
       -2.27560699e-02, -9.98119079e-03, 4.75230953e-03, 4.69929539e-03,
       3.50344484e-03, -6.42939424e-03, -1.91448890e-02, -2.13315375e-02,
       -1.72627810e-02, -1.36472723e-02, -3.91122699e-03, 1.05501097e-02,
       7.99082126e-03, 1.16935642e-02, 1.10297259e-02, -1.46242632e-02,
       -2.00871155e-02, -1.76729430e-02, -1.98102351e-02,
       -1.92983113e-02, 4.46373504e-03, 1.51916938e-02, -6.82333298e-03,
       -1.46356504e-02, -1.18812211e-02, -1.34840179e-02,
       -1.64405163e-02, -1.37805212e-02, -1.13745220e-02, 6.00713352e-03,
       7.34835211e-03, -8.75865482e-03, -7.94717204e-03, -1.50053101e-02,
       -9.13310051e-03, -1.69183221e-02, -2.14014966e-02,
       -1.75228715e-02, -2.15719585e-04, 3.71389054e-02, 2.00742669e-02,
       5.36006689e-03, -1.38507066e-02, -1.62018016e-02, -1.95409823e-02,
       -1.94975045e-02, -2.18798146e-02, 2.25669052e-03, 2.78198998e-02,
       9.88712627e-03, -1.20273195e-02, -1.84328519e-02, -1.93829127e-02,
       -9.85607598e-03, -2.59984029e-03, -7.10524153e-03, 3.14611150e-03,
       9.81639512e-03, 6.01089632e-05, -5.12174796e-03, -1.91413164e-02,
       -1.37765501e-02, -1.77232437e-02, -1.48860356e-02,
       -1.68536697e-02, -1.57434214e-03, 2.12923042e-03, -6.01685420e-03,
       -8.25154688e-03, -1.41708162e-02, -1.26290256e-02,
       -1.05800480e-02, -8.90332926e-03, -1.28368139e-02,
       -1.71854589e-02, 9.05354694e-03, 6.53473055e-03, -5.48748486e-03,
       -3.26689845e-03, -4.91463486e-03, -5.71330031e-03,
       -1.22970250e-03, 1.98824448e-03, -3.89619544e-03, 8.94939713e-03,
       2.01098938e-02, 3.80150794e-07, 7.13175442e-03, 3.81171441e-04,
       -9.74477921e-03, -1.61332395e-02, -9.61854868e-03,
       -9.95164551e-03, -7.32149603e-03, -7.25968415e-03,
       -7.07687903e-03, 5.89572242e-04, 1.54553971e-04, -7.35999690e-03,
       -6.99433545e-03, -1.51150394e-02, -2.08311994e-02, 5.82788279e-03,
       9.71905794e-03, 2.34386208e-03, 4.70814441e-04, -1.07124797e-03,
       -1.54677983e-02, -1.76646393e-02, -1.17053390e-02,
       -1.62258744e-02, 1.12482975e-03, 3.89413396e-03, 4.50627040e-03,
       1.65903419e-02, 1.48434211e-02, 1.77985488e-03, -1.18858239e-03,
       -3.77710070e-03, -4.42604907e-03, -1.81146879e-02,
       -1.05150361e-02, 1.12585003e-04, 1.21297212e-02, 3.15161259e-03,
       -7.52680877e-04, 3.13266483e-03, -1.14449998e-02, -1.47043541e-02,
       -8.23087711e-03, 8.52157548e-03, 5.85939689e-03, 2.87392316e-03,
       2.68164603e-03, -6.75594853e-03, -5.39569790e-03, -1.12295235e-02,
       -1.89913101e-02, -3.56200077e-02, -1.49919344e-02,
       -4.44904296e-03, -2.09309696e-03, 6.54490213e-05, 2.64079939e-03,
       8.58950801e-03, -2.32940447e-02, -3.77144329e-02, -1.21819396e-02,
       -4.37813951e-03, 4.97764349e-03, 1.04691023e-02, 1.58139330e-03,
       -6.81983074e-03, -1.51787838e-03, 4.11614217e-03, -9.98311769e-03,
       -1.69212408e-02, -1.01134982e-02, -4.77620540e-03,
       -5.25884749e-03, -2.05084612e-03, -8.71244818e-03, 1.07179359e-02,
       9.89420526e-03, -5.40744513e-03, -2.10897923e-02, -1.16630150e-02,
       -4.36127698e-03, -2.15399414e-04, -2.67442851e-03,
       -5.89678390e-03, 1.89103803e-03, -3.22642364e-03, -2.52788942e-02,
       -1.68517381e-02, -9.15550441e-03, -1.07990745e-02,
       -5.81773138e-03, -1.96677353e-03, -7.78657477e-03, 1.03562437e-02,
       1.01915495e-02, -4.94228303e-03, -1.23007959e-02, -1.39540648e-02,
       -1.06959259e-02, -7.61936465e-03, 4.11047135e-03, -6.40349556e-03,
       4.69604461e-03, 4.21870872e-03, -5.20538306e-03, 4.98152920e-04,
       -1.17968004e-02, -1.65214501e-02, -1.86931975e-02,
       -3.80689604e-03, -1.16557945e-02, -5.56533970e-03,
       -6.08238345e-03, -1.54264718e-02, 2.95333099e-04, -9.25614126e-03,
       -1.94190331e-02, -1.37979193e-02, 8.42234958e-03, -1.07487012e-02,
       1.42747851e-03, 9.48601030e-03, 6.00904366e-03, -1.76692533e-03,
       -2.67974008e-03, -1.85298137e-02, -2.14153174e-02, 8.69715028e-03,
       -1.37574989e-02, 2.18892063e-04, -1.08110029e-02, 2.39767163e-04,
       5.91159379e-03, -6.51305029e-03, -1.32886218e-02, -2.14844625e-02,
       -3.91477253e-03, -1.01864813e-02, -6.92444807e-03,
       -8.52930080e-03, -1.28044784e-02, 8.28714576e-03, 1.05088833e-03,
       -1.33139631e-02, -1.95071772e-02, 7.06089567e-03, 3.07343784e-03,
       -8.04417115e-03, -1.06029510e-02, -1.13796657e-02, 8.90444790e-04,
       -4.98413574e-03, -1.89060122e-02, -2.20405180e-02, 1.19211304e-03,
       -6.41578389e-03, 2.31689424e-03, -4.29252535e-03, -6.27233321e-03,
       -3.02474434e-03, -5.41328127e-03, -1.19600631e-02,
       -1.14177857e-02, -2.04569520e-03, -1.21837193e-02,
       -2.98926095e-03, -9.11688991e-03, -1.31762410e-02, 6.01136032e-03,
       -9.55844019e-03, -1.61096733e-02, -1.58124417e-02, 9.08447057e-03,
       1.91761309e-03, -5.32980449e-03, -1.16054984e-02, -2.85854214e-03,
       -1.40954310e-03, -1.65332686e-02, -2.38006413e-02,
       -1.34377945e-02, 1.10375723e-02, 1.85016333e-03, 1.57831004e-03,
       8.30485777e-04, 2.65947916e-03, -1.15308526e-03, -1.36669371e-02,
       -1.22274607e-02, -8.26322287e-03, 1.87021354e-03, -9.75033641e-03,
       -6.89608883e-03, -1.35790436e-02, -1.29470071e-02, 2.23329128e-03,
       -2.32546851e-02, -1.73613206e-02, -9.22469608e-03, 8.20606202e-03,
       -6.05965639e-03, -3.86433629e-03, -1.60754786e-03,
       -3.46077199e-04, -2.10154965e-03, -1.63761545e-02,
       -2.63418946e-02, -1.67565271e-02, 3.56710376e-03, -4.11719503e-03,
       -1.97412609e-03, 1.15071877e-03, -6.61628670e-04, 1.46936707e-03,
       -8.70539434e-03, -8.75069108e-03, 3.15524288e-03, 9.74924862e-03,
       1.19150104e-03, 1.79818470e-03, -7.11400202e-03, -5.45904692e-03,
       -4.34146263e-03, -2.36880928e-02, -2.62726769e-02,
       -1.42014436e-02, 3.71233164e-03, -1.04813548e-02, -6.88862172e-04,
       -2.76760780e-03, 6.55665586e-04, -9.11522377e-03, -5.07156877e-03,
       -4.32415109e-04, 1.39722377e-02, 1.40590305e-02, -2.85419566e-03,
       -2.41610920e-03, -1.67398900e-02, -1.08909952e-02,
       -1.21094855e-02, -2.19800347e-03, 1.78976660e-03, 8.00646935e-03,
       1.59112345e-02, 9.45865549e-03, -2.66081421e-03, -4.04449273e-03,
       -1.27604865e-02, -1.45504484e-02, -2.44391453e-03, 6.60785288e-03,
       1.12957805e-02, 2.11778339e-02, 1.89253278e-02, 2.50736531e-02,
       1.37719093e-02, -1.50249964e-02, -1.79976914e-02, -1.39498049e-02,
       -5.75385755e-03, -1.00476211e-02, -1.63890782e-03, 9.24345106e-03,
       4.05715313e-03, 1.56286673e-03, -1.13054523e-02, -1.61715690e-02,
       -7.92051107e-03, -1.78894831e-03, -1.22831657e-03, 1.01182554e-02,
       3.40152308e-02, 4.81714308e-02, 8.00045300e-03, -1.47901420e-02,
       -1.90369859e-02, -1.25866281e-02, -1.46746142e-02,
       -1.14317928e-02, -5.85412094e-03, -3.88324447e-03, 2.26973128e-02,
       1.06799556e-02, -1.51258893e-02, -2.58436683e-03, -2.79320811e-04,
       -6.00230787e-03, -8.15722439e-03, -1.31639903e-02,
       -8.35328922e-03, 6.60490012e-03, 2.20435169e-02, 6.17973041e-03,
       -1.88137293e-02, -3.77505179e-03, -9.44568217e-03,
       -1.68785769e-02, -1.78278480e-02, 8.02286156e-03, 2.11341195e-02,
       -9.13864569e-05, -2.23211292e-02, -1.76409981e-03, 1.87112372e-02,
       1.79330213e-03, -1.53786279e-02, -3.07112541e-02, -7.68614514e-03,
       1.04105854e-02, 1.41453017e-02, -2.32323096e-03, -6.24433998e-03,
       -1.50866415e-02, -1.94474161e-02, -1.30060585e-02,
       -1.43258162e-02, -7.08682369e-03, -5.06884698e-03, 1.35174720e-02,
       6.38492871e-03, 9.42914467e-03, 2.69256579e-03, -7.74249109e-03,
       1.45531604e-02, 1.13437558e-02, -6.08204538e-03, -1.64329875e-02,
       -6.02471316e-03, 1.78078830e-03, -9.14539956e-03, -1.49062909e-02,
       -2.19014697e-02, -1.12327561e-02, -1.87951420e-02,
       -6.09358214e-03, 8.99930950e-03, 2.13934425e-02, 8.70260131e-03,
       -1.36570632e-02, -1.70562714e-02, 7.31202948e-04, 2.33459994e-02,
       1.31919782e-03, -1.28410524e-03, 6.03210829e-05, 2.77205370e-03,
       3.34874704e-03, -4.49678348e-03, -1.46658579e-02, -1.66256316e-02,
       -1.35907212e-05, -1.26301195e-03, -1.36973783e-02,
       -1.61214955e-02, -7.96039589e-04, 2.52597500e-03, -9.06143710e-03,
       -2.35517882e-02, -2.97108423e-02, -1.36564272e-02,
       -1.50774885e-02, -1.42858401e-02, 4.85979207e-03, 1.90596655e-02,
       9.57876444e-03, -2.41323728e-02, -2.77894493e-02, -3.89423221e-03,
       1.48040233e-02, -6.05638139e-03, -1.44050531e-02, -4.52698790e-04,
       5.74433431e-03, -3.65195493e-03, -1.10367499e-02, -2.20033787e-02,
       -1.45568624e-02, 1.01326127e-02, -1.47202658e-02, -9.79894586e-03,
       -5.75838145e-04, 1.48267597e-02, 2.44756159e-03, -1.19996173e-02,
       -2.60376856e-02, -2.85273548e-02, -1.74369272e-02,
       -1.41225038e-02, -8.96261353e-03, 2.87303585e-03, 1.04075773e-02,
       8.43477435e-03, -1.77804492e-02, -3.02120652e-02, -2.60035545e-02,
       -1.54958759e-02, 7.17441970e-03, 3.67971952e-03, 1.05963033e-02,
       8.93037580e-03, 1.40432082e-03, -2.47983751e-03, -1.99061465e-02,
       -2.37004906e-02, -2.02413071e-02, -5.76028973e-03,
       -1.34614971e-03, -1.35111579e-04, 1.28833940e-02, 6.59285393e-03,
       -9.89032723e-03, -2.56155375e-02, -3.40327360e-02,
       -1.64249185e-02, 4.17959131e-03, 7.18769105e-03, -1.48562370e-02,
       -1.18419854e-02, 3.02195345e-04, -8.31973553e-03, -1.35685224e-02,
       -1.62644610e-02, -1.15224374e-02, 2.76848883e-03, -1.55800721e-02,
       -1.31043931e-02, -1.28395273e-03, 2.07796902e-03, 1.76459514e-02,
       -9.74381529e-03, -1.11538973e-02, -1.49774645e-03,
       -5.56414248e-03, -2.04106756e-02, -1.43873021e-02,
       -9.77853127e-03, 1.73280761e-02, -4.22982406e-03, -1.61753949e-02,
       -2.81477645e-02, -1.89225078e-02, -9.16137826e-03,
       -8.83799791e-03, -2.39713471e-02, -2.41818149e-02, 4.73885477e-04,
       7.77084799e-03, -1.43353792e-03, 3.16538219e-03, -1.92222104e-03,
       -7.71545060e-03, -1.38118686e-02, -2.85170656e-02,
       -2.73328219e-02, 5.53618558e-03, 1.41884387e-02, -2.44082441e-03,
       -5.83107304e-03, 7.28209782e-03, 3.55848065e-03, -8.75411555e-03,
       -1.15266992e-02, -8.54137074e-03, 6.73806854e-03, 1.21224569e-02,
       -4.14330978e-03, -1.19882962e-02, -1.05176559e-02, 4.34211455e-03,
       -9.07576759e-04, -1.11434171e-02, -1.22522740e-02,
       -7.71167630e-04, -2.92488886e-03, -3.93364998e-03, 6.69691421e-04,
       4.29671025e-03, -1.01104230e-02, -8.37495364e-03, -2.12910343e-02,
       -1.76780466e-02, -2.11172341e-03, 3.66337597e-03, -9.52509046e-03,
       -1.03119630e-02, -2.35357857e-03, -8.54593795e-03, 2.64458754e-03,
       -1.60125848e-02, -1.73478760e-02, -2.82354979e-03, 1.74415540e-02,
       -7.09994463e-03, -1.35628851e-02, -1.30185299e-02,
       -6.09135430e-04, -5.50202001e-03, -1.29291415e-02,
       -1.01208799e-02, 7.87350070e-03, 1.87985823e-02, 1.24222564e-03,
       -9.30532627e-03, -4.07789322e-03, -7.02128978e-03,
       -1.27204088e-02, -9.86966677e-03, -1.58294085e-02,
       -9.35301126e-04, 1.14224320e-02, -3.37083824e-03, -1.08786523e-02,
       -7.39281066e-03, -6.94882963e-03, 2.95847247e-04, -1.55423731e-02,
       -1.23781981e-02, 6.38752244e-03, 9.28271189e-03, 7.17097567e-03,
       -1.86570897e-03, 6.27753977e-03, -1.19420448e-02, -7.71494536e-03,
       -1.39200781e-02, -7.66704697e-03, 8.99578619e-04, 4.92206449e-03,
       -4.27942723e-03, -1.55295879e-02, -7.07277609e-03,
       -8.79902299e-03, -7.57087860e-03, -1.63142278e-03,
       -7.23181339e-03, 2.57991441e-03, 1.38470139e-02, 7.58085446e-03,
       -8.86122975e-03, -7.44334422e-03, -4.95509431e-03,
       -8.08811095e-03, -2.66570854e-03, -1.31538941e-03,
       -6.47996261e-04, -8.46255943e-03, -1.06107416e-02,
       -1.48741063e-02, 3.98835121e-03, 3.82591318e-03, 1.11955060e-02,
       6.93933759e-03, 5.24755160e-04, -2.29314156e-03, -2.11431496e-02,
       -2.11130250e-02, -2.23146081e-02, 4.46814857e-03, 2.05408297e-02,
       2.92636994e-02, 1.36893466e-02, -6.40694797e-03, -2.09178496e-02,
       -5.30383131e-03, 8.64708889e-03, 3.10882903e-03, 2.52964394e-03,
       6.97212666e-03, -6.59240875e-04, 5.03286028e-05, -8.92145000e-03,
       -1.46421492e-02, -2.33667791e-02, -1.02548283e-02,
       -1.85315241e-03, -3.53349862e-03, 9.04299901e-04, -6.32050447e-03,
       -3.48110218e-03, -1.52347563e-02, -2.59505939e-02,
       -3.08344513e-02, -1.40844220e-02, -5.35245286e-03, 1.49330748e-02,
       2.72367485e-02, 2.82325279e-02, 1.19788246e-02, -1.51525624e-02,
       -2.59361733e-02, -2.90418081e-02, -1.05954390e-02, 1.21238520e-02,
       1.96910910e-02, 1.65547337e-02, 6.41481252e-03, -3.48736718e-03,
       -1.83845647e-02, -3.38870883e-02, -1.29157389e-02,
       -1.39859449e-02, -1.01043684e-02, -8.18820391e-03,
       -1.55202928e-03, -9.34259500e-03, 1.22613525e-02, 7.95231294e-03,
       -1.10316873e-02, -1.96863431e-03, -1.06491875e-02,
       -1.35790249e-02, -9.38663166e-03, 7.24228681e-04, -7.36711780e-03,
       1.48622980e-02, 2.01244447e-02, 3.53054353e-03, -9.48732067e-03,
       -1.06678195e-02, -1.53443601e-03, 3.68741760e-03, 5.69733139e-03,
       1.49260962e-03, 1.07606882e-02, 6.24113670e-03, -9.40955896e-03,
       8.97819584e-04, 9.25468921e-04, -1.10542104e-02, -1.12078963e-02,
       -8.89293756e-03, -7.88913667e-03, 7.56541267e-03, 1.34510780e-02,
       7.56855914e-03, -1.15861685e-03, -1.03580058e-02, -1.95621103e-02,
       -6.47880789e-03, 3.88025260e-03, -9.82964598e-03, -3.25082010e-03,
       9.12718941e-03, 8.99825618e-03, 1.72812480e-03, -7.22900359e-03,
       -2.13622916e-02, -9.15704947e-03, 8.68249033e-03, -4.99283150e-03,
       2.73294328e-03, -6.16252003e-03, 2.49384786e-03, 1.31854333e-03,
       -6.88466243e-03, -4.40936862e-03, -4.97859996e-03,
       -5.22980932e-03, -5.57743525e-03, -1.99186662e-03, 4.27085394e-03,
       4.07978939e-03, -6.68630842e-03, -2.25036163e-02, -1.53908962e-02,
       -9.88148432e-03, -2.05795281e-03, 2.69540376e-03, 1.29259468e-04,
       -5.86996926e-03, -2.39288830e-03, -1.05591759e-03,
       -9.52178147e-03, -2.50503924e-02, -1.61661915e-02, 1.84269017e-03,
       -3.44719854e-03, 2.50166538e-03, 1.22082268e-03, -4.91482578e-03,
       -6.67415000e-03, -8.03803466e-03, -6.97606569e-03,
       -7.35717919e-03, -3.47416964e-03, -9.81075875e-03,
       -5.96267579e-04, 5.47453586e-04, -1.68435853e-02, -1.54013420e-02,
       -2.15798989e-02, -1.89314317e-02, -1.40283285e-02,
       -6.42890297e-03, 3.40349670e-03, 4.37927479e-03, -4.34296066e-03,
       -7.80864339e-03, -1.21281743e-02, -7.61367567e-03, 2.23469827e-03,
       -4.28678188e-03, -9.69984743e-04, -3.65221151e-03,
       -2.11776840e-03, -6.47778111e-03, -1.33891460e-02,
       -9.41389427e-03, -1.44177312e-02, -8.98871850e-03,
       -6.12200378e-03, -1.81854609e-03, -1.03893159e-02,
       -1.10500841e-04, -1.98600604e-03, -1.36480071e-02,
       -2.91058468e-03, -2.67433506e-02, -1.37400869e-02,
       -1.72688602e-03, 3.49436328e-03, -9.40920413e-03, -6.39774418e-03,
       -7.80811720e-03, -7.39913015e-03, -1.41890696e-03,
       -1.27799828e-02, 9.64772946e-04, 1.38111273e-03, 7.50745006e-04,
       -3.26601625e-03, -3.36935371e-03, 4.04980412e-04, -1.04962215e-02,
       8.85685440e-03, -3.42660234e-03, -2.24899128e-03, 3.68872681e-03,
       -1.56751543e-03, -9.83835477e-03, -5.08365268e-03,
       -5.67836966e-03, -1.81615795e-03, -4.12544049e-03,
       -2.37834640e-02, -1.82925537e-02, -2.90735578e-03, 9.43621527e-03,
       -1.22201303e-02, -1.49167923e-03, -1.01732435e-02,
       -8.30714300e-04, -7.39140064e-03, -6.29116967e-03, 4.10673209e-04,
       1.45733347e-02, 2.54487060e-02, 3.11496085e-04, -1.60771247e-03,
       -5.66572743e-03, -1.14560928e-02, 4.97071445e-03, -7.87839090e-05,
       -5.04240068e-03, 3.17464815e-03, -3.06453044e-03, -1.68822054e-02,
       -6.16616337e-03, -1.58242229e-02, -5.14345616e-03,
       -6.40721573e-03, -2.92089739e-04, 6.24457514e-03, 1.02657489e-02,
       2.98391259e-03, -7.03599164e-03, -8.16178415e-03, -1.79329813e-02,
       -8.73061363e-03, 7.93214500e-01 ]
