%YAML:1.0
---
detectionoutput: !!opencv-object-detector-hog
   winSize: [ 64, 128 ]
   blockSize: [ 16, 16 ]
   blockStride: [ 8, 8 ]
   cellSize: [ 8, 8 ]
   nbins: 9
   derivAperture: 1
   winSigma: 4.
   histogramNormType: 0
   L2HysThreshold: 2.0000000000000001e-01
   gammaCorrection: 1
   nlevels: 64
   signedGradient: 0
   SVMDetector: [ 1.15271565e-02, 4.73332219e-03, -2.39183079e-03,
       -8.35790019e-03, -3.92806865e-02, -1.49050951e-02,
       -6.07787678e-03, 5.33009460e-03, 8.10308196e-03, 1.16123799e-02,
       -1.58524443e-03, -4.68300609e-03, -1.00867171e-02,
       -2.94052232e-02, -8.40694644e-03, -3.33721004e-03, 7.32476311e-03,
       1.26275821e-02, 7.81697035e-03, 6.26962027e-03, -8.43781163e-04,
       -7.83588924e-03, -3.08952779e-02, -1.33767305e-02,
       -7.25238258e-03, 4.77549667e-03, 1.30473496e-02, 3.56270629e-03,
       -6.02295529e-03, -1.85392834e-02, -1.44935520e-02,
       -2.18575336e-02, -3.54352803e-03, -9.12921317e-03, 8.09224881e-03,
       1.21310921e-02, 1.20881274e-02, -1.71505683e-03, -8.52964167e-03,
       -1.10570826e-02, -3.78368981e-02, -4.70001297e-03, 1.68499653e-03,
       1.30615206e-02, 1.40087083e-02, 2.00386327e-02, 1.45597663e-03,
       -1.33752711e-02, -1.74088255e-02, -3.19713876e-02, 2.82020285e-03,
       1.54926593e-03, 2.14386440e-04, 1.72666498e-02, 5.96468756e-03,
       1.29585489e-04, -1.54695455e-02, -1.18131610e-02, -2.54265629e-02,
       -1.76387315e-03, -1.18444804e-02, 2.37049512e-03, 6.90367958e-03,
       4.36370308e-03, -8.75025243e-03, -2.16758009e-02, -1.58749931e-02,
       -2.73692459e-02, -4.62169526e-03, -1.21375686e-02,
       -1.27869723e-02, 9.03415401e-03, 2.45381873e-02, 2.07668068e-04,
       -1.55300135e-02, -1.22767882e-02, -1.43701881e-02, 1.93468784e-03,
       -4.49851947e-03, -6.50772545e-03, 2.10271180e-02, 1.05792452e-02,
       -9.72564146e-03, -1.23899980e-02, -3.46117653e-03,
       -1.95963588e-02, -1.40086166e-04, -1.92676447e-02,
       -3.07095656e-03, 2.43766364e-02, 1.19548803e-02, -1.80521868e-02,
       -2.25514993e-02, -1.20871803e-02, -1.91890188e-02,
       -7.57079863e-04, -1.36069572e-02, -1.54713290e-02, 1.59180835e-02,
       -5.09627047e-04, -2.17978526e-02, -1.96375363e-02,
       -3.15454323e-03, -2.36959383e-02, -3.25693679e-03,
       -2.18074378e-02, -7.55152199e-03, 1.81927364e-02, 3.83193535e-03,
       -7.42052868e-03, -3.16500338e-03, -6.07695663e-03,
       -2.01076698e-02, 2.00765498e-04, -1.55576020e-02, -4.89255704e-04,
       1.49705689e-02, 8.48232117e-03, 5.59556065e-03, 2.85038399e-03,
       1.01156125e-03, -1.22630754e-02, -4.08754684e-03, -1.72070973e-02,
       -9.07066278e-03, 9.36330669e-03, -3.99912242e-03, -1.01470137e-02,
       -4.38834121e-03, -4.13686223e-03, -1.97054651e-02,
       -6.40358450e-03, -2.02048402e-02, -2.18849862e-03, 1.43425567e-02,
       -4.13800823e-03, -6.99914247e-03, 2.33183592e-03, 1.04567793e-03,
       -1.19758612e-02, 1.89902645e-03, -1.57970600e-02, -6.87328400e-03,
       1.70048641e-03, 1.44136259e-02, 1.08844489e-02, 5.48241474e-03,
       1.66526402e-03, -6.84614992e-03, -2.43112398e-03, -1.60603523e-02,
       -1.02773998e-02, 9.51084588e-03, 2.11062226e-02, 1.61357801e-02,
       1.17908921e-02, -4.12152056e-03, -1.86957400e-02, -1.01704495e-02,
       -2.02188231e-02, -1.73490252e-02, 7.78169720e-04, 1.28680449e-02,
       8.45753588e-03, 8.42770748e-03, 5.61917899e-04, -1.03528230e-02,
       2.29965313e-03, -1.04654040e-02, -9.86451562e-03, 1.76976470e-03,
       1.62581857e-02, 3.42984172e-03, 5.24815405e-03, -2.92847888e-03,
       -2.85347141e-02, -1.24902027e-02, -1.40770040e-02,
       -1.71940513e-02, -4.32949346e-05, 1.96005553e-02, 1.22697856e-02,
       1.81645621e-02, -2.06986209e-04, -1.65306926e-02, -7.04659289e-03,
       -1.36307199e-02, -1.15060387e-02, 2.60274019e-03, 1.86659098e-02,
       9.13001131e-03, 1.25369411e-02, 4.26174048e-03, -1.34793520e-02,
       -4.59520845e-03, -1.78589858e-02, -8.44210945e-03, 6.68374915e-03,
       1.84964426e-02, 1.15753934e-02, 1.49731478e-02, -7.62781966e-03,
       -3.04306541e-02, -1.33708185e-02, -1.48705281e-02,
       -8.70415289e-03, 1.63609488e-03, 1.87403224e-02, 1.15139969e-02,
       7.72878295e-03, -1.38071179e-02, -2.89830733e-02, -1.27993459e-02,
       -2.08759513e-02, -1.85866244e-02, 6.09369483e-03, 2.12319568e-02,
       1.51031185e-02, 1.20185148e-02, 8.92226875e-04, -1.23543059e-02,
       -1.40253804e-03, -1.10846516e-02, -3.29012494e-03, 1.12073775e-02,
       2.51708142e-02, 2.34091058e-02, 1.11775612e-02, 1.39212780e-05,
       -1.87592413e-02, -4.52225143e-03, -1.25737190e-02,
       -9.21221823e-03, 1.16247162e-02, 2.09076591e-02, 1.11246146e-02,
       4.66632051e-03, -9.20473784e-03, -1.87893733e-02, -7.82693084e-03,
       -1.14788478e-02, -6.13054680e-03, 1.02037350e-02, -7.37322611e-04,
       -1.93474453e-03, -2.42428132e-03, -1.85031828e-03,
       -1.41451852e-02, -1.06013538e-02, -9.18257423e-03,
       -8.72089434e-03, -1.29091938e-03, 2.16530878e-02, 9.69316997e-03,
       6.55428367e-03, 1.46063848e-03, -1.26791792e-02, -4.94578574e-03,
       -1.51048042e-03, 2.44872016e-03, 1.78869367e-02, 2.43752915e-02,
       9.65557818e-04, 4.47431020e-03, -1.32064801e-03, -1.55619159e-02,
       -1.64406449e-02, -6.02805894e-03, 2.45504809e-04, 2.33696550e-02,
       6.20664284e-03, -1.93241911e-04, -6.85052582e-05, 2.77666317e-04,
       -1.34740835e-02, -4.43671551e-03, -2.69036304e-04,
       -5.92319237e-04, 2.89437221e-03, 6.05217367e-03, -5.01018716e-03,
       -9.53604281e-03, -5.12748538e-03, -1.85298268e-02,
       -1.11597963e-02, -9.56512801e-03, -8.10907863e-04, 5.77147631e-03,
       3.04306783e-02, 3.94270616e-03, 2.43026740e-03, 3.24229768e-04,
       -1.40354540e-02, -2.07896158e-02, -1.17083574e-02, 3.56727571e-04,
       2.45819930e-02, 2.44460180e-02, -1.13521228e-02, -1.06364470e-02,
       -5.88936498e-03, -1.19892247e-02, -2.18120497e-02,
       -1.58511680e-02, 1.90995366e-03, 3.21328603e-02, 1.65787023e-02,
       1.30741368e-03, -6.91731833e-03, -5.87296847e-04, -1.40835820e-02,
       -1.28089590e-02, -1.29622342e-02, -2.40533683e-03, 1.47846825e-02,
       2.02907808e-02, -4.19654977e-03, -9.84568056e-03, 1.99110154e-03,
       -1.12462193e-02, -1.71152800e-02, -1.92205347e-02, 1.67157865e-04,
       1.99882053e-02, 1.09000062e-03, -1.20568331e-02, -1.74331723e-03,
       -3.93931242e-03, -7.32319895e-03, -1.16260601e-02,
       -1.14933625e-02, 7.03301234e-03, 1.90947726e-02, 2.26986827e-03,
       -1.01465313e-02, -5.17078303e-03, -3.67140770e-03,
       -2.13485444e-04, -9.28968005e-03, -7.19945086e-03, 7.60064228e-03,
       8.63482058e-03, 1.64853912e-02, 7.15342816e-04, 4.00816742e-03,
       6.36515790e-04, -1.12670101e-02, -1.52376825e-02, -1.56452488e-02,
       4.28829668e-03, 2.15970762e-02, 1.45685161e-02, -3.63801117e-03,
       -7.67507637e-03, 1.03569776e-03, -4.89293039e-03, -1.41662480e-02,
       -5.61875151e-03, 3.07337334e-03, 1.89486258e-02, 8.14152043e-03,
       -6.00682059e-03, -2.56587705e-03, -1.99953723e-03, 7.91884740e-05,
       -7.44717568e-03, -4.90953447e-03, 2.65341881e-03, 1.02529712e-02,
       2.35841312e-02, -2.06123246e-03, 1.16218009e-03, 2.46796088e-04,
       -7.44630350e-03, -1.50434664e-02, -1.28290672e-02, 3.17125372e-03,
       1.03378650e-02, 1.46574881e-02, -3.71512887e-03, -7.99410697e-03,
       -4.15837392e-03, -8.32692999e-03, -9.99347493e-03,
       -4.25328733e-03, -3.94985126e-03, 1.74774621e-02, 4.96633397e-03,
       1.53432577e-03, -3.35631357e-03, -5.93192922e-03, -1.63391139e-02,
       -2.13100296e-02, -1.73604116e-02, -7.82095175e-03, 1.38466228e-02,
       2.50303373e-02, 5.74462768e-03, 2.59296177e-03, -6.01828855e-04,
       -6.27797144e-03, -8.69493932e-03, -9.36952792e-03, 5.40955225e-03,
       1.26013085e-02, 1.18238721e-02, 1.87585689e-03, 5.47507359e-03,
       3.45321628e-03, -2.83056893e-03, -1.30032725e-03, -1.05834529e-02,
       4.09281813e-03, 3.43022053e-03, 1.48563320e-02, 6.78761862e-03,
       5.67926187e-03, -3.67812836e-03, -1.17994463e-02, -1.81249548e-02,
       -1.52865639e-02, -5.61320502e-03, 1.17373914e-02, 6.68258173e-03,
       1.68774952e-03, 2.67252210e-03, 3.99573939e-03, -9.28237755e-03,
       -1.44007048e-02, -2.52468809e-02, -1.47720315e-02, 3.95971769e-03,
       1.30794682e-02, 1.06689427e-02, 1.18826870e-02, 8.73931684e-03,
       -4.55939444e-03, -9.85043868e-03, -6.29830454e-03, 1.97073142e-03,
       2.55239569e-03, 1.02292253e-02, 1.06525412e-02, 1.60622299e-02,
       -8.94502329e-04, -1.66640673e-02, -1.21454438e-02,
       -1.57406030e-03, 9.87198576e-03, 1.45988856e-02, 1.27410190e-02,
       7.40313530e-03, 8.65321327e-03, 1.16172079e-02, -9.24839824e-03,
       -1.95206199e-02, -2.05763448e-02, -1.33744534e-02, 3.56712774e-03,
       1.28684947e-02, -2.03037541e-03, 4.68501449e-03, -5.25282882e-03,
       -1.81555804e-02, -1.15920156e-02, -1.28446994e-02,
       -4.51673521e-03, 9.11037717e-03, 5.31597203e-03, 1.70358806e-03,
       9.55513585e-03, -6.34971261e-03, -1.54489111e-02, -8.66848510e-03,
       -1.31019950e-03, 9.77227744e-03, 1.54245123e-02, -3.16948368e-04,
       -1.06553044e-02, -2.71458738e-03, -1.12513243e-03,
       -1.11694960e-02, -3.01210117e-03, -8.80400091e-03,
       -2.62077083e-03, 2.23326264e-03, 7.73964729e-03, -7.33656064e-03,
       -2.78774579e-03, -2.93429475e-03, -8.30525532e-03, 3.70892376e-04,
       -1.35856506e-03, 1.17508881e-02, 1.85341258e-02, -7.62542986e-05,
       -1.50378747e-02, -8.34904518e-03, -5.12341037e-03,
       -9.74713638e-03, 3.66887380e-03, -2.01920769e-03, 1.19173145e-02,
       9.09951143e-03, 5.80454152e-03, -5.54064382e-03, -6.84914226e-03,
       -2.46544089e-03, -1.09288387e-03, 5.38740959e-03, -4.00634808e-03,
       5.61095600e-04, 5.06891450e-03, 1.03966165e-02, -1.19620971e-02,
       -1.06265722e-02, -1.06340740e-02, 2.91153230e-03, 1.30157266e-02,
       3.08548077e-03, 8.19875207e-03, 9.55964811e-03, 5.97847626e-03,
       -8.96373019e-03, -9.51110292e-03, 3.03089130e-03, -3.70353973e-03,
       8.42255168e-03, 2.14427547e-03, 1.40005192e-02, 1.29033541e-02,
       6.12705294e-03, -1.03048841e-02, -1.44648729e-02, 1.02995464e-03,
       1.03556551e-03, 1.01987403e-02, 5.15542272e-03, 1.35378847e-02,
       1.30566973e-02, 1.07217869e-02, 1.52074303e-02, 1.07522598e-02,
       -5.23158908e-03, -1.48879169e-02, -6.36361865e-03,
       -9.40245390e-03, -3.54423933e-03, 1.03980498e-02, 1.46127502e-02,
       1.40304063e-02, -5.51398098e-03, -1.34397354e-02, -1.61966495e-02,
       -1.58970244e-03, -9.40872356e-03, -3.32221529e-03, 5.08184452e-03,
       4.08179546e-03, 1.29243862e-02, 1.71394199e-02, -1.08197052e-02,
       -2.95469034e-02, -1.46958288e-02, -8.85188766e-03,
       -1.51499007e-02, -5.54979639e-03, 1.31097315e-02, 1.14700953e-02,
       4.35913028e-03, -1.16461897e-02, -3.40271965e-02, -1.19510107e-02,
       -2.24549398e-02, -2.41246391e-02, -6.24738634e-03, 2.13583615e-02,
       6.89375913e-03, -1.06852986e-02, -7.31993746e-03, -1.71815325e-02,
       -5.18708257e-03, -1.25704212e-02, -4.69424250e-03, 1.22424848e-02,
       1.99355334e-02, -4.13943827e-03, -2.13245675e-02, -1.08996630e-02,
       -2.51121204e-02, -3.89404548e-03, -8.78459122e-03,
       -5.01115154e-03, 1.94710791e-02, 2.16117967e-02, 1.12529611e-02,
       -9.93319508e-03, -7.65076466e-03, -2.27334499e-02,
       -1.12863332e-02, -1.89338606e-02, -1.70802046e-02, 7.92100932e-03,
       1.25337671e-02, 4.96990280e-03, -1.78975407e-02, -1.19637176e-02,
       -3.31123695e-02, -1.03540625e-02, -1.37210442e-02,
       -5.72936004e-03, 2.07957588e-02, 1.97971705e-02, -1.53366998e-02,
       -2.10268609e-02, -1.19946413e-02, -2.05925498e-02,
       -1.12310320e-03, -4.88337874e-03, -1.67940557e-03, 2.12952271e-02,
       1.07786171e-02, -1.88287124e-02, -1.23583218e-02, -7.18915078e-04,
       -1.95024386e-02, -2.38235225e-03, -7.87097495e-03, 2.25656503e-03,
       3.26259397e-02, 1.22685572e-02, 2.04625379e-04, -1.01342872e-02,
       -7.69102853e-03, -2.97882147e-02, -9.44328122e-03,
       -1.49302157e-02, 8.52102763e-04, 1.73279382e-02, 1.21782795e-02,
       -1.09361932e-02, -1.75429992e-02, -1.62598095e-03,
       -2.47248262e-02, -7.75294704e-03, -1.63316317e-02,
       -7.25794770e-03, 1.82685349e-02, 1.07740005e-03, -1.12349847e-02,
       -4.41122986e-03, -1.25294225e-03, -1.61174592e-02,
       -4.65294858e-03, -4.89150034e-03, 5.21128182e-04, 2.14067139e-02,
       1.77700864e-03, -8.91025737e-03, 2.36367132e-03, -4.62344009e-03,
       -2.19271705e-02, -2.31907306e-05, -1.36180199e-03, 2.40820250e-03,
       4.54230513e-03, 6.24719355e-03, -9.59405582e-03, -8.36870819e-03,
       -4.18404961e-04, -2.02602185e-02, -6.69059576e-03,
       -5.97297261e-03, -1.15007432e-02, 1.37000112e-02, 4.21379367e-03,
       -1.32780941e-02, -3.39680770e-03, -2.70436285e-03,
       -1.99984796e-02, 1.77798455e-03, 9.91381938e-04, 5.97427692e-03,
       6.86891237e-03, 2.26581446e-03, -1.40000111e-03, 1.44630356e-03,
       -9.44676984e-04, -1.47961173e-02, 4.02969215e-03, 4.18047141e-03,
       -1.30144192e-03, 4.85760951e-03, 1.94820226e-03, 1.22728711e-03,
       5.75897889e-03, 1.15471426e-03, -2.54525207e-02, -9.80423857e-03,
       -5.85934985e-03, -9.87676252e-03, 1.00530614e-03, -2.02869531e-03,
       -7.97468144e-03, 3.38979531e-03, 2.67827837e-03, -1.93318445e-02,
       9.62480903e-04, 3.03061586e-03, 1.04934974e-02, 1.02375224e-02,
       -5.07932482e-03, -5.83475176e-03, -4.44310298e-03, 9.19784885e-03,
       -2.58987993e-02, -9.11582820e-03, 1.66319800e-03, 1.06102275e-02,
       5.70784183e-03, 9.01660323e-03, 8.00812710e-03, 9.58511885e-03,
       -1.19754179e-04, -2.35489700e-02, -6.89267367e-03,
       -8.24832451e-03, 7.74782849e-04, 6.26266142e-03, 1.66338477e-02,
       3.70901806e-04, -3.67450621e-03, -1.38186673e-02, -2.37684641e-02,
       -8.02402385e-03, -1.64755471e-02, -1.28559051e-02, 1.08968904e-02,
       4.13499586e-03, 8.18416593e-04, 6.00315630e-04, 4.12719836e-03,
       -2.21032035e-02, -3.59751610e-03, 2.84297974e-03, 1.13735683e-02,
       1.09400963e-02, -5.34959370e-03, -1.18508097e-02, -1.39916558e-02,
       -1.11359507e-02, -2.08008308e-02, 7.88807345e-04, -2.58950237e-03,
       6.88742194e-03, 4.96033626e-03, 7.43128173e-03, -6.76456327e-03,
       -5.60594723e-03, -5.95295476e-03, -1.06922472e-02,
       -6.63020322e-03, -7.52169546e-03, -5.21358661e-03, 7.97982421e-03,
       -2.66926084e-03, -2.03444599e-03, 6.92792283e-03, -2.63042119e-03,
       -1.69254746e-02, -7.22126430e-03, -1.17501337e-02,
       -2.95599317e-03, -6.60015387e-04, -1.00024464e-02,
       -1.30220782e-02, -6.51925057e-03, 2.98600853e-03, -3.03929951e-03,
       3.37913423e-03, 5.07947756e-03, 4.81221545e-03, 5.49553288e-03,
       -9.17285623e-04, -9.63909365e-03, 8.13530700e-04, 1.21457065e-02,
       -5.11139585e-03, 3.89742292e-03, 9.82650090e-03, 9.94367618e-03,
       2.95325927e-03, 2.86768214e-03, 3.46327410e-03, 3.90116917e-03,
       -6.12170249e-03, -1.60488486e-02, -4.39090142e-03, 2.38842121e-03,
       7.73198484e-03, 8.05892423e-03, 7.53748976e-03, -4.16607596e-03,
       -6.38367003e-03, -1.16448188e-02, -2.25637648e-02,
       -9.68336686e-03, -1.00261485e-03, 4.25343588e-03, 8.23238399e-03,
       8.48011021e-03, 5.93253702e-04, 8.51709570e-04, -2.21544225e-03,
       -8.30107648e-03, 8.15304834e-03, 9.89316497e-03, 1.14375418e-02,
       1.13875894e-02, 6.42573228e-03, -8.74591712e-03, -1.03118857e-02,
       -1.81742925e-02, -2.60412842e-02, -6.02778513e-03,
       -7.75602646e-03, 2.32744357e-03, 5.89210028e-03, 1.55301038e-02,
       -2.27352511e-03, -1.10150091e-02, -1.32763133e-04,
       -1.23994509e-02, -3.12073156e-03, 6.70616748e-04, 3.91858350e-03,
       1.41553069e-02, 2.67203115e-02, 2.01217155e-03, -7.58480653e-03,
       2.90558487e-03, -1.37353707e-02, -1.05112111e-02, -6.51209755e-03,
       3.14494508e-04, 1.64069869e-02, 1.02987951e-02, -9.41345654e-03,
       -1.22040911e-02, -1.35269370e-02, -1.83729343e-02, 4.39175544e-03,
       -6.36167545e-03, -1.38067023e-03, 9.21323663e-04, 4.20844089e-03,
       -1.61292462e-03, -1.31544666e-02, -9.70089808e-03,
       -2.60809921e-02, 2.39347504e-03, -3.31356307e-03, -1.04356259e-02,
       -3.78946937e-03, 2.53065675e-02, 8.21343344e-03, -1.62486581e-03,
       -2.77459272e-04, -1.99127141e-02, -1.24022141e-02,
       -7.41134677e-03, 1.09133413e-02, 2.61142831e-02, 1.94714777e-02,
       -1.19914138e-03, -4.01904015e-03, -3.74294096e-03,
       -2.25138776e-02, -1.56373270e-02, -5.28901117e-03, 6.50918018e-03,
       2.62689237e-02, -2.26707562e-05, -6.98738359e-03, -1.04778633e-02,
       -9.50384140e-03, -2.50972100e-02, -1.23247055e-05,
       -1.27615395e-03, -1.46732491e-03, -3.06288166e-06,
       -1.65285217e-03, -1.30060213e-02, -1.88322626e-02,
       -8.22263677e-03, -1.96425579e-02, -4.61427309e-03,
       -1.22599863e-02, -4.52290475e-03, 2.57955166e-03, 2.80200690e-02,
       5.05531533e-03, -1.59174355e-03, -4.31693811e-03, -1.48849990e-02,
       -5.69030084e-03, 1.01935246e-03, 9.45269503e-03, 3.65017802e-02,
       2.11749598e-02, 1.17253438e-02, -3.44080036e-04, -1.02339024e-02,
       -1.30458204e-02, -9.21464432e-03, -2.15499825e-03, 4.13151458e-03,
       2.65852921e-02, 3.15935444e-03, -6.37167832e-03, -1.11603346e-02,
       -4.93926555e-03, -8.94657709e-03, -5.16390242e-03,
       -1.03312973e-02, -4.85039502e-03, 8.45506601e-03, -6.61974354e-03,
       -1.57122724e-02, -1.77138411e-02, -1.31916879e-02,
       -1.51095409e-02, -1.01370187e-02, -1.30917020e-02,
       -1.45662408e-02, -2.05826527e-03, 2.72942446e-02, 1.47997113e-02,
       7.35087460e-03, -3.50426533e-03, -9.34554264e-05, -9.16237757e-03,
       -4.26650309e-04, 6.48792740e-03, 2.96889972e-02, 2.05287654e-02,
       9.15782619e-03, 7.09468499e-03, 4.01579127e-05, -4.93280240e-04,
       -8.62119440e-03, -1.38670830e-02, -5.19052800e-03, 2.13257186e-02,
       4.14357148e-03, -1.43187093e-02, -1.46236923e-02, -1.48151675e-02,
       -3.44595499e-03, -8.66874866e-03, -7.37420004e-03,
       -7.69436872e-03, 7.01986300e-03, -1.32147165e-03, -1.60775818e-02,
       -1.15352748e-02, -1.32930465e-02, -9.44385212e-03,
       -9.68684163e-03, -3.51223024e-03, -4.42543300e-03, 8.52516852e-03,
       2.00317521e-02, 3.12487385e-03, 4.14876733e-03, 3.99434613e-03,
       -4.54571284e-03, -1.55539969e-02, -1.30220568e-02,
       -6.13099243e-03, 1.77671518e-02, 2.05910392e-02, -7.28052156e-03,
       -1.04509771e-03, -9.15752025e-04, -7.46575184e-03,
       -4.36248723e-03, -4.50094091e-03, 6.46304851e-03, 1.92688592e-02,
       3.13320709e-03, -1.19310161e-02, -6.56928169e-03, -6.06384734e-03,
       -1.78051814e-02, -1.60248484e-02, -7.30887568e-03, 1.20009226e-03,
       1.50517281e-02, 9.11384821e-03, -8.29169899e-03, -1.00961858e-02,
       2.49081117e-04, -1.11017870e-02, -1.44217582e-02, -1.05688134e-02,
       8.29193648e-03, 2.06368845e-02, 1.93844829e-02, -5.67586441e-03,
       -7.57660531e-03, -6.29831618e-03, -5.10175573e-03, 4.64480463e-03,
       -3.83999152e-03, 7.97716156e-03, 2.30677929e-02, 1.27522154e-02,
       -1.03631299e-02, -6.14396669e-03, -6.43434981e-03,
       -1.07667819e-02, 3.55468201e-03, -9.62316582e-04, 8.10309406e-03,
       1.65086202e-02, 7.48675270e-03, -1.01676229e-02, -1.30009335e-02,
       -7.35462410e-03, -1.20904632e-02, -4.36650543e-03,
       -1.03361849e-02, 6.70100795e-03, 1.20811434e-02, 2.36968859e-03,
       -1.61226764e-02, -1.00073032e-02, -5.10755880e-03,
       -1.30477417e-02, -4.69073514e-03, 2.60474160e-03, 4.13651252e-03,
       6.78228913e-03, 6.30773045e-03, -1.03857322e-02, -6.56167185e-03,
       6.31638977e-04, -3.89931700e-03, 8.65095574e-03, 7.14372238e-03,
       1.42439585e-02, 1.31529337e-02, 1.97266322e-03, -8.45971610e-03,
       -8.08295887e-03, -5.63464651e-04, -4.36879089e-03,
       -5.99814346e-03, -2.05444219e-03, 7.86053948e-03, 1.24630583e-02,
       3.17947217e-03, -7.03228265e-03, -4.16396605e-03, -8.32121528e-04,
       -2.90716207e-03, 2.80360621e-03, 4.20416612e-03, 1.04912836e-02,
       7.40564335e-03, -8.96095298e-03, -8.71471036e-03, -7.25796493e-03,
       -3.90575011e-03, -8.29474349e-03, 2.51883268e-03, 7.41688767e-03,
       -7.12172419e-04, 2.27330253e-03, 5.79287065e-03, 1.22894198e-02,
       7.46507337e-03, -3.23975226e-03, -1.74957458e-02, -1.74976978e-02,
       -8.99244845e-03, -9.55657288e-03, -2.37468194e-04, 8.26905295e-03,
       1.24398302e-02, 4.34790878e-03, -4.33737552e-03, -2.19295193e-02,
       -2.05674637e-02, -2.99599934e-02, -2.76885107e-02,
       -5.55240875e-03, 8.25584866e-03, 6.98686158e-03, 7.31829368e-03,
       8.45241267e-03, -9.50474385e-03, -6.14267448e-03, -6.74717966e-03,
       -1.10872241e-03, 1.49692949e-02, 4.85021155e-03, 2.39820825e-03,
       6.16537780e-03, 2.87941587e-03, -1.46429660e-02, -1.26973726e-02,
       -2.35618949e-02, -1.53898839e-02, 8.76064412e-03, 1.54115288e-02,
       9.21442825e-03, -7.77786772e-04, 1.02667697e-03, -1.19220121e-02,
       -6.08149916e-03, -1.75847597e-02, -1.88347995e-02, 1.04430802e-02,
       1.53269833e-02, 3.18538776e-04, -7.40030175e-03, -5.17996494e-04,
       -1.51937827e-02, 3.13197845e-03, -8.04169104e-03, -1.05348974e-02,
       1.63281430e-02, 1.51920887e-02, 4.79339360e-04, -3.62733332e-03,
       4.19859169e-03, -9.90081299e-03, -4.36740648e-03, -1.87367555e-02,
       -5.61565068e-03, 1.84422787e-02, 1.99331846e-02, -1.35670956e-02,
       -1.76724065e-02, -9.11249197e-04, -1.49198426e-02,
       -4.72264737e-03, -8.07791110e-03, -8.43456946e-03, 1.69914830e-02,
       1.04831150e-02, 3.07305693e-03, -7.38862553e-04, 1.48789759e-03,
       -1.30703337e-02, -1.96764269e-03, -8.79411027e-03,
       -4.16988833e-03, 1.48509052e-02, 1.49432765e-02, -1.34775147e-03,
       7.33529159e-04, 7.30701257e-03, -1.17194131e-02, -1.04940485e-03,
       -1.36838621e-02, -7.98291434e-03, 1.47586949e-02, 2.09528264e-02,
       -7.19928276e-03, -1.17562339e-02, 3.85455345e-03, -7.53322197e-03,
       -6.00715540e-03, -1.12068169e-02, -1.43560749e-02, 1.55863967e-02,
       1.55396583e-02, -1.04755219e-02, -1.79363061e-02, 7.83412810e-03,
       -9.96373314e-03, -6.22924464e-03, -1.01745119e-02,
       -1.58139765e-02, 1.20059140e-02, 1.01482240e-03, -1.10635571e-02,
       -8.28774087e-03, 2.19307467e-03, -1.24401376e-02, -2.40187510e-03,
       -8.90510250e-03, -8.60646274e-03, 8.36892426e-03, 9.16324928e-03,
       -5.47484821e-03, -1.30609912e-03, 1.04633942e-02, -1.37189589e-02,
       3.19399987e-03, -3.72648635e-03, 2.77562230e-03, 1.01199737e-02,
       1.14113847e-02, -1.67744216e-02, -1.42091503e-02, 8.32556840e-03,
       -7.67180417e-03, -7.86486454e-03, -1.18963923e-02,
       -1.54034318e-02, 2.38386914e-03, 1.10039404e-02, -1.18233319e-02,
       -3.20409518e-03, 1.60331503e-02, -9.34897456e-03, 4.09442047e-03,
       -1.29725607e-02, -9.40750446e-03, 8.37881025e-03, -6.40535774e-03,
       -1.21676922e-02, -3.04539269e-03, 5.95660927e-03, -1.97408665e-02,
       -8.03783420e-04, -2.49913288e-03, 1.51392852e-03, 1.05711166e-02,
       -1.44379782e-02, -2.24493574e-02, -1.16951549e-02,
       -1.86587067e-03, -2.93330234e-02, -7.01009016e-03, 7.20847910e-03,
       5.50803822e-03, 1.62565918e-03, 4.21783887e-03, -1.19669316e-02,
       6.52124116e-04, 1.09054977e-02, -1.18320631e-02, -7.88040576e-04,
       -1.40452879e-02, -4.68514394e-03, 1.18001178e-02, -1.19597733e-03,
       -2.12235395e-02, -5.50638745e-03, -2.62827007e-03,
       -2.37892568e-02, -2.16872757e-03, -2.49792961e-03, 3.75363696e-03,
       5.64474566e-03, -8.88426136e-03, -1.97879244e-02, -1.39830206e-02,
       -8.12540483e-03, -1.84901655e-02, -3.73489922e-03, 1.18123284e-02,
       1.27760675e-02, 6.04491623e-04, -1.46586681e-02, -1.96184814e-02,
       -2.33143475e-02, -1.63081102e-02, -2.03056671e-02, 3.53119010e-03,
       7.31435046e-03, 8.69445875e-03, -8.27344041e-03, 5.83459623e-04,
       -1.73518676e-02, -1.05528263e-02, -3.58645199e-03,
       -1.61736663e-02, 1.99966715e-03, 1.34358071e-02, 1.37395952e-02,
       3.49883200e-03, -1.70065742e-02, -2.83546168e-02, -1.25326067e-02,
       -5.19803399e-03, -1.74149405e-02, 7.78101757e-03, 1.36435675e-02,
       1.52986050e-02, -9.21579637e-03, -2.19712220e-02, -2.22418867e-02,
       -1.35934781e-02, -5.79533959e-03, -1.49391927e-02, 3.49986088e-03,
       1.13696633e-02, 5.17220143e-03, -1.38265500e-02, -1.90418139e-02,
       -2.27183681e-02, -7.26538757e-03, 1.92045339e-03, -4.48990474e-03,
       8.55982210e-03, 8.46698880e-03, -7.59510149e-04, -1.34396097e-02,
       -1.37043884e-02, -2.00913921e-02, 8.64027825e-04, 8.55565013e-04,
       -1.06238574e-02, 6.73512742e-03, 1.18264202e-02, 4.10698866e-03,
       -8.83889385e-03, -3.59539385e-03, -2.08201557e-02,
       -6.96536386e-03, -9.99605469e-03, -1.05618853e-02,
       -1.05018087e-03, 6.41640043e-03, -2.05087615e-03, 4.81747382e-04,
       -1.65029231e-03, -5.05087944e-03, -9.45335627e-03,
       -5.31304488e-03, -9.26752295e-03, 9.42028966e-03, 3.42808058e-03,
       3.67870228e-03, -1.74343667e-03, -2.61344342e-03, -8.41282494e-03,
       -1.46042667e-02, -1.78299583e-02, -2.57034358e-02, 1.15406612e-04,
       -4.53586923e-03, -6.00037863e-03, -8.21623579e-03, 6.88964175e-03,
       -3.98589810e-03, -4.73390520e-03, -1.15169417e-02,
       -1.47548355e-02, -7.10004941e-04, 3.92539287e-03, 9.79403779e-03,
       7.46451411e-03, -8.01950591e-05, -4.83177789e-03, -1.09751783e-02,
       -8.01051222e-03, -1.99622884e-02, 4.87617537e-04, 1.93617470e-03,
       9.77718923e-03, 2.82014464e-03, -8.57868418e-03, -1.45694064e-02,
       -1.39742335e-02, -1.90335624e-02, -2.23255381e-02, 1.97631959e-03,
       8.41748342e-03, 3.78734758e-03, -1.02805914e-02, -1.88082419e-02,
       -1.42533211e-02, -1.32156452e-02, -1.49375191e-02,
       -2.33365707e-02, 3.64427152e-03, 4.42675641e-03, -5.74271707e-03,
       -1.80571303e-02, 8.37929663e-04, -6.31621014e-03, -4.53282474e-03,
       -5.90419117e-03, -1.17657864e-02, 2.17335578e-03, 1.04138367e-02,
       1.66470837e-02, 7.29853427e-03, -8.82020500e-03, -1.57974754e-02,
       -1.11861750e-02, -4.23695520e-03, -1.33338301e-02, 3.78503790e-03,
       5.03587816e-03, 1.52591402e-02, -3.51268472e-03, -1.35139273e-02,
       -1.26700671e-02, -8.83205142e-03, -3.60239972e-03,
       -5.06923301e-03, 9.47583281e-03, 8.96325801e-03, -3.57782375e-03,
       -1.39917592e-02, -2.18530037e-02, -1.95852984e-02,
       -1.30946701e-02, 1.46752968e-03, 7.23984049e-05, 4.12995974e-03,
       -6.80224039e-03, -2.23132875e-02, -2.66469177e-02,
       -4.73379769e-04, -1.35696810e-02, -7.28616491e-03, 5.94727416e-03,
       2.18620617e-03, 1.37917306e-02, 5.63666597e-03, 9.63019952e-03,
       4.51760972e-03, -1.79084782e-02, -2.55249292e-02, -1.16708474e-02,
       1.15512814e-02, 5.95043087e-03, 1.41508803e-02, -2.54113367e-03,
       -1.36924954e-02, -1.55736068e-02, -1.17366044e-02,
       -1.11860689e-02, -4.48065251e-03, 1.05999196e-02, 2.19931193e-02,
       1.81141589e-02, 3.76643706e-03, -1.41472965e-02, -1.32006574e-02,
       -2.33334024e-02, -2.23435890e-02, -8.11783969e-03,
       -2.16500275e-03, 6.03713607e-03, -4.38678777e-03, -2.23146807e-02,
       -2.79191397e-02, -2.45608669e-02, -1.11961477e-02,
       -2.00341120e-02, -9.15538927e-04, 1.84154306e-02, 2.35898923e-02,
       3.16390730e-02, 6.82695815e-03, -1.31071322e-02, -1.28384447e-02,
       -1.62334573e-02, -2.64186617e-02, -8.43251310e-03, 4.24695387e-03,
       1.44647462e-02, 3.61154880e-03, -1.90850403e-02, -3.35552394e-02,
       -2.61431504e-02, -9.17731505e-03, -1.70920100e-02, 3.70920962e-03,
       3.97628965e-03, 6.91283960e-03, -3.77210695e-03, -1.17889149e-02,
       -1.76715516e-02, -6.42850902e-03, -4.24032426e-03,
       -1.75598357e-02, 4.03329032e-03, 3.95335536e-03, 4.91962861e-03,
       -2.24143127e-03, 4.10725450e-04, 1.86407310e-03, 4.99238307e-03,
       -1.37023418e-03, -1.17766494e-02, 6.26174826e-03, 1.14096999e-02,
       1.50064668e-02, -1.10820145e-03, -2.29212753e-02, -2.42095981e-02,
       -7.89416488e-03, -7.51826214e-03, -4.79118852e-03,
       -8.84185720e-04, 1.21249689e-03, -3.22817010e-03, -9.15960316e-03,
       -2.36650705e-02, -2.13441849e-02, -4.00556717e-03, 4.54705395e-03,
       -1.09801805e-02, 4.09956585e-04, 2.75874208e-03, -8.62947386e-03,
       -6.08178694e-03, 7.34656025e-03, 1.44623369e-02, 1.94508303e-02,
       1.55808916e-02, 8.98783153e-04, 3.68221058e-03, 2.14890763e-03,
       -9.51833930e-03, -6.12608576e-03, 3.56684858e-03, 1.21232476e-02,
       2.66498774e-02, -2.12117494e-03, -1.04247527e-02, 5.56076062e-04,
       -2.50739325e-03, -1.14347395e-02, -1.93505678e-02,
       -2.22711861e-02, -1.46230813e-02, 3.12128989e-03, 1.32773584e-02,
       -4.85056918e-03, -1.47999427e-03, -2.36099609e-03,
       -2.02666465e-02, -2.28029527e-02, -1.47157293e-02,
       -1.23245465e-02, 7.87602086e-03, 3.65853054e-03, -7.05082295e-03,
       -6.30702265e-03, -5.95764536e-03, -1.25284288e-02,
       -6.40051579e-03, 3.50727387e-05, 1.65686430e-03, 9.60831996e-03,
       5.54542243e-03, -5.23408782e-03, -7.95175321e-03, 4.23526810e-03,
       -8.39108881e-03, -5.29067940e-04, 1.23713762e-02, 1.14664296e-02,
       1.38190538e-02, 2.85049900e-03, -1.13046058e-02, -1.11308452e-02,
       -1.18982662e-02, -2.68171988e-02, -1.93640981e-02,
       -6.39865268e-03, -1.20287780e-02, 3.60693171e-04, -4.33708820e-03,
       -1.67457126e-02, -1.83775667e-02, -6.14638114e-03,
       -2.18218677e-02, -1.33083807e-02, 3.34050786e-03, 4.48707119e-03,
       6.42844429e-03, 2.69238418e-03, -4.32045199e-03, -3.97032406e-03,
       -1.41849334e-03, -8.62939842e-03, -9.07636341e-03, 2.92503741e-03,
       1.03650102e-02, 1.30099943e-02, -7.53002148e-03, -1.00941351e-02,
       -8.45165923e-03, -7.30703905e-05, -1.78263802e-03, 1.48150211e-04,
       3.87209025e-03, 3.26230866e-03, -4.01965249e-03, -1.65800890e-03,
       -1.51637970e-02, -1.09438458e-02, -8.82173702e-03,
       -1.74957328e-02, -8.87039397e-03, 6.48690620e-03, 8.14249646e-03,
       8.92907009e-03, -1.35659985e-02, -2.01980211e-02, -1.22140860e-02,
       -2.39291438e-03, -8.82548932e-03, 6.82926830e-03, 1.08504528e-02,
       5.84067870e-03, -7.92885199e-03, -9.48074926e-03, 8.97536695e-04,
       7.80175906e-03, 3.69173172e-03, -1.60682332e-02, -1.62817549e-03,
       -5.72359562e-03, -4.48177103e-03, 2.82131805e-04, 4.41733422e-03,
       -1.65924651e-03, -3.62332840e-03, -5.84593927e-03,
       -2.26709433e-02, -6.06649090e-03, -2.12646760e-02,
       -1.72648821e-02, 2.80641462e-03, 5.18363155e-03, 9.69704427e-03,
       1.36798015e-02, 5.71526075e-03, -1.63005479e-02, -3.88281094e-03,
       -9.94705129e-03, 2.29891157e-03, 4.38649207e-04, 9.02059209e-03,
       -2.38346914e-03, -8.82080477e-03, -9.44197085e-03,
       -3.01000550e-02, -8.28578882e-03, -2.26072147e-02,
       -3.95497400e-03, 1.06127104e-02, 1.37477219e-02, -9.35734250e-03,
       -1.46360509e-02, -1.73608179e-03, -9.18834191e-03, 9.24002612e-04,
       -1.79633666e-02, -8.46477505e-03, 1.45415151e-02, 1.98206902e-02,
       -9.67664737e-03, -1.72209647e-02, -7.33137317e-03,
       -1.68252215e-02, -8.45952891e-03, -1.48974704e-02,
       -8.50459468e-03, 1.81286428e-02, 2.66854074e-02, 8.59740889e-04,
       -1.75015647e-02, -3.60926380e-03, -1.12752803e-02, 2.53997580e-03,
       -1.69945788e-02, -5.84397605e-03, 1.86197776e-02, 2.15264652e-02,
       -8.89320299e-03, -3.05895675e-02, -7.92075880e-03,
       -2.04246547e-02, -1.11561520e-02, -1.50645440e-02,
       -3.53887584e-03, 2.10093409e-02, 1.91764552e-02, -2.91328155e-03,
       -5.45687880e-03, 2.48853443e-03, -9.46508814e-03, -7.84417987e-03,
       -1.08026257e-02, -1.11183720e-02, 1.57943629e-02, 2.23425515e-02,
       -1.03192441e-02, -1.49786156e-02, 4.18114290e-03, -1.39351431e-02,
       -8.84313975e-03, -1.04363263e-02, -1.55822774e-02, 1.59167368e-02,
       2.30033807e-02, 1.76065229e-03, -1.20863449e-02, -4.14171861e-03,
       -1.57600548e-02, -1.51624577e-02, -1.42282266e-02,
       -9.26680397e-03, 2.21475679e-02, 2.12510061e-02, 3.23726819e-03,
       -1.09572662e-02, -3.13405041e-03, -2.77555604e-02,
       -1.51895257e-02, -1.68307666e-02, -1.89731717e-02, 2.05643959e-02,
       1.35491239e-02, -1.53731145e-02, -1.23648047e-02, 3.96783976e-03,
       -5.73904067e-03, -9.85136349e-03, -9.32474993e-03,
       -1.31700458e-02, 1.18277166e-02, 1.46344081e-02, -1.46325789e-02,
       -1.05978930e-02, 6.64766878e-03, -2.03119754e-03, -2.47272267e-03,
       -7.89827202e-03, -2.51378817e-03, 1.64932758e-02, 2.11239383e-02,
       -1.42728901e-02, -8.97429511e-03, -5.93514042e-03,
       -1.93265118e-02, -1.89313758e-02, -1.47715602e-02,
       -1.32601885e-02, 1.58774666e-02, 1.55275045e-02, -1.52276531e-02,
       -1.00696906e-02, -9.47743841e-03, -3.63492896e-03,
       -8.75849556e-03, -1.40243284e-02, -3.14598717e-03, 1.81558859e-02,
       6.17005723e-03, -2.02502962e-02, -1.62599720e-02, -2.41057016e-03,
       -8.41849856e-03, -4.80224751e-03, -9.96203907e-03,
       -8.38982291e-04, 1.30797345e-02, 1.00391842e-02, -1.27050653e-02,
       -1.99500304e-02, -8.77710711e-03, -2.20955871e-02,
       -2.50695297e-03, -5.75372763e-03, 5.20410389e-03, 1.08625824e-02,
       7.38652609e-03, -2.41610184e-02, -2.07785945e-02, -8.85259453e-03,
       -9.78135411e-03, -6.58715237e-03, -7.56867090e-03,
       -3.46769695e-03, 5.32170571e-03, 7.68951606e-04, -8.56785290e-03,
       -2.42720675e-02, -4.60525369e-03, -2.67152227e-02,
       -2.44846009e-03, -2.04750709e-03, -2.03017332e-03,
       -3.00916348e-04, -4.72264085e-03, -1.67574622e-02,
       -2.24427506e-02, -8.67747795e-03, -1.69766974e-02, 5.27365459e-03,
       5.79480268e-03, 1.64343929e-03, -7.47218681e-03, -1.76158343e-02,
       -2.72546206e-02, -1.05534960e-02, -2.69538700e-03,
       -7.51746586e-03, 9.57704894e-03, 1.63653083e-02, 5.08960662e-03,
       -2.46864334e-02, -5.43464487e-03, -5.02818450e-03,
       -1.30327325e-02, 3.21337546e-04, -1.57439560e-02, -2.15191487e-03,
       9.16545105e-04, -6.64413767e-03, -8.70880205e-03, -1.82592068e-02,
       -1.80561244e-02, -1.28153684e-02, -2.15633819e-03,
       -2.37689191e-03, 3.65940644e-03, 9.62921046e-03, -6.15075324e-03,
       -2.17916928e-02, -1.51410187e-02, -1.60870180e-02,
       -1.66590034e-03, 1.68089103e-03, -5.52689657e-03, 8.69658310e-04,
       8.30859784e-03, -5.42357750e-03, -1.67092662e-02, -3.41110909e-03,
       -9.20992158e-03, -3.73294740e-03, -7.53291557e-03,
       -1.62517205e-02, -9.23926476e-03, -3.99451051e-03,
       -7.11008394e-03, -2.93682981e-03, -1.17379297e-02,
       -4.20710444e-03, 9.34623741e-03, 4.83825011e-03, 5.18447999e-03,
       -1.81573594e-03, -2.97533697e-03, -8.95086862e-03,
       -1.48220100e-02, -9.76324268e-03, -2.01560557e-03, 7.78702646e-03,
       1.00415992e-02, -9.90605447e-03, 3.11505100e-05, -9.45641007e-03,
       -1.91438869e-02, -9.00380500e-03, 3.82321957e-03, 1.26484840e-03,
       -4.12919838e-03, -9.39515326e-03, -1.45824840e-02,
       -5.77579252e-03, -2.25041807e-03, 1.51059206e-03, 4.55065863e-03,
       4.48514678e-04, 1.55830616e-03, -8.65864288e-03, -6.91665569e-03,
       -2.16827281e-02, -1.38828279e-02, -9.75166541e-03,
       -1.41259329e-03, -1.82058066e-04, 2.72121956e-03, 2.21176306e-03,
       7.63343787e-03, 8.93154182e-03, -9.20802169e-03, 5.11545083e-03,
       1.72059343e-03, -1.27681252e-02, 1.13066973e-03, 2.85510044e-03,
       -1.29482220e-03, 3.43033765e-03, 4.10802104e-03, -1.59305446e-02,
       -9.23634507e-03, -8.55866913e-03, -1.51355946e-02,
       -4.36794758e-03, -7.08036183e-04, 1.72640663e-03, -1.83081685e-03,
       -1.62628212e-03, -8.81243870e-03, -2.09719455e-03, 7.80112969e-05,
       1.18417293e-02, 6.97560096e-03, -3.59625602e-03, -1.56030431e-02,
       -7.14758644e-03, -6.61844620e-03, -2.03438643e-02,
       -3.25863832e-03, 7.34786736e-04, 1.53686497e-02, -2.84126669e-04,
       -1.12119399e-03, -2.82441918e-03, 6.91879448e-03, -9.96389310e-04,
       -1.05397301e-02, -4.85657901e-03, -5.07867616e-03,
       -4.76442371e-03, -2.88284244e-03, -1.12187350e-02,
       -1.32026067e-02, -5.51143242e-03, -5.84035972e-03,
       -2.63196751e-02, -5.20460866e-03, -3.87330045e-04, 3.21852299e-03,
       -1.15347598e-02, -5.27813192e-03, -1.48959318e-02,
       -8.31618533e-03, 9.57363227e-04, -4.97179246e-03, 9.27461125e-03,
       1.38414539e-02, 6.96652476e-03, -3.09657352e-03, -2.64045354e-02,
       -2.67611332e-02, -9.97851323e-03, 1.51893101e-03, -6.20072708e-03,
       4.63343877e-03, -3.01988376e-03, -1.48483803e-02, -1.36732496e-02,
       -9.25984327e-03, -8.91882554e-03, -6.38885977e-05, 6.27068162e-04,
       -1.21943541e-02, 1.36875513e-03, 1.34443417e-02, 7.44456239e-03,
       -6.75148796e-03, -1.88122429e-02, -1.91259310e-02,
       -3.66065977e-03, -7.80463126e-03, -2.14336477e-02,
       -3.62622505e-03, -7.40354764e-04, -1.22322785e-02,
       -2.02446133e-02, -1.95255708e-02, -2.05351282e-02, 2.78779841e-03,
       6.23735180e-03, 4.20511281e-03, 1.58096720e-02, 8.00873432e-03,
       -3.79512273e-03, -4.02187183e-03, -1.92850251e-02,
       -2.78714262e-02, -1.40679367e-02, -8.67045950e-03,
       -1.36406475e-03, -2.27405690e-03, -1.17504783e-02,
       -2.11715270e-02, -1.24268774e-02, -1.37915714e-02,
       -1.93354730e-02, 9.59719182e-04, -2.55993381e-03, -3.74438823e-03,
       1.24796424e-02, 4.68734233e-03, 1.24093480e-04, -4.81304480e-03,
       -2.15499476e-02, -3.81938070e-02, -1.46211060e-02,
       -1.62217095e-02, -9.59629752e-03, 9.07371100e-03, 1.55423360e-03,
       -6.94372365e-03, -1.11623872e-02, -4.81744809e-03,
       -1.21871494e-02, -3.51604167e-03, -1.64885994e-03, 2.97355629e-03,
       -3.42632108e-03, -1.54523849e-02, -1.06636649e-02, 2.10726331e-03,
       -4.82852850e-03, -6.28658570e-03, -5.42748021e-03,
       -1.26407491e-02, -1.56858396e-02, -1.10028069e-02,
       -3.19612585e-02, -2.06168294e-02, 1.26788276e-04, -9.63011105e-03,
       -2.08145790e-02, -5.55411493e-03, -8.08323920e-03,
       -3.86688416e-03, 4.11826232e-03, 3.10422271e-04, 7.96125457e-03,
       9.36925691e-03, -6.67374395e-03, -2.51472015e-02, -1.42205879e-02,
       -8.89060739e-03, -1.68514363e-02, -2.96246004e-03,
       -1.51790557e-02, -7.81168137e-03, 2.01003742e-03, 2.02734023e-03,
       -5.08472556e-03, -5.44398604e-03, -7.15465983e-03,
       -7.87604880e-03, -1.54433800e-02, -1.92021467e-02,
       -1.08370055e-02, 9.76512022e-03, 6.23975089e-03, -9.80308838e-03,
       -3.83353233e-03, -6.89428253e-03, -1.23874545e-02,
       -1.49596101e-02, -1.46952225e-02, -1.05698314e-02, 3.86684760e-03,
       4.46210941e-03, -2.35922709e-02, -1.13586299e-02, -3.60308727e-03,
       -1.22248353e-02, -7.14465417e-03, -4.41112649e-03, 8.61117058e-03,
       1.87353492e-02, 1.26505108e-03, -2.29841582e-02, -1.75612681e-02,
       -1.68908704e-02, -1.72115806e-02, -1.11116646e-02,
       -6.39510667e-03, 8.28906428e-03, 1.61118135e-02, -3.72518227e-03,
       -1.20168999e-02, -4.17326484e-03, -2.64032488e-03,
       -2.01247167e-02, -1.14272796e-02, 7.25514209e-03, -6.37621852e-03,
       -3.38354567e-03, -9.76194348e-03, -1.49024865e-02,
       -7.29387905e-03, -2.47953390e-03, -1.66992638e-02,
       -9.23482701e-03, 1.67044308e-02, 1.09234340e-02, 6.47083577e-03,
       -3.81695060e-03, -1.27897076e-02, -6.26471732e-03,
       -5.93778491e-03, -1.93724092e-02, -1.34307751e-02,
       -3.78933549e-03, -2.86954828e-03, 3.77085200e-03, 1.90240811e-04,
       3.06667178e-04, 7.68294279e-03, 2.91999499e-03, -1.01327216e-02,
       -1.44633343e-02, -3.75800999e-03, -4.62904898e-03, 5.73410094e-03,
       -1.46076903e-02, -1.75444204e-02, -1.01477318e-02,
       -8.82169697e-03, -1.45160351e-02, -4.92834998e-03, 1.62085351e-02,
       7.18072429e-03, -4.33603907e-03, -1.49023980e-02, -1.59613993e-02,
       -5.11016883e-03, -1.63845150e-04, 1.25997560e-03, 2.00053416e-02,
       2.00927481e-02, 8.40493850e-03, -1.17454212e-02, -1.09990221e-03,
       -3.10399593e-03, 1.22030210e-02, -1.85136369e-03, -6.80233398e-03,
       -1.20416712e-02, -3.02971341e-03, -9.60164517e-03,
       -4.48510842e-03, 3.55433702e-04, -3.62817431e-03, 1.19696055e-02,
       1.81009714e-02, 1.01442700e-02, 1.44593138e-02, 8.16548895e-03,
       4.96789289e-05, -9.42738354e-03, -4.98158333e-04, 1.23162745e-02,
       2.11492870e-02, 1.96978357e-02, -3.34868208e-04, -3.19797406e-03,
       -5.93045913e-03, -1.47103227e-03, -4.08167066e-03, 8.15375708e-03,
       2.15538763e-04, 1.15683302e-03, -8.92263197e-04, -1.40266949e-02,
       -9.26857069e-03, -1.15122069e-02, -7.18929712e-03, 3.51908477e-03,
       -1.36290295e-02, -2.43313261e-03, 6.85272831e-03, 1.77110638e-02,
       -1.10061159e-02, 2.40909006e-03, -5.86589740e-04, -8.43945891e-04,
       -7.93351140e-03, -6.78244047e-03, -2.02106945e-02,
       -1.31823653e-02, 2.63003749e-03, -1.99004151e-02, -1.15432115e-02,
       -8.15615617e-03, -4.94790589e-03, -6.28181675e-04, 2.01968383e-02,
       1.56718015e-03, -9.04190540e-03, 4.04859288e-03, -4.07065591e-03,
       -1.45074935e-03, -8.72142427e-03, -6.09894050e-03, 1.53824305e-02,
       2.55576596e-02, -1.62649387e-03, -2.60406099e-02, -7.64833344e-03,
       -2.19934378e-02, -6.67651603e-03, -4.65997262e-03,
       -2.26402562e-03, 1.22972289e-02, 4.02086368e-03, -1.72738880e-02,
       -6.18443452e-03, 1.23021277e-02, -5.69769926e-03, -2.62343907e-03,
       -1.13055473e-02, -7.49338372e-03, 2.05967972e-05, -4.76486469e-03,
       -1.91808343e-02, -2.00569425e-02, 2.02979334e-03, -1.83182657e-02,
       -7.39084091e-04, -1.32602267e-02, -8.29450693e-03,
       -4.31277324e-03, 1.77727193e-02, -2.50764284e-03, -2.00210586e-02,
       -7.04717636e-03, -1.64557379e-02, -4.26708208e-03,
       -4.42008954e-03, -3.18569923e-03, 1.34399077e-02, 1.42759429e-02,
       -6.46431837e-03, -1.36895394e-02, -6.76514162e-03,
       -1.99326854e-02, -9.54196416e-03, -1.03233913e-02,
       -1.47424368e-02, 1.66540518e-02, -4.37810319e-03, -1.64514314e-02,
       -1.42940553e-02, 1.77773775e-03, -1.11907115e-02, 6.52356446e-03,
       -6.89412188e-03, -8.00272543e-03, -1.80573424e-03,
       -9.29928012e-03, -1.11837992e-02, -1.21632777e-02, 3.59287674e-06,
       -9.15173814e-03, -4.46077989e-04, -9.15337447e-03,
       -1.85590181e-02, 2.45619827e-04, 1.72831696e-02, -8.63797497e-03,
       -6.57876581e-03, -1.32775512e-02, -1.44558875e-02,
       -1.01290997e-02, -6.26005977e-03, -6.30422588e-03, 2.25362703e-02,
       2.18044985e-02, -6.59230771e-03, -1.27688469e-02, -1.35000590e-02,
       -7.60454359e-03, -5.38854999e-03, -2.80470145e-03, 1.44524770e-02,
       2.14584656e-02, 1.92374922e-03, -1.09192142e-02, -8.85922741e-03,
       -5.12501225e-03, -1.21099409e-02, -6.00317074e-03,
       -1.63782779e-02, -1.96882561e-02, 7.00574275e-03, 5.41369198e-03,
       -2.09288318e-02, -1.39522040e-02, -9.58949979e-03,
       -1.68407597e-02, -4.48150747e-03, -1.58918351e-02,
       -8.50616209e-03, 7.79647520e-03, 8.43853876e-03, -1.12630306e-02,
       -1.55169303e-02, -5.02607320e-03, -3.85790551e-03, 3.16808029e-04,
       3.63715645e-03, 9.69801936e-03, 5.10964170e-03, 1.46301405e-03,
       -2.87697464e-03, -1.97971682e-03, 9.84431524e-03, -9.98758618e-03,
       8.64910707e-03, 7.35359685e-03, 6.34777189e-06, -2.72585847e-03,
       -6.38874201e-03, -1.96856093e-02, -1.47529617e-02,
       -9.62156989e-03, -1.45851206e-02, -6.37846533e-03,
       -7.02202274e-03, -1.28033031e-02, -5.07168425e-03,
       -2.61141807e-02, -2.35460754e-02, -1.08918054e-02, 6.11579604e-03,
       -6.85837527e-04, -6.75915135e-03, -8.05199798e-03,
       -1.61317419e-02, -1.10251512e-02, 2.84739304e-03, 3.65934742e-04,
       1.03366910e-03, 9.68619809e-03, -7.60927517e-03, -3.61987186e-04,
       7.59050762e-03, -9.94139817e-03, -1.92802551e-03, -5.00931684e-03,
       -1.24838557e-02, 1.10258104e-03, 7.12094409e-03, 1.22513308e-03,
       4.99709230e-03, 9.96012520e-03, -6.24004845e-03, -9.35768988e-03,
       -2.36933120e-02, -2.24225987e-02, -6.01322111e-03, 7.90018961e-03,
       -3.41396010e-03, 4.42857109e-03, -3.82080814e-03, -1.89248342e-02,
       -1.53360544e-02, -1.30292783e-02, -2.81445496e-02,
       -6.77844742e-03, 4.18183208e-03, -2.07780325e-03, 1.35040311e-02,
       4.18277085e-03, -1.12209767e-02, -1.72944032e-02, -2.58887187e-03,
       -6.33255858e-03, 3.55672254e-03, 4.91499109e-03, 7.20731355e-03,
       6.91157486e-03, 7.40746409e-03, -2.77300971e-03, 5.38670691e-04,
       -1.02558173e-03, -1.90225698e-03, 6.23683166e-03, 9.64129344e-03,
       4.78253001e-03, 1.20430812e-02, 4.77032550e-03, -1.71914569e-03,
       3.08660767e-03, -1.03294728e-02, -1.80841386e-02, -7.12934742e-03,
       4.84843127e-04, -2.72101583e-03, 9.27367434e-03, 7.69022433e-03,
       -9.06588743e-04, -4.15597437e-03, -7.03930715e-03,
       -1.44910999e-02, -6.18771790e-03, -3.25195468e-03,
       -1.41976019e-02, -2.10306863e-03, -1.62856642e-03,
       -8.68820678e-03, -1.02616986e-03, 1.73832662e-02, 1.15514733e-02,
       1.57199167e-02, 1.28786406e-02, 2.56347144e-03, 8.42514634e-03,
       5.14965365e-03, -5.97106898e-03, 8.02591909e-03, 1.43471211e-02,
       1.18592121e-02, 1.03566898e-02, 4.44446225e-03, -1.31433746e-02,
       -3.01772333e-03, -5.13124699e-03, -9.38890036e-03, 3.71302292e-03,
       1.50416675e-03, -3.72001028e-04, 6.02521887e-03, -5.06965211e-04,
       -1.63985919e-02, -1.20443134e-02, -1.39415581e-02,
       -1.68536156e-02, 3.68691818e-03, -7.62441847e-03, -8.98955856e-03,
       -1.19690243e-02, -1.47028631e-02, -2.10242923e-02,
       -1.70159191e-02, -2.30300464e-02, -2.55069565e-02,
       -7.73779349e-03, 1.28313173e-02, 1.06323445e-02, 1.29627567e-02,
       1.96389970e-03, -8.39057565e-03, 2.84640165e-03, 6.31912379e-03,
       2.15161010e-03, 5.91902109e-03, -1.09570101e-03, 3.58146196e-03,
       8.69336352e-03, 2.52637849e-03, -2.19281744e-02, 2.89476104e-03,
       9.05383285e-03, 3.58129153e-03, -3.45362443e-03, 1.02720107e-03,
       -4.94582113e-03, -3.29804397e-03, -1.50591256e-02,
       -1.66119188e-02, -5.94741246e-03, -9.02966131e-03,
       -1.34685962e-02, 2.27200170e-03, -1.48397367e-02, -1.30536212e-02,
       -1.48108485e-03, 3.49063263e-03, -2.27492545e-02, -6.50227582e-03,
       -4.01894655e-03, -1.97585188e-02, -1.36063285e-02,
       -5.65898046e-03, 6.78827520e-03, 1.53147951e-02, 1.09598627e-02,
       -8.21079034e-03, 2.27747764e-03, 1.39989005e-02, 2.34142470e-04,
       -7.29854545e-03, -6.12774072e-03, -7.83760846e-03, 1.04928510e-02,
       -2.86030211e-03, -1.23626553e-02, 3.67328501e-03, 2.63263733e-04,
       -6.73767086e-03, -1.14102364e-02, -2.02757996e-02,
       -7.59634888e-03, 1.00773815e-02, 8.50617606e-03, -1.10731162e-02,
       -2.79835984e-03, -3.27478652e-03, -2.47191098e-02,
       -1.94693394e-02, -2.08344534e-02, -1.11194206e-02, 5.31665282e-03,
       -7.78406113e-03, -2.01212782e-02, -4.18222463e-03,
       -1.45163815e-02, -2.35998631e-02, -2.34255977e-02,
       -4.90011508e-03, -1.71935149e-02, 3.72627459e-04, -3.54889105e-03,
       -1.62698596e-03, 1.51405195e-02, 6.44173054e-03, -2.10812874e-03,
       -5.83460787e-03, -1.17630986e-02, -2.51231883e-02,
       -7.72981532e-03, -8.72437470e-03, -7.89347384e-03, 9.12602153e-03,
       -3.86523386e-03, -7.84551911e-03, -9.56137851e-03,
       -8.61970242e-03, -7.80854700e-03, 5.37952362e-03, -7.67042395e-04,
       -4.47566900e-03, 8.73546023e-03, -7.24606868e-03, -1.51837915e-02,
       -1.66787617e-02, -1.85135566e-02, -1.87710281e-02,
       -1.33143924e-02, -7.69223971e-03, -2.75965407e-03, 3.38719133e-03,
       -1.22233843e-02, -1.97091978e-02, -2.23964769e-02,
       -5.04352897e-03, -1.40648577e-02, -4.34004376e-03,
       -4.42982977e-03, -4.29878337e-03, 6.39717514e-03, 6.25949074e-03,
       5.98453963e-03, 1.48924475e-03, -1.04420632e-02, -1.92222036e-02,
       -7.81445857e-03, -3.51303257e-03, -1.91070996e-02,
       -4.39788727e-03, -1.10972691e-02, -1.33075612e-02, 2.52027297e-03,
       -1.66299604e-02, -1.26337307e-02, -5.03445975e-03,
       -7.46311899e-03, -4.03649407e-03, 6.38679555e-03, -1.32937089e-03,
       -1.70906435e-03, -1.31497756e-02, -5.38575184e-03,
       -1.57187693e-02, 1.67115009e-03, -3.56668909e-03, -1.15601607e-02,
       2.19349097e-03, -6.29029004e-03, -5.56212617e-03, -7.16408016e-03,
       -4.99188202e-03, -2.65792757e-02, -9.16199014e-03, 9.85510880e-04,
       -1.31898895e-02, -6.38906751e-03, -9.24325176e-03,
       -7.05694431e-04, 1.46993864e-02, -6.36866316e-03, -3.16525139e-02,
       -1.79793388e-02, -1.21835181e-02, -2.24926155e-02,
       -7.36867823e-03, -6.00618497e-03, 4.70916508e-03, 1.16094956e-02,
       7.23340036e-03, -8.28999467e-03, 8.01428128e-03, 3.55359330e-03,
       -1.58657841e-02, -5.08346653e-04, -5.95498015e-04, 8.50711204e-03,
       9.18416213e-03, 1.11834495e-03, -1.92258637e-02, -2.69910693e-03,
       -4.35213326e-03, -2.58706976e-02, -2.79148854e-03,
       -3.64221400e-03, 1.89111964e-03, 9.68214404e-03, -4.41219844e-03,
       -1.68646071e-02, -7.83765130e-03, -4.38664900e-03,
       -1.54813053e-02, -6.39099209e-03, 2.63904833e-04, 2.95281271e-03,
       9.24864318e-03, 5.57206525e-03, -2.72967387e-03, 3.45983030e-03,
       -8.53195234e-05, -1.35947140e-02, -1.16297025e-02,
       -1.61823165e-02, -9.04215313e-03, 7.96391442e-03, 8.22772458e-03,
       -1.23783071e-02, -8.17755237e-03, -4.96172486e-03,
       -1.79290250e-02, -1.65097578e-03, -1.11670489e-03,
       -2.71972222e-03, 1.17173735e-02, 1.32267186e-02, -7.15289405e-03,
       -7.41139927e-04, 3.46527039e-03, -2.29721777e-02, -1.31827341e-02,
       -8.05588905e-03, -4.58504725e-03, 1.08791832e-02, 4.47116513e-03,
       -2.19858644e-04, 7.18013523e-03, -4.49366495e-03, -1.03305457e-02,
       -1.27380025e-02, -1.35025568e-02, -1.64789855e-02,
       -2.81087589e-04, 1.10526579e-02, 9.29460954e-03, 1.47085581e-02,
       1.44356303e-02, 4.90744319e-03, 5.85458009e-03, -7.68373767e-03,
       -7.87558500e-03, -1.74453424e-03, 5.79212466e-03, 2.30192044e-03,
       3.94474668e-03, 4.42296790e-04, -2.92042475e-02, -1.64976623e-02,
       -1.85185950e-02, -1.03822565e-02, 5.89915435e-04, 4.73720115e-03,
       1.55429645e-02, 1.44015877e-02, 1.74870305e-02, -8.30621365e-03,
       -1.97436637e-03, -1.60205625e-02, -4.57485393e-03, 1.91435940e-03,
       -3.03065614e-03, -2.96579138e-03, -1.26780698e-03, 5.67550771e-03,
       -1.01987161e-02, 9.33107454e-03, 2.15498265e-02, 1.33615974e-02,
       1.77578349e-03, -3.73611273e-03, -1.92094930e-02, -1.75160859e-02,
       -2.87208916e-03, -1.88938249e-02, 2.83736829e-03, 1.02089532e-02,
       1.02850981e-03, 9.27524525e-04, -1.08109713e-02, -1.86382290e-02,
       -2.13568266e-02, -5.42714319e-04, -2.12086271e-02, 5.57096209e-03,
       1.36940395e-02, 1.70015469e-02, -3.97751154e-03, -1.12372013e-02,
       -2.19346937e-02, -2.06407774e-02, -9.74634476e-03,
       -2.83965003e-02, 2.80352077e-04, 1.13719958e-03, 4.47023520e-03,
       -1.99509552e-03, 8.29152705e-04, -1.59980487e-02, -2.91952002e-03,
       3.26145417e-03, -1.05243120e-02, 8.26745108e-03, 1.22714392e-03,
       -5.44747047e-04, 4.97480109e-03, -2.20477628e-03, -8.83056223e-03,
       -5.60244371e-04, 7.87774473e-03, -1.28641129e-02, 3.37417447e-03,
       -7.13785319e-03, -4.90365550e-03, 6.94701867e-03, -2.75966269e-03,
       -1.46376239e-02, -7.77843641e-03, -4.77298209e-03,
       -1.45290112e-02, 2.18572980e-03, -4.56421683e-03, -1.22670864e-03,
       4.00662562e-03, -2.52089417e-03, -1.23559088e-02, -5.95985120e-03,
       -6.82908067e-05, -1.95721183e-02, 2.97087268e-03, -2.10334491e-02,
       -1.28800357e-02, 4.98122536e-03, -8.39221539e-05, -6.17988117e-04,
       2.75747571e-03, 7.94791896e-03, -3.07400757e-03, 1.23159643e-02,
       -1.79487478e-03, -5.64408209e-03, 9.37216729e-03, -5.44829352e-04,
       -7.70258764e-03, -8.62637348e-03, 1.45675032e-03, 3.23528843e-03,
       1.43777914e-02, -1.43200578e-03, -1.36101870e-02, 9.43942554e-03,
       -4.92903078e-03, -8.07581749e-03, -8.01246706e-03, 4.56183031e-03,
       -6.80439686e-03, 1.44847305e-02, -1.39140161e-02, -1.20170303e-02,
       1.90634327e-03, -4.18088857e-05, -1.37589378e-02, -1.14514530e-02,
       -1.65524471e-04, 1.96474977e-03, 1.14429956e-02, -6.78665377e-03,
       -2.11191382e-02, -4.04288666e-03, 5.57751209e-03, -1.04989586e-02,
       -8.69168807e-03, -1.79965585e-03, -4.31462750e-03, 1.00683859e-02,
       6.18606759e-03, -1.32477870e-02, 1.03952419e-02, 1.00248605e-02,
       -4.86956676e-03, -4.15650243e-03, -1.78921339e-03,
       -1.15284892e-02, 6.13536872e-03, -6.20125374e-03, -8.04437045e-03,
       1.30450316e-02, 6.85253041e-03, -1.21631799e-02, -1.53918602e-02,
       -8.15082528e-03, -6.64062286e-03, 1.21555170e-02, 2.74515292e-03,
       -1.19160404e-02, 4.09634924e-03, 9.31633729e-03, -5.25522418e-03,
       -1.48123717e-02, -1.20226888e-03, -1.08300177e-02, 9.93825588e-03,
       1.25889843e-02, -8.93577700e-04, 7.65987718e-03, 7.38369720e-03,
       -1.90485280e-03, -6.63139333e-04, -1.26630999e-03,
       -7.66142504e-03, -5.88407507e-03, -6.99041877e-03,
       -1.21688088e-02, 1.43208331e-03, -4.37827082e-03, -1.17219621e-02,
       1.70256919e-03, 1.57533195e-02, -1.03393465e-03, -6.53159758e-03,
       -1.25680054e-02, -1.35411648e-02, -2.40988540e-03, 8.21975991e-03,
       -4.75702545e-04, 1.89840514e-03, 5.51889883e-03, -3.20721185e-03,
       -4.90072090e-03, 5.25194591e-05, -3.09733720e-03, 6.95256051e-03,
       3.37769277e-03, -6.14405796e-03, 3.24488478e-03, 1.17509475e-03,
       -1.08170193e-02, -1.63565874e-02, -1.97623204e-02,
       -2.14708839e-02, 7.04672793e-03, -8.44523590e-03, -1.40840234e-02,
       -9.20727092e-04, 1.52074471e-02, 8.80260195e-04, 7.05337850e-03,
       -4.75555519e-03, -1.26219951e-02, -3.46791116e-03,
       -1.06772553e-04, -8.08431208e-03, 1.01234168e-02, 2.15817690e-02,
       8.29242542e-03, 1.55805694e-02, 7.63293775e-03, -7.47137284e-03,
       -4.88818111e-03, -9.56042577e-03, -1.17053380e-02,
       -3.41980159e-03, 2.19953549e-03, -9.47735738e-03, -9.95502435e-03,
       -1.45263048e-02, -2.28284840e-02, -3.90427304e-03,
       -1.44057535e-02, -1.27052600e-02, 1.17520727e-02, 1.14579191e-02,
       -4.69649816e-03, -1.95875764e-03, -1.02661802e-02,
       -2.10155081e-02, -6.66911434e-03, -3.52642941e-03,
       -9.90274362e-03, 5.90867223e-03, 1.76941007e-02, 1.29067115e-02,
       1.26597481e-02, 9.40160360e-03, 6.00705808e-03, 7.81771727e-03,
       1.85078487e-03, -1.17635448e-02, 1.55313115e-03, 8.65566637e-03,
       4.25015902e-03, 1.92588463e-03, -2.17571924e-03, -2.22568028e-03,
       1.02462498e-02, -6.39047939e-03, -1.05831381e-02, 1.28587829e-02,
       1.49605162e-02, -2.85395829e-04, -7.60718575e-03, -1.99302360e-02,
       -1.35342721e-02, 8.74238031e-04, -1.07150199e-02, -2.15867944e-02,
       -5.30190114e-03, 2.32140906e-03, -1.15505941e-02, -2.08916496e-02,
       -2.86520645e-02, -1.24419238e-02, -1.66343793e-03, 1.53434975e-02,
       4.25022654e-03, 1.59014687e-02, 9.90281720e-03, 2.47626007e-03,
       -9.05594323e-03, -8.22065026e-03, -1.53289153e-03, 2.31731366e-02,
       1.08539592e-02, -1.38574583e-03, 5.65993600e-03, -8.42051674e-03,
       -6.82588620e-03, -1.54203717e-02, -1.93832945e-02,
       -1.48087442e-02, 1.51512492e-02, 1.00189419e-02, -1.04946122e-02,
       7.69551937e-03, 8.25046096e-03, -5.79485204e-03, -1.17962193e-02,
       -1.91239100e-02, -2.68530566e-03, 1.87656283e-02, 8.39948468e-03,
       -8.75643548e-03, 2.87417643e-04, -5.12096053e-03, -1.59756579e-02,
       -2.05389205e-02, -2.22114604e-02, -6.48902683e-03, 1.73423477e-02,
       1.16456905e-02, -3.29250935e-03, 4.08952963e-03, -9.10092797e-03,
       -9.66053735e-03, -6.70370879e-03, -1.16446950e-02,
       -1.46779250e-02, 1.14686619e-02, 1.26999954e-03, -9.92897199e-04,
       4.22968948e-03, 6.48269104e-03, -6.21879939e-03, 2.47996789e-03,
       2.63290538e-04, -1.15094716e-02, -7.52760272e-04, 1.34682581e-02,
       4.84306319e-03, 6.21237652e-03, -6.09237002e-03, -1.69827826e-02,
       -1.81933828e-02, -1.58986095e-02, -2.39522522e-03, 1.95981618e-02,
       1.14574982e-02, 5.89603418e-03, 2.54932209e-03, 1.04000384e-04,
       -1.40596200e-02, -4.58073057e-03, -9.08393972e-03,
       -4.11150279e-03, 1.74706560e-02, -1.07695023e-02, -8.98575783e-03,
       5.48639707e-03, -9.73813061e-04, -4.59876610e-03, 5.70754381e-03,
       -2.19931523e-03, -2.07668748e-02, -9.37086809e-03,
       -1.91340005e-04, -4.47193580e-03, 7.24134455e-03, -6.93848124e-03,
       -1.43217538e-02, 4.34144400e-03, -9.82849486e-03, -1.71387196e-02,
       -6.75415713e-03, 1.47487400e-02, 5.91034652e-04, 1.66049495e-03,
       -6.59651915e-03, -6.85974909e-03, 3.75997508e-03, -6.55518984e-03,
       -1.05299363e-02, 6.78468123e-03, 2.11937968e-02, 1.50603754e-03,
       -1.72662572e-03, -4.18320065e-03, -1.39563559e-02,
       -1.41428667e-03, -1.14289550e-02, -1.33303786e-02, 8.95135757e-03,
       8.48123804e-03, 4.55857581e-03, 8.66263825e-03, 2.91866134e-03,
       -4.05242480e-03, -5.39603410e-03, -1.67318117e-02,
       -2.05085985e-02, -7.39415828e-03, 6.44524861e-03, 8.90363124e-04,
       -2.41299812e-03, -9.16708843e-04, 1.07429834e-04, -7.42246024e-03,
       -2.55264305e-02, -2.76876800e-02, -4.74728784e-03, 3.50284241e-02,
       1.18865073e-02, 4.21334291e-03, 2.73635751e-03, -7.33385468e-03,
       -1.89538933e-02, -2.66901571e-02, -1.32073862e-02, 1.65774059e-02,
       2.69429404e-02, 8.03513825e-03, -2.29788711e-03, -5.15755452e-03,
       -1.41419061e-02, -2.17816886e-02, -2.77245305e-02,
       -1.86361149e-02, 9.62497946e-03, -5.04973903e-03, -8.28982622e-04,
       -3.48257716e-04, -3.83100356e-03, -5.81252156e-03,
       -1.03454583e-03, -1.66943464e-02, -1.27643812e-02,
       -4.59685316e-03, -2.80883280e-03, -7.46443588e-03, 1.26984548e-02,
       -7.79607380e-03, -1.53405713e-02, -2.04394237e-04,
       -1.64061841e-02, -7.38712912e-03, -7.65585387e-03, 2.10979935e-02,
       1.42875593e-02, 6.09686179e-03, -3.39984195e-03, -1.51395593e-02,
       -1.16968071e-02, -1.82371754e-02, -9.67991259e-03, 8.53148289e-03,
       2.71316571e-03, 7.44301174e-03, 7.73451803e-03, -1.07060606e-02,
       -2.11816039e-02, -1.26076245e-03, -5.84136602e-03,
       -3.46649508e-03, -5.75759169e-03, 4.88176523e-03, -2.92512449e-03,
       1.48394229e-02, -4.09686053e-03, -1.82013642e-02, -9.15747229e-03,
       -8.14047270e-03, 2.53500417e-03, 6.69833273e-03, -1.96941406e-03,
       -5.71866939e-03, 3.04041593e-03, -7.34647689e-03, -2.72822678e-02,
       -1.61095317e-02, -1.48468819e-02, -1.31581128e-02, 1.79497455e-03,
       1.04967849e-02, 6.77133538e-03, 5.74670592e-03, -1.18959295e-02,
       -2.12546829e-02, -3.40095558e-03, 1.60199765e-03, -1.46915973e-03,
       7.65897473e-03, 7.04626495e-04, 2.70943833e-03, -3.53806582e-03,
       -1.24023026e-02, -2.68181954e-02, -9.37353168e-03,
       -7.51905609e-03, -1.30951740e-02, -2.13577854e-03, 2.28100922e-03,
       -5.41013526e-03, 6.71404880e-03, -4.61401837e-03, -1.96840055e-02,
       -1.05192410e-02, -8.70654639e-03, -1.25639103e-02, 3.94657580e-03,
       8.65303911e-03, -2.59632152e-03, 1.24380421e-02, 3.07031302e-03,
       -2.15852205e-02, -1.43606430e-02, -1.20495660e-02,
       -1.70573201e-02, -2.16589848e-04, 5.99203398e-04, 2.69766757e-03,
       1.64144747e-02, 1.09098142e-03, -1.93854757e-02, -7.87416380e-03,
       -6.57054223e-03, -1.36826439e-02, -3.72719299e-03, 4.64716926e-03,
       9.53860767e-03, 2.79519558e-02, 6.44197129e-03, -1.68479476e-02,
       -5.28772967e-03, -1.23823984e-02, -1.93164553e-02,
       -3.16486578e-03, 3.43487947e-03, 3.91513854e-03, 1.08481208e-02,
       -3.61899240e-03, -2.77864635e-02, -1.56335644e-02,
       -1.14539852e-02, -1.22365793e-02, -4.55934089e-03, 3.14742560e-03,
       1.51978610e-02, 2.02672780e-02, 1.14139244e-02, -1.81437023e-02,
       -6.44382322e-03, -1.55763049e-02, -5.90594904e-03, 5.21046249e-03,
       2.67508673e-03, 7.09732343e-03, 1.84958763e-02, -1.59877678e-03,
       -1.99293122e-02, -4.16973466e-03, -1.15221199e-02,
       -1.98359117e-02, -9.22510400e-03, 9.28787980e-03, 1.01028439e-02,
       1.64033901e-02, -1.52786111e-03, -1.40696950e-02, -1.88747048e-03,
       -1.40309995e-02, -1.13161728e-02, -4.52438556e-03,
       -1.05714900e-02, -1.84854548e-02, -1.93779841e-02,
       -3.57157458e-03, -1.90049969e-02, -4.40337788e-03, 2.27705240e-02,
       1.64149739e-02, -1.86302757e-03, -1.21709518e-03, -1.45072443e-02,
       -9.53871943e-03, -2.57048733e-03, -1.90699138e-02,
       -7.91368599e-04, 7.77843082e-03, 9.17614345e-03, 5.04073035e-03,
       3.03702778e-03, -1.31474352e-02, -1.62337776e-02, -1.07965628e-02,
       -3.49860825e-02, -1.92360580e-02, 9.65988729e-03, 1.54354852e-02,
       1.46753239e-02, 5.72506012e-03, -1.55409044e-02, -6.59264345e-03,
       -1.03304703e-02, -3.09567656e-02, -1.21713104e-02, 1.48956794e-02,
       1.86635945e-02, 1.88384932e-02, 2.40038754e-03, -1.06395660e-02,
       6.57498895e-04, 1.60331110e-05, -1.20785162e-02, -3.25641874e-03,
       -2.37572682e-03, 5.10621862e-03, 6.55173184e-03, 8.85818561e-04,
       -1.46819409e-02, -1.23968823e-02, -5.27427439e-03,
       -1.80454049e-02, 1.85060676e-03, -1.68237146e-02, -1.14636756e-02,
       5.26529504e-03, 1.26687782e-02, -9.64696985e-03, -1.90037338e-03,
       -8.08446296e-03, -2.10572463e-02, -5.77141251e-03, 6.39652601e-03,
       2.12353077e-02, 2.89154612e-02, 1.82667393e-02, -5.54616330e-03,
       -1.56363640e-02, -1.82286855e-02, -2.74908114e-02,
       -1.77157356e-03, -1.18899783e-02, -7.18968082e-03, 1.51000163e-02,
       7.77055568e-04, -4.42024227e-03, -1.20967794e-02, 3.31853889e-03,
       -3.49131785e-03, 1.26528339e-02, -1.43605052e-02, -1.42030399e-02,
       4.13941778e-03, 8.51056539e-03, 4.76170378e-03, -6.45651808e-03,
       9.32680035e-04, -1.48462493e-03, 7.73541490e-03, -1.20556485e-02,
       -2.24778950e-02, -4.26760828e-03, 2.13991869e-02, 1.19630536e-02,
       -9.42165311e-03, -7.22244848e-03, -1.49076805e-02, 8.36348219e-04,
       -1.31922970e-02, -1.71790309e-02, 6.07316475e-03, 2.00698040e-02,
       1.98612493e-02, -8.51710699e-03, -2.81629898e-03, -2.20935252e-02,
       -4.15145932e-03, -2.38024425e-02, -1.63643602e-02,
       -2.97192833e-03, 1.14500634e-02, -3.18701495e-05, -7.08856108e-03,
       -3.38492449e-03, -7.53626693e-03, 3.45067680e-03, -5.38933836e-03,
       -1.42284092e-02, 3.76113527e-03, 1.12544475e-02, 5.24411444e-03,
       -1.38422794e-04, 3.90912453e-03, -6.33844826e-03, 3.56060266e-03,
       2.78029917e-03, -3.92454257e-03, 7.73920026e-03, 1.83301978e-02,
       1.67565811e-02, 1.91141400e-04, -4.24568262e-03, -2.06241980e-02,
       -7.88195524e-03, -2.18864027e-02, -1.24783088e-02,
       -9.17292607e-04, 1.70173328e-02, 7.37877144e-03, 1.15356850e-03,
       1.58909056e-03, -2.15201043e-02, -1.23825120e-02, -2.95944400e-02,
       -1.63808353e-02, 3.54842748e-03, 1.00832642e-03, -3.33065772e-03,
       4.04718891e-03, 1.29167933e-03, -1.30258070e-03, -9.96095827e-04,
       6.46968000e-03, -2.01690430e-03, 6.85466733e-03, 2.83898611e-04,
       -2.03805533e-03, 1.19318510e-03, -6.11323165e-03, -1.95097383e-02,
       -7.33320788e-03, 4.24242084e-04, -3.74349323e-03, 9.58890375e-03,
       1.67378690e-02, -1.72272709e-03, -3.52392765e-03, -6.26143254e-03,
       -1.69051848e-02, -6.24878798e-03, -1.40814343e-02,
       -1.15736304e-02, 8.57835449e-03, 8.00982118e-03, -1.04181143e-03,
       2.96836393e-03, -7.37963384e-03, -3.50665860e-02, -5.27418032e-03,
       1.79418654e-03, -3.02411499e-03, 1.35967564e-02, -1.12721631e-02,
       -1.59102455e-02, -7.36127747e-03, -1.25644039e-02,
       -1.74473301e-02, -4.96895425e-03, -4.25133709e-04,
       -3.75417410e-03, 1.22420322e-02, -7.83713348e-03, -1.67190190e-02,
       -1.02231657e-04, -5.03411889e-03, -1.38317058e-02,
       -2.65808380e-03, 2.79747741e-03, -5.51403500e-04, 1.36759337e-02,
       6.19861810e-03, -2.69357371e-03, -8.08035082e-04, -1.15618696e-02,
       -2.92675178e-02, -6.16315706e-03, 1.36793684e-03, 2.42474419e-03,
       2.23703831e-02, 2.89623812e-03, -1.31018879e-02, -1.50328977e-02,
       -2.10157689e-02, -2.88106091e-02, -3.57775250e-03, 5.88431209e-03,
       2.24098396e-02, 2.93768682e-02, 3.01119732e-03, -6.27401378e-03,
       9.43396240e-03, -6.58122706e-04, -1.56350732e-02, -1.25250481e-02,
       -2.01280485e-03, 2.03089323e-03, 1.75647754e-02, -2.36640614e-03,
       -1.60289258e-02, -1.50200550e-03, -5.94001357e-03,
       -2.68983133e-02, -2.22773291e-02, -1.46734482e-02, 2.10298900e-03,
       1.14737889e-02, 1.77706331e-02, -9.14561562e-03, -1.15420828e-02,
       -1.95536222e-02, -3.56558599e-02, -1.27089182e-02, 6.55615516e-03,
       2.68363059e-02, 4.22792882e-02, 2.02023126e-02, -1.19010760e-02,
       -1.79831646e-02, -2.09156182e-02, -4.64107357e-02,
       -2.85135992e-02, -4.23352141e-03, 1.31931109e-02, 4.10419591e-02,
       5.43474779e-03, -1.58355925e-02, 3.35379550e-03, -5.59628708e-04,
       -1.76318828e-02, -1.33913141e-02, -1.34356543e-02, 5.29439095e-03,
       2.42815204e-02, 1.36048552e-02, -2.26624999e-02, -1.09516354e-02,
       -6.91456674e-03, -2.40808688e-02, -1.92403849e-02,
       -1.39633436e-02, 4.13412042e-03, 2.99986880e-02, 3.00376918e-02,
       -1.16308052e-02, -4.49782377e-03, -1.38483178e-02,
       -3.14981826e-02, -2.45114788e-02, -1.61124691e-02, 1.41634978e-02,
       4.75736856e-02, 2.64989827e-02, -1.90017503e-02, -1.67815480e-02,
       -1.47024933e-02, -3.52335759e-02, -2.92509440e-02,
       -1.80458967e-02, 7.88368471e-03, 3.68994065e-02, 1.78353433e-02,
       -1.53451627e-02, -1.39479861e-02, -1.04588540e-02,
       -2.71681156e-02, -2.03342475e-02, -1.65928192e-02, 5.49899042e-03,
       3.36677134e-02, 2.63459701e-02, -4.06496786e-03, -1.24304323e-02,
       -1.53344695e-03, -1.76801104e-02, -1.25245471e-02,
       -1.68928877e-02, -2.19296059e-03, 2.83532888e-02, 2.91941483e-02,
       -2.36484352e-02, -1.36831403e-02, -8.57052673e-03,
       -3.25882025e-02, -2.34072823e-02, -1.71823837e-02, 7.42715783e-03,
       4.18876335e-02, 2.31454466e-02, -1.13308039e-02, -8.82049371e-03,
       5.62026212e-03, -2.24192385e-02, -1.86496656e-02, -3.05517763e-02,
       -5.27459383e-03, 2.93866638e-02, 2.92730778e-02, 1.58894007e-04,
       -1.11856330e-02, -4.69275378e-03, -8.41624476e-03,
       -8.65220465e-03, -1.43903671e-02, -6.68032235e-03, 2.19919942e-02,
       2.89094374e-02, 8.74858117e-04, -5.30381780e-03, -6.34362362e-03,
       -9.34777409e-03, -6.81423768e-03, -1.05626713e-02,
       -6.56029815e-03, 2.02136692e-02, 2.59875823e-02, -2.53468449e-03,
       -1.23679163e-02, -1.62726210e-03, -1.49796261e-02,
       -1.29891336e-02, -3.19860913e-02, -7.04678567e-03, 2.30590925e-02,
       2.61376258e-02, 6.90415560e-04, -8.61614384e-03, -4.47229808e-03,
       -1.68005917e-02, -7.41613004e-03, -1.81981437e-02,
       -8.43769684e-03, 2.28040311e-02, 3.49568129e-02, -1.18611228e-04,
       -6.64198864e-03, -9.41149518e-03, -6.90996042e-03,
       -8.96699075e-03, -1.19034583e-02, -2.02071993e-03, 2.82006282e-02,
       3.69464755e-02, -7.55509478e-04, -1.98972374e-02, -2.15389729e-02,
       -1.99718941e-02, -1.48249278e-02, -1.11527843e-02,
       -1.17897904e-02, 2.44439114e-02, 3.11340746e-02, -8.10520444e-03,
       -1.47208981e-02, -9.24932305e-03, -1.08992439e-02,
       -5.29305963e-03, -4.26529488e-03, 5.18373074e-03, 2.39985958e-02,
       2.84395572e-02, -1.24936858e-02, -2.17601843e-02, -9.73786786e-03,
       -2.29614060e-02, -1.10689318e-02, -1.20134056e-02, 5.02181286e-03,
       2.53498126e-02, 2.56414954e-02, 8.79056868e-04, -1.39556341e-02,
       -1.66852437e-02, -1.86028015e-02, -6.89736754e-03,
       -8.24595615e-03, -3.39925475e-03, 2.30070129e-02, 6.53249212e-03,
       -4.69433423e-03, -1.49370255e-02, -1.46669643e-02,
       -1.29137561e-02, 1.04394667e-02, -8.56163329e-04, -1.69250427e-03,
       7.12612062e-04, 2.47623920e-02, -7.15319114e-03, -1.52571797e-02,
       -5.13654249e-03, -2.20601987e-02, -8.88916105e-03,
       -3.13947280e-03, 1.29554411e-02, 2.86025777e-02, 1.14417104e-02,
       -6.97150035e-03, -1.55893546e-02, -1.42762372e-02,
       -2.66894177e-02, -2.93868314e-03, 2.95157474e-03, 1.11443931e-02,
       2.18586754e-02, 7.48937577e-03, -4.23404714e-03, -3.81335011e-03,
       -7.32692843e-03, -1.45079829e-02, 1.33963022e-03, 2.20931857e-03,
       -2.52651959e-03, 6.35498855e-03, -8.07031291e-04, -2.30473722e-03,
       6.14974368e-03, -1.14305979e-02, -2.34515592e-02, -5.24197100e-03,
       -6.90935226e-03, -8.13342631e-03, -2.48078420e-03, 1.41017428e-02,
       5.73851867e-03, 2.50937883e-03, -5.71466330e-03, -2.47216541e-02,
       -5.87618351e-03, -4.60560108e-03, 8.10832344e-03, 1.70771219e-02,
       1.42450007e-02, 8.29229597e-03, 1.23385182e-02, -1.77918759e-03,
       -1.81472730e-02, -1.94126891e-03, -4.18661442e-03, 3.18107847e-03,
       1.14489840e-02, 5.64543239e-04, -2.97559239e-03, 1.22754313e-02,
       -3.25488928e-03, -1.90135166e-02, -3.67882568e-03,
       -2.48109642e-03, -1.12395007e-02, -9.25887004e-03,
       -2.68834963e-04, 5.04801236e-03, 2.21718159e-02, 6.75264862e-04,
       -1.64521746e-02, 1.27145916e-03, -1.32325655e-02, -2.28436552e-02,
       -1.09480806e-02, 1.55214667e-02, 9.49824881e-03, 5.46598341e-03,
       -1.52867776e-03, -1.12138083e-02, 3.60435573e-03, 2.86618993e-03,
       -3.75794712e-03, 8.90185963e-03, 1.04760984e-02, 4.90288995e-03,
       4.06931620e-03, -6.73134055e-04, -9.83734895e-03, 1.32481549e-02,
       -5.75010607e-04, -1.54427662e-02, 4.55269124e-03, -1.26897870e-03,
       3.59356427e-03, 1.47999730e-02, -3.23041272e-03, -1.44950310e-02,
       4.30539111e-03, -7.35090394e-03, -1.75869763e-02, -9.93824098e-03,
       4.08931263e-03, 5.30055072e-03, 1.16195055e-02, -5.30800549e-03,
       -1.43333264e-02, -5.27809002e-03, -1.18985046e-02,
       -1.32305482e-02, -7.71652954e-03, 7.28057791e-03, 4.01637424e-03,
       7.92876072e-03, -4.12585121e-03, -1.32370582e-02, 8.62416066e-03,
       -1.13657117e-03, -8.87910277e-03, 1.47665292e-03, -5.73429512e-03,
       -3.68312630e-03, -2.46508839e-03, -7.56049482e-03,
       -1.78238396e-02, -4.44647187e-04, -2.98027624e-03,
       -2.79340777e-03, -3.18622775e-03, 1.20244646e+00 ]
