%YAML:1.0
---
detectionoutput: !!opencv-object-detector-hog
   winSize: [ 64, 128 ]
   blockSize: [ 16, 16 ]
   blockStride: [ 8, 8 ]
   cellSize: [ 8, 8 ]
   nbins: 9
   derivAperture: 1
   winSigma: 4.
   histogramNormType: 0
   L2HysThreshold: 2.0000000000000001e-01
   gammaCorrection: 1
   nlevels: 64
   signedGradient: 0
   SVMDetector: [ -3.58978356e-03, -9.51729808e-03, 8.07100907e-03,
       -7.49948760e-03, 6.26665028e-03, -3.47318426e-02, -1.52706904e-02,
       5.40152332e-03, 1.76304784e-02, -7.41660129e-04, -5.04864892e-03,
       6.85797120e-03, -1.33656859e-02, 7.53369695e-03, -1.33110629e-02,
       -1.33201825e-02, -1.34023023e-03, 1.08821336e-02, 2.35168226e-02,
       3.11810733e-03, 1.72434971e-02, -6.41247118e-03, 1.66347567e-02,
       -3.02418731e-02, -2.40087193e-02, 5.67242503e-03, 4.23049778e-02,
       1.82350446e-02, 3.81140318e-03, 1.58998184e-03, -1.48267429e-02,
       3.34978960e-02, -1.22532742e-02, -1.51766678e-02, -7.54249690e-04,
       3.91930379e-02, -1.18841778e-03, -5.19254431e-03, 1.78329108e-04,
       -7.49485102e-03, 1.04305241e-02, -9.00828280e-03, -9.19032563e-03,
       2.61786219e-04, 1.57220978e-02, 2.48945295e-03, 2.87372502e-03,
       9.24760476e-03, 2.88306223e-03, 1.06272604e-02, -1.78773496e-02,
       -2.13135779e-02, 2.27529719e-03, 1.28191942e-02, 7.99698941e-03,
       8.32461379e-03, -8.79720552e-04, 7.14587048e-04, 2.88420282e-02,
       -1.18656131e-02, -1.06217200e-02, 1.33510143e-03, 2.76355837e-02,
       -3.04308516e-04, 1.71737894e-02, 1.64067894e-02, 2.16162596e-02,
       3.42756845e-02, -1.30537404e-02, -8.46116804e-03, 5.58372913e-03,
       1.76583119e-02, 5.18991286e-03, 2.30468300e-04, 3.70884663e-03,
       -4.34872601e-03, -7.02114217e-03, -8.41743685e-03,
       -3.61853442e-03, 3.32125416e-03, 7.06074713e-03, 1.34061603e-02,
       1.11259669e-02, 9.21768975e-03, -1.72258522e-02, -3.43480660e-03,
       -5.72948297e-03, -1.38076267e-03, -5.39573375e-04, 9.81347542e-03,
       5.97564550e-03, 5.48657589e-03, 1.29536847e-02, 7.32938852e-03,
       1.81933846e-02, -9.73517355e-03, 2.85160077e-05, 8.92926846e-03,
       1.20763276e-02, 2.11975649e-02, 1.66988969e-02, 2.52966359e-02,
       4.05499432e-03, 3.04337665e-02, -1.50414454e-02, -9.73904133e-03,
       -4.24452033e-03, 1.25797708e-02, 1.44092990e-02, 9.46016423e-03,
       -3.03808367e-03, -2.11381391e-02, 2.57299253e-04, 8.26117641e-04,
       3.17007507e-04, 8.76766106e-04, 1.44151719e-02, 2.32173000e-02,
       1.88211147e-02, 8.72027036e-03, -1.36749577e-02, -1.46231726e-02,
       -2.55726185e-03, 1.89978455e-03, 9.90227237e-03, 1.07342033e-02,
       2.17667986e-02, 2.28071474e-02, 1.92636549e-02, -1.85338303e-03,
       1.24797411e-02, -1.80181600e-02, -2.13770904e-02, -8.87743011e-03,
       5.89359133e-03, 3.38501073e-02, 1.35146352e-02, 2.21046247e-02,
       -4.50907834e-03, 1.91346882e-03, -6.30483701e-05, 2.75336183e-03,
       -2.27975263e-03, 2.10872740e-02, 1.33224139e-02, 1.60327014e-02,
       1.22797610e-02, -4.92548477e-03, -2.13177446e-02, -1.52663216e-02,
       -4.85990662e-03, 5.10870526e-03, 5.00608236e-03, 1.18606025e-02,
       1.84904113e-02, 2.06723828e-02, 4.13629413e-03, -1.26247415e-02,
       -1.87204946e-02, -1.22315735e-02, 1.06790392e-02, 9.77140199e-03,
       2.04838645e-02, 6.50914479e-03, 1.82701387e-02, -9.77193005e-04,
       -2.44352268e-03, 9.85249644e-04, 1.45688723e-03, 2.08094670e-03,
       1.12677915e-02, 3.74842547e-02, 3.74181420e-02, 1.92228016e-02,
       9.11271293e-03, 1.85104888e-02, -4.96869441e-03, -5.34419250e-03,
       8.56301747e-03, 1.54848797e-02, 1.03802225e-02, 1.06416931e-02,
       1.57604795e-02, 3.49225313e-03, -1.49651710e-02, -1.61027480e-02,
       -1.44760795e-02, 9.56171751e-03, 6.02225494e-03, 5.52264601e-03,
       -1.00031984e-03, 4.34525916e-03, 3.40100587e-03, -1.58757027e-02,
       -1.56381074e-02, -3.31556844e-03, 5.92803722e-03, -1.27440237e-03,
       2.85357554e-02, 1.63048562e-02, 6.60917815e-03, 2.04546284e-03,
       7.60820229e-03, -6.23842981e-03, -8.33551586e-03, 3.62889445e-03,
       1.49798999e-02, 2.09559519e-02, 1.16115799e-02, 1.83836147e-02,
       4.95696580e-03, 1.97790028e-03, -2.35668453e-03, 1.28958083e-03,
       1.28328549e-02, 1.99995451e-02, 7.27204513e-03, -4.17914381e-03,
       -6.09548390e-03, 5.76796290e-03, -9.61021427e-03, -6.44679414e-03,
       -3.09275277e-03, 4.17686207e-03, 2.97408737e-03, 5.79199148e-03,
       -4.13785363e-03, -7.13212555e-03, 3.41201620e-03, -9.51382425e-03,
       -1.44379325e-02, -1.45603521e-02, -1.68086085e-02,
       -3.13367369e-03, 2.65827030e-02, 8.48371815e-03, 1.51586337e-02,
       9.73969419e-03, 6.80606253e-03, 6.37018355e-03, -1.84170785e-03,
       1.90069377e-02, 3.21429446e-02, 3.38795185e-02, 1.50060537e-03,
       -5.77250845e-04, 3.08012869e-03, 4.14228346e-03, -3.58812185e-03,
       -1.14300456e-02, 6.99842628e-03, 3.10376827e-02, 6.99820695e-03,
       -6.79362193e-03, -5.11113647e-03, -4.97656176e-03, 2.67775991e-04,
       -6.41537737e-03, -9.57566872e-03, -8.60729814e-03, 6.88829971e-03,
       9.37951356e-03, -4.06305352e-03, -4.97254217e-03, -2.80353823e-03,
       6.75162242e-04, -4.57538385e-03, -5.43279992e-03, -1.32198643e-03,
       1.39821777e-02, 3.29121202e-02, 8.70195124e-03, 8.11245851e-03,
       4.78829164e-03, 7.86542520e-03, -6.07325369e-03, -7.58683309e-03,
       4.01596073e-03, 2.98579931e-02, 2.87734158e-02, 1.54572763e-02,
       1.17168818e-02, 1.00393977e-03, 1.93353072e-02, -4.10861149e-03,
       -6.14849059e-03, 5.72596397e-03, 3.04275602e-02, -2.84800283e-03,
       -4.33050469e-03, -1.87748097e-04, 1.33713125e-03, 6.53586676e-03,
       -8.20149202e-03, -1.04877725e-02, -1.59409642e-03, 1.92065502e-03,
       -1.44433146e-02, -1.33914482e-02, 3.74016375e-03, 3.18139629e-03,
       1.43481074e-02, -1.23419650e-02, -3.59037938e-03, -2.96408148e-03,
       -1.00278873e-02, 1.12936767e-02, 1.32578528e-02, 6.29251730e-03,
       3.58803594e-03, 2.91086752e-02, -7.92720169e-03, -6.19993266e-03,
       1.20169446e-02, 2.06347443e-02, -8.52373242e-03, 7.14302179e-04,
       1.42768566e-02, 8.84871930e-03, 3.88997868e-02, -1.13507910e-02,
       -3.65162524e-03, 1.45554813e-02, 9.84205864e-03, -1.03838034e-02,
       -1.40394764e-02, 7.88795389e-03, 3.23842908e-03, 1.68728270e-02,
       -8.95716436e-03, 3.30526149e-04, -1.61938684e-03, -3.14259483e-03,
       -4.51885536e-03, -1.24311028e-02, 1.33835282e-02, -7.17249000e-03,
       1.61908679e-02, -2.12497986e-03, 7.43045146e-03, -3.65020079e-03,
       7.20580400e-04, 1.11166690e-03, -2.68409261e-03, 1.08772973e-02,
       -3.78296059e-03, 3.07095386e-02, -1.19867465e-02, 2.89217848e-03,
       9.20723006e-03, 1.47445034e-02, 9.62149538e-03, -9.99393780e-03,
       2.65661976e-03, -9.47450846e-03, 1.82558820e-02, 1.66652538e-03,
       3.54245328e-03, -1.32507074e-03, 2.14935746e-02, 5.69846993e-03,
       -4.38748073e-04, 1.89674944e-02, -5.26958704e-03, 1.30026191e-02,
       1.41937111e-03, 3.51334061e-03, -2.61780946e-03, 1.12621151e-02,
       1.07670585e-02, -2.65133544e-03, 6.60041301e-03, 6.38637925e-04,
       1.09672127e-02, -6.26968918e-03, -3.64151900e-03, -3.05725681e-03,
       1.07364617e-02, 1.11586247e-02, 4.00852133e-03, 1.03359064e-02,
       3.81890917e-04, 2.02772133e-02, 2.52969493e-03, -3.94853204e-03,
       -6.61449449e-04, 2.39277128e-02, 5.57687087e-03, 4.45481203e-03,
       1.49629982e-02, 3.11452919e-03, 3.41781937e-02, -3.98141425e-03,
       -8.91149230e-03, -5.85095352e-03, 4.58605215e-03, 1.37909055e-02,
       1.35481695e-03, 5.57229389e-03, 8.85580725e-04, 2.02465728e-02,
       -6.10136474e-03, 2.97288294e-03, 3.67143704e-03, 1.51657360e-02,
       1.56187816e-02, 1.12378746e-02, 1.39081627e-02, -7.60152843e-03,
       1.97759736e-02, -8.88308883e-03, 7.41643226e-03, 3.37454636e-04,
       1.39451558e-02, 1.23649864e-02, 4.44315793e-03, 1.04580801e-02,
       -1.04286079e-03, 3.55500355e-02, -2.68241623e-03, 5.05207246e-03,
       3.78970359e-03, 1.03663476e-02, 1.27690705e-02, -1.78931921e-03,
       7.65423803e-03, -9.28031374e-03, 1.21423434e-02, -1.68187860e-02,
       1.28501989e-02, 4.85459203e-03, 1.27161117e-02, 1.20553197e-02,
       1.07167624e-02, 1.58740971e-02, -1.13688572e-03, 2.47406270e-02,
       -1.39318565e-02, 3.78547260e-03, 2.21049692e-03, 1.33671649e-02,
       6.52066432e-03, 1.17095781e-03, 1.02129010e-02, 1.15948683e-03,
       2.21359860e-02, -8.87088478e-03, 1.51632680e-02, 4.97318618e-03,
       9.39283520e-03, 1.20664425e-02, 3.16631212e-03, 1.16619328e-02,
       -5.07628545e-03, 1.81262158e-02, -1.76771209e-02, 2.00653821e-03,
       -5.18661644e-03, 1.16395820e-02, 8.23792256e-03, 6.31537056e-03,
       9.57190711e-03, -9.48723033e-03, 3.35676074e-02, -4.30166861e-03,
       1.14419525e-02, -3.27984244e-03, 9.01964679e-03, 5.11624757e-03,
       -3.51297646e-03, 2.12117401e-03, -2.97487690e-03, 1.52225727e-02,
       -3.47337686e-03, 1.06449556e-02, 3.49766854e-03, 9.47730150e-03,
       6.05445029e-03, 9.05198569e-04, 1.19828004e-02, -1.37673618e-04,
       2.43757982e-02, -3.79645056e-03, 8.40873271e-03, 8.13390128e-03,
       1.08128134e-02, 3.03693465e-03, 1.54240301e-03, 5.73919388e-04,
       -1.31919710e-02, 3.07690669e-02, -5.02658170e-03, 6.43797545e-03,
       -8.54110345e-03, 2.01367051e-03, 4.79334872e-03, -1.14524050e-03,
       1.37196099e-02, -1.07410401e-02, 4.47860770e-02, -7.74742104e-03,
       6.09313743e-03, -1.25897117e-03, 8.84634536e-03, 3.83956661e-03,
       -7.42561591e-04, 1.13858040e-02, -6.27184892e-03, 1.36637297e-02,
       -2.38075666e-03, 2.97047634e-04, 3.31307715e-03, 7.50038261e-03,
       2.92944303e-03, 7.45787611e-03, 1.76756196e-02, -8.21505394e-03,
       2.64582206e-02, -4.68150387e-03, 6.06411463e-03, 3.81789100e-03,
       5.96484914e-03, -6.44694082e-04, -4.27598087e-03, 6.92623295e-03,
       -1.68301538e-02, 2.74760481e-02, -1.30363423e-02, -1.06232986e-02,
       2.33198545e-04, 7.75289768e-03, -5.88650210e-03, -7.25405430e-03,
       8.86737183e-03, -1.21045699e-02, 3.34516913e-02, 3.48000065e-03,
       1.22483345e-02, 8.05668812e-03, 3.12192529e-03, 1.27118342e-02,
       -1.05983978e-02, 9.86210629e-03, -4.06127656e-03, -1.68451283e-03,
       -3.11619919e-02, -2.83713955e-02, -1.47575829e-02, 2.72808168e-02,
       9.55457892e-03, -1.82138812e-02, -3.46009643e-03, -1.05784265e-02,
       1.84176788e-02, -1.97719894e-02, -2.34873090e-02, -2.53200885e-02,
       2.87853684e-02, 2.22004894e-02, -8.63082800e-03, 7.31604500e-03,
       -1.75056269e-03, 7.93866161e-03, -3.29257660e-02, -3.79346721e-02,
       -7.54848216e-03, 6.02114685e-02, 2.18517724e-02, -6.98127039e-03,
       1.52081298e-02, 4.09044744e-03, 2.31405683e-02, -2.48041693e-02,
       -2.63884682e-02, 6.04791706e-03, 6.20966889e-02, -1.24338260e-02,
       -1.95743814e-02, -1.59386285e-02, -5.57418773e-03, 4.69955569e-03,
       -1.64577588e-02, -2.79114768e-02, -1.20185334e-02, 1.57119967e-02,
       -1.89525690e-02, -1.08556468e-02, -1.06970062e-02,
       -4.84285690e-03, 4.16208245e-03, -1.67063624e-02, -2.27773041e-02,
       -1.20244240e-02, -4.38102009e-03, 3.81450122e-03, -1.58953071e-02,
       -9.59968602e-04, -5.84458839e-03, 5.04823402e-03, -1.86660513e-02,
       -2.77715642e-02, 1.27646197e-02, 5.25202416e-02, 2.52496637e-03,
       4.70621604e-03, 5.29384566e-03, -7.48814968e-03, 1.13573950e-02,
       -1.81703102e-02, -2.04360951e-02, 1.18286042e-02, 3.55437025e-02,
       -1.09605985e-02, -1.18954377e-02, -7.27561582e-03,
       -8.54739174e-03, 4.74186800e-03, -4.68010781e-03, -1.25465086e-02,
       -2.95212795e-03, -5.53378509e-03, -7.82776810e-03,
       -8.11388995e-03, -1.34652411e-03, -8.42199661e-03, 6.19933335e-03,
       -1.24108642e-02, -2.79232562e-02, -2.16118582e-02,
       -1.60413105e-02, 7.05617154e-03, 1.29486676e-02, 4.12234600e-04,
       -2.45888415e-03, 1.19693941e-02, -1.11089638e-02, -9.22399852e-03,
       7.92760495e-03, 1.78501830e-02, 7.11269630e-03, 9.98194423e-03,
       3.33692506e-03, -3.24139930e-03, 1.17709888e-02, -1.69346255e-04,
       -1.64846797e-02, -4.38200834e-04, 1.11204088e-02, 2.35092972e-04,
       -1.95606099e-03, -2.10823258e-03, -1.58507703e-03,
       -1.65249070e-03, -8.35493114e-03, -2.42725182e-02,
       -1.60231628e-02, -1.30867176e-02, -9.96165443e-04,
       -1.55193824e-02, -2.34789983e-03, -7.49544799e-03,
       -8.75383988e-03, -1.07721826e-02, -1.06636947e-02,
       -7.04108644e-03, -7.53313128e-04, 1.18213585e-02, 7.13117514e-03,
       1.99017767e-03, -5.66284219e-03, 1.46216089e-02, 1.93723862e-03,
       -1.04536507e-02, -1.88183825e-04, 9.56568494e-03, 1.75191332e-02,
       1.14869010e-02, 1.88036226e-02, 6.11548545e-03, 8.07240047e-03,
       -7.29019614e-03, -1.55326249e-02, 4.01489716e-03, 1.90396551e-02,
       -4.19183448e-03, -1.45310191e-02, 2.72538688e-04, -6.22365810e-03,
       -2.16321591e-02, -6.88704709e-03, -4.06735763e-03, 2.16631521e-03,
       -1.13738631e-03, 1.12946313e-02, 1.07767340e-02, -2.57807504e-03,
       3.77163221e-03, -7.93080777e-03, -3.29714757e-03, -7.65012531e-03,
       9.55253083e-04, -1.07099591e-02, 5.22486633e-03, 6.73910324e-03,
       1.64597165e-02, 8.29580519e-03, -1.40605690e-02, -1.70146618e-02,
       -1.18426634e-02, 7.62917334e-03, 8.43617227e-03, 3.53334770e-02,
       3.59300673e-02, 1.32156508e-02, 1.00949705e-02, -1.71910357e-02,
       -7.73406075e-03, -6.20260509e-03, 7.12476345e-03, 1.05800573e-02,
       4.92516207e-03, 3.94913182e-03, -2.31607747e-03, 1.03945157e-03,
       -1.13684740e-02, -5.15861297e-03, -8.79949518e-03,
       -1.30533078e-03, -6.20356482e-03, 1.93501590e-03, 8.77680723e-04,
       9.01913829e-03, -1.54340771e-04, -2.02789661e-02, -3.10825417e-04,
       -6.88615302e-03, -5.78623591e-03, -4.33449540e-03, 3.20060179e-02,
       2.17312686e-02, 1.32338598e-03, 2.04420090e-03, -1.65844169e-02,
       5.98473800e-03, 4.69411211e-03, 7.83876050e-03, 1.15340846e-02,
       2.62463950e-02, 9.29877814e-03, -1.47203752e-03, -2.50792922e-03,
       -4.56836075e-03, 7.84264319e-03, -3.79995001e-03, 7.48461904e-03,
       1.85836144e-02, 1.57691296e-02, -1.72949838e-03, 1.35215628e-03,
       -6.14585180e-04, -1.31196640e-02, 2.46805750e-04, -8.98959953e-03,
       8.33655242e-03, 1.00485021e-02, 1.43025406e-02, -1.49864592e-02,
       -1.72978491e-02, -1.05843535e-02, -8.12765304e-03,
       -9.99163371e-03, -2.11940780e-02, 1.18064117e-02, 1.95268970e-02,
       1.79524254e-02, 2.77954433e-03, -5.25091263e-03, -1.25010661e-03,
       3.90501181e-03, 1.79276131e-02, 1.17780699e-03, 1.53546939e-02,
       3.24555971e-02, 2.93852296e-02, 1.48266135e-03, -9.66972765e-03,
       -8.01110547e-03, 1.25020905e-03, 6.52771909e-03, -1.57101769e-02,
       1.86696015e-02, 4.15253006e-02, 1.27493981e-02, -1.06065758e-02,
       -1.44667644e-02, -6.98828232e-03, -4.77397675e-03,
       -1.11502409e-02, -1.39149576e-02, 1.38017442e-02, 2.26749275e-02,
       4.58284048e-03, -6.05863705e-03, -1.68599952e-02, -6.11563306e-03,
       -5.63300354e-03, -6.85396045e-03, -1.58521347e-02, 8.44199676e-03,
       1.44178225e-02, 2.18515899e-02, 1.27266321e-04, -6.74682483e-03,
       7.01704295e-04, 2.39129900e-03, 6.35983143e-03, -3.42379557e-03,
       2.70556919e-02, 4.19026576e-02, 2.30534654e-02, -4.31998807e-04,
       -1.10611161e-02, 1.77427114e-03, 2.58430839e-03, 5.08072460e-03,
       -7.66955037e-03, 2.17526369e-02, 3.52795459e-02, -1.99732443e-04,
       -3.18531762e-03, -1.31151201e-02, -4.73080552e-04, 5.84801054e-03,
       -4.05035214e-03, -9.18340404e-03, 1.16354534e-02, 1.03855403e-02,
       -1.17119290e-02, -1.11890202e-02, -9.16576106e-03,
       -4.53159306e-03, 8.12288187e-03, -1.37046622e-02, -1.01748472e-02,
       9.23259277e-03, -1.33416371e-03, 1.63135212e-02, 6.24941941e-03,
       -8.24573729e-03, 8.50955676e-03, 1.08672390e-02, 2.66451808e-03,
       -1.88080815e-03, 2.14413311e-02, 3.04004233e-02, 4.64649405e-03,
       8.56688619e-03, 9.18317400e-03, -1.72045687e-03, 1.24852825e-03,
       -4.93160728e-03, 1.07615972e-02, 1.52571416e-02, 1.09033938e-02,
       -6.68082200e-03, -4.76499554e-03, -3.66408727e-03,
       -1.26282172e-02, 1.51753090e-02, -1.13674952e-02, -1.00460090e-02,
       3.81425931e-03, 3.47015308e-03, 5.62685262e-03, -4.26863553e-03,
       -1.47136692e-02, -1.25916069e-02, -1.43217610e-03,
       -7.71513558e-04, -6.06458355e-03, -2.18858686e-03, 1.40236346e-02,
       5.10402443e-03, 2.30597742e-02, 2.04491541e-02, -5.23887901e-03,
       9.19097289e-03, 2.00899900e-03, 1.48568349e-02, 1.56055391e-02,
       5.50047774e-03, 3.85961356e-03, 5.11778845e-03, 3.80803016e-03,
       -1.42716831e-02, 5.88110008e-04, 1.91084947e-03, 5.44050150e-03,
       1.77699532e-02, 9.77561064e-03, 2.17183325e-02, 8.71909689e-03,
       -4.89056692e-04, -1.82316115e-03, 1.78468060e-02, 5.54946810e-03,
       2.37342343e-03, 1.74903423e-02, 2.59375907e-02, 1.21225286e-02,
       3.25992401e-03, 4.64351149e-03, -9.44990490e-04, 2.29064431e-02,
       -1.31658297e-02, -7.27223931e-03, 3.61517188e-04, 1.14780990e-02,
       1.73105802e-02, 7.25289620e-03, 4.62619215e-03, -9.74818598e-03,
       1.89279784e-02, 6.10817876e-03, 2.40190979e-02, 3.13939638e-02,
       1.89515762e-02, 1.00483641e-03, -1.49853006e-02, -7.10773002e-03,
       -1.20181078e-02, 2.33075079e-02, -2.14783940e-02, 3.83292162e-03,
       8.34246818e-03, 8.20055604e-03, 1.75866857e-02, 5.03834616e-03,
       7.00828293e-03, 3.48827016e-04, 3.21528018e-02, -1.13105858e-02,
       9.16835037e-04, 9.97212809e-03, 2.09432021e-02, 1.91461984e-02,
       -5.00325300e-03, -7.04560138e-04, -7.55382329e-03, 2.21226513e-02,
       -1.95587911e-02, 1.24362111e-02, 1.09575912e-02, 2.26861201e-02,
       2.30262661e-03, -7.43017113e-03, 6.50254544e-04, -3.53287044e-03,
       3.05966884e-02, -1.16194794e-02, 8.29853490e-03, 1.34932119e-02,
       1.36686964e-02, 7.35537522e-03, -5.58705628e-03, 1.05719817e-04,
       -7.00089103e-03, 2.16246080e-02, -1.79031491e-02, 1.18512129e-02,
       3.07834800e-03, 1.71886962e-02, 2.10092291e-02, 5.12487954e-03,
       5.14868507e-03, -8.45372118e-03, 1.46576595e-02, -1.72659159e-02,
       8.44777096e-03, 2.44033430e-03, 1.81685314e-02, 1.93568561e-02,
       1.02049792e-02, 4.24924120e-03, -6.55664178e-03, 1.74718294e-02,
       -1.59940869e-03, 9.54356510e-03, 3.01405624e-03, 1.61257088e-02,
       1.24033364e-02, 5.48133440e-03, 1.09662618e-02, -2.61777663e-03,
       1.26503473e-02, -1.70027111e-02, 7.43475324e-03, -2.35136366e-03,
       1.47857005e-02, 9.46694799e-03, 3.97824356e-03, 9.60548874e-03,
       -3.05672060e-04, 2.72677969e-02, 4.24413895e-03, 9.97030828e-03,
       4.69922833e-03, 1.89627856e-02, 1.15094194e-02, 6.69323979e-03,
       7.11820135e-03, -1.65292737e-03, 2.34654658e-02, -4.35961550e-03,
       7.91037641e-03, -1.93356501e-03, 1.15450304e-02, 8.24734941e-03,
       -5.74448286e-03, 1.04356622e-02, -1.10633224e-02, 3.78592424e-02,
       -5.70630468e-03, 4.03706962e-03, 8.18091352e-03, 1.73543505e-02,
       1.10750142e-02, 5.01458440e-03, 1.25416806e-02, 9.23993066e-05,
       1.62384305e-02, 3.70495161e-03, 7.02755898e-03, -3.04495543e-03,
       1.67398117e-02, 1.21005261e-02, -2.12563411e-03, 1.19885923e-02,
       -1.21535836e-02, 1.98102370e-02, 2.72092922e-03, 2.17548087e-02,
       8.67112074e-03, 1.63389686e-02, 6.46345550e-03, -1.06580593e-02,
       2.98061501e-03, -1.37395365e-02, 2.83391681e-02, -5.81870414e-03,
       -1.76819775e-03, 8.09993874e-03, 1.20829381e-02, 5.30304713e-03,
       -9.79927648e-03, 7.37994164e-03, -8.92851874e-03, 3.80114168e-02,
       -2.52849702e-03, 1.54839605e-02, 1.07709151e-02, 6.55841222e-03,
       3.39784357e-03, -1.03973784e-02, -4.38592222e-04, -1.38896517e-02,
       2.02869792e-02, -1.80669199e-03, 6.96032448e-03, 8.78001656e-03,
       3.13736522e-03, 1.84182439e-03, 3.05293640e-03, -2.31966173e-04,
       -1.30820526e-02, 5.50147630e-02, -5.27553679e-03, 1.71854291e-02,
       1.60236247e-02, -2.50171265e-03, -4.03778831e-04, -1.53952455e-02,
       -1.41217001e-03, -4.90254862e-03, 7.10375188e-03, -1.91893857e-02,
       -2.89133135e-02, -7.20189977e-03, 3.26400585e-02, -4.63428348e-03,
       -1.39103103e-02, 5.39187761e-03, -1.49314944e-03, 1.97482575e-02,
       -1.06756305e-02, -1.81734134e-02, 7.44140474e-04, 2.72656549e-02,
       2.42630914e-02, -3.31618986e-03, 1.15673449e-02, 3.82666942e-03,
       9.84579604e-03, -3.06318477e-02, -3.12506333e-02, -1.35925589e-02,
       2.81522144e-02, 1.22200046e-02, -2.23620003e-03, 8.04417022e-03,
       6.97146915e-03, 2.17054002e-02, -1.58519484e-02, -2.56128050e-02,
       -1.05206743e-02, 2.85846107e-02, -1.68852471e-02, -1.86829939e-02,
       -9.44308005e-03, -1.43965408e-02, -3.09429714e-03,
       -1.12095075e-02, -2.90045720e-02, -4.91997600e-03, 1.92785598e-02,
       -1.67349204e-02, -1.31440004e-02, -1.02616139e-02,
       -1.06782056e-02, -1.86450212e-04, -1.46534583e-02,
       -2.68419813e-02, -7.78174447e-03, 9.37122200e-03, -4.98162000e-04,
       -1.68446905e-03, 8.30526464e-04, -5.23157697e-03, 1.46958465e-03,
       -1.17360912e-02, -3.04176006e-02, -1.78395510e-02, 1.50637208e-02,
       3.89130367e-03, 2.62568996e-04, 1.62387304e-02, 1.83225926e-02,
       8.29207525e-03, -5.59110288e-03, -3.52339484e-02, -1.65090747e-02,
       1.81004032e-02, -1.68546028e-02, -1.67257152e-02, -2.07547508e-02,
       -8.48583225e-03, -5.32777095e-03, -9.20661539e-03,
       -1.02705648e-02, 6.65200059e-04, 1.98528217e-03, -1.92402489e-02,
       -1.85656510e-02, -2.26126108e-02, -1.20618287e-02,
       -8.99597723e-03, -5.96675137e-03, -1.99150909e-02,
       -1.31755667e-02, -1.04857208e-02, -6.45013107e-03,
       -1.37153808e-02, 5.46268001e-03, 1.70545857e-02, 5.15836850e-03,
       9.29566158e-04, -1.43183218e-02, 8.41745827e-03, 2.27781665e-02,
       -1.45347621e-02, -1.51242232e-02, -4.44176653e-03, 1.78316655e-03,
       -2.59020366e-03, -6.80761086e-03, -1.35202873e-02, 5.38305659e-03,
       1.60297696e-02, -1.57459714e-02, -1.14771528e-02, -1.32294018e-02,
       -9.84456204e-03, 1.00460118e-02, 2.29917676e-03, -1.97332501e-02,
       -1.06217582e-02, -3.18073411e-03, -1.06993476e-02,
       -1.23265451e-02, -8.92972457e-04, 9.32164985e-05, 6.47421984e-04,
       -1.93102602e-02, -2.88126431e-02, -7.87465088e-03,
       -6.54544309e-03, -1.29667129e-02, -1.97442714e-03,
       -6.06177747e-03, 2.68410717e-04, 1.11453924e-02, -7.84492958e-03,
       -1.34818843e-02, 1.16237148e-03, 1.54882837e-02, -6.75386004e-03,
       -3.28978850e-03, 5.75277535e-03, 2.01923363e-02, 1.49599286e-02,
       -2.10684910e-02, -2.15720106e-02, 1.35648632e-02, 1.55010307e-02,
       -2.03292631e-02, -2.00216752e-02, -2.71772267e-03, 3.28347390e-03,
       -9.34090000e-03, -1.93712320e-02, -1.24707213e-02, 6.27768598e-03,
       -6.46892376e-03, -1.12917973e-03, -6.54248009e-03,
       -9.16588120e-03, -3.02825589e-03, -3.02811004e-02,
       -1.53946811e-02, -8.06334056e-03, 2.15081242e-03, -6.75958395e-03,
       -5.36708068e-03, -2.80708969e-02, -7.98896421e-03, 1.31963976e-02,
       -2.49392167e-03, -8.54831934e-03, -9.64531384e-04, 1.84961818e-02,
       1.18275015e-02, 2.14220174e-02, -1.33348238e-02, -8.81024916e-03,
       7.27730338e-03, -2.78956797e-02, -5.27360768e-04, 1.35659631e-02,
       2.73803528e-02, 1.99648365e-02, 6.45975303e-03, -4.19638259e-03,
       -2.11660285e-02, -9.66116879e-03, -3.34092528e-02,
       -2.38876883e-03, 1.54921436e-04, 1.10329846e-02, 3.25631537e-03,
       -6.15629135e-04, -3.97014804e-03, -3.06376908e-02,
       -1.27812577e-02, -3.22663188e-02, -1.23979272e-02,
       -1.30550675e-02, 3.90050001e-03, -2.01945868e-03, 1.07626636e-02,
       -2.97649880e-03, -1.09139811e-02, -4.10514185e-03,
       -4.18902412e-02, 2.08247616e-03, 1.45030851e-02, 2.69327816e-02,
       1.17780901e-02, 1.49712097e-02, 7.47379381e-03, -2.19696481e-02,
       -3.25374492e-03, -3.53815779e-02, -3.03552253e-03,
       -1.91301209e-04, 1.15179680e-02, 1.25590013e-02, 4.56627567e-05,
       -5.02344826e-03, -2.49406230e-02, -1.27746789e-02,
       -2.78293043e-02, 2.02897820e-03, -9.85606946e-03, 1.09580783e-02,
       2.29658792e-03, 1.03095826e-02, -8.70118756e-03, -2.76479870e-02,
       -1.45907355e-02, -3.66214365e-02, -4.16208804e-03,
       -2.89730970e-02, -5.79249207e-03, 1.47108976e-02, 1.34336641e-02,
       1.01192074e-03, -1.50433928e-02, 9.05432366e-03, -1.99008808e-02,
       1.24920728e-02, 1.41252782e-02, 1.13279959e-02, 3.04390234e-03,
       2.84902602e-02, 1.19202677e-02, 6.90365501e-04, 2.59339958e-02,
       -1.58593003e-02, 1.47121269e-02, -1.43609988e-02, -4.70312359e-03,
       7.63726095e-03, 5.50988596e-03, -1.30528128e-02, -2.27347929e-02,
       -7.35651888e-03, -2.13055443e-02, 7.23778876e-03, -2.19011251e-02,
       6.06495282e-03, 1.67002846e-02, 4.36211564e-03, -1.26995938e-02,
       -3.43259498e-02, -7.39898765e-03, -2.12922227e-02,
       -7.98985455e-03, -2.51825601e-02, 2.57531437e-03, 1.33953746e-02,
       2.84319501e-02, 1.23317176e-02, -1.26403579e-02, 1.42651852e-02,
       -5.36762876e-03, 2.98652947e-02, -9.09166597e-03, 7.10116513e-03,
       1.58294234e-02, 1.76397078e-02, 3.90589074e-03, -3.40705104e-02,
       5.83445514e-03, -1.91981159e-02, 1.14945462e-02, -2.60053645e-03,
       1.35792270e-02, 3.03832665e-02, -2.32451330e-05, 8.47594463e-04,
       -2.12465562e-02, -5.27432142e-03, -1.88219398e-02,
       -1.25188287e-02, -2.03344580e-02, 6.69494271e-03, 7.24630803e-03,
       -2.48763640e-03, 5.43816481e-03, -6.02864427e-03, -8.98880791e-03,
       -3.36470045e-02, -1.57986190e-02, -1.63268037e-02,
       -8.41827411e-03, -2.38882680e-03, 2.07469519e-02, 1.00379279e-02,
       -2.54309047e-02, 6.92479545e-04, -2.35413574e-02, 7.19787320e-03,
       1.35493316e-02, 2.79819742e-02, 2.51525249e-02, 2.23718435e-02,
       4.42527933e-03, -1.69993211e-02, -1.55084254e-02, -3.98355201e-02,
       -1.89183070e-03, -1.35501735e-02, 1.90210734e-02, 2.62195542e-02,
       1.28917703e-02, 2.35214829e-02, 1.50492350e-02, -1.46659941e-03,
       -1.47711169e-02, -4.30410309e-03, -5.56174200e-03, 1.05605386e-02,
       9.87585075e-03, -3.08522373e-03, 7.81870820e-03, 1.12160086e-03,
       -1.42541565e-02, -2.26699505e-02, -1.82594582e-02,
       -1.82001237e-02, 9.66147345e-04, -6.50215021e-04, 2.90962253e-02,
       1.33638214e-02, 7.41031766e-03, -8.15939717e-03, -1.46291927e-02,
       5.48775960e-03, -8.62499420e-03, 1.37022035e-02, 3.69199626e-02,
       1.58253815e-02, 5.35074389e-03, -4.04557679e-03, -1.39074866e-02,
       -1.29059153e-02, -4.52794862e-04, -1.75479837e-02,
       -9.09787416e-03, 1.76912006e-02, 1.54750217e-02, 6.75074058e-03,
       7.29766022e-03, -7.27764657e-03, 2.45873071e-03, -2.55656056e-03,
       1.07207859e-03, 1.52938422e-02, 1.29328920e-02, -5.78569761e-03,
       -1.50006227e-02, -7.60987867e-03, -1.89790837e-02,
       -4.62714164e-03, -2.02596840e-02, -1.74375903e-02, 3.69460066e-03,
       -1.26718264e-03, 2.57097334e-02, 1.26264449e-02, 1.28142769e-02,
       9.86238196e-03, 2.10216716e-02, 1.75802074e-02, 2.58592004e-03,
       1.75016671e-02, 3.21395770e-02, 7.96357449e-03, -8.09477363e-03,
       -7.02609122e-03, -6.53497595e-03, 1.13229686e-03, 1.91368675e-03,
       -4.56165383e-03, 2.08693650e-02, 1.42972236e-02, 1.57536386e-04,
       -6.99505955e-03, -2.41311453e-03, -7.98044261e-03, 9.32563003e-03,
       -6.29785890e-03, 4.26882831e-03, 1.14252781e-02, 8.25133733e-03,
       8.13158695e-03, -1.87480834e-03, -5.35689015e-03, -1.30068967e-02,
       -3.90344951e-03, -8.29253346e-03, 7.59699382e-03, -3.11376178e-03,
       8.28474015e-03, 1.62301529e-02, 2.20317976e-03, 6.73925679e-04,
       2.54797493e-03, 1.13221025e-02, 6.51218975e-03, 1.47864809e-02,
       3.01414933e-02, 3.07375733e-02, 2.45988127e-02, 2.06758287e-02,
       4.44748148e-04, -9.20477975e-03, -7.94316269e-03, -2.72657163e-03,
       9.90190078e-03, 6.19793311e-03, 2.40396205e-02, 5.28663164e-03,
       5.78974653e-03, 4.26889351e-03, -1.06986919e-02, -9.03695007e-04,
       -7.82548171e-03, 1.41227699e-03, 1.92120881e-03, 1.19901188e-02,
       -4.63638548e-03, -5.18363761e-03, 4.92958864e-03, -1.90106756e-03,
       2.34791227e-02, 2.91541195e-03, 1.10898167e-02, 1.57758910e-02,
       1.35156019e-02, 1.80457458e-02, 2.05483716e-02, 4.64637810e-03,
       -1.37449615e-02, 4.75320034e-04, 3.05485376e-03, 1.29392445e-02,
       1.14458213e-02, 2.02713851e-02, 4.33133589e-03, 1.03555724e-03,
       5.03449794e-03, -6.05763588e-03, 2.54106261e-02, 1.06533896e-02,
       1.48095386e-02, 1.43198362e-02, 1.58804823e-02, -3.20377178e-03,
       -4.51284507e-03, 3.11362976e-03, -4.62561380e-03, 1.89877525e-02,
       8.47009651e-04, 1.37202479e-02, 1.23372786e-02, 5.87010849e-03,
       4.11451748e-03, -3.38001410e-03, 5.47595276e-03, -1.38878291e-02,
       1.56291705e-02, -1.56364928e-03, 2.74527781e-02, 7.25661917e-03,
       4.24580090e-03, 6.15934667e-04, -1.02704065e-03, 1.90838496e-03,
       -1.57325435e-03, 2.26201825e-02, -3.35299806e-03, 1.04463976e-02,
       9.64490790e-03, 1.49146467e-03, 1.24856224e-02, 4.83333366e-03,
       7.53706321e-03, -1.40273226e-02, 1.64642576e-02, -8.87474976e-03,
       9.56055056e-03, 6.08403469e-03, 1.20976204e-02, 3.95080401e-03,
       -5.45999268e-03, 1.44538539e-03, -1.53771266e-02, 1.13075459e-02,
       4.75724344e-04, 1.72140189e-02, 5.30775590e-03, 2.12939293e-03,
       3.17095872e-03, 8.36458057e-03, 5.89123368e-03, -1.14286300e-02,
       3.52860950e-02, -4.09952132e-03, 1.03144990e-02, 3.97164561e-03,
       8.18158660e-05, 1.95261743e-02, 9.76046454e-03, 1.07438648e-02,
       -1.09674223e-02, 1.08796582e-02, -5.47312200e-03, 2.34990683e-03,
       -3.18543683e-03, 1.56261269e-02, 1.33121246e-02, 1.22857150e-02,
       1.19157201e-02, 6.67735061e-04, 2.82030441e-02, 6.34028809e-03,
       3.79220746e-03, 1.47983769e-03, 1.52995400e-02, 7.29923323e-03,
       -1.10268351e-02, 3.85284144e-03, -5.53473365e-03, -1.34354737e-02,
       -2.54922267e-02, -3.70417014e-02, -1.94255393e-02, 9.70567111e-03,
       2.11572414e-03, -1.60591491e-02, -6.76688878e-03, -7.08833896e-03,
       -1.19082881e-02, -2.10867040e-02, -3.45132388e-02,
       -2.27672867e-02, -1.49122626e-03, 2.09153593e-02, 7.00042234e-04,
       9.07520484e-03, -9.25901439e-03, -1.97578780e-02, -2.48890836e-02,
       -2.71423254e-02, 7.66005227e-03, 5.44931069e-02, 1.15518169e-02,
       9.32616531e-04, 1.73986647e-02, 1.66939478e-02, -1.73953327e-03,
       -2.43448634e-02, -2.70729624e-02, 9.45383683e-03, 3.32047865e-02,
       -1.11871539e-02, -1.05979610e-02, -1.25752306e-02,
       -6.45105680e-03, -1.47305364e-02, -1.24998465e-02,
       -2.10135616e-02, -2.22508274e-02, -6.30298536e-03,
       -7.18904752e-03, -5.70809050e-03, 5.78450272e-03, 1.45763773e-02,
       -8.68965406e-03, -6.38902420e-03, -3.32234688e-02,
       -2.54285894e-02, -7.21781095e-03, 7.73217948e-03, 8.65902379e-03,
       9.84528102e-03, 1.32908728e-02, -1.47840744e-02, -1.39570013e-02,
       -1.63225494e-02, 2.35957932e-03, 1.05049638e-02, 1.78429037e-02,
       1.23033924e-02, 2.40712855e-02, 1.87920313e-02, 2.08431948e-03,
       -4.22335090e-03, -1.96775906e-02, -1.35950539e-02, 1.24654705e-02,
       -1.11937346e-02, -3.87732266e-03, 6.34962413e-03, 2.54088137e-02,
       4.92547522e-04, 3.31266178e-03, -1.94050521e-02, -1.11458777e-02,
       1.07816234e-03, -2.25957539e-02, -2.41489727e-02, -1.14568910e-02,
       4.87564597e-03, -4.10276046e-03, -1.66665809e-03, -2.03542598e-02,
       -1.11254705e-02, -1.82651251e-03, 1.72542152e-03, 8.96447618e-03,
       1.74062178e-02, 2.52199415e-02, 5.01356600e-03, 1.27721782e-04,
       -2.04651970e-02, -1.37987435e-02, 1.38188330e-02, -9.94929858e-03,
       -2.10915748e-02, -8.92573677e-04, 1.44392569e-02, 1.12069426e-02,
       4.43238160e-03, -1.52911507e-02, -5.19544212e-03, 4.24078153e-03,
       -1.37586640e-02, -8.59290268e-03, -8.46279506e-03,
       -3.26150749e-03, -8.77821073e-03, -8.54827405e-04,
       -1.04867714e-02, -3.87901696e-03, 8.99968483e-03, -1.04341079e-02,
       -1.55296763e-02, -2.29944456e-02, -9.22787562e-03,
       -8.33368022e-03, -5.84974419e-03, -1.27910683e-02, 9.02292598e-03,
       6.90432265e-03, 2.64679408e-03, -9.25785396e-03, -9.54137091e-03,
       7.27965776e-03, 8.24207254e-03, -1.25594903e-04, -7.46705802e-03,
       -1.37901318e-03, 1.44532062e-02, 1.21181337e-02, -9.10122413e-04,
       -2.17987206e-02, -1.37461806e-02, -1.77915469e-02, 2.58535799e-03,
       -1.42675415e-02, 1.26543315e-02, 1.07324766e-02, -1.18841371e-02,
       -3.35005783e-02, -2.62374394e-02, -5.54072484e-03,
       -5.17710252e-03, 3.98985576e-03, -1.82768772e-03, 1.69782396e-02,
       8.03895853e-03, 1.27966702e-03, -3.42517197e-02, -1.45450858e-02,
       -5.70397766e-04, -2.81157698e-02, 1.12387445e-03, 4.42968495e-03,
       1.67087540e-02, 1.43711306e-02, -3.33981914e-03, -2.04147995e-02,
       -2.98946854e-02, -8.43513012e-03, -1.51678482e-02, 5.16295619e-03,
       -1.69076247e-03, 1.77513342e-02, 3.14263394e-03, -1.15568331e-02,
       -2.88884155e-02, -8.23999662e-03, 1.71104595e-02, -1.17714927e-02,
       1.57312881e-02, 5.94421523e-03, 2.02949736e-02, 5.61327999e-03,
       -9.16257408e-03, -2.53768303e-02, -1.98500473e-02,
       -5.43414894e-03, -3.24054696e-02, 9.88378655e-04, 9.29075480e-03,
       2.16277707e-02, 3.44423018e-03, -5.33842482e-03, -1.58824641e-02,
       -2.28208192e-02, -2.33274256e-03, -2.30330843e-02,
       -1.44077768e-03, -7.86857214e-03, 1.19598014e-02, -3.43344337e-03,
       -1.41508011e-02, -4.25950363e-02, -2.41683889e-02,
       -2.38711690e-03, -1.66976769e-02, 1.10758767e-02, 8.04631505e-03,
       1.39495032e-02, 4.26067365e-03, 1.42367603e-02, -1.78407226e-02,
       -1.01943519e-02, 6.86868001e-03, -4.57679707e-04, 2.07562894e-02,
       -9.55437217e-03, 4.47219843e-03, 1.64345466e-02, -5.55991754e-03,
       -2.45523844e-02, -2.43629999e-02, 2.74852081e-03, -1.73743460e-02,
       4.47918708e-03, -3.45440651e-03, -1.52391556e-03, -1.29476450e-02,
       -1.74035528e-03, -2.01319810e-02, -1.96570233e-02, 1.43592749e-02,
       -1.06040556e-02, 1.18133398e-02, -3.36353406e-02, -2.42409706e-02,
       -1.77273881e-02, 9.60284378e-03, -1.69936866e-02, -1.67724695e-02,
       6.51326170e-03, 1.45474263e-03, 2.76836976e-02, -1.57691576e-02,
       -9.64868115e-04, 4.96314745e-03, 1.92672051e-02, -1.14153251e-02,
       -3.46699581e-02, 1.24167269e-02, -5.62650710e-03, 3.17580998e-02,
       -2.06534956e-02, -1.41416304e-02, 3.59712308e-03, 6.67926203e-03,
       -9.35031939e-03, -1.55549487e-02, 6.55066408e-03, -6.25025760e-03,
       2.44695600e-02, -1.36319315e-02, -1.24428906e-02, -5.84216788e-03,
       -2.51410552e-03, -1.52510284e-02, -3.67276035e-02,
       -7.73729756e-04, -1.30905537e-02, 1.05475765e-02, -2.04340760e-02,
       -5.69099188e-03, -3.91544495e-03, 3.13288532e-02, -4.22866922e-03,
       -3.39271091e-02, 7.89603125e-03, 6.00554002e-03, 4.37627286e-02,
       -1.16581284e-03, 4.25473263e-04, 1.93386115e-02, 1.93125363e-02,
       -1.74969397e-02, -5.40751629e-02, -2.26695603e-03,
       -2.34717666e-03, 2.92745605e-02, -1.73728559e-02, -6.91590924e-03,
       1.21182920e-02, 1.74584854e-02, 2.50606844e-03, -2.32009776e-02,
       3.69911618e-03, 2.51394836e-03, 2.20390931e-02, 5.21820737e-03,
       1.20525593e-02, 8.11882876e-03, 1.35747239e-03, -1.14373760e-02,
       -2.74487492e-02, -1.19241374e-02, -1.59887690e-02, 1.24623477e-02,
       -1.97382215e-02, 4.47037769e-03, 3.50403623e-03, 2.44086348e-02,
       -9.27025685e-05, -2.65167691e-02, 1.68454368e-02, 1.59752183e-02,
       4.63122092e-02, -1.10008707e-03, -2.08512996e-03, 1.97981694e-03,
       -9.03852191e-03, -1.41384937e-02, -3.44972499e-02,
       -6.47030631e-03, 4.29656997e-04, 2.80986633e-02, -1.30975908e-02,
       -1.41513981e-02, -1.70557015e-02, 5.33760525e-03, -9.52985545e-04,
       -5.72082540e-03, -4.42267256e-03, 4.52202139e-03, 2.56100688e-02,
       -2.81206891e-03, 9.41409916e-03, 1.45888040e-02, -4.65100660e-04,
       -1.05590485e-02, -2.02809591e-02, -1.00854617e-02,
       -3.32295056e-03, 1.34159178e-02, -1.85105670e-02, -1.14477230e-02,
       1.23405794e-03, -5.08641126e-03, 6.00964086e-05, -1.25889191e-02,
       5.21027436e-03, 2.28964202e-02, 5.62428720e-02, 1.29118366e-02,
       -3.97169613e-04, -1.41406478e-02, -6.71479339e-03,
       -1.05806775e-02, -2.98649538e-02, 4.99915611e-03, 5.39474562e-03,
       2.99148988e-02, -1.21765612e-02, -2.28888597e-02, -2.42240597e-02,
       6.61106454e-03, -6.08449336e-03, -5.81730483e-03, 6.38079550e-03,
       1.64411776e-02, 2.24697571e-02, 1.93331821e-03, 3.01339268e-03,
       8.95414129e-03, -6.77307928e-03, -1.67685151e-02, -2.04960257e-02,
       -9.49420221e-03, -9.08463495e-04, 3.98545619e-03, -3.99119314e-03,
       -5.57718915e-04, -5.60419913e-03, 8.66930466e-03, -5.41687943e-03,
       -7.90359732e-03, 1.22093195e-02, 1.85017940e-02, 3.77702489e-02,
       1.27943717e-02, 2.49760388e-03, -5.23917144e-04, -5.96868945e-03,
       -1.17883347e-02, -1.10798627e-02, -2.89043202e-03, 2.06599082e-03,
       1.22721363e-02, 6.68828655e-03, -7.00627826e-03, -1.09622600e-02,
       6.31996663e-04, -1.29872076e-02, -1.55259650e-02, -1.51622505e-03,
       1.43439630e-02, 1.85746828e-03, 3.90460435e-03, 1.41781727e-02,
       1.00794360e-02, -1.41582510e-03, -9.34605207e-03, -1.66655593e-02,
       -1.79051533e-02, -3.95522686e-03, -1.03321308e-02,
       -2.56318948e-03, -4.68369294e-03, 9.53350216e-03, -4.00832389e-03,
       -4.71930066e-03, 1.38455920e-03, 1.22481361e-02, 2.83540301e-02,
       1.86914355e-02, 2.00813469e-02, 1.55465296e-02, 2.42742570e-03,
       -5.74885821e-03, -1.51663106e-02, -4.98207472e-03,
       -3.81650520e-03, 1.60461217e-02, 8.39166995e-03, 1.02456221e-02,
       8.30580480e-03, -5.17431530e-04, 3.08772130e-03, -2.24181940e-03,
       -4.11856081e-03, -1.24855582e-02, 5.08345757e-03, 2.07376666e-03,
       8.33900832e-03, 1.04849250e-03, 5.65520395e-03, -1.50258245e-03,
       -8.51738267e-03, -7.04506040e-03, -1.05650984e-02, 1.75488014e-02,
       3.36829544e-04, 4.23167879e-03, -4.18136781e-03, 4.03363165e-03,
       -6.19008206e-04, 1.00828511e-04, 7.69287441e-03, 1.03160914e-03,
       1.96689535e-02, 1.45495031e-02, 1.75697599e-02, 1.01115657e-02,
       2.60178174e-04, -4.74188803e-03, -2.15383456e-03, 2.38454994e-03,
       1.89455692e-03, 2.11622566e-02, 5.32404426e-03, 6.99705631e-03,
       -2.45696539e-03, -6.48163399e-03, 1.95066934e-03, -5.53924497e-03,
       -6.77539175e-03, -8.35821871e-03, 1.75527874e-02, -3.26675223e-03,
       6.22563902e-03, 1.10878644e-03, 7.11133191e-03, 2.49224086e-03,
       -2.83470587e-03, 2.43422715e-03, -1.16198454e-02, 2.36815754e-02,
       -4.01614606e-03, 7.01764692e-03, 7.33045535e-03, 9.65453684e-03,
       -4.66908794e-03, -4.34971135e-03, -2.76815868e-03,
       -4.72349674e-03, 2.39394251e-02, -2.99351886e-05, 1.00652790e-02,
       7.05675548e-03, 7.28338165e-03, -7.50236213e-03, -4.59080748e-03,
       1.69641466e-03, -8.71541817e-03, 4.75857407e-02, -2.49350700e-03,
       1.20114107e-02, 2.62654200e-03, 2.83158175e-03, 2.18877010e-03,
       1.84896553e-03, 1.98884076e-03, -7.05301948e-03, 1.87878683e-02,
       -7.35352561e-03, 4.32903692e-03, 6.68246823e-04, 1.73786096e-03,
       2.54486152e-03, 8.06215592e-03, 7.66137475e-03, 4.67656553e-03,
       2.82396171e-02, -5.18641016e-03, 4.88491543e-03, 1.32883200e-03,
       1.94234878e-03, -6.78671664e-03, -2.97482871e-03, -6.73020608e-04,
       -1.14415481e-03, 3.55763212e-02, -8.43087269e-04, 1.18679488e-02,
       -4.11907327e-04, -7.71971419e-03, 1.24726968e-03, 6.16061874e-03,
       5.43829007e-03, 2.73385458e-03, 3.45285349e-02, 4.82815783e-03,
       2.23597568e-02, -1.40062592e-03, -1.13893859e-02, -7.59671768e-03,
       -2.40120683e-02, -2.80782674e-02, -1.72853339e-02,
       -4.57032584e-02, -2.09974013e-02, -3.13715637e-02,
       -2.27538776e-03, 3.32625285e-02, -5.25558135e-03, -1.34320948e-02,
       -1.87049378e-02, 2.67447392e-03, -3.67661305e-02, -3.24143581e-02,
       -3.66709605e-02, -5.49973641e-03, 1.33919632e-02, 3.10637872e-03,
       -7.96282571e-03, -2.09075846e-02, -8.46110843e-03,
       -4.91023175e-02, -1.87388770e-02, -2.90070921e-02, 4.11894592e-03,
       3.09128743e-02, 2.39099339e-02, 1.04260975e-02, -1.87356826e-02,
       -3.00648832e-03, -4.26973514e-02, -1.77264288e-02,
       -3.96989323e-02, -9.88642219e-03, 2.31194235e-02, -3.95237794e-03,
       -9.41318925e-04, -1.63464912e-03, 9.42357164e-03, -2.95994710e-02,
       -1.67967137e-02, -2.91895997e-02, -8.74622725e-03, 1.70142471e-03,
       -9.13765654e-03, -6.52110809e-03, -4.75435471e-03, 8.62271246e-03,
       -2.42231861e-02, -2.84506055e-03, -3.98472063e-02,
       -3.29295769e-02, -9.65368841e-03, 2.86140181e-02, 5.21164574e-03,
       -1.79801583e-02, 2.78533931e-04, -3.72017361e-02, -1.41808577e-02,
       -3.74897979e-02, -5.13919955e-03, 3.16391513e-02, 8.76763742e-03,
       -1.30283674e-02, -3.15975100e-02, 9.42679215e-03, -2.64978185e-02,
       7.16910791e-03, -2.96323001e-02, -2.86848459e-04, 3.61234136e-02,
       -1.71134304e-02, -1.55784027e-03, 1.68520100e-02, 2.65326928e-02,
       -1.20183453e-02, 2.27745227e-03, -3.45915444e-02, -2.13504937e-02,
       -5.46588795e-03, -1.81977823e-02, -1.23130819e-02,
       -1.07272100e-02, 1.85121167e-02, -1.17037287e-02, -4.05621855e-03,
       -2.63821669e-02, -1.78739093e-02, -1.41544230e-02, 2.88073556e-04,
       -3.07607721e-03, 6.73841359e-03, 3.47001143e-02, -1.92809831e-02,
       4.85412590e-03, -2.38728598e-02, 1.48517126e-02, 3.72233465e-02,
       -5.56895975e-03, -7.09936954e-03, 4.53004241e-03, 3.85640897e-02,
       -2.15315856e-02, -3.01211001e-03, -2.49599088e-02, 2.43514609e-02,
       3.16079706e-02, 4.01366083e-03, -7.28546269e-03, -1.80817787e-02,
       6.88518025e-03, 6.64909091e-03, 2.75966525e-03, -1.00358417e-02,
       -5.04690362e-03, 5.34284627e-03, 5.15565090e-03, -1.60933863e-02,
       -3.57651822e-02, -1.75696630e-02, -1.96950696e-02,
       -2.14682706e-03, -2.34535504e-02, -1.54452558e-04,
       -3.40257795e-03, 7.43477186e-03, -5.29574370e-03, -1.21421656e-02,
       1.33752273e-02, -5.79381548e-03, 1.15206493e-02, 2.34301831e-03,
       3.59291434e-02, 3.61019149e-02, -1.93387736e-02, -1.09200841e-02,
       -1.92863662e-02, 7.47868605e-03, -2.26676594e-02, 6.49447960e-04,
       -5.38397720e-03, 1.77134629e-02, 8.22597463e-03, -1.06194811e-02,
       -2.28459723e-02, -2.88392380e-02, -3.82782170e-03,
       -1.28850825e-02, 9.48116463e-03, -3.41098080e-03, 8.95911083e-03,
       -5.61860902e-03, -1.72603838e-02, -3.46975364e-02,
       -3.00089885e-02, 2.86885654e-03, -9.14526638e-03, 2.20274087e-02,
       9.19546466e-03, 1.80663094e-02, -5.32169500e-03, -2.88379472e-02,
       -1.88525114e-02, -9.88657027e-03, 1.60952993e-02, -1.58812758e-02,
       1.07393656e-02, 2.16862303e-03, 1.75670944e-02, -3.82399862e-03,
       -2.01289635e-02, -2.08038893e-02, -2.00024107e-03, 2.01603919e-02,
       -1.19689601e-02, 2.66328715e-02, -2.96570270e-05, 4.28989762e-03,
       -2.32247193e-03, -1.36926807e-02, -4.19886969e-02,
       -3.88177484e-02, -8.88576079e-03, -4.95838188e-03, 2.53621731e-02,
       1.32385772e-02, 1.66127328e-02, 2.23266380e-03, 1.62120480e-02,
       -1.67487673e-02, -3.38806175e-02, -3.04559804e-03,
       -2.42900103e-04, 1.68909021e-02, -1.66740306e-02, -4.69176006e-03,
       1.21004498e-02, -1.41076474e-02, -2.52379812e-02, -3.40051875e-02,
       2.86427210e-04, -8.73763487e-03, 2.88905259e-02, -4.97902930e-03,
       -1.71145145e-02, -5.82085876e-03, 7.51617318e-03, -1.45109426e-02,
       -4.64335047e-02, 2.10263487e-03, -8.18399061e-03, 2.59141140e-02,
       -1.68294236e-02, -1.56671740e-02, 1.14998938e-05, 1.90423913e-02,
       -8.05117469e-03, -2.36875117e-02, -7.66252342e-04,
       -2.83122383e-04, 2.06841510e-02, -1.33306384e-02, -1.11667886e-02,
       6.57720724e-03, 2.15557646e-02, -8.04321561e-03, -3.56609523e-02,
       5.62008657e-03, -1.01548005e-02, 2.08658949e-02, -2.46323785e-03,
       1.43305131e-03, 1.00571606e-02, 1.04922131e-02, -1.36243887e-02,
       -3.35393138e-02, 2.50052399e-04, -1.03805680e-02, 2.03676000e-02,
       -1.39367953e-02, -2.36923695e-02, -1.59652494e-02, 2.20538788e-02,
       -1.60748791e-02, -3.60922478e-02, 3.39102442e-03, -2.60505490e-02,
       1.64921302e-02, -4.51770518e-03, -1.76863503e-02, -3.00554628e-03,
       2.73406692e-02, -6.52776379e-03, -3.23439389e-02, 1.05325151e-02,
       5.79457358e-03, 2.49253009e-02, 2.07740697e-03, 4.09108493e-03,
       2.12139841e-02, 1.53329587e-02, -1.90278757e-02, -3.85876969e-02,
       3.17579298e-03, -1.05094016e-02, 1.05198352e-02, -2.45281868e-02,
       -1.79770421e-02, 7.27460859e-03, 2.93835793e-02, -1.10868057e-02,
       -2.83281580e-02, 1.49621926e-02, -6.98422838e-04, 2.27879342e-02,
       2.86335871e-03, -1.03987306e-02, 1.02799423e-02, 6.62607048e-03,
       -2.26802658e-02, -3.86978276e-02, 7.65600428e-03, -1.25595946e-02,
       1.49176233e-02, -1.46410288e-02, -1.52440676e-02, -8.58700834e-03,
       1.60941463e-02, -8.31997115e-03, -1.98593568e-02, 2.20739916e-02,
       1.41464537e-02, 4.05887663e-02, 4.22044843e-03, 5.90409897e-03,
       1.31949214e-02, -1.06977504e-02, -1.32276490e-02, -3.18826698e-02,
       1.80074491e-03, -2.43199244e-03, 2.21092310e-02, -7.02453218e-03,
       -1.27009144e-02, -2.29048841e-02, 1.52056767e-02, -6.86447741e-03,
       -9.00794473e-03, 3.09354793e-02, 1.40440455e-02, 4.33140174e-02,
       9.33004485e-04, 1.58332300e-03, 2.99555575e-03, -4.58374619e-03,
       -9.71810613e-03, -3.56735177e-02, 2.68023927e-03, -1.81902461e-02,
       2.15194244e-02, -2.59599891e-02, -1.88472699e-02, -1.86830368e-02,
       2.35070405e-03, 3.76939308e-03, -1.76157337e-02, 7.26657081e-03,
       1.78506505e-02, 4.18481380e-02, 6.51481282e-03, -6.29147328e-03,
       -9.44085699e-03, -1.23598827e-02, -1.32445749e-02,
       -2.51270980e-02, 2.30430625e-03, 2.59879569e-04, 2.72368118e-02,
       -5.54350764e-03, -2.59678196e-02, -2.36356743e-02, 1.26291998e-02,
       4.22062445e-03, -2.90983059e-02, 7.94079062e-03, 4.20005468e-04,
       3.50189619e-02, -1.35304790e-03, -7.34529342e-04, 9.54047497e-03,
       2.62872595e-03, -2.08171103e-02, -3.38663347e-02, -1.57650386e-03,
       -5.95715595e-04, 4.25129235e-02, 7.69825303e-04, -1.31049063e-02,
       -5.24202455e-03, 6.77384494e-04, -1.35730682e-02, -1.14123691e-02,
       2.86243390e-03, 5.24302619e-03, 3.21719274e-02, 1.06318863e-02,
       -9.22178326e-04, -7.58114783e-03, -1.08200507e-02,
       -1.11452015e-02, -9.46882460e-03, -3.77347926e-03,
       -1.39042307e-02, 9.62843373e-03, -2.18674308e-03, -2.09308811e-03,
       -1.19259534e-02, 5.40714059e-03, -1.63785350e-02, -1.35705229e-02,
       1.51048927e-02, 2.30973605e-02, 4.64164503e-02, 1.20914942e-02,
       -6.25084667e-03, 3.69942980e-03, -5.06931823e-03, -8.41657259e-03,
       -1.24486079e-02, 7.37937167e-03, -7.12631829e-03, 2.78241783e-02,
       -2.89029279e-03, -5.63220819e-03, -9.53064300e-03,
       -8.66829790e-03, 1.82919775e-05, 2.25698299e-04, 6.57436484e-03,
       -1.28685753e-03, 9.82532185e-03, -7.20413576e-04, 1.77722285e-03,
       -3.65841552e-03, -1.26815271e-02, -1.97522454e-02,
       -1.23588732e-02, -2.08815048e-03, 6.49605738e-03, 8.36743042e-03,
       -1.10405991e-02, -8.79263598e-03, -9.26900748e-03,
       -2.00959342e-03, 1.25406887e-02, 1.24828601e-02, 1.70391910e-02,
       1.74536812e-03, 2.83679459e-02, 3.44917388e-03, -2.09607882e-03,
       2.61433027e-03, -5.84597792e-03, -8.23274441e-03, 6.08856848e-04,
       6.62674941e-03, 9.89751425e-03, 3.08673866e-02, -1.84970722e-03,
       -1.74346734e-02, -4.14572377e-03, -1.71023805e-03,
       -4.91389818e-03, -7.79790990e-03, -4.84915404e-03, 1.88727323e-02,
       1.38032977e-02, -1.61314977e-03, -2.89086439e-03, -6.43617939e-03,
       -1.17943175e-02, -6.80249184e-03, -1.08694285e-02,
       -1.15332557e-02, 6.92704879e-03, 5.37443813e-03, -4.22095787e-03,
       -9.30901244e-03, -1.34016722e-02, 3.99189675e-03, 4.22368874e-04,
       -4.52181185e-03, 4.88421693e-03, 3.09349597e-02, 2.89728604e-02,
       -6.01517176e-03, -6.38379995e-03, 8.89658637e-04, -4.32903087e-03,
       -5.85186156e-03, -1.19436830e-02, -1.17182508e-02, 2.76118778e-02,
       1.80670600e-02, -7.43794581e-03, -4.12291242e-03, -2.77922931e-03,
       -7.76061090e-03, -3.69081646e-03, -5.58549725e-03,
       -1.07429177e-02, 9.43140034e-03, 6.41659182e-03, 5.62501000e-03,
       7.42052030e-03, 2.89293588e-03, -3.06477165e-03, -6.26357319e-03,
       -2.02426640e-03, -9.41006467e-03, 2.40215808e-02, -3.66986101e-03,
       -1.12315553e-04, 1.73798716e-03, 3.45897907e-03, -4.85070329e-03,
       -7.48387072e-03, -1.17539603e-03, -8.34780000e-03, 2.08313577e-02,
       1.76311210e-02, 2.22424772e-02, 1.71090290e-02, 1.48158253e-03,
       3.37903803e-05, -6.04170328e-03, 2.65901838e-03, 3.72370449e-03,
       1.37313679e-02, 1.64976122e-03, 1.09820487e-02, 7.25733209e-03,
       5.37830032e-03, -2.33046128e-03, -7.93082872e-04, 7.01755891e-03,
       5.00898622e-03, 2.39525568e-02, 6.85470458e-03, 4.28767363e-03,
       9.93993483e-04, -3.39955301e-03, -2.18906091e-03, 5.95126068e-03,
       4.99536935e-03, 7.11802510e-04, 1.84870381e-02, 1.36680529e-02,
       1.79044902e-02, 2.01348006e-03, -5.85614331e-03, -3.65813123e-03,
       1.15716655e-03, 1.27732027e-02, 1.68155227e-02, 2.33153794e-02,
       4.52894066e-03, 1.32114172e-03, 2.20563449e-03, 4.35473659e-04,
       -1.77737195e-02, 2.67734821e-03, 1.78745352e-02, 5.60346944e-03,
       2.55884938e-02, 1.17924612e-03, 1.16638038e-02, 6.53439062e-03,
       -9.34133865e-03, 1.90059200e-03, -6.58877520e-03, -1.96029358e-02,
       -6.43327367e-03, -2.89714299e-02, -6.39014132e-03,
       -2.37168558e-02, 5.66213799e-04, 2.41531543e-02, 1.36399707e-02,
       -8.87413509e-03, -2.32279338e-02, -8.17743479e-04,
       -2.69749742e-02, -2.29009194e-03, -2.79143006e-02, 6.61203731e-03,
       1.75157096e-02, 8.39497242e-03, 9.97326057e-03, -1.14836413e-02,
       9.32030089e-04, -3.28306630e-02, -1.42324967e-02, -3.62354890e-02,
       -6.14832947e-03, 1.02753416e-02, 1.42352404e-02, -4.22974071e-03,
       -1.48058105e-02, -9.65520798e-04, -3.74018997e-02,
       -4.07133438e-03, -3.43970768e-02, 1.76486303e-03, 1.88856069e-02,
       1.45429671e-02, -1.31094363e-02, -2.06739046e-02, 3.14047537e-03,
       -2.66025309e-02, 3.88755859e-03, -1.96082499e-02, 4.89124237e-03,
       2.77638491e-02, 1.64630469e-02, -1.86902732e-02, -2.76557840e-02,
       9.60491132e-03, -1.75776668e-02, 9.99755785e-03, -1.82836596e-02,
       -3.59163340e-03, 2.37501990e-02, 1.09030092e-02, -1.98009163e-02,
       -2.56415028e-02, 1.10084715e-03, -3.41055989e-02, 4.13900940e-03,
       -2.71632709e-02, -1.55459551e-04, 2.66383961e-02, -8.55846156e-04,
       -2.56441068e-02, -3.57664414e-02, 3.58109968e-03, -3.52167748e-02,
       -5.75540494e-03, -1.91803090e-02, 7.84905627e-03, 1.87583473e-02,
       -9.73112602e-03, -4.40387754e-03, -7.24934973e-03, 2.96421051e-02,
       -7.53668463e-03, 6.11068727e-03, -1.52224489e-02, 1.11818910e-02,
       2.09102836e-02, -2.51291189e-02, -1.34195564e-02, -1.42536387e-02,
       2.69539077e-02, -2.02017669e-02, -5.41518023e-03, -2.46471222e-02,
       7.27275806e-03, 9.76530928e-03, 2.66981986e-03, -5.27176773e-03,
       -1.24535244e-02, 2.59437449e-02, -2.12761164e-02, 1.31852059e-02,
       -1.06379073e-02, 1.97814088e-02, 2.05142964e-02, -1.91656779e-02,
       -1.61810732e-03, -1.09796012e-02, 1.49309626e-02, -2.95659639e-02,
       -5.34466561e-03, -1.78823993e-02, 6.24243822e-03, 1.15187606e-02,
       -5.97429043e-03, -8.39418452e-03, -1.08991470e-02, 2.03991476e-02,
       -7.63290143e-03, 5.80186606e-04, -2.00060825e-03, 2.15446446e-02,
       2.36812029e-02, -2.21585818e-02, -2.17625201e-02, -2.44531129e-02,
       1.41318822e-02, -2.32036095e-02, -1.03645874e-02, -2.05088984e-02,
       -2.51525058e-03, -3.71911374e-05, -1.57182431e-03,
       -5.26815094e-03, -5.59481606e-03, 1.51184890e-02, -1.86856296e-02,
       -2.62050214e-03, 1.93590950e-03, 1.68710630e-02, 2.65788957e-02,
       -7.26847351e-03, -1.80961154e-02, -1.59917139e-02, 1.05053429e-02,
       -3.35169360e-02, -2.64010881e-03, -2.22542919e-02,
       -6.16916083e-03, 6.27742521e-03, -3.12149804e-02, -2.66362876e-02,
       -2.05300990e-02, 1.59142185e-02, -9.76726320e-03, -3.38791311e-03,
       -1.02846064e-02, -6.41347980e-03, -1.74260158e-02,
       -2.36609355e-02, -2.59539671e-02, -2.42947973e-02, 9.88561381e-03,
       -1.66371185e-02, 1.77410897e-02, -6.10720553e-03, -6.63730735e-03,
       -2.18930114e-02, -7.55427917e-03, -1.83325466e-02,
       -1.77317802e-02, 1.29754664e-02, -1.97600722e-02, -6.56781020e-03,
       -1.64594222e-02, 3.97944386e-04, 3.64649133e-03, 1.92520162e-03,
       -1.95199177e-02, -2.96445098e-02, 1.35448901e-02, -3.37386727e-02,
       1.87005487e-03, -4.55638114e-03, 1.01112789e-02, -3.08908871e-03,
       -1.24059319e-02, -2.64943298e-02, -2.83117704e-02, 1.63798202e-02,
       -1.79685699e-03, 1.72023606e-02, -1.30171627e-02, -1.63768549e-02,
       -1.45246107e-02, -2.05798936e-03, -2.68952828e-02,
       -3.64424102e-02, 1.09524000e-02, -1.06508145e-02, 1.96855087e-02,
       -1.47798155e-02, -2.01046783e-02, -1.32700773e-02, 3.70167033e-03,
       -2.97478437e-02, -3.37214582e-02, 1.88329034e-02, -2.01388039e-02,
       4.03946935e-04, -3.02441767e-03, 1.20422542e-02, -4.42056544e-03,
       -1.93756795e-03, -1.71692409e-02, -2.71344744e-02, 2.67267805e-02,
       -2.22741347e-02, 5.02070226e-03, -5.52506186e-03, -9.59142856e-03,
       -1.05397543e-02, -3.23751220e-03, -2.22108085e-02,
       -2.45528352e-02, 2.17696857e-02, -1.13383716e-03, 1.75532773e-02,
       -2.38032360e-03, -1.53641133e-02, -1.75556410e-02, 9.42850206e-03,
       -2.37094518e-02, -3.48214693e-02, 8.09699856e-03, -2.51070391e-02,
       1.33785224e-02, 6.82225544e-03, -9.81105305e-03, -6.40244907e-05,
       -7.63878785e-03, -1.87050980e-02, -1.68097671e-02, 3.26063447e-02,
       -9.91446525e-03, 4.53689881e-03, -1.81992203e-02, -2.67255157e-02,
       -1.97433159e-02, -5.37160365e-03, -2.70002726e-02,
       -3.85439321e-02, 1.68787856e-02, -1.91450827e-02, 1.40177505e-02,
       -1.05616841e-02, -1.84482969e-02, -2.23568678e-02, 8.60142149e-03,
       -2.08774060e-02, -2.57968344e-02, 1.84843428e-02, -4.93570650e-03,
       2.49965359e-02, 1.42184775e-02, -5.08132624e-03, 7.94270355e-03,
       -1.28527216e-04, -2.07527634e-02, -2.98631750e-02, 1.60053037e-02,
       -1.85627956e-02, 1.58754569e-02, -3.46362870e-03, -9.21545923e-03,
       -1.25405295e-02, -5.82565134e-03, -2.63883248e-02,
       -2.80668754e-02, 2.10645478e-02, 1.52630106e-04, 3.07724290e-02,
       -3.29469144e-03, -9.29976813e-03, -1.34696998e-02,
       -2.35716496e-02, -3.81675363e-02, -4.59792353e-02, 9.02447943e-03,
       -1.50887780e-02, 1.59396250e-02, -1.85748562e-02, -2.95705441e-02,
       -2.99746878e-02, 1.62272677e-02, 2.05662707e-03, -4.11375007e-03,
       2.44335886e-02, 6.51071407e-03, 2.62181424e-02, 8.98754038e-03,
       -4.92523191e-03, 3.14357807e-03, 2.45573558e-03, -2.22559343e-03,
       -2.87270509e-02, 4.76956042e-03, -1.40536139e-02, 1.34039037e-02,
       -1.73545107e-02, -2.10536402e-02, -1.04227290e-02,
       -5.72056277e-03, -2.10876260e-02, -2.28860714e-02, 1.65506899e-02,
       8.06174148e-03, 3.10668554e-02, -1.16520550e-03, -2.25442573e-02,
       -2.22808886e-02, -1.99200921e-02, -3.31566893e-02,
       -2.76814196e-02, 1.37155466e-02, -1.12155536e-02, 2.68356595e-02,
       -9.25880205e-03, -3.11684553e-02, -3.20313349e-02,
       -4.96312336e-04, -4.57337638e-03, -2.70831659e-02, 4.77279769e-03,
       1.86331687e-03, 2.39305664e-02, -9.08427127e-03, -2.84610596e-03,
       3.62421223e-03, 1.01063249e-03, -1.58853084e-02, -2.45396141e-02,
       5.58051094e-03, -2.03670072e-03, 2.37297453e-02, -1.75517201e-02,
       -1.49119562e-02, -8.88315917e-05, -1.65688023e-02,
       -2.48340648e-02, -1.27178552e-02, 3.05361226e-02, 1.82163585e-02,
       4.99436781e-02, 8.25487135e-04, -1.98627356e-02, -2.98192333e-02,
       -1.59468073e-02, -2.12788284e-02, -1.51049374e-02, 3.02507989e-02,
       1.30940853e-02, 3.58731970e-02, -1.28233451e-02, -2.75756866e-02,
       -2.47030575e-02, 3.17437784e-03, -1.25138881e-02, -9.46499966e-03,
       1.12917097e-02, 3.14458716e-03, 2.24563908e-02, -9.92558710e-03,
       -1.52122872e-02, 4.06973623e-03, -5.64490166e-03, -4.18368494e-03,
       -1.65773947e-02, 7.34183518e-03, -2.10846253e-02, 5.67302667e-03,
       -2.23812535e-02, -2.65039764e-02, -1.82917304e-02, 7.89570808e-03,
       5.59511129e-04, 2.07180763e-03, 2.95716785e-02, 1.38843656e-02,
       4.52787764e-02, -1.47714019e-02, -2.83462778e-02, -1.56397058e-03,
       3.53623158e-03, -3.95829789e-03, -7.41129415e-03, 2.57405993e-02,
       -6.67640986e-03, 2.01548766e-02, -2.23632324e-02, -3.67578641e-02,
       -6.03778474e-03, 1.77548267e-04, 7.61133572e-03, 1.78433512e-03,
       1.36352964e-02, -3.32276616e-03, 9.69465822e-03, -2.71319412e-03,
       -1.20825861e-02, -5.07861935e-03, -1.28266234e-02,
       -7.54419714e-03, 3.07177339e-04, 5.93586219e-03, 3.66033433e-04,
       1.36571443e-02, -3.96605767e-03, -1.68296024e-02, -1.16767883e-02,
       7.06177345e-03, 3.00079962e-04, 7.19411109e-05, 3.27914655e-02,
       9.54059698e-03, 1.42638730e-02, -1.13276802e-02, -2.36676186e-02,
       1.66858535e-03, -6.95264293e-03, -1.33185713e-02, -2.68196291e-03,
       1.37811424e-02, 1.09453360e-02, 2.48396583e-02, -3.31013743e-03,
       -4.08002594e-03, -2.18086550e-03, -6.21267082e-03,
       -4.45030513e-04, -3.64609016e-03, 4.16866736e-03, 1.21632339e-02,
       1.90953035e-02, -7.07794959e-03, -1.48822702e-02, -5.58319502e-03,
       -8.79559387e-03, -7.58714788e-03, -1.82189848e-02,
       -1.77510455e-02, 1.04588969e-02, 6.77132234e-03, -1.00924987e-02,
       -1.56261455e-02, -1.07007157e-02, 2.71507143e-03, -7.17059616e-03,
       6.04999298e-03, 1.48137398e-02, 2.39665136e-02, 4.62207682e-02,
       2.41182302e-03, -7.89732393e-03, 4.70252242e-03, -1.92507321e-03,
       -1.36155533e-02, -1.44566409e-02, -8.17935541e-03, 1.79746933e-02,
       3.32531147e-02, 3.93496314e-03, -2.12557130e-02, -1.20394072e-03,
       -1.45002268e-03, -7.79185304e-03, -1.20737776e-02,
       -1.50304474e-02, 1.24587212e-02, 1.05609260e-02, 1.11733163e-02,
       4.23225458e-04, -8.00873898e-03, -4.48428291e-05, -1.09213907e-02,
       -9.17624589e-03, -3.26331961e-03, -3.20142996e-03,
       -2.32652831e-03, 5.76161733e-03, 3.90593545e-03, -5.05110808e-03,
       1.08778728e-02, 6.20760862e-03, -5.52109489e-03, -2.27514375e-03,
       3.06573771e-02, 3.52563374e-02, 1.63730253e-02, -1.42088337e-02,
       -4.59478050e-03, 1.12746758e-02, -2.31068814e-03, -3.25748883e-03,
       -5.74732665e-03, 5.22645470e-03, 1.47213666e-02, 2.04637647e-02,
       5.47341956e-03, -9.69499641e-04, -5.14359213e-03, -8.93413275e-03,
       -3.09431180e-03, 5.23190480e-03, 1.53304674e-02, 2.99466541e-03,
       3.57715483e-03, -1.00221764e-03, -1.64962083e-03, -1.73330139e-02,
       -4.52345656e-03, 7.09002092e-03, -7.44180940e-03, 1.77664254e-02,
       1.58370077e-03, 5.24064526e-03, -1.05489884e-02, -1.37870144e-02,
       3.92782362e-03, -4.20710584e-03, -1.51505205e-03, -8.94797035e-04,
       1.81007739e-02, 1.99362393e-02, 1.44858463e-02, 9.52888746e-03,
       1.53128046e-03, -6.08228007e-03, -1.14641292e-03, 3.62044852e-03,
       -5.38289454e-03, 1.78800151e-02, 2.19366066e-02, 1.76291633e-02,
       -4.39574680e-04, -8.87181424e-03, 1.47483284e-02, 2.80174520e-03,
       -6.33813441e-04, 1.64331570e-02, -2.00411826e-02, -1.64481215e-02,
       -3.20256576e-02, 2.63593486e-03, 2.27850154e-02, 2.50861049e-02,
       -1.64587738e-03, -6.77500898e-03, 1.41636161e-02, -1.56580545e-02,
       8.58957134e-03, -1.47319147e-02, 3.90538084e-03, 2.93621831e-02,
       -1.32208969e-02, -2.55244207e-02, -1.47687143e-03, 1.28398286e-02,
       -3.88651267e-02, -2.37129275e-02, -2.47668028e-02, 1.78741384e-03,
       2.39754170e-02, 3.78391473e-03, -2.47789659e-02, -3.49728647e-03,
       1.30745135e-02, -3.75568755e-02, -3.98189574e-03, -2.64270920e-02,
       -8.66692513e-03, 2.98460685e-02, 1.10529447e-02, -1.82072371e-02,
       -2.25217212e-02, 1.25723835e-02, -1.77449044e-02, 1.37123698e-02,
       -1.73657387e-02, 8.77469033e-03, 2.22332254e-02, 7.61888688e-04,
       -1.80425607e-02, -2.05011144e-02, 5.46139572e-03, -2.15354078e-02,
       9.67684202e-03, -5.43307420e-03, 1.47345373e-02, 2.06679478e-02,
       -1.01986658e-02, -1.77277122e-02, -7.84341525e-03, 1.93993803e-02,
       -2.96728332e-02, 3.05039086e-03, -2.45148111e-02, -7.03685731e-03,
       1.11348853e-02, -1.65156964e-02, -1.19876666e-02, -1.34213618e-03,
       2.35882048e-02, -4.38724719e-02, 5.97340812e-04, -1.49939312e-02,
       3.48633155e-04, 1.13589838e-02, 1.41297572e-03, -7.76417414e-03,
       -1.53536955e-02, 2.04618853e-02, -1.96557157e-02, 1.34096127e-02,
       -6.11192593e-03, 1.29436525e-02, 1.53886154e-02, -8.27917922e-03,
       2.88733048e-03, -1.11190733e-02, 1.51051749e-02, -2.93011144e-02,
       6.81221660e-04, -9.52340383e-03, 2.11002631e-03, 8.71247798e-03,
       -1.41988834e-03, -9.46283527e-03, -1.44399598e-03, 2.32373271e-02,
       -4.48044464e-02, 6.04993757e-03, -1.50369573e-02, 1.62996235e-03,
       9.48447455e-03, -3.48204310e-04, -7.26496708e-03, -8.59613996e-03,
       2.32027005e-02, -5.86835817e-02, 3.54685471e-03, -2.74838228e-02,
       -7.82946032e-03, 4.25744941e-03, -7.70408136e-04, 6.73457468e-03,
       5.25864167e-03, 1.60025116e-02, -2.15579644e-02, 8.39756744e-04,
       -6.88307337e-04, -7.75635010e-04, 8.77408404e-03, -6.86068926e-03,
       -7.07355933e-03, -1.33231133e-02, 3.54556995e-03, -4.99354675e-02,
       5.77501068e-03, -1.83073133e-02, -6.09583547e-03, -5.39967278e-03,
       7.70331640e-03, 1.36857657e-02, -3.96841991e-04, 2.33767517e-02,
       -5.35476394e-02, -8.27752578e-04, -2.69070938e-02,
       -8.07079952e-03, 8.34026560e-03, 6.09408133e-03, 6.98248297e-03,
       -5.30310348e-03, 2.35992228e-03, -7.17112496e-02, 9.76153929e-03,
       -1.61795896e-02, -8.19374062e-03, -1.72773353e-03,
       -5.75094810e-03, -8.51414818e-03, -1.06103467e-02, 8.34437367e-03,
       -3.00471839e-02, 6.41940301e-03, -8.59847479e-03, 2.84185144e-03,
       -2.87717744e-03, -6.85415929e-03, -2.47939844e-02,
       -2.52538919e-02, 1.90105699e-02, -3.07012666e-02, 6.81055151e-03,
       -4.67885146e-03, -5.86849079e-03, -1.43511305e-02, 2.31464813e-03,
       -4.16558003e-03, -4.08683997e-03, 8.91026761e-03, -5.83922938e-02,
       1.69789456e-02, -3.05570313e-03, -9.87049891e-04, 1.80272109e-04,
       -9.62258969e-03, -2.34881211e-02, -9.41337924e-03, 1.69653017e-02,
       -4.90035415e-02, 2.12236531e-02, 4.45778202e-03, 3.84371262e-03,
       -1.58592183e-02, -4.70289029e-03, -3.12121492e-02,
       -2.99582426e-02, 2.40267180e-02, -1.13768587e-02, 9.02601983e-03,
       -1.01708574e-03, -8.87982454e-03, -6.90586306e-03,
       -7.33197946e-03, -2.71962229e-02, -3.41296755e-02, 3.12453676e-02,
       -1.42111052e-02, 1.90178845e-02, -5.91238681e-03, -1.19489422e-02,
       -9.66771320e-03, -1.00156767e-02, -2.84878649e-02,
       -1.41374869e-02, 2.44959015e-02, -2.60018166e-02, 2.56646592e-02,
       2.82325479e-03, 2.40406545e-04, -1.54112009e-02, -1.28832078e-02,
       -3.53020057e-02, -2.61281803e-02, 3.98083329e-02, -2.60554757e-02,
       2.57379860e-02, -2.14558616e-02, -2.75656730e-02, -2.36049537e-02,
       -1.25450585e-02, -2.56399866e-02, -2.27115173e-02, 3.64540145e-02,
       -7.61824334e-03, 1.18208379e-02, -1.07656140e-02, -1.54229924e-02,
       -1.30976336e-02, -1.45453643e-02, -2.75614280e-02,
       -3.91638689e-02, 1.59686673e-02, -1.27344625e-02, 8.39068368e-03,
       -1.32142808e-02, -3.50486338e-02, -2.18510870e-02,
       -2.02221759e-02, -3.41526084e-02, -1.99491866e-02, 4.78926040e-02,
       -1.01228394e-02, 2.66489051e-02, -9.63205099e-03, -9.37054586e-03,
       -1.02880402e-02, -1.47651015e-02, -2.93315761e-02,
       -4.03323770e-02, 2.37329565e-02, -2.78998204e-02, 2.20528096e-02,
       -1.41771873e-02, -1.44576170e-02, -1.06731141e-02,
       -9.05786268e-03, -1.93443447e-02, -2.28172913e-02, 2.57685725e-02,
       7.43581820e-03, 2.64922790e-02, -6.54809363e-03, -2.91954000e-02,
       -1.94218885e-02, -2.72609144e-02, -3.60011123e-02,
       -3.64676490e-02, 1.58629008e-02, -9.41463374e-03, 1.07445624e-02,
       -1.33410217e-02, -2.56274920e-02, -3.40766907e-02,
       -9.60850331e-04, -1.53710088e-02, -2.69979741e-02, 1.54817896e-02,
       -1.84228998e-02, 2.93858424e-02, -2.63062976e-02, -9.01138317e-03,
       3.80940642e-03, -1.50441546e-02, -2.25918833e-02, -2.61228625e-02,
       2.31371857e-02, -2.31940504e-02, 1.50449593e-02, -2.53731869e-02,
       -1.19704884e-02, -1.21180690e-03, -1.52674494e-02,
       -2.38433983e-02, -2.39358786e-02, 1.47608221e-02, 1.58162395e-04,
       2.37146560e-02, 2.41844286e-03, -1.53100053e-02, -2.73156110e-02,
       -3.26288901e-02, -3.22769694e-02, -2.77852416e-02, 6.97206333e-03,
       -1.96553860e-02, 1.42140770e-02, -1.55649604e-02, -2.75195278e-02,
       -4.59170341e-02, -5.77362673e-03, -4.67833923e-03,
       -1.05532520e-02, 4.92439456e-02, -1.95366493e-03, 2.39660740e-02,
       -1.11294193e-02, 3.28018359e-04, 1.43141544e-03, -1.98949818e-02,
       -2.01430973e-02, -2.62810476e-02, 2.97615174e-02, -1.66906081e-02,
       1.76995322e-02, -2.43536625e-02, -1.32005168e-02, -1.61924381e-02,
       -2.56910529e-02, -2.05894373e-02, -1.58045273e-02, 2.52477340e-02,
       7.44781969e-03, 3.78778987e-02, -8.22634716e-03, -3.02138012e-02,
       -3.58640663e-02, -1.93963442e-02, -1.67536940e-02,
       -1.37313372e-02, 3.83674763e-02, 1.46285035e-02, 3.43826711e-02,
       -2.62240283e-02, -3.77786197e-02, -3.68625820e-02,
       -1.24524524e-02, -1.15456311e-02, -1.36425141e-02, 3.72998267e-02,
       1.07122045e-02, 2.19448823e-02, -2.55773384e-02, -2.02888809e-02,
       -1.53451879e-02, -1.46163041e-02, -1.44867711e-02,
       -1.72913969e-02, 3.68138999e-02, 9.16669704e-03, 3.08108367e-02,
       -3.89849395e-02, -4.13304120e-02, -2.20218562e-02,
       -1.11578023e-02, -6.73588878e-03, -2.91549950e-03, 3.33418399e-02,
       1.50889689e-02, 3.85113917e-02, -2.47980859e-02, -3.45667750e-02,
       -1.71967540e-02, -1.69677194e-02, -1.72015298e-02,
       -9.59669892e-03, 2.63951328e-02, -3.25570069e-03, 1.25497561e-02,
       -3.39860544e-02, -4.38778549e-02, -2.12074853e-02,
       -1.69974193e-02, -1.09790508e-02, -1.91364938e-03, 4.68707159e-02,
       7.50820851e-03, 3.92810106e-02, -2.43725237e-02, -2.72284113e-02,
       -1.59067065e-02, -2.22877674e-02, -2.30269246e-02,
       -1.56208128e-02, 3.15960944e-02, -4.19635000e-03, 2.70039234e-02,
       -2.55957376e-02, -4.14053239e-02, -2.32851170e-02,
       -1.14983479e-02, -1.23885944e-02, -3.39186424e-03, 3.78495269e-02,
       2.74614301e-02, 1.19274519e-02, -2.05899701e-02, -3.39044295e-02,
       -1.12359775e-02, -2.16852203e-02, -2.44306549e-02,
       -1.03998911e-02, 1.96127668e-02, 1.72141399e-02, 2.13481840e-02,
       -1.36894668e-02, -1.37152616e-02, -1.49733536e-02,
       -1.23961745e-02, -1.31980628e-02, -4.42318339e-03, 4.31866646e-02,
       3.39350291e-02, 3.12659331e-02, -1.02736959e-02, -3.72118130e-02,
       -2.26695798e-02, -1.00799920e-02, -1.21361297e-02,
       -1.22264409e-02, 2.73649842e-02, 1.57240666e-02, 2.03544088e-02,
       -2.03556772e-02, -4.16461974e-02, -2.06260532e-02,
       -9.87806078e-03, -1.61364079e-02, 6.56020362e-03, 2.60191560e-02,
       2.70242915e-02, 3.58820185e-02, -1.02747967e-02, -8.34926777e-03,
       -1.76794501e-03, -6.83650188e-03, -1.67152546e-02,
       -1.26318997e-02, -4.78135934e-03, 1.52126541e-02, 2.80854441e-02,
       -5.95732266e-03, -1.59352664e-02, -5.66844875e-03,
       -5.14401589e-03, -4.58960142e-03, -3.34393699e-03, 3.25211510e-02,
       2.19202992e-02, 3.16967331e-02, -2.93772854e-02, -3.87285873e-02,
       -9.08797979e-03, -2.07050005e-03, 2.48846551e-03, -7.48864328e-03,
       4.75236820e-03, -1.03700603e-03, 3.57191637e-02, -1.31511372e-02,
       -1.79919936e-02, -4.24318481e-03, 3.53849982e-03, 4.55623120e-03,
       1.23454782e-03, 5.12498245e-03, 2.35311929e-02, 2.39424501e-02,
       5.25570009e-04, -8.76868237e-03, -4.87342197e-03, -2.65511009e-03,
       -3.04745208e-03, -4.38727858e-03, -4.06327890e-03,
       -3.31064058e-03, 8.51139799e-03, 1.56096509e-03, -3.77383223e-03,
       -5.84134739e-03, 5.94464550e-03, 1.77531987e-02, 1.23696858e-02,
       1.32139949e-02, 5.46736130e-03, 3.02461851e-02, -1.00649735e-02,
       -8.86504073e-03, -5.13658742e-04, -3.56344157e-03,
       -5.80378874e-05, -3.73439805e-04, -1.84849859e-03,
       -1.03656761e-02, 1.70740839e-02, -5.73317194e-03, -1.35688381e-02,
       -1.79615687e-03, 3.69675620e-03, 9.31906688e-04, -9.62536142e-04,
       -2.30561104e-03, 1.37874139e-02, 1.12036448e-02, 3.58141330e-03,
       6.86502364e-03, 3.68087552e-03, -3.88646056e-03, -2.08084457e-04,
       1.12514372e-03, -2.20843940e-04, 1.84024330e-02, 8.26360006e-03,
       7.49127241e-03, -4.34333133e-03, -1.08889248e-02, 8.30921344e-03,
       2.03292863e-03, -7.21371546e-03, -4.00059065e-03, -3.59422236e-04,
       1.77187640e-02, 8.04234017e-03, 1.61477551e-03, 7.92670250e-03,
       3.89407482e-03, 5.25474595e-03, -7.14392914e-03, -7.34774163e-03,
       7.07959058e-03, 1.19774872e-02, 1.04770074e-02, 4.24461067e-03,
       5.32859063e-04, -2.35189870e-01 ]
