%YAML:1.0
---
detectionoutput: !!opencv-object-detector-hog
   winSize: [ 64, 128 ]
   blockSize: [ 16, 16 ]
   blockStride: [ 8, 8 ]
   cellSize: [ 8, 8 ]
   nbins: 9
   derivAperture: 1
   winSigma: 4.
   histogramNormType: 0
   L2HysThreshold: 2.0000000000000001e-01
   gammaCorrection: 1
   nlevels: 64
   signedGradient: 0
   SVMDetector: [ -1.43277021e-02, 1.86505634e-02, -4.44006408e-03,
       -6.26346003e-03, -1.61300097e-02, -4.14542359e-04,
       -8.05667602e-03, -8.92075151e-03, -2.18588915e-02,
       -2.11586915e-02, 2.66476609e-02, 1.94361992e-03, -1.66408811e-02,
       1.55279683e-02, -2.46297452e-03, 1.21358177e-02, 3.31679918e-03,
       -2.73183770e-02, -1.02380132e-02, 1.50755150e-02, 6.37525693e-03,
       -1.29996957e-02, 1.67170484e-02, -1.39653555e-03, -2.13072039e-02,
       -9.44976974e-03, -1.49185928e-02, -1.55852512e-02, 1.90173872e-02,
       -1.11200917e-03, -3.64406370e-02, 3.11148856e-02, 9.03768558e-03,
       6.71790796e-04, 1.13392845e-02, -1.06640439e-02, -6.07179943e-03,
       6.42894441e-03, -1.49058690e-02, -2.78546661e-02, -8.69723130e-03,
       -9.38949175e-03, 4.80562914e-03, 1.41073912e-02, -6.84208144e-03,
       1.62032759e-03, -7.74227316e-03, -3.13012786e-02, -1.77295133e-02,
       -2.63544219e-03, 1.28134601e-02, -1.75186060e-03, -7.58562936e-04,
       6.72681397e-03, -1.56301409e-02, 2.63531134e-03, -1.92805789e-02,
       -3.87136564e-02, 3.87382996e-03, 1.02094514e-02, -1.36813801e-03,
       7.98771624e-03, -9.85228084e-03, -5.21640433e-03, -1.24883046e-02,
       -4.13424112e-02, -3.46447974e-02, -5.85384807e-03, 2.71933656e-02,
       1.49112539e-02, 5.47111686e-03, 6.13151165e-03, -4.34847921e-03,
       -1.13870623e-02, -3.89257036e-02, -2.35789157e-02,
       -4.15506819e-03, -2.58267130e-04, -1.82524007e-02,
       -4.74996446e-03, -3.47804581e-03, -1.49286259e-02, 7.58304773e-03,
       -1.69941485e-02, -1.48046464e-02, 3.57951671e-02, -9.93278576e-04,
       -1.70990992e-02, 5.81886712e-03, -1.67315695e-02, -1.27778668e-02,
       -1.14724534e-02, -4.09939736e-02, -2.12365352e-02,
       -1.19060017e-02, 2.40125768e-02, -1.34710483e-02, -8.00008699e-03,
       -4.93407156e-03, -8.24505929e-03, 1.01554468e-02, 4.07921569e-03,
       6.25792239e-03, 1.82583556e-02, -8.10747675e-04, -2.30382569e-02,
       2.02052132e-03, -1.03671169e-02, -1.60810836e-02, -2.21457426e-03,
       -1.90427024e-02, -2.89913472e-02, 9.01288539e-03, -5.32135833e-04,
       -1.12454435e-02, 2.38414016e-03, -2.25193705e-02, -7.94172473e-03,
       5.61887864e-03, -6.90758461e-03, -2.37270426e-02, -1.21360030e-02,
       -3.44752654e-04, -5.39413560e-03, -1.39374333e-02,
       -2.66306270e-02, -2.23889519e-02, 2.06626616e-02, 1.10309711e-02,
       -6.91431202e-03, 9.86000150e-03, -2.33880989e-02, -3.05308327e-02,
       1.15489308e-02, -4.10081586e-04, -1.68570094e-02, 2.36951709e-02,
       2.05395594e-02, -1.49815092e-02, 1.95451844e-02, 7.34436233e-03,
       1.08553544e-02, 1.97935179e-02, 2.07304116e-03, -1.25621213e-02,
       1.74030792e-02, -4.37379396e-03, -3.32288146e-02, -7.76157901e-03,
       -1.23725077e-02, -7.45539973e-03, -1.94420833e-02,
       -2.42607612e-02, 3.62114166e-04, 3.47490981e-02, 5.50693925e-03,
       -4.89153005e-02, -1.39185293e-02, -2.84748282e-02,
       -2.42173523e-02, -1.90343261e-02, -2.85808053e-02,
       -2.10342999e-03, 3.49357873e-02, 1.81496460e-02, -3.12915295e-02,
       1.21099232e-02, 6.14193268e-04, 1.59312692e-02, 1.76962968e-02,
       -5.95828379e-03, 1.45022776e-02, 4.33519669e-02, 3.06688305e-02,
       -1.95451286e-02, 5.89951756e-04, -2.37119347e-02, -6.68689935e-03,
       2.43817247e-03, -7.50940852e-03, 1.56215606e-02, 3.20219472e-02,
       2.18429696e-02, -3.25105414e-02, -2.28960589e-02, -3.28845866e-02,
       -2.61243917e-02, -6.55767648e-03, -1.56916771e-02, 4.06626612e-03,
       2.67460328e-02, 9.37785767e-03, -3.78348306e-02, -3.83864939e-02,
       -3.73002775e-02, -3.65155600e-02, -2.25215796e-02,
       -3.40308771e-02, 2.89916266e-02, 6.29871115e-02, 2.68067699e-02,
       -3.24667580e-02, -1.60963349e-02, -2.73654703e-02,
       -9.21757519e-03, 1.79332718e-02, -7.28939241e-03, 3.55955251e-02,
       6.75617829e-02, 2.60316953e-02, -3.74497324e-02, -3.03838700e-02,
       -3.64185497e-02, -2.10286789e-02, 5.73626766e-03, 8.39200895e-03,
       -4.38516540e-03, 2.37350613e-02, 2.49428442e-04, -3.33454050e-02,
       -5.72107397e-02, -3.39680761e-02, -2.86553372e-02,
       -2.13968437e-02, -3.29625793e-02, -4.05437127e-03, 1.88088324e-02,
       -1.60869409e-03, -2.22229902e-02, -4.30972464e-02,
       -3.52320112e-02, -3.38102691e-02, -3.63889150e-02,
       -1.94580983e-02, 2.23068930e-02, 6.03027754e-02, 1.20890625e-02,
       -3.59026529e-02, -4.02788520e-02, -3.04685272e-02,
       -3.96563066e-03, 1.38465408e-02, 5.35778515e-03, 1.16668642e-02,
       4.54267226e-02, 1.22917024e-02, -9.15808417e-03, 2.93419929e-03,
       -2.06126999e-02, 4.89867758e-03, 2.21586432e-02, 1.10547524e-02,
       4.79178445e-04, 1.00571979e-02, -1.63502758e-03, -2.07857490e-02,
       -3.75040621e-02, -2.71927975e-02, -3.14009674e-02,
       -1.98091846e-02, -8.39518383e-03, -8.16032011e-03, 1.41056050e-02,
       -4.87768743e-03, -3.01847458e-02, -1.04842270e-02,
       -3.45367268e-02, -4.51899953e-02, -2.70194784e-02,
       -1.44020785e-02, 3.41052674e-02, 4.88008410e-02, 1.89471208e-02,
       -7.91789219e-03, -1.36541007e-02, -2.19360590e-02,
       -1.02213593e-02, 1.92837864e-02, 2.27485895e-02, 3.30112837e-02,
       4.88317646e-02, 3.21829468e-02, -1.51474150e-02, -2.10589776e-03,
       -3.04896925e-02, -2.32100300e-02, 2.21504271e-02, 1.91169847e-02,
       4.12085885e-03, 5.37285442e-03, -1.14067709e-02, -2.25173924e-02,
       -2.71944189e-03, -3.35164405e-02, -3.16301882e-02,
       -2.13103089e-02, -1.62000638e-02, -9.44602396e-03,
       -1.71797182e-02, -1.60556938e-02, -1.46324355e-02,
       -6.15240587e-03, -2.50814036e-02, -4.16226638e-03,
       -3.27193714e-03, 4.97875456e-03, 3.42168361e-02, 5.13704456e-02,
       3.25203501e-02, -6.73238392e-05, 2.34234321e-05, -1.88318621e-02,
       -1.73217952e-02, 2.52437517e-02, 2.46361811e-02, 3.08804568e-02,
       6.11169972e-02, 4.06481735e-02, 2.49633752e-02, -3.48371128e-03,
       -8.42459407e-03, -4.89994651e-03, 2.68871486e-02, 1.93652827e-02,
       -2.24201232e-02, -2.48291101e-02, -1.57515015e-02,
       -1.57938302e-02, -5.35097532e-03, -2.56629065e-02,
       -4.80928831e-03, 6.02078345e-03, -4.44407016e-03, -3.79470587e-02,
       -6.84716448e-04, 1.09947035e-02, -6.58626575e-03, 4.45280643e-03,
       -2.29588617e-02, -1.78901739e-02, -8.39448068e-03,
       -3.65209542e-02, 2.99032666e-02, 5.18764071e-02, 2.07613092e-02,
       6.05813833e-03, 1.84749011e-02, 1.20511535e-03, 2.14730646e-03,
       3.47577780e-02, 3.63998786e-02, 2.23677177e-02, 4.28741574e-02,
       3.80555131e-02, 2.19868012e-02, 1.96605865e-02, 7.76764518e-03,
       2.17940360e-02, 3.56690846e-02, 3.00295949e-02, -4.20516655e-02,
       9.57673602e-03, 1.64148100e-02, -4.53996332e-03, -9.36535466e-03,
       -2.05003694e-02, -1.65802557e-02, -1.27549106e-02,
       -3.91244739e-02, -1.65066998e-02, 1.69222951e-02, 1.96166690e-02,
       -6.94041513e-03, 9.83100850e-03, -2.05966085e-02, -2.58095711e-02,
       -8.81561718e-04, -3.22868191e-02, 2.41921227e-02, 3.71102206e-02,
       2.02922095e-02, 7.30939349e-03, 1.75274408e-03, 1.39334444e-02,
       1.09673608e-02, 2.54407730e-02, 2.92544886e-02, 1.83326937e-02,
       4.81034927e-02, 2.14606803e-02, 1.78567041e-03, 7.95099419e-03,
       -5.04265400e-03, -5.24777919e-03, 2.20838115e-02, 3.09335645e-02,
       -1.77967455e-03, 8.82793218e-03, 1.73734687e-02, 2.77784001e-03,
       -6.17441628e-03, -1.92145500e-02, -2.00187694e-02, 4.38739080e-03,
       -9.96404141e-03, -1.15601774e-02, 4.20009857e-03, 1.95573866e-02,
       -4.31067962e-03, 8.42357520e-03, -5.00610285e-03, -1.16471583e-02,
       -2.99048563e-03, -2.05090139e-02, 2.74936464e-02, 5.08114398e-02,
       2.90749185e-02, 7.97675271e-03, -1.63469296e-02, 6.33747783e-03,
       6.20844960e-03, 1.52388047e-02, 1.66649204e-02, 6.51376694e-03,
       4.64476980e-02, 1.63703021e-02, 3.49831744e-03, 1.42267137e-03,
       1.48192076e-02, -3.67403147e-03, -6.18924526e-03, -4.74386063e-04,
       -8.34247749e-03, 8.91713705e-03, 2.12925803e-02, -5.80606237e-03,
       -2.92415149e-03, 1.13930146e-03, -3.50943184e-03, -8.94177333e-03,
       -3.36374007e-02, -2.42581721e-02, -1.45714625e-03, 1.63707063e-02,
       2.70716799e-03, -1.16552683e-02, -2.27350998e-03, 7.72579061e-03,
       -1.49842128e-02, -4.17884029e-02, 1.50652770e-02, 3.86614650e-02,
       1.97924022e-02, 2.57862778e-03, 2.15317477e-02, 8.94522015e-03,
       -6.37783343e-03, -3.06834793e-03, 3.64573579e-03, 2.89116357e-03,
       8.96570645e-03, 7.48843793e-03, -3.74805601e-03, 3.39058531e-03,
       -4.38119430e-04, 5.84844640e-03, -8.87619238e-03, -9.14646871e-03,
       -1.64001826e-02, 5.22450591e-03, 2.52714828e-02, 2.05299556e-02,
       2.27104756e-03, 8.16622749e-03, 1.74139235e-02, -4.89264308e-03,
       -2.96762995e-02, -2.68460978e-02, -1.27215711e-02, 1.82171501e-02,
       -1.07160455e-03, -5.81025844e-03, -5.83890406e-03, 7.89783895e-03,
       -5.50410524e-03, -2.79589780e-02, -1.15126104e-03, 2.07847878e-02,
       1.38767622e-02, 4.06509452e-03, 3.64954327e-03, 1.63143855e-02,
       4.12125401e-02, 1.79180522e-02, 7.43466837e-04, -6.88097766e-03,
       1.93031839e-04, 1.30226733e-02, -1.30658867e-02, 2.23948609e-05,
       7.40221143e-03, 1.94491930e-02, -4.98887571e-03, -1.24270581e-02,
       1.38899987e-03, -1.39593240e-02, 8.19250848e-03, -3.16728302e-03,
       -4.43705963e-03, -1.76326614e-02, 6.31851843e-03, 4.56581544e-03,
       1.18848905e-02, 3.10989879e-02, -3.51278260e-02, -1.63469631e-02,
       -1.60332751e-02, 1.70685276e-02, -1.38318178e-03, 1.59434937e-02,
       4.09457600e-03, 2.58201584e-02, 6.69819303e-03, -1.23411948e-02,
       5.52823115e-03, -8.59204028e-03, 6.61200983e-03, -1.76321119e-02,
       -5.15947817e-03, -1.03690773e-02, 2.11675856e-02, 1.30070699e-02,
       -3.16078439e-02, -7.61523237e-03, -1.54229114e-02, 5.00766821e-02,
       -2.25681160e-02, 4.15337272e-03, 2.02792487e-03, 3.12608555e-02,
       -3.69026251e-02, 1.86384823e-02, 1.72302667e-02, -1.32179903e-02,
       1.25371665e-03, -1.09671867e-02, -3.26525718e-02, -1.86479446e-02,
       -2.81725209e-02, -2.97388062e-02, 2.43057571e-02, 2.28322297e-03,
       -3.43327373e-02, 1.52972378e-02, 5.09534916e-03, -1.92669425e-02,
       -9.37571563e-03, -2.22397409e-02, -3.10564972e-02, 2.64525507e-02,
       2.36655772e-02, -2.00050138e-02, -1.18827447e-02, -1.17121693e-02,
       -1.87461413e-02, -3.29200849e-02, -3.16524655e-02, 2.17773323e-03,
       4.79579307e-02, 1.54927913e-02, -1.47921881e-02, -1.13333557e-02,
       1.45060604e-03, -2.08749026e-02, -2.07674280e-02, 2.94528808e-03,
       -1.50704747e-02, -1.09502310e-02, -3.31026241e-02,
       -4.23703045e-02, -1.30734704e-02, -2.56304978e-03,
       -2.53340378e-02, -1.29011087e-02, -5.31821558e-03,
       -1.89786740e-02, -1.57732349e-02, -4.05882783e-02,
       -3.51121873e-02, -2.11519133e-02, 2.28879671e-03, -1.15192048e-02,
       -8.89372826e-03, -1.10093243e-02, 1.10202981e-02, 2.51090154e-02,
       -2.69942526e-02, -2.87384465e-02, -1.71087924e-02,
       -9.64197889e-03, -2.48999558e-02, -1.23305740e-02, 1.46326656e-02,
       1.51043423e-02, 2.19587181e-02, -1.25950538e-02, -1.21902190e-02,
       1.60875835e-03, 9.82231461e-03, -3.04225268e-05, 1.83105506e-02,
       2.94827763e-02, -1.06700342e-02, -1.48997512e-02, -3.11409272e-02,
       -2.69739963e-02, -2.23195590e-02, 6.93006162e-03, -2.16172561e-02,
       -1.38480924e-02, -1.31989713e-04, -2.47438345e-02,
       -3.46559891e-03, -1.27915014e-03, -1.16772512e-02,
       -2.35814080e-02, 2.03712913e-03, -2.12335400e-02, -1.36907203e-02,
       -1.03057306e-02, 1.06657706e-02, 9.92310606e-03, -6.77748909e-03,
       -1.80645213e-02, -4.54057287e-03, 1.94338728e-02, -2.22486183e-02,
       6.29469473e-03, 1.09293936e-02, 3.67646525e-03, 1.43591715e-02,
       1.96812134e-02, -2.86166137e-03, -4.04755119e-03, 2.12538298e-02,
       -3.36564425e-03, 3.53550212e-03, 8.20636936e-03, -3.34859528e-02,
       1.17398091e-02, 5.17471414e-03, -1.06840990e-02, -1.43806972e-02,
       -2.21451018e-02, -2.01713704e-02, -9.76002403e-03,
       -6.31310744e-03, -2.93715540e-02, 7.75335869e-03, 1.35198012e-02,
       -1.51480753e-02, -6.64889114e-03, -2.46201712e-03, 1.20843733e-02,
       1.07908705e-02, -4.26799338e-03, -6.45182002e-03, 8.03887192e-03,
       8.94725416e-03, -3.24078696e-03, -2.47659422e-02, -1.80897536e-03,
       -4.18953784e-03, -3.84723046e-03, 2.04564669e-04, -2.01379415e-03,
       2.02051904e-02, 3.34922001e-02, 1.62822269e-02, -1.07666506e-02,
       1.94900353e-02, 2.53554080e-02, 3.82611677e-02, 1.99043974e-02,
       -4.35453579e-02, 6.35674363e-03, 7.02367770e-03, -2.02680267e-02,
       -8.84166453e-03, -7.57757516e-04, 1.48235336e-02, 1.91615932e-02,
       -1.06490999e-02, -5.91640770e-02, -2.65611615e-03, 8.70201364e-03,
       -2.52133906e-02, -2.27304231e-02, -1.99263468e-02,
       -2.85506039e-03, 7.74876075e-03, -2.07843557e-02, -1.80513300e-02,
       2.45355722e-02, 3.45927812e-02, -5.43235196e-03, -9.06658731e-03,
       1.88098997e-02, 3.56455781e-02, 5.16333655e-02, 2.50267629e-02,
       -1.01328054e-02, 2.67254226e-02, 2.59435307e-02, -8.00491497e-03,
       -8.62390548e-03, -7.30458123e-04, 2.28191502e-02, 6.12351336e-02,
       3.17623354e-02, -4.48486172e-02, 3.95315094e-03, -6.98175840e-03,
       -3.44369411e-02, -2.55273916e-02, -2.79608723e-02,
       -2.17676945e-02, 1.24064798e-03, -2.97592413e-02, -2.20725201e-02,
       9.70185734e-03, -2.18514241e-02, -4.44647968e-02, -3.56061794e-02,
       -3.29309925e-02, -2.15457678e-02, -7.59538962e-03,
       -2.78291311e-02, -3.21135228e-03, 3.75432782e-02, 4.68675187e-03,
       -1.65027995e-02, -7.50485109e-03, -1.31555879e-02,
       -1.41019665e-03, 3.42053287e-02, 1.81141999e-02, 1.88909564e-02,
       5.19831851e-02, 2.03279927e-02, -1.94508992e-02, -1.49116066e-04,
       2.26520322e-04, 4.25731268e-04, 3.03977225e-02, 2.55737565e-02,
       -3.32407318e-02, 3.57648241e-03, -1.35201914e-02, -4.18231227e-02,
       -4.45304140e-02, -4.01836149e-02, -1.75276995e-02,
       -7.89176580e-03, -2.47934554e-02, -2.31402460e-02, 3.54276178e-03,
       1.94173271e-03, -2.49659587e-02, -2.17584521e-02, -3.31733748e-02,
       -1.26956943e-02, 2.11713929e-03, -1.46887498e-02, 5.07961912e-03,
       1.81477480e-02, 1.18782772e-02, -1.09907584e-02, -1.66180748e-02,
       -2.67155399e-03, 1.29096583e-02, 2.75967363e-02, 1.72640365e-02,
       1.86692718e-02, 2.18884032e-02, 2.02781782e-02, 1.34727508e-02,
       -1.09803593e-02, 7.16511160e-03, 2.08009537e-02, 4.29015830e-02,
       3.58113199e-02, -1.11651355e-02, -8.62775370e-03, -1.76377892e-02,
       -3.28198858e-02, -4.33556139e-02, -4.02269848e-02,
       -2.23961435e-02, 6.96209911e-03, 6.02456508e-03, -7.62076676e-03,
       -2.78926082e-03, -1.12372581e-02, -5.04489727e-02,
       -5.72497919e-02, -4.56212573e-02, -2.90512927e-02, 3.81094660e-03,
       1.02620283e-02, 2.17974596e-02, 2.01860052e-02, 3.61473241e-04,
       -1.03078363e-02, -1.84974223e-02, 1.35209376e-03, 5.85241150e-03,
       3.44179198e-02, 4.83412109e-02, 4.04915866e-03, 2.20182426e-02,
       -3.05890734e-03, -3.63315567e-02, -3.44301835e-02,
       -5.62822213e-03, -1.98816899e-02, 1.53177278e-02, 2.45196633e-02,
       3.82616650e-03, 8.14235420e-04, -1.67817306e-02, -3.40855010e-02,
       -3.55759114e-02, -2.83401441e-02, -2.14285403e-02, 2.46211607e-03,
       9.09348205e-03, 9.41042439e-04, 9.88896564e-03, -1.98596865e-02,
       -1.46319158e-02, -4.69456203e-02, -2.86471210e-02,
       -2.60215290e-02, -9.48635396e-03, -2.07962990e-02, 1.56750511e-02,
       2.13005692e-02, -2.14592852e-02, -3.04330457e-02, -9.49832890e-03,
       1.10920174e-02, -2.17287205e-02, -5.63003588e-04, 1.43287238e-02,
       -6.54624309e-03, 1.59878843e-02, -2.58988906e-02, -3.12220659e-02,
       -8.51197261e-03, 9.63643193e-03, -1.38062956e-02, -2.04637239e-04,
       1.61855388e-02, 1.46927582e-02, 7.12533388e-03, -2.42182985e-02,
       -3.16539370e-02, -2.81312950e-02, -2.51959004e-02,
       -2.09195223e-02, 8.18787981e-03, 1.28391488e-02, 4.67260322e-03,
       -1.86597314e-02, -2.86820009e-02, -3.94350998e-02,
       -5.23627177e-02, -3.25183198e-02, -7.75876269e-03, 2.24147849e-02,
       1.69648081e-02, 1.19518125e-02, 6.58584526e-03, -3.91337276e-02,
       -3.19015943e-02, -4.14148066e-03, -4.84488090e-04, 5.28861722e-03,
       3.06661669e-02, 4.24256921e-02, 8.94000381e-03, 3.03244172e-03,
       -4.02485281e-02, -3.22676860e-02, -2.36441195e-02,
       -2.55498830e-02, 4.30216314e-03, 2.85691470e-02, 3.48878019e-02,
       2.41757147e-02, -9.84412245e-03, -2.25880854e-02, -2.71924511e-02,
       -4.39855643e-02, -1.23826945e-02, 3.82939470e-03, 3.10582165e-02,
       3.08055021e-02, 1.91824958e-02, 3.28476005e-03, -2.00456157e-02,
       -3.76539826e-02, -4.41158414e-02, -2.20174212e-02,
       -1.53432284e-02, -5.70328615e-04, 1.15011130e-02, 2.13477556e-02,
       7.40535371e-03, -2.08573882e-02, -1.51291406e-02, -2.71423813e-03,
       -5.99127682e-03, 4.87566832e-03, 3.95250916e-02, 3.79888080e-02,
       4.76347376e-03, 3.25529417e-03, -2.06096731e-02, -1.32360049e-02,
       -1.36017418e-02, -4.76946030e-03, 9.43429489e-03, 2.72179935e-02,
       1.50186159e-02, 3.11050769e-02, 1.99914426e-02, -1.20966202e-02,
       -2.49888077e-02, -3.08068600e-02, -1.26186537e-03, 7.53428135e-03,
       9.47476551e-03, 1.68945454e-02, -8.35712161e-03, 9.88293253e-03,
       -2.23871805e-02, -2.19319556e-02, -1.53755881e-02,
       -6.56750239e-03, -1.26972040e-02, -1.27364509e-02,
       -1.23195536e-02, 1.94636639e-02, 1.60786975e-03, -1.57266464e-02,
       -4.48911125e-03, 5.16942656e-03, 1.28012458e-02, 2.50326693e-02,
       3.85667235e-02, 3.44919749e-02, -1.30219096e-02, -1.81627087e-02,
       -1.47719989e-02, -9.65563208e-03, 9.61086154e-03, -4.02491353e-03,
       1.08056711e-02, 2.34969761e-02, 1.02209728e-02, 1.04766088e-02,
       1.70226153e-02, -3.01279104e-03, -1.43160122e-02, -4.37307637e-03,
       -1.12761222e-02, -2.42079534e-02, -6.59044925e-03,
       -3.22980434e-03, -1.32781472e-02, -1.20772058e-02,
       -9.89190675e-03, -1.49806067e-02, 2.47263024e-03, -1.09101273e-02,
       -6.56346371e-03, -3.65453190e-03, -2.44817082e-02, 1.90326255e-02,
       -5.09750051e-03, 4.93956357e-03, 2.98984139e-03, 5.87916654e-03,
       -1.02117164e-02, -8.61172844e-03, 2.87994388e-02, 2.95538288e-02,
       -7.06148380e-03, -4.80614789e-03, -6.39430527e-03, 4.76265792e-03,
       2.17120536e-02, 4.47134767e-03, -8.62297229e-03, 1.66135840e-02,
       -1.35342740e-02, -2.99259694e-03, 4.63188021e-03, -7.17090582e-03,
       -1.53607782e-02, -5.91811782e-04, 8.76354333e-03, 1.11265304e-02,
       7.59712839e-03, -9.89468885e-04, -2.28903629e-02, -2.15214156e-02,
       -1.16057107e-02, -2.48154774e-02, -3.17762829e-02, 3.71210277e-04,
       -5.15590375e-03, -2.33972035e-02, -1.75990611e-02, 1.28284306e-03,
       -1.53920520e-03, -1.33018065e-02, -8.65918770e-03, 2.13792697e-02,
       3.30388211e-02, 2.29152273e-02, 3.32064405e-02, 1.85151752e-02,
       -2.18365565e-02, -1.63829736e-02, -1.88359637e-02,
       -2.33746786e-02, -1.42282192e-02, 1.19809546e-02, 1.86154172e-02,
       2.03798041e-02, -4.54995083e-03, 2.92199943e-03, -1.16930055e-02,
       -1.45514542e-03, -7.23761879e-03, 2.15672865e-03, 4.22602426e-03,
       1.44319329e-02, 1.88425404e-03, 1.31618194e-02, -2.05866024e-02,
       -2.48591099e-02, -1.46419080e-02, -1.47191575e-02, 3.15884948e-02,
       -1.63150225e-02, -1.90300250e-03, -1.37137820e-03, 4.13488271e-03,
       -5.27801132e-03, -2.88697029e-03, 9.94807854e-03, 3.61243892e-03,
       4.34768200e-02, 3.74598317e-02, 3.92259061e-02, 4.11266685e-02,
       2.88641397e-02, -4.25910652e-02, -3.09258830e-02, -1.36212362e-02,
       -9.79137141e-03, 2.19846349e-02, 3.80554143e-03, 2.83715427e-02,
       7.86438864e-03, -8.03891756e-03, -2.18505673e-02, 2.99821012e-02,
       1.58686303e-02, -4.08612378e-03, -1.53477248e-02, -1.54327601e-02,
       -2.49535963e-02, -2.65117977e-02, -2.91687306e-02,
       -8.87209084e-03, 3.08281444e-02, -2.34230887e-03, -3.02697830e-02,
       -1.22827012e-02, -1.81584875e-03, -2.79435590e-02,
       -3.31845172e-02, -1.96212903e-02, -2.46477704e-02, 8.32561869e-03,
       6.66212104e-03, 1.31147020e-02, 1.33988494e-02, 1.01210093e-02,
       -1.53209502e-03, 9.40181501e-03, -1.69604309e-02, 5.23181166e-03,
       2.07438227e-02, 1.09914476e-02, -1.43751064e-02, 2.28823419e-03,
       1.50511349e-02, -7.37771671e-03, -3.50939087e-03, 1.18483268e-02,
       9.59238317e-03, 8.07221700e-03, -3.24620195e-02, -3.61171328e-02,
       -3.14188153e-02, -1.31886471e-02, -3.42899337e-02,
       -2.48777214e-02, 2.34617665e-03, 1.68435834e-02, 2.21570954e-02,
       -3.74795543e-03, -1.96985938e-02, -2.56145792e-03, 9.16713476e-03,
       -1.13649471e-02, 2.68747594e-04, 1.76564995e-02, 2.01843325e-02,
       4.39141877e-03, -2.66391467e-02, -3.55976112e-02, -2.03446001e-02,
       -9.51770053e-04, -2.02596169e-02, -5.12868119e-03, 2.92648021e-02,
       2.71604955e-02, 1.16872853e-02, -5.38275251e-03, -7.24496134e-03,
       3.12987342e-03, 5.53433830e-03, -2.27800780e-03, 2.12440677e-02,
       2.58768685e-02, -1.52017539e-02, 5.92690660e-03, -5.87997586e-03,
       -2.35834122e-02, -1.16793523e-02, 1.57233775e-02, -2.75985077e-02,
       -6.82297535e-03, -5.63310320e-03, -1.62900090e-02, 9.57278442e-03,
       6.97844243e-03, -4.00725519e-03, -2.19509117e-02, 1.25704072e-02,
       -2.16794461e-02, -1.00976052e-02, -6.58446224e-03, 8.46850220e-03,
       4.09590499e-03, -1.83862951e-02, -1.65100452e-02, 3.30127869e-03,
       2.06812602e-02, -1.25231417e-02, 3.43879079e-03, 1.13420179e-02,
       2.33063903e-02, 2.71782167e-02, 5.05323894e-03, 1.32742655e-02,
       6.68474985e-03, 3.92869189e-02, -1.24963280e-02, 9.07131005e-03,
       1.87107120e-02, -3.64902839e-02, -2.12577954e-02, -1.38537241e-02,
       -9.91969928e-03, -2.55315565e-02, -8.09223950e-03,
       -1.12095727e-02, -5.27976686e-03, -1.92036610e-02,
       -3.79378796e-02, -1.24855638e-02, 4.05862136e-03, 8.95384792e-03,
       -2.11891029e-02, 6.10301364e-03, -2.80874083e-03, 2.14959253e-02,
       -1.70169976e-02, 2.21205950e-02, 2.37110164e-03, -1.01996977e-02,
       -4.54538595e-03, 2.43801828e-02, 2.01990418e-02, -9.56940651e-03,
       5.42109460e-03, 7.35876663e-03, 3.14079635e-02, 3.32552567e-02,
       1.77168809e-02, 2.80712880e-02, 2.47945357e-02, 2.83196755e-02,
       2.98359292e-03, 2.63917632e-02, 1.35269938e-02, -5.88864274e-02,
       -4.50753001e-03, 5.47869923e-03, -8.47585499e-03, -1.62603837e-02,
       2.21490068e-03, 1.59449335e-02, 1.67301949e-02, -1.64549928e-02,
       -4.19900939e-02, 1.27947731e-02, 9.96200182e-03, -2.16433015e-02,
       -3.85375284e-02, -1.31057983e-03, 2.01314781e-02, 2.93021221e-02,
       -1.01226876e-02, -3.67293321e-03, 2.43490543e-02, 7.48796528e-03,
       1.37598105e-02, 2.24948209e-02, 1.45791238e-02, 6.52203849e-03,
       1.27972923e-02, 4.30172123e-03, 3.00320517e-02, 4.35766764e-02,
       2.89939586e-02, 1.04846423e-02, -3.26260715e-03, 2.97761289e-03,
       3.90691757e-02, 4.71816249e-02, 1.96208488e-02, -4.36695889e-02,
       -7.40313856e-03, -1.47848828e-02, -2.59385649e-02,
       -3.36298645e-02, -1.16518587e-02, -4.99026151e-03, 1.28018241e-02,
       -2.89046075e-02, -3.24812084e-02, -1.06518231e-02,
       -2.03980617e-02, -9.47855692e-03, -1.17131779e-02, 6.49156515e-03,
       -6.44681556e-03, 4.35350137e-03, -1.81412864e-02, 1.84005406e-02,
       1.41584864e-02, 1.18041469e-03, 3.59958387e-03, 1.70274160e-03,
       5.28437784e-03, 9.53888893e-03, 3.75748314e-02, 7.16161029e-03,
       -8.16384144e-03, -1.44275595e-02, -1.06392875e-02, 9.57093481e-03,
       3.05062272e-02, 3.09156608e-02, 1.78776588e-02, 3.49301584e-02,
       4.76757018e-03, -2.53409985e-02, -3.53786983e-02, -2.92681418e-02,
       -8.48694798e-03, -2.55819820e-02, 3.32218851e-03, 1.67734679e-02,
       2.36260798e-02, -1.04979724e-02, -2.36921832e-02, -2.80489959e-02,
       -2.49070209e-02, 2.76869349e-03, -9.57093202e-03, 2.09900420e-02,
       1.80671681e-02, 1.76635180e-02, -1.16716344e-02, 1.85092480e-03,
       -8.94881133e-03, -1.72161385e-02, 7.91724771e-03, 1.11265182e-02,
       2.63573267e-02, 3.66400704e-02, 4.02117297e-02, 2.11397335e-02,
       1.08882468e-02, 4.66615055e-03, -1.01281339e-02, 2.69232038e-02,
       8.95561464e-03, 2.35216022e-02, 4.20321822e-02, 2.75625158e-02,
       2.92182472e-02, -2.07013339e-02, -8.22304282e-03, -2.14149803e-02,
       -9.67644155e-03, -1.58093944e-02, 5.04997466e-03, 3.75100877e-03,
       9.46522597e-03, 4.86305944e-04, -2.98172180e-02, -1.70673579e-02,
       -3.33352163e-02, -2.80332025e-02, -1.26534589e-02,
       -5.05801011e-03, -1.47821773e-02, 2.93287681e-03, -1.46420123e-02,
       1.57377229e-03, 5.87751111e-03, -1.58673488e-02, 4.33479575e-03,
       -2.04673386e-03, 1.54107502e-02, 3.27496305e-02, 2.15666182e-02,
       1.35110831e-02, -1.58777088e-02, -2.06536730e-03, -2.64455881e-02,
       -7.88704026e-03, 1.74479932e-02, 1.50765637e-02, 9.22721811e-03,
       3.88152078e-02, -3.15571087e-03, -2.74967849e-02, -2.25918442e-02,
       -4.62887958e-02, -2.77145281e-02, -1.46222906e-02, 7.95993302e-03,
       -1.67787205e-02, 7.65815610e-04, -3.30540002e-03, -1.94399022e-02,
       -2.24435721e-02, -4.34860811e-02, -3.79198380e-02,
       -2.13146061e-02, 1.19519057e-02, -2.10686438e-02, -6.05930015e-03,
       -3.29377851e-03, -1.95885114e-02, -4.52559954e-03,
       -2.03361381e-02, -1.37159918e-02, 7.53436517e-03, 3.01969871e-02,
       1.63075123e-02, 4.55595963e-02, 1.63738150e-02, -1.60670783e-02,
       5.00581041e-03, -1.53847486e-02, -1.80404133e-03, -1.97232794e-02,
       2.79012956e-02, -8.24384578e-03, 2.70149186e-02, -1.14385718e-02,
       -4.44497738e-04, -1.58493575e-02, -4.68976609e-02,
       -2.23504547e-02, -2.95895239e-04, 2.23459788e-02, -2.77027721e-03,
       2.19859127e-02, 5.75705385e-03, -1.88095942e-02, -2.26768944e-02,
       -5.74415922e-02, -2.10086089e-02, -5.73220197e-03,
       -2.82005221e-03, -1.70233902e-02, -6.41473802e-03,
       -1.99634451e-02, -2.78207194e-03, 4.80108941e-03, -1.86322741e-02,
       1.56638511e-02, 1.25352778e-02, 4.01491895e-02, -3.44490097e-03,
       2.19410397e-02, 2.46560271e-03, -3.28545868e-02, -2.21063420e-02,
       -2.55589709e-02, 8.87618214e-03, 3.50307347e-03, 2.58587245e-02,
       -1.51389185e-02, 1.77534227e-03, -2.42139325e-02, -1.43227857e-02,
       -1.80911981e-02, -2.91289613e-02, -8.89769872e-04, 3.08309589e-02,
       1.81326121e-02, -3.15643405e-03, 8.66909418e-03, -2.02476117e-03,
       -2.03456916e-02, -2.26868652e-02, -3.17422263e-02,
       -7.77947204e-03, -1.38765518e-02, -1.18321897e-02,
       -2.05701888e-02, -4.83110314e-03, -1.52123431e-02,
       -2.63273679e-02, -1.58381835e-02, -9.57329106e-03, 4.25599180e-02,
       2.72903647e-02, 3.29595916e-02, -3.11929709e-03, 5.77487051e-03,
       -9.66791902e-03, -1.21446773e-02, -2.54526734e-02,
       -1.36115896e-02, 2.22931132e-02, 1.01355379e-02, -1.09637612e-02,
       -2.86857225e-02, -2.18175407e-02, -2.02829414e-03,
       -6.45186193e-03, -1.43471025e-02, -7.72978738e-03, 9.32172313e-03,
       -6.01659250e-03, 9.11992230e-03, -5.86628402e-03, 4.18676855e-03,
       -8.76350154e-04, -1.95035841e-02, -2.16044188e-02,
       -1.40635883e-02, -7.54559936e-04, -2.02604407e-03,
       -8.28442536e-03, -1.35582685e-02, -6.99242391e-03,
       -2.19914727e-02, 6.16703555e-03, -2.78672972e-03, 4.66272049e-03,
       4.06748727e-02, 1.27833923e-02, 7.40755722e-03, -2.27119885e-02,
       -1.21970875e-02, 5.45359030e-03, -2.07584873e-02, 4.08204366e-03,
       2.41157878e-03, 1.98196955e-02, -3.54532199e-03, -2.05390342e-02,
       -4.39340733e-02, -2.45870147e-02, -2.18057912e-02, 8.55188258e-03,
       -4.25126497e-03, -2.00974336e-03, 1.12715568e-02, -4.37397044e-03,
       4.03024117e-03, 2.19585454e-05, 1.07810469e-02, 2.37959847e-02,
       -3.14100558e-04, -4.92441375e-03, -1.54670631e-03, 9.28800367e-03,
       3.15947668e-03, 2.09851246e-02, -1.05356961e-03, -5.14838495e-04,
       -3.04062478e-03, -8.20458587e-03, 7.37896888e-03, 1.01654390e-02,
       2.36481689e-02, 7.50374934e-03, -1.92056652e-02, -2.56617796e-02,
       -1.95375793e-02, 9.85121634e-03, -7.66438339e-03, 7.32709840e-03,
       -5.29709086e-03, 7.26916362e-04, -1.47005720e-02, -9.30435397e-03,
       -2.52749790e-02, -2.19158642e-02, -1.24179404e-02,
       -5.84994350e-03, -6.82206964e-03, -8.53381492e-03, 1.09432696e-03,
       1.11327283e-02, 3.44482064e-02, 2.64156759e-02, 9.35470778e-03,
       3.54658987e-04, -1.35875326e-02, -9.97454301e-03, -1.15690893e-02,
       -1.11819124e-02, -1.45053566e-02, 2.59002252e-03, 2.30401102e-02,
       2.01777425e-02, 5.00031561e-03, -3.83208692e-03, 5.86152636e-03,
       -3.06968926e-03, 4.79721045e-03, 4.83159395e-03, 1.17391432e-02,
       1.83334351e-02, -6.34933356e-04, -3.09987855e-03, -2.30617467e-02,
       -2.19126269e-02, -1.75149031e-02, -1.48774209e-02,
       -1.40541913e-02, -1.35120787e-02, 1.46657256e-02, 1.18219610e-02,
       -1.00117838e-02, -5.20362938e-03, -6.45682728e-03, 1.85125768e-02,
       9.08916816e-03, 1.61583666e-02, 9.63950902e-03, 2.43078619e-02,
       2.85317451e-02, 2.31398921e-02, -3.28603350e-02, -2.42078919e-02,
       2.00601900e-03, -9.70934331e-03, 9.45766806e-04, -1.46394018e-02,
       -3.28904553e-03, 1.69905194e-03, -8.50125123e-03, -1.35674570e-02,
       -1.24487281e-02, 1.10100098e-02, 1.34595586e-02, 3.40274200e-02,
       2.29265424e-03, 3.48404385e-02, 2.11098436e-02, 1.06829163e-02,
       -3.22503634e-02, -1.17893610e-02, 1.20433504e-02, -1.64107215e-02,
       2.01299209e-02, -1.78283826e-02, 1.24634439e-02, 7.18362117e-03,
       -6.48092851e-03, -5.41064292e-02, 2.12726183e-03, 1.50695592e-02,
       7.45811313e-03, -7.80233182e-03, 6.00093929e-03, 1.86074409e-03,
       5.13097970e-03, -3.93455997e-02, -1.41598266e-02, 5.21214213e-03,
       5.56496345e-03, 4.07278392e-04, -1.54949343e-02, 1.75146142e-03,
       -1.45893116e-02, -1.77024596e-03, -7.28355208e-03,
       -3.54552940e-02, 9.75150336e-03, 2.48974245e-02, 7.66450353e-03,
       3.33450246e-03, 1.83628704e-02, 1.45487422e-02, 1.74769070e-02,
       -2.31677908e-02, -3.94442119e-02, 5.99385984e-03, 6.07517501e-03,
       -7.03441398e-03, -9.81061836e-04, -4.44464356e-04, 1.54517824e-02,
       2.10297387e-02, -1.01927603e-02, 6.50360435e-03, -1.77582931e-02,
       -3.56641188e-02, -2.71851309e-02, -1.90452412e-02, 2.91987904e-03,
       -2.23790109e-02, -7.45130237e-03, 1.14930058e-02, 8.97188112e-03,
       -1.22366827e-02, -1.93417799e-02, -1.56602152e-02,
       -1.62336230e-02, 1.10416031e-02, -1.78524037e-03, 2.91005126e-03,
       2.63127335e-03, -1.48528526e-02, -1.24623878e-02, -2.60332916e-02,
       -7.63879204e-03, -2.25630049e-02, -8.99072830e-03,
       -1.03286831e-02, -8.24835151e-05, -2.65343557e-03, 1.88811310e-03,
       1.29952431e-02, -2.81289918e-03, -7.63532892e-03, -3.87387536e-02,
       1.42767630e-03, 1.32355746e-02, 7.45078316e-03, 8.91324598e-03,
       -1.72032192e-02, -1.56028764e-02, -2.22351253e-02,
       -2.57407334e-02, -2.04318725e-02, 1.53010385e-02, -1.30939791e-02,
       -7.60468002e-03, -1.68029126e-02, -5.55029884e-03, 5.88659954e-04,
       1.62117853e-04, 4.25376138e-03, 1.17065329e-02, 3.48075107e-02,
       -2.30966080e-02, -5.60606178e-03, -1.06775190e-03, 2.16200191e-04,
       2.72645839e-02, -1.83341466e-02, -3.81414145e-02, -2.81170383e-02,
       1.31287961e-03, -1.11110937e-02, -1.11735426e-02, -2.88844365e-03,
       -1.62964109e-02, 1.86609048e-02, 4.00118250e-03, -1.13467099e-02,
       9.61624552e-03, 2.15476975e-02, -2.16433723e-02, 6.80382783e-03,
       7.73890223e-03, -1.18640503e-02, -1.11941891e-02, -4.96018631e-03,
       -9.58652701e-03, -1.38346560e-03, 9.50499997e-03, -3.17676067e-02,
       -2.37142313e-02, -6.60504913e-03, -3.59534356e-03, 4.24400344e-03,
       -2.76493584e-03, 2.70092618e-02, 1.43558728e-02, 1.52992113e-02,
       3.13961087e-03, -1.65774632e-04, 4.14795504e-04, -2.09517740e-02,
       -9.17722378e-03, -1.02966093e-02, -2.05878895e-02, 5.22058923e-03,
       -7.62107596e-03, -2.92216763e-02, -4.74569621e-03, 5.83412219e-03,
       -1.62222609e-03, -1.10119674e-03, -1.44775957e-03, 2.15749666e-02,
       2.97270659e-02, 1.96490884e-02, -9.37019847e-03, 1.26470271e-02,
       2.00627279e-02, -2.02828683e-02, -1.25078531e-02, -2.37334091e-02,
       -3.65699711e-03, 3.56957107e-03, 5.27399499e-03, 3.31943086e-03,
       3.18931503e-04, -7.90055655e-03, -1.46978199e-02, -3.53992335e-03,
       -1.25968661e-02, 2.89984397e-03, -1.15664629e-02, 9.55956336e-03,
       1.41921062e-02, 1.87861826e-02, -1.46893896e-02, 5.71206561e-04,
       -1.90230645e-02, -1.66142955e-02, 4.11049044e-03, -9.83544812e-03,
       8.42851214e-03, -3.22747626e-03, 5.18348487e-03, 8.40321276e-03,
       -1.33868875e-02, 2.34370679e-02, 1.64370928e-02, 3.19610536e-02,
       2.40035281e-02, 1.51941385e-02, 9.10083856e-03, 2.68439930e-02,
       -4.78954706e-03, -2.52290275e-02, -1.56527553e-02,
       -2.74143461e-02, -3.95922875e-03, 1.96279539e-03, 1.11721652e-02,
       8.89439892e-04, 1.80882856e-03, -2.47190539e-02, -2.87486669e-02,
       -2.67472900e-02, -1.99582204e-02, 7.64470780e-03, 2.56280415e-02,
       2.14596856e-02, 1.99075099e-02, 7.63969030e-04, -3.44933979e-02,
       -3.97729687e-02, 1.92396678e-02, 2.46648323e-02, 3.50762196e-02,
       4.32916544e-02, 1.11111738e-02, -2.12315358e-02, -1.07194269e-02,
       -3.55204791e-02, -2.52304915e-02, 6.64729206e-03, 1.51153579e-02,
       3.93819064e-02, 2.34306790e-02, 3.02543025e-02, 2.53821723e-03,
       -1.16846524e-02, -4.32007983e-02, -1.51920058e-02,
       -1.75118037e-02, -1.27479099e-02, -3.42321070e-03, 7.60173472e-03,
       6.26050076e-03, 1.53073734e-02, 5.58032701e-03, -1.80571172e-02,
       -3.27281095e-02, -1.16157951e-02, -9.56505258e-03, 6.62192283e-03,
       -5.08819241e-03, 8.18487722e-03, 1.29265152e-02, 7.24950433e-03,
       -8.90362728e-03, -4.51068208e-03, 4.21884563e-03, 1.06879370e-02,
       3.46581042e-02, 2.04122923e-02, 1.62904654e-02, -1.18002587e-03,
       -4.13994631e-03, -1.64455418e-02, -3.26865539e-02, 4.66456683e-03,
       -1.29930687e-03, 2.97435336e-02, 1.23352390e-02, 1.47858076e-02,
       7.60423078e-04, -7.42123602e-03, -3.02398093e-02, -1.86476316e-02,
       -3.22967209e-03, -1.66036319e-02, -3.58785596e-03, 6.32829615e-04,
       1.23999978e-03, 1.58754326e-02, 1.25180753e-02, -1.14934016e-02,
       -3.37891765e-02, 2.49579758e-03, -1.74052995e-02, -5.43283625e-03,
       1.51458057e-03, -1.55707169e-03, -2.88464432e-03, 1.81070138e-02,
       -2.59291213e-02, -9.23788641e-03, 8.59378371e-03, -2.83829169e-03,
       1.60143264e-02, -8.91319383e-03, 8.05230998e-03, 1.30676422e-02,
       9.16565582e-03, -1.40701830e-02, -1.12652518e-02, 1.60363764e-02,
       1.11401407e-03, 1.22392485e-02, -6.63095899e-03, 5.07940166e-03,
       -3.41226673e-03, 9.69333760e-03, -1.81662012e-02, -3.37380469e-02,
       8.90792068e-03, -5.74192917e-03, -1.05288420e-02, -1.15027931e-02,
       1.89852305e-02, 7.70541606e-03, 3.71017903e-02, -1.56850927e-02,
       -2.71237250e-02, -3.53405997e-03, -5.81946690e-03,
       -3.07801366e-03, -2.21294370e-02, 1.02951704e-02, -1.20560359e-02,
       9.46161803e-03, -2.79579721e-02, -9.57986526e-03, 2.14687530e-02,
       -8.82071501e-04, 3.24410805e-03, -6.17755298e-03, 1.78223513e-02,
       -8.84210039e-03, 1.08717736e-02, -1.30584063e-02, -1.89982597e-02,
       2.23755762e-02, -8.97112861e-03, -8.28183256e-03, -2.36858837e-02,
       2.23263036e-02, -3.70654906e-03, 1.72129441e-02, -1.99828781e-02,
       -2.21542418e-02, -5.51057421e-03, -9.86572355e-03, 1.79830249e-02,
       4.49723378e-03, 2.30558217e-02, -3.19920341e-03, -5.13742154e-04,
       -1.36079630e-02, -4.22799289e-02, -3.33749652e-02,
       -2.20862348e-02, -1.66982890e-03, -2.37429999e-02, 8.29032343e-03,
       -1.60471164e-02, -8.14559869e-03, -3.67554352e-02,
       -8.03046278e-05, 2.30235588e-02, 1.13127625e-03, 1.28237577e-03,
       -5.46467723e-03, 2.70867255e-02, 2.00643018e-02, 3.43675800e-02,
       2.98966118e-03, -1.91924870e-02, -9.83997365e-04, -4.06761328e-03,
       -5.49073005e-03, -2.81445719e-02, 8.77493992e-03, -4.75238776e-03,
       7.59871025e-03, -2.86227949e-02, -2.63743084e-02, -2.64219288e-02,
       2.80670659e-03, 3.17396559e-02, -6.23112824e-03, 2.04408877e-02,
       1.58613513e-03, 2.55161314e-03, -9.97242425e-03, -2.35213432e-02,
       -3.46530676e-02, -2.13170219e-02, 1.17717329e-02, -3.60633507e-02,
       -2.27965303e-02, -4.80736047e-02, -4.30029556e-02,
       -1.31245637e-02, 2.82769930e-03, -1.14585552e-02, -3.21909756e-04,
       1.45981368e-02, -5.95911359e-03, 2.68012080e-02, 8.79892148e-03,
       1.61594767e-02, -2.58426322e-03, -2.46950821e-03, -3.33978832e-02,
       -4.70885336e-02, -1.21718086e-03, -2.52998192e-02, 1.24631263e-02,
       -1.44241294e-02, -5.90773625e-03, -8.22080672e-03, 1.18942838e-03,
       1.43022826e-02, 2.33606510e-02, 3.21723893e-02, 8.73245153e-05,
       -4.04098583e-03, -2.86187623e-02, -1.39543666e-02,
       -1.62566528e-02, -1.93287376e-02, 6.09480031e-03, -6.67691603e-03,
       6.55884808e-03, -2.04307064e-02, -2.59440374e-02, -4.96361032e-02,
       -2.96005514e-02, -3.61397527e-02, 1.46447197e-02, 1.43490564e-02,
       3.26387328e-03, 1.89306010e-02, -1.71916410e-02, 2.24373136e-02,
       -3.57405539e-03, 7.79120624e-03, -2.98715313e-03, -1.52071733e-02,
       -6.63367426e-03, -2.09411886e-02, -7.63913430e-03,
       -2.41049435e-02, -3.85611854e-03, -2.92019807e-02,
       -1.82999574e-04, -3.57704349e-02, -1.58888043e-03, 2.29217075e-02,
       1.06489402e-03, 2.84652859e-02, -5.66861173e-03, -2.02753711e-02,
       -1.83684099e-02, -7.05620972e-03, 4.75445064e-03, -5.44532761e-03,
       9.46395844e-03, -1.02111418e-02, -1.61469262e-02, -3.09236255e-02,
       -1.18908044e-02, -1.88258998e-02, -1.06779048e-02,
       -1.25544835e-02, 1.33205811e-02, 3.64976586e-04, -2.00474896e-02,
       1.04650687e-02, -4.59214952e-03, 4.37316764e-03, 7.25514209e-03,
       3.64475176e-02, 2.00279392e-02, -1.94284992e-04, -2.94587761e-02,
       -3.75314765e-02, -3.80840190e-02, -3.14180888e-02, 1.72755704e-03,
       -6.61610160e-03, 7.52666965e-03, 6.94015645e-04, 9.04974993e-03,
       2.74059474e-02, 2.14232560e-02, 5.78405568e-03, -1.32928547e-02,
       -4.29913402e-04, 1.60016157e-02, 7.00892322e-03, -2.07514313e-04,
       -3.19173001e-02, -7.59568624e-03, 4.09217272e-03, 1.37399696e-03,
       -1.68543234e-02, -1.59964338e-02, 1.72375292e-02, 1.29965888e-02,
       -7.77137186e-03, 1.19197518e-02, 1.28499847e-02, 2.82734772e-03,
       8.83812245e-05, -1.50449655e-03, -9.46036947e-04, 6.74938346e-05,
       1.04468595e-02, 1.45242419e-02, -2.11371016e-02, 5.48422383e-03,
       7.44501315e-03, 5.28184557e-03, -9.30595584e-03, -2.33674329e-02,
       -4.81855450e-03, 4.02635400e-04, -4.95627290e-03, -3.17827389e-02,
       -6.21934980e-03, 1.54374149e-02, 6.53299782e-03, 4.65351250e-03,
       -7.29379617e-03, 1.99748110e-02, -1.51973043e-03, -1.10409120e-02,
       -2.10667960e-02, 3.20817647e-03, 2.47674324e-02, -1.57454014e-02,
       -8.90405965e-04, -1.07603222e-02, 9.26712062e-03, -9.40065552e-03,
       -1.79152004e-02, 6.09761992e-05, 1.98525880e-02, 1.79106537e-02,
       6.23215269e-03, 1.97277851e-02, -1.40000973e-02, -5.09334588e-03,
       -1.44189447e-02, -6.64276816e-03, 3.36102652e-03, 1.95533112e-02,
       1.97539069e-02, -4.69937222e-03, 3.41662602e-03, -1.45336129e-02,
       -7.74566608e-04, -1.58767309e-02, -1.57114770e-02,
       -3.10718901e-02, 1.41477538e-02, 3.40034738e-02, 1.94648337e-02,
       -4.44241741e-04, 1.94219574e-02, 1.49229215e-02, 1.29835634e-02,
       -1.98261254e-02, -1.58954468e-02, 1.30279139e-02, 1.07885748e-02,
       3.65227368e-03, -1.30068557e-02, 1.05538557e-03, 2.39824224e-02,
       2.48346254e-02, -2.73801340e-03, -4.99474332e-02, -2.83532217e-03,
       1.67841017e-02, 2.09410340e-02, -2.50583701e-02, 9.10949428e-03,
       6.31575845e-03, -8.52580590e-04, -2.80299038e-02, -2.95225400e-02,
       1.11245236e-03, 1.56741403e-02, 2.59063337e-02, -3.66785750e-02,
       -2.48473231e-02, 1.15185941e-03, 1.30545208e-02, -1.34129515e-02,
       9.85310544e-05, -5.15469292e-04, -3.22762388e-03, 1.52333835e-02,
       -1.92375407e-02, -1.32608889e-02, -7.49477325e-03, 5.40165650e-03,
       7.97549915e-03, 6.07346836e-03, 1.39725469e-02, -1.68784463e-03,
       6.74998248e-03, -2.72954628e-02, 2.55643245e-04, 2.50070561e-02,
       3.54342014e-02, 1.77558810e-02, -2.68788021e-02, -1.86484531e-02,
       -6.91068498e-03, 2.31126714e-02, -2.73404084e-03, -3.36815417e-02,
       -3.07817124e-02, -1.34266978e-02, -2.17507798e-02,
       -3.09642367e-02, -8.56250897e-03, -5.11644781e-03, 2.42130365e-02,
       -1.44559154e-02, -1.22505594e-02, 1.66154263e-04, 1.53261069e-02,
       -1.01422062e-02, 7.97457341e-03, 1.01455748e-02, -2.74737924e-02,
       -1.93591043e-02, -2.25340594e-02, 8.27345531e-03, -2.54411274e-03,
       1.57406181e-02, 1.35931121e-02, 6.04905840e-03, 7.88101833e-03,
       -1.66603196e-02, -2.01026537e-03, 1.34752402e-02, 3.29703987e-02,
       2.75143492e-03, 3.40242200e-02, 4.03617322e-02, -3.20209973e-02,
       -2.03970000e-02, -2.76425965e-02, 3.20444116e-03, -2.38577332e-02,
       -5.48333104e-04, 5.65833272e-03, 5.79400733e-03, -5.90316532e-03,
       -3.56203578e-02, -3.76668982e-02, -2.56369971e-02, 3.21686640e-03,
       1.09115904e-02, 1.83955505e-02, 1.30325183e-02, 2.32773833e-02,
       1.41898235e-02, 6.51862612e-03, -1.17416130e-02, -2.71829572e-02,
       -2.78245192e-02, -3.15356976e-03, -7.44554214e-03,
       -9.97750275e-03, 2.76308525e-02, 4.28700224e-02, 2.92702727e-02,
       7.58495182e-03, -1.48510858e-02, 3.22537217e-03, 1.69753302e-02,
       2.44405642e-02, 1.81284023e-03, 4.98502702e-02, 5.28486110e-02,
       -3.56998406e-02, -4.16197814e-02, -3.10289674e-02,
       -2.16535740e-02, -1.01990690e-02, -1.14510246e-02,
       -1.04114208e-02, 1.05119133e-02, 1.13310358e-02, -1.70720927e-02,
       -2.92613134e-02, -2.28330623e-02, -7.20810518e-03, 7.20267463e-03,
       5.16615575e-03, -7.86096510e-03, 2.41119247e-02, 2.29085498e-02,
       1.60145592e-02, -2.41113845e-02, -2.63047516e-02, -7.85354618e-03,
       -7.55439373e-03, 1.41649786e-02, 1.91469706e-04, 2.07005702e-02,
       3.16846818e-02, 1.11471936e-02, -6.60178298e-03, 3.69637087e-03,
       3.56962495e-02, 2.61574015e-02, 4.33785915e-02, 1.88362412e-02,
       3.34676616e-02, 3.29997241e-02, -3.12015917e-02, -4.93846014e-02,
       -2.67854799e-02, -1.27082076e-02, -2.11265627e-02,
       -1.60932261e-03, -1.44837927e-02, -5.83755225e-03, 9.70321824e-04,
       -3.35608236e-02, -4.91182506e-02, -8.51518009e-03, 1.90367140e-02,
       -1.21553503e-02, 2.93678325e-02, 2.89716222e-03, -3.24290642e-03,
       9.69094131e-03, -2.49972809e-02, -7.38446182e-03, 6.10663462e-03,
       4.52132486e-02, 4.59600277e-02, 2.54489202e-02, -7.11802905e-03,
       9.75676719e-03, 9.02826805e-03, -1.79931093e-02, -1.23169934e-02,
       -1.59139708e-02, 4.30521481e-02, 1.65669974e-02, 3.11791487e-02,
       4.69599210e-04, 7.29594333e-03, -4.27167834e-04, -4.25473675e-02,
       -4.56692688e-02, -1.92212425e-02, 2.17224155e-02, -6.23974670e-03,
       1.17780184e-02, -1.56346932e-02, -3.44441552e-03, 5.03660087e-03,
       -2.34721601e-02, -4.05529551e-02, -3.43607254e-02, 2.47658994e-02,
       1.88500260e-03, 2.16281917e-02, 8.35048873e-03, 9.86730680e-03,
       -6.69625588e-04, -3.97663144e-03, -6.69514667e-03,
       -6.64279656e-03, 3.89668979e-02, 1.50087671e-02, 3.34548391e-02,
       -4.78545623e-03, 1.21671343e-02, 2.31084917e-02, -1.05994819e-02,
       1.05732065e-02, -9.61873401e-03, 1.65134184e-02, 1.38066877e-02,
       2.55415160e-02, -3.04991403e-03, 2.51961220e-02, 7.67315226e-03,
       -2.24355748e-03, -1.95412580e-02, -2.99389716e-02, 8.50982126e-03,
       -6.77047484e-03, 2.64398381e-02, 1.70581113e-03, 1.70422420e-02,
       1.10063758e-02, -3.88207426e-03, 1.94256683e-03, -4.18739803e-02,
       -1.19746830e-02, -2.60097794e-02, 9.44215048e-04, -2.38533374e-02,
       2.29646564e-02, 3.38302716e-03, 2.24223882e-02, 2.46786475e-02,
       7.78486894e-04, 9.48686805e-03, -1.13366544e-02, 2.89017265e-03,
       -2.15690210e-03, 1.91700105e-02, 2.14776248e-02, 1.01268217e-02,
       2.61845067e-02, -1.88284798e-03, 1.50986128e-02, -1.69309247e-02,
       -9.19880159e-03, -2.09359434e-02, 1.90509707e-02, 1.34177078e-02,
       2.02913024e-02, 2.66909581e-02, -2.76447795e-02, -1.81440338e-02,
       -3.43907215e-02, -3.15140411e-02, -3.67637500e-02, 4.29008761e-03,
       1.88721530e-02, -8.62137787e-03, 1.45465331e-02, -3.49112451e-02,
       -1.83820501e-02, -3.79841924e-02, -3.69143151e-02,
       -5.17695174e-02, -5.77215292e-03, 6.73423056e-04, 1.27074141e-02,
       3.46078612e-02, -1.81784807e-03, 2.24880334e-02, 4.78079077e-04,
       1.36600640e-02, -1.44533981e-02, 2.79472605e-03, 1.83370300e-02,
       3.17529286e-03, 3.05628628e-02, -1.90534536e-02, 7.80487317e-04,
       -2.30897609e-02, 2.08936743e-02, -1.13973860e-03, 4.14621923e-03,
       -1.04999263e-02, 9.76539310e-03, 1.12039950e-02, -3.40308249e-02,
       5.60436724e-03, -1.64356586e-02, -7.53642619e-03, -4.54101190e-02,
       -9.00248159e-03, 5.55717060e-03, 5.00019360e-03, 1.55000417e-02,
       -4.48994748e-02, -8.45943484e-03, -4.17647697e-02,
       -7.70315481e-03, -4.97142337e-02, -3.14315595e-02,
       -2.68576797e-02, 1.60575286e-02, 3.72097529e-02, 2.77558900e-03,
       1.44996075e-02, -9.09865275e-03, 2.18676254e-02, 1.44483186e-02,
       1.57123003e-02, -1.05696097e-02, -1.16258198e-02, 1.05367536e-02,
       1.25573846e-02, 8.41473415e-03, -1.18953055e-02, 1.46552930e-02,
       9.11801495e-03, 3.73512344e-03, -2.11171452e-02, 1.96750890e-02,
       1.77952778e-02, -2.04974096e-02, -1.15405479e-02, -4.59639058e-02,
       -8.64513684e-03, -3.06244791e-02, -2.86312234e-02,
       -1.94952656e-02, -3.35072912e-02, -1.25738066e-02,
       -2.52107792e-02, -5.13576064e-03, -2.90053915e-02,
       -1.77094934e-03, -2.49917489e-02, -1.81115717e-02,
       -3.43196616e-02, 1.37985907e-02, 1.32144457e-02, 1.11655714e-02,
       1.43134240e-02, 3.07970215e-03, 3.85893062e-02, 1.30662993e-02,
       4.46062622e-04, -1.24289782e-03, 1.11623947e-02, -8.39433353e-03,
       -3.83874029e-02, -2.08294485e-03, -2.40557753e-02, 9.04414430e-03,
       -1.41310561e-02, -1.14899529e-02, -1.33372229e-02, 4.78617694e-05,
       5.62400138e-03, -7.39647355e-03, 1.76747814e-02, -9.35053732e-03,
       1.48352347e-02, -2.92717665e-02, -4.49622655e-03, -1.99414417e-02,
       -2.30802316e-02, -5.31195430e-03, -2.77262926e-02,
       -1.73852779e-02, -3.90416682e-02, -1.18585769e-02,
       -3.67860161e-02, -4.21817675e-02, -4.17746827e-02, 3.40340883e-02,
       3.81448157e-02, 1.09153511e-02, 3.32954302e-02, 1.52163091e-03,
       3.00024245e-02, 2.81919423e-03, 3.88467894e-03, -4.33661649e-03,
       -2.53992854e-03, 1.00591658e-02, -8.83768313e-03, 1.24122910e-02,
       -1.83457565e-02, 1.35946786e-03, -1.91637967e-02, -1.50883729e-02,
       -2.68716291e-02, -6.87644444e-03, 8.99466686e-03, -3.61582916e-03,
       -5.12057822e-03, -3.10213249e-02, 1.61870625e-02, -1.96438879e-02,
       -2.16570813e-02, -3.05467434e-02, -1.90805849e-02,
       -9.88066103e-03, -2.66007595e-02, -1.32486802e-02,
       -3.83410752e-02, -2.95535312e-03, -3.36567387e-02,
       -1.97852738e-02, -4.64713015e-02, 2.51225233e-02, 6.69773621e-03,
       -1.03498567e-02, 2.17752364e-02, -3.21750180e-03, 1.00312075e-02,
       4.05052118e-03, 1.34429093e-02, 2.11869814e-02, 1.58835575e-02,
       -3.35894190e-02, -3.92317735e-02, -1.41636785e-02,
       -2.08095703e-02, -2.85243616e-03, -1.36962682e-02,
       -6.16391236e-03, 8.20128899e-03, 1.50675746e-02, -3.91684426e-03,
       -1.88701004e-02, 1.66778956e-02, -1.20982537e-02, -7.43323518e-03,
       -1.75364241e-02, -9.34361655e-04, -4.63290652e-03,
       -4.36571892e-04, -2.84779053e-02, -3.60012501e-02,
       -5.02997171e-03, -3.70802507e-02, -2.39416510e-02,
       -2.63671242e-02, -2.90003922e-02, -1.74540356e-02, 3.44361961e-02,
       1.21043269e-02, 1.38823385e-03, 1.17119616e-02, 3.72484513e-03,
       -8.15245032e-04, -5.83144324e-03, 2.38738977e-03, 3.38533744e-02,
       2.08092071e-02, 1.55166546e-02, -3.38020246e-03, -2.76907044e-03,
       -9.01799556e-03, -1.48846274e-02, -1.71714723e-02,
       -8.13013595e-03, 2.73152236e-02, 2.35603377e-02, -6.88960077e-03,
       -2.14525927e-02, 1.87591873e-02, -1.10996785e-02, -1.79544576e-02,
       -1.19098742e-02, -1.77154616e-02, 1.66658591e-02, 1.07193058e-02,
       -1.26718008e-03, 1.29429009e-02, 2.60461774e-02, -2.64570080e-02,
       -3.00994404e-02, -1.79075170e-02, -1.54707218e-02, 1.11319786e-02,
       2.47367285e-02, 3.54599506e-02, 1.11577520e-02, 8.14275537e-03,
       2.32634228e-03, -1.01175671e-02, -1.90727357e-02, -1.63863525e-02,
       1.32604530e-02, 1.71300918e-02, 2.07925998e-02, 1.63503829e-02,
       -3.69047490e-03, -8.85973335e-04, -1.97404921e-02,
       -1.28804119e-02, -1.50037454e-02, 9.27782431e-03, 9.55689792e-03,
       3.20369713e-02, 4.26498167e-02, 1.25223165e-02, 2.58130953e-03,
       -2.83524189e-02, -3.15682516e-02, -2.66006123e-02,
       -3.13469255e-03, 2.01559090e-03, 2.28057858e-02, 3.66739966e-02,
       -1.70259289e-02, 2.34528985e-02, -2.57048067e-02, -3.05564366e-02,
       -2.34662499e-02, -3.51683702e-03, -3.89697105e-02,
       -1.39867729e-02, -2.14308081e-03, 1.15015497e-02, -1.11615295e-02,
       1.34050194e-02, 3.95904779e-02, 2.92191654e-02, -1.64559595e-02,
       -3.17446105e-02, -1.36292018e-02, -1.25240034e-03, 1.37178851e-02,
       -1.81139503e-02, -1.90949608e-02, 2.75580660e-02, 4.69392426e-02,
       8.23326991e-04, -4.38330062e-02, -3.76391485e-02, -2.63427366e-02,
       4.93657077e-03, -1.58279091e-02, 5.26071945e-03, 2.87484601e-02,
       2.95269489e-02, -3.22248489e-02, -3.15382928e-02, -2.75147706e-02,
       -1.11003555e-02, 4.75665508e-03, -1.71829294e-02, -1.73921529e-02,
       2.44930834e-02, 4.61794287e-02, -6.55554747e-03, -2.09561270e-02,
       -1.17282560e-02, 9.71871603e-04, 1.31695783e-02, -2.54187286e-02,
       -2.71480177e-02, -2.53663957e-02, 1.66071076e-02, -1.09891938e-02,
       -1.80388466e-02, 2.30498309e-03, 1.45063922e-02, 3.06188483e-02,
       -1.34131627e-03, -1.13364984e-03, -4.21492988e-03, 3.69722173e-02,
       2.82121659e-03, -2.09635235e-02, -2.16168035e-02, -1.43597182e-02,
       -5.51636470e-03, -2.60101128e-02, -1.40358051e-02,
       -1.26773315e-02, 3.02564930e-02, -9.42272693e-03, -7.93326180e-03,
       -5.21086343e-03, -1.26095992e-02, 1.00897020e-02, -9.89118405e-03,
       -1.09047303e-03, -2.76543163e-02, 1.63109843e-02, -2.71298690e-03,
       -1.88048463e-02, -1.18052037e-02, -1.27131864e-02, 1.87062901e-02,
       1.08659239e-02, 1.83006786e-02, 1.64932907e-02, 2.78372373e-02,
       5.11245010e-03, -1.70594100e-02, -2.83135474e-03, 4.59105009e-03,
       1.00008063e-02, 1.22516863e-02, 4.66852561e-02, 3.98558900e-02,
       4.76362258e-02, 2.11986359e-02, -2.44495329e-02, -2.13971641e-02,
       -3.76553796e-02, -4.45168978e-03, 5.24076773e-03, 1.12211462e-02,
       -1.63878240e-02, 5.79838548e-03, -6.91805687e-03, -3.57571915e-02,
       -1.24765299e-02, -1.65345054e-02, -1.33518223e-02,
       -6.03735168e-03, 1.84897725e-02, 1.85477291e-03, 7.76354969e-03,
       -2.38800794e-02, -1.34274969e-02, -1.20895281e-02,
       -6.25165785e-03, -1.55702541e-02, 4.72722342e-03, 3.16497758e-02,
       2.99896058e-02, 3.30308937e-02, 1.79729015e-02, 1.61600187e-02,
       -3.85712134e-03, -3.50756198e-03, 4.40037064e-03, 1.69852842e-02,
       3.37156579e-02, 2.38551442e-02, 4.65353839e-02, 4.07886803e-02,
       -4.00284268e-02, -1.79560594e-02, -3.18113267e-02,
       -2.99533568e-02, -2.78318580e-02, -7.46343285e-03,
       -4.89129545e-03, 1.10896192e-02, -2.25362107e-02, -3.65431346e-02,
       -7.26222154e-03, -3.30776311e-02, -1.83978416e-02,
       -3.12905051e-02, -1.36285992e-02, 2.93865986e-03, 1.78012792e-02,
       -6.16043201e-03, 2.22455617e-03, -5.10515505e-03, -6.34319289e-03,
       2.19820696e-03, -4.12965892e-03, 1.06612621e-02, 4.97860136e-03,
       2.50898991e-02, 1.43973259e-02, 1.21215750e-02, 1.43008577e-02,
       2.55700890e-02, 4.09551002e-02, -3.80454538e-03, 2.84955110e-02,
       1.57584101e-02, 3.04163769e-02, 2.89002974e-02, -3.80501635e-02,
       -1.00338543e-02, -3.15723680e-02, -2.41071358e-02,
       -2.55169421e-02, -1.05663370e-02, -6.48956420e-03,
       -9.38144280e-04, -3.66729125e-02, -4.23435755e-02,
       -1.04189748e-02, -1.56351854e-03, -7.84555217e-04,
       -2.65159309e-02, 2.52028136e-03, -2.55305185e-05, -9.99555271e-03,
       -3.87041494e-02, -2.79178820e-03, 3.94478766e-03, 8.94497242e-03,
       3.95211689e-02, -3.18180857e-04, 1.27564194e-02, -6.09307969e-03,
       3.36760618e-02, 3.31240892e-02, 2.63353921e-02, 1.16075547e-02,
       3.54425656e-03, 4.91129681e-02, 2.54057813e-02, 3.98334749e-02,
       3.06911226e-02, 4.61794809e-02, 4.55585793e-02, -5.85751832e-02,
       -2.49351747e-02, -2.32832767e-02, -3.44412727e-03,
       -2.36618742e-02, -9.47279576e-03, -3.03105637e-02,
       -1.36960680e-02, -4.17952500e-02, -5.21213003e-02,
       -1.46938069e-02, -1.13206608e-02, 1.22353509e-02, -3.22439261e-02,
       -1.19336024e-02, -1.94550008e-02, 1.48499934e-02, -2.11403072e-02,
       2.92839445e-02, 7.99538393e-04, -1.99210979e-02, 1.47289736e-02,
       5.88893378e-03, 2.29153428e-02, 2.25876048e-02, 5.14346026e-02,
       4.75862846e-02, 3.58455554e-02, 7.74043705e-03, -1.98389720e-02,
       6.87799416e-03, 1.14892400e-03, 1.70411170e-02, 1.67368129e-02,
       6.12650812e-02, 5.45159616e-02, -3.63003574e-02, -1.36785842e-02,
       -2.30343901e-02, -3.33033642e-03, -4.26312611e-02,
       -3.15807834e-02, -3.51487771e-02, 1.56681929e-02, -1.65866707e-02,
       -3.15700732e-02, -7.20094331e-03, -1.55102313e-02, 1.13974430e-03,
       -2.37136502e-02, -1.46863563e-02, -2.50710919e-02, 1.40174516e-02,
       -2.48173997e-02, 5.80174662e-02, 3.27122733e-02, 5.33021567e-03,
       -3.82034387e-03, 2.40180688e-03, -9.65544954e-03, -9.86592006e-03,
       4.91383299e-02, 6.71053231e-02, 4.80319224e-02, 2.04591509e-02,
       -5.56596508e-03, -1.68370456e-02, -3.30567770e-02,
       -2.86111850e-02, -2.07830928e-02, 4.19198908e-02, 6.06479496e-02,
       -2.44452506e-02, -1.03802634e-02, -2.13177837e-02,
       -9.30645037e-03, -3.47240344e-02, -1.48134092e-02,
       -1.48220481e-02, 2.36876085e-02, 4.06681141e-03, -4.17275392e-02,
       -2.67055612e-02, -4.55117486e-02, -3.80282775e-02,
       -5.94364218e-02, -3.75139825e-02, -2.35802308e-02, 3.11747678e-02,
       1.37974396e-02, 5.21496832e-02, 3.04921102e-02, 5.84958587e-04,
       1.23641873e-02, 4.00656881e-03, -7.23424600e-03, -3.54254171e-02,
       2.42451988e-02, 6.76924735e-02, 4.28382270e-02, 2.95357406e-02,
       -2.04611942e-02, 9.94748995e-03, 7.52874976e-03, -1.58066629e-03,
       -3.69229391e-02, 7.81862065e-03, 2.68720612e-02, -3.12588327e-02,
       -1.83070805e-02, -3.04708835e-02, -2.13207509e-02,
       -3.16906683e-02, -2.33274084e-02, -3.00960820e-02, 2.61126198e-02,
       2.52728499e-02, -5.52935041e-02, -4.08214815e-02, -4.69299778e-02,
       -2.38634925e-02, -3.76988538e-02, -1.28025552e-02,
       -3.56641598e-02, 8.25693179e-03, -1.94909237e-02, 5.65042719e-02,
       2.51822807e-02, -1.32191228e-03, 3.60173942e-03, 3.07169487e-03,
       7.12892087e-03, -2.63500325e-02, 1.22754392e-03, 3.95519473e-02,
       1.43962335e-02, 2.90539348e-03, 1.96647306e-04, 5.00303460e-03,
       2.26625223e-02, 1.33053334e-02, -1.90262366e-02, 1.36721246e-02,
       2.31946502e-02, -3.14655863e-02, -2.99593527e-02, -3.10006496e-02,
       -1.62461996e-02, -1.12719536e-02, -2.35967361e-03,
       -1.51165659e-02, 2.01182496e-02, -2.93100602e-03, -3.25323865e-02,
       -3.99877690e-02, -2.37759333e-02, -1.15701500e-02,
       -1.47503894e-03, -2.40011252e-02, -3.81803624e-02,
       -8.02795123e-03, -2.09102337e-03, 4.85449322e-02, 5.93437850e-02,
       3.43202539e-02, 4.42148261e-02, 2.84704175e-02, 1.07085975e-02,
       -1.98647194e-02, 1.89602319e-02, 3.32744755e-02, 3.81173193e-02,
       3.89833152e-02, 3.08686984e-03, 1.00896014e-02, -9.41835251e-03,
       7.03631761e-03, -2.24230383e-02, -1.25005236e-02, 1.39930565e-02,
       -1.11525273e-03, 1.39356518e-04, 2.35187914e-03, 9.50673502e-03,
       -7.92325009e-03, -3.51618491e-02, -4.68733683e-02,
       -7.99137820e-03, 2.81143934e-02, -2.66564321e-02, -2.90071815e-02,
       -3.55263278e-02, -3.75525132e-02, -3.32476944e-02,
       -3.88698205e-02, -6.39569908e-02, -2.72355340e-02,
       -7.07153580e-04, 4.54883166e-02, 4.98907492e-02, 6.47593522e-03,
       7.69270165e-03, -2.05271295e-03, 1.55298626e-02, -1.00325216e-02,
       9.76353325e-03, 2.89463978e-02, 1.06310025e-02, 1.67885032e-02,
       -5.78936050e-03, -1.69811223e-03, -7.40258815e-03,
       -1.10278092e-02, -3.62764895e-02, -5.29313600e-03, 1.33814596e-04,
       1.81751244e-03, 4.69535496e-03, -1.30619816e-02, -2.86169425e-02,
       -5.78994583e-03, -1.26424218e-02, -3.22815701e-02,
       -1.12972762e-02, 1.32917622e-02, -4.04254422e-02, -2.30084546e-02,
       -2.79605091e-02, -3.68836299e-02, 2.92651075e-05, -3.72444950e-02,
       -2.76942216e-02, -2.10711006e-02, -4.21390720e-02, 2.39336919e-02,
       6.09827461e-03, 8.30179080e-03, 2.49923449e-02, 9.21925530e-03,
       -1.89896002e-02, -2.54845917e-02, 3.92245082e-03, 3.17041092e-02,
       -1.77347020e-03, -2.34767292e-02, -2.03999057e-02, 7.25945923e-03,
       -5.83257154e-03, -2.15625633e-02, -3.20872106e-02,
       -1.91973057e-02, -2.26445589e-03, -2.24827416e-02,
       -2.37502437e-02, -2.34042965e-02, -7.15545658e-03, 2.59192921e-02,
       -2.35485397e-02, -7.85116758e-03, 7.29036890e-03, -1.61701202e-04,
       -4.38812487e-02, -3.98249105e-02, -3.82098071e-02,
       -1.76982060e-02, 4.40540304e-03, -1.16106467e-02, -2.70128399e-02,
       -4.58026910e-03, -1.39304129e-02, 2.31433590e-03, -1.05269514e-02,
       -6.05749618e-03, 2.92067640e-02, 9.01398424e-04, -1.86172221e-02,
       -2.54094787e-02, -1.95196234e-02, 1.16187590e-03, 7.85262417e-03,
       8.15376174e-03, 3.71842869e-02, 3.51397917e-02, 4.04116092e-03,
       -1.16332872e-02, -2.92699244e-02, -2.16926597e-02, 1.65847014e-03,
       -2.39566322e-02, -2.28767376e-02, -1.61414826e-03, 3.33258486e-03,
       7.59798428e-03, -2.52150893e-02, -2.62493137e-02, -1.38690416e-02,
       -1.45108253e-02, -3.33625171e-03, 8.59745499e-03, 2.06519570e-02,
       5.75465523e-03, 8.99407268e-03, -2.25791950e-02, -3.68813165e-02,
       -2.35676412e-02, 4.47120937e-03, 5.82525786e-03, 3.12850587e-02,
       3.92659158e-02, 8.69835913e-03, 1.34450607e-02, -1.56642366e-02,
       -2.76911240e-02, -1.88380256e-02, -5.51787065e-03,
       -4.88038780e-03, 1.99896507e-02, 3.83530110e-02, 1.05355829e-02,
       1.13238757e-02, -2.63294354e-02, -3.09638120e-02, -2.50043776e-02,
       -1.19543541e-02, 6.86507626e-03, 9.59065743e-03, 2.23165527e-02,
       5.58495801e-03, 6.69504423e-03, -1.16257286e-02, -2.88386177e-02,
       -1.74220838e-02, 4.84027900e-03, 1.47285536e-02, 1.31511304e-03,
       1.01840617e-02, 8.19964707e-03, -2.90180789e-03, -2.57710293e-02,
       -3.11191622e-02, -1.94943510e-02, 2.75422004e-03, -3.93543653e-02,
       -2.21504103e-02, -1.03993332e-02, 9.00050346e-03, -2.11283863e-02,
       -1.78676061e-02, 1.64201483e-02, 3.43194827e-02, -1.94413718e-02,
       -1.55051956e-02, -1.44042326e-02, 4.65355860e-03, 9.34180152e-03,
       2.34107766e-02, -1.63741484e-02, 2.96783186e-02, 4.07324024e-02,
       -7.74361135e-04, -3.28215770e-02, -2.05609407e-02,
       -1.16373971e-02, -1.60787185e-03, -1.31472237e-02,
       -4.19474393e-02, -1.76011901e-02, 1.43238772e-02, -2.33406350e-02,
       -2.62412392e-02, -2.76399050e-02, -2.69968063e-02,
       -2.02542869e-03, 1.04321837e-02, -3.38521674e-02, 6.32023299e-03,
       1.99019574e-02, -2.28058789e-02, -1.85335260e-02, -1.84172075e-02,
       -1.41408313e-02, -6.35825656e-03, 5.71224280e-03, -1.58586837e-02,
       -7.51244230e-03, 3.50003615e-02, 1.24597782e-03, 1.18876714e-02,
       -8.05243663e-03, -2.07556561e-02, -6.78809825e-03,
       -7.21280463e-03, -1.01316404e-02, -1.08927106e-02, 2.09088922e-02,
       1.72850825e-02, -1.79360248e-02, -3.48922089e-02, -4.17501964e-02,
       -2.83255056e-02, 1.97459455e-03, -2.54219454e-02, -9.96746402e-03,
       2.59750020e-02, -8.66699149e-04, -1.74425158e-03, -2.30482016e-02,
       -2.76039615e-02, -1.80070903e-02, 1.32523263e-02, -1.36832818e-02,
       -5.58704138e-03, 1.31621175e-02, 1.37474935e-03, 7.97613151e-03,
       -8.11845623e-03, -3.78679000e-02, -1.24589792e-02,
       -5.75979520e-03, 6.18916191e-03, -1.81424003e-02, 9.10418294e-03,
       9.27351601e-03, -8.50304845e-04, 4.55428008e-03, -1.30108586e-02,
       -3.67032946e-03, -1.22833028e-02, 1.07256556e-02, -1.15447817e-02,
       -9.51448176e-03, -1.01198768e-02, -4.87046666e-04,
       -2.34623719e-03, -2.37081982e-02, -7.26889260e-03, 9.29635018e-03,
       7.38488091e-03, -1.41851939e-02, -8.22830573e-03, -4.04184032e-03,
       1.00291683e-03, 1.66303217e-02, 7.14889611e-04, 1.60681866e-02,
       -8.03968031e-03, -8.33993836e-04, -2.20407415e-02,
       -1.66255366e-02, -1.23783872e-02, -2.91671464e-03, 8.00190773e-03,
       -6.20032661e-03, -2.83195666e-04, -4.97405510e-03,
       -8.86427891e-03, -1.02182012e-02, 3.85727471e-04, -3.73217883e-03,
       -7.13323941e-03, 3.23571637e-02, -4.94619040e-03, 1.08410968e-02,
       -7.24181626e-03, -2.31890865e-02, -3.29527538e-03, 1.32713662e-02,
       4.41091973e-03, 3.86553328e-03, 3.16469595e-02, 6.15777634e-03,
       1.45585155e-02, -9.44653060e-03, -1.60006583e-02, -2.19216980e-02,
       -2.28651445e-02, -1.42145595e-02, 8.31829943e-03, 1.10391183e-02,
       -1.57815944e-02, -4.69694380e-03, -2.92722438e-03,
       -3.11622471e-02, -4.17490005e-02, -1.93999875e-02,
       -1.20154480e-02, 1.50599959e-03, 1.93143263e-02, -1.40164727e-02,
       5.23677154e-04, -3.63139086e-04, -1.80427264e-03, 9.56320018e-03,
       3.38066034e-02, 4.13583033e-03, -5.06101409e-03, 2.63400264e-02,
       -2.62381462e-03, 2.29760422e-03, -2.23125890e-03, 1.91393029e-02,
       2.37116180e-02, 4.86051962e-02, 1.52559197e-02, 2.64236587e-03,
       -1.01322914e-02, -3.59533206e-02, -1.88873969e-02,
       -3.30534987e-02, -1.76131893e-02, -1.78749245e-02, 1.71739922e-03,
       4.79229912e-03, -8.92774202e-03, 3.38747655e-03, -1.69083606e-02,
       -1.73941869e-02, -1.17321191e-02, -2.32765228e-02,
       -1.09610287e-02, 1.62099935e-02, 1.79036763e-02, -2.39079632e-02,
       1.23288902e-02, -8.77066329e-03, -1.60106597e-03, -7.14619923e-03,
       9.69596440e-05, -6.96293404e-03, 3.82509343e-02, 2.48680562e-02,
       -1.34607283e-02, 7.84723181e-03, -3.19209532e-03, 1.52842198e-02,
       -4.67991922e-03, 8.59736651e-03, 9.02705081e-03, 6.57153726e-02,
       4.27530073e-02, -4.00638208e-02, -1.96795561e-03, -2.33476907e-02,
       -2.50506904e-02, -1.06773544e-02, -2.90083401e-02,
       -2.49713119e-02, 1.49525814e-02, 1.77118853e-02, -4.82147075e-02,
       7.87062338e-04, -3.72872781e-03, -9.46772750e-03, -1.86471790e-02,
       -1.47206942e-02, 5.24544297e-03, 5.68218380e-02, 1.00697288e-02,
       -4.64669289e-03, 2.69102436e-02, 6.94681797e-03, 1.22461170e-02,
       -1.99871995e-02, -6.52555469e-03, 3.39850225e-03, 5.22135012e-02,
       4.15747948e-02, 1.39523223e-02, 3.46718132e-02, 1.67165454e-02,
       1.57154575e-02, -1.87224783e-02, 3.15615325e-03, -4.56378679e-04,
       5.07185608e-02, 4.59790304e-02, -4.29662913e-02, 3.80606810e-03,
       -1.25272293e-02, -1.72013175e-02, -4.20816205e-02,
       -5.54903131e-03, 8.62367731e-03, 4.60810103e-02, 3.19597102e-03,
       -1.69819873e-02, -1.17765265e-02, -3.13008465e-02,
       -3.64560634e-02, -5.10195307e-02, 1.10446956e-04, 4.84970259e-03,
       3.63639742e-02, 1.20050404e-02, 2.49634739e-02, 1.88464522e-02,
       4.96755727e-03, 8.27267580e-03, -1.22020310e-02, 8.27498641e-03,
       1.01568596e-02, 5.60741238e-02, 5.05283661e-02, 9.12876613e-03,
       -5.44002140e-03, -2.09493041e-02, -1.17306756e-02,
       -8.41158163e-03, -4.68191272e-03, 6.09961385e-03, 5.69135733e-02,
       6.10821694e-02, -2.53707860e-02, -1.80199277e-02, -3.25961076e-02,
       -3.65904085e-02, -1.90908741e-02, -1.45954837e-03,
       -1.32848080e-02, 3.50963920e-02, 1.30285239e-02, -5.62465265e-02,
       -3.19611430e-02, -3.88410166e-02, -3.02402750e-02, 9.95423179e-04,
       -2.34100576e-02, -2.07467675e-02, 2.34065894e-02, -2.00223569e-02,
       1.68280415e-02, 9.47981700e-03, -5.25044464e-03, 7.70473678e-04,
       7.56516121e-03, 3.96755245e-03, -7.50413677e-03, 5.17014600e-02,
       7.33996183e-02, 3.78605630e-03, 2.22642254e-02, -5.19319624e-03,
       -3.18349828e-03, 5.60053810e-03, 2.12389720e-03, 2.85440660e-03,
       4.82255146e-02, 4.60044295e-02, -2.65768059e-02, -1.86549015e-02,
       -1.00238090e-02, -1.31881665e-02, -6.75813667e-03,
       -2.33058184e-02, -1.97835583e-02, 2.53475010e-02, 9.00957361e-03,
       -3.20816040e-02, -3.82977212e-03, -8.08566995e-03,
       -1.34686315e-02, -4.53006439e-02, -4.03594486e-02,
       -2.64966413e-02, 1.39119690e-02, 1.77838467e-03, -2.96070310e-03,
       2.56423596e-02, 5.07976278e-04, -7.95526081e-04, -4.19144373e-04,
       6.32728031e-03, 1.24942372e-02, 3.90873551e-02, 2.94730496e-02,
       2.03649187e-03, 9.66604392e-04, 6.93354814e-04, 4.34698770e-03,
       1.86331905e-02, -8.54331907e-03, -9.72802693e-04, 2.25882847e-02,
       3.05714849e-02, -2.22745035e-02, 1.31439855e-02, 2.56567635e-03,
       -3.35934409e-03, -3.24673243e-02, -3.05781290e-02,
       -2.44937185e-02, 5.33901341e-03, -1.41315535e-03, -3.70360985e-02,
       -2.13517807e-03, -1.39184864e-02, -4.82972106e-03, 2.05155816e-02,
       -2.27515250e-02, -1.07435137e-02, 4.69641201e-03, 5.27376309e-03,
       3.28342244e-02, 2.24786941e-02, 1.73073635e-02, 1.72287337e-02,
       2.01892089e-02, -1.89814344e-02, -1.51317613e-02, 2.31513772e-02,
       5.77384159e-02, 1.97810996e-02, 1.67340953e-02, -8.26812815e-03,
       -2.73895655e-02, 9.03442036e-03, -2.95190401e-02, -1.83641687e-02,
       1.48618883e-02, 3.03939115e-02, -1.30498288e-02, 1.12599751e-04,
       -6.48639724e-03, -3.66695225e-03, 4.75913323e-02, -2.76241805e-02,
       -9.43290163e-03, 1.26808379e-02, 2.54591275e-02, -1.25194369e-02,
       -1.38544186e-03, -1.31181926e-02, -3.68725508e-02, 9.13959742e-03,
       -3.15891393e-02, -1.18225198e-02, -4.29064268e-03, 4.21512686e-03,
       3.45012024e-02, 3.17805707e-02, -1.36072945e-03, -3.31439003e-02,
       2.03318819e-02, -1.15212705e-02, -1.62599534e-02, 7.31586386e-03,
       4.61202189e-02, 1.38395475e-02, 1.17845340e-02, -1.68815386e-02,
       -3.42031643e-02, 1.72822960e-02, -2.85839960e-02, -1.01573672e-02,
       6.48771506e-03, 1.98313855e-02, 1.93293374e-02, 6.29926659e-03,
       -9.72750317e-03, -4.17786203e-02, 3.63722513e-03, -2.22159419e-02,
       -2.86323414e-03, 6.54846570e-03, 3.00533548e-02, 1.56694353e-02,
       -7.74120796e-04, -1.42834038e-02, -3.57799418e-02,
       -3.21168639e-03, -3.45687121e-02, -1.67543869e-02,
       -7.83469621e-03, 3.19520533e-02, 5.55837201e-03, -1.37874084e-02,
       -9.41197295e-03, -3.23326979e-03, 2.35672370e-02, -2.38606278e-02,
       -3.69849172e-03, 1.28379678e-02, 2.36870106e-02, -1.25889061e-02,
       -3.01176589e-02, -1.01626851e-02, -1.60944127e-02, 1.78416017e-02,
       7.12572550e-03, -7.07387878e-03, 1.87726188e-02, 2.10504998e-02,
       7.54368911e-03, -1.30760428e-02, -8.08490999e-03, -1.99455041e-02,
       1.18789431e-02, -1.91616286e-02, -1.44227203e-02, -1.26279313e-02,
       1.51791414e-02, 1.63956545e-02, -8.15918203e-03, -1.19426679e-02,
       -1.76744480e-02, 1.57344695e-02, 4.66576498e-03, 5.76317217e-03,
       5.65569508e-06, 1.42551484e-02, 2.28263298e-03, -1.66639406e-02,
       9.29141976e-03, 2.70914403e-04, 1.25279799e-02, 1.26782892e-04,
       -2.85774400e-03, 2.52623367e-03, 2.80971341e-02, 8.73895083e-03,
       -8.19509756e-03, 9.31479875e-03, 9.12675261e-03, -6.87161786e-03,
       -8.16447369e-04, -1.72960684e-02, -1.91340204e-02, 2.48217229e-02,
       1.86640508e-02, 3.06395977e-03, 2.39127243e-04, -8.83273035e-03,
       1.04582391e-03, -1.65944155e-02, 7.54286861e-03, 4.40379046e-03,
       3.77065726e-02, 1.65956002e-02, 1.76050502e-03, 6.29352033e-03,
       7.31614651e-03, -3.20153162e-02, -1.81363467e-02, -1.07677644e-02,
       -8.74499511e-03, 2.89534200e-02, 1.51599357e-02, -1.37241036e-02,
       2.49261316e-03, 3.83061334e-03, 9.26307589e-03, -9.23826534e-04,
       -1.68814640e-02, -1.33381588e-02, 1.33475037e-02, 4.48250212e-02,
       -1.10678363e-03, 5.57281682e-03, -2.96118413e-03, -1.83476489e-02,
       -1.97582878e-02, -3.12562622e-02, -2.85196584e-02, 3.11361142e-02,
       2.19897795e-02, -6.87801279e-03, -2.97665223e-03, -7.99201895e-03,
       -1.26233529e-02, -1.55909220e-02, -8.00356921e-03,
       -3.78584396e-03, 2.30632331e-02, 4.00641225e-02, 8.98488611e-03,
       -7.70285493e-03, -1.69728603e-02, -1.73989981e-02,
       -2.96457130e-02, -1.80886965e-02, -2.03765314e-02, 3.80824693e-02,
       4.61323470e-01 ]
