%YAML:1.0
---
detectionoutput: !!opencv-object-detector-hog
   winSize: [ 64, 128 ]
   blockSize: [ 16, 16 ]
   blockStride: [ 8, 8 ]
   cellSize: [ 8, 8 ]
   nbins: 9
   derivAperture: 1
   winSigma: 4.
   histogramNormType: 0
   L2HysThreshold: 2.0000000000000001e-01
   gammaCorrection: 1
   nlevels: 64
   signedGradient: 0
   SVMDetector: [ -1.75401922e-02, 1.57034378e-02, -4.27432312e-03,
       1.29447458e-02, -1.09222429e-02, -3.69928172e-03, -1.64215267e-02,
       -9.82495584e-03, -2.48954836e-02, -1.83595922e-02, 2.37266496e-02,
       5.27173793e-03, -3.02677345e-03, 4.90226177e-03, -9.46407393e-03,
       7.10397353e-03, 8.19461793e-03, -2.22413689e-02, -1.93420853e-02,
       1.14646917e-02, 2.39522057e-03, 3.06540122e-03, 2.04823427e-02,
       9.81419813e-04, -2.74237227e-02, -7.63531867e-03, -2.19812486e-02,
       -1.90996807e-02, 2.35636011e-02, 4.56887623e-03, -2.53945105e-02,
       2.10782345e-02, 7.82499928e-03, -4.98466892e-03, 1.68356616e-02,
       -1.39548853e-02, -3.53917712e-03, 8.44904967e-03, -1.55705120e-02,
       -1.69679206e-02, -1.99557785e-02, -1.28882350e-02,
       -2.90635251e-03, 1.41103314e-02, -4.58577089e-03, -2.28690961e-03,
       -6.79604197e-03, -2.88252011e-02, 2.21837265e-03, 6.18042937e-03,
       1.64176486e-02, -8.34126957e-03, -3.08933482e-03, -4.10874753e-04,
       -1.78163368e-02, 1.13582928e-02, -1.60260927e-02, -2.70280968e-02,
       -6.23607484e-05, 9.02560074e-03, -1.05492240e-02, 6.41090656e-03,
       -1.32674910e-02, -7.29804579e-03, -1.06667485e-02,
       -3.33368443e-02, -1.62760410e-02, -1.83013722e-03, 2.37220321e-02,
       -1.04804663e-03, -2.98513751e-03, -5.88253047e-03,
       -8.77272803e-03, -1.48166278e-02, -3.63055617e-02,
       -6.49731001e-03, 5.58257343e-05, -2.38964288e-03, -2.52860487e-02,
       -8.64153914e-03, -7.60949776e-03, -2.22148765e-02, 7.00209942e-03,
       -1.66648999e-02, 3.20341624e-03, 4.08113487e-02, -9.71440866e-04,
       -2.45327186e-02, 2.59964843e-04, -2.24440079e-02, -1.11838114e-02,
       -9.77767166e-03, -3.88534777e-02, -1.45417871e-02,
       -1.28254984e-02, 2.05979031e-02, -2.12591588e-02, -1.24493707e-02,
       -8.10605846e-03, -1.26276519e-02, 1.39356852e-02, 3.08092986e-03,
       9.22724977e-03, 1.65888332e-02, -2.14377884e-03, -2.30351407e-02,
       -4.15663235e-04, -1.30202146e-02, -1.60092432e-02,
       -1.46914297e-03, -2.67110914e-02, -1.44172646e-02, 8.51648021e-03,
       -5.37489029e-03, -1.94137674e-02, -5.71748882e-04,
       -2.63163447e-02, -6.16767537e-03, 6.87705865e-03, -1.05880629e-02,
       -9.69394017e-03, -1.44541543e-02, -5.71992993e-03,
       -9.52829234e-03, -1.68521926e-02, -2.72294972e-02,
       -2.24600136e-02, 1.87721569e-02, 6.62709493e-03, 9.20205901e-04,
       1.23160016e-02, -2.69515850e-02, -3.43202129e-02, 9.83521994e-03,
       -3.59661435e-03, -2.37536915e-02, 1.75105277e-02, 2.07728818e-02,
       3.64380685e-04, 2.79305074e-02, 5.25690790e-04, 4.37285192e-03,
       1.37373982e-02, -1.05636604e-02, -1.67643409e-02, 1.41893225e-02,
       -1.09742247e-02, -2.64378395e-02, -1.02741867e-02,
       -1.27590755e-02, -1.29388347e-02, -2.39026640e-02,
       -2.14305352e-02, -6.08282676e-03, 2.58451849e-02, 5.12982393e-03,
       -3.67006622e-02, -1.89824738e-02, -3.13092023e-02,
       -3.52982543e-02, -2.69176830e-02, -2.53602751e-02,
       -1.19263828e-02, 1.95205230e-02, 1.04870005e-02, -2.96988674e-02,
       1.80787388e-02, -5.03418641e-03, 9.19567700e-03, 1.21736210e-02,
       -1.19983535e-02, 2.05721129e-02, 4.00455222e-02, 3.93774174e-02,
       -1.39094163e-02, 5.03068417e-03, -2.90859118e-02, -8.40562955e-03,
       3.59101477e-03, -4.45719529e-03, 1.72542911e-02, 2.20736004e-02,
       1.60227865e-02, -2.54271775e-02, -2.96073388e-02, -4.27321345e-02,
       -3.55328508e-02, -1.01951528e-02, -6.31027110e-03, 1.32387606e-02,
       2.74454355e-02, 1.80893075e-02, -2.94583142e-02, -4.66098450e-02,
       -4.64889668e-02, -4.25795354e-02, -2.14586761e-02,
       -2.26938631e-02, 3.13143730e-02, 6.50013238e-02, 3.95306088e-02,
       -2.36912072e-02, -1.52300913e-02, -3.62843610e-02,
       -1.14563201e-02, 1.97402332e-02, -1.89983996e-03, 3.73199396e-02,
       7.68596604e-02, 4.77403067e-02, -2.69871820e-02, -3.13410945e-02,
       -4.56177145e-02, -2.77836900e-02, 2.91837426e-03, 6.28239987e-03,
       -3.17441270e-04, 2.66202576e-02, 6.58763479e-03, -2.95947138e-02,
       -5.93841523e-02, -3.88571285e-02, -3.12514193e-02,
       -2.54247990e-02, -2.88948212e-02, -1.42092176e-03, 2.57713608e-02,
       1.09637948e-02, -2.24365015e-02, -4.49596085e-02, -3.98912691e-02,
       -3.70942764e-02, -4.26476188e-02, -1.55683467e-02, 2.71390025e-02,
       6.40288442e-02, 2.93467697e-02, -3.30206305e-02, -4.39327061e-02,
       -3.93677875e-02, -9.71590169e-03, 6.48497418e-03, 4.48661111e-03,
       1.09726358e-02, 5.15992120e-02, 2.65224241e-02, -5.79904672e-03,
       -5.00062853e-03, -2.82719545e-02, -2.68125487e-03, 1.81964710e-02,
       1.46375448e-02, 1.42292352e-03, 1.84500199e-02, 2.76002893e-03,
       -2.95207612e-02, -4.36656065e-02, -3.35204639e-02,
       -3.65366451e-02, -2.67349500e-02, -4.54379572e-03,
       -5.46743628e-03, 3.18462811e-02, 2.12445296e-03, -3.58680896e-02,
       -2.04837900e-02, -4.01946791e-02, -5.22428043e-02,
       -3.37283351e-02, -1.54527109e-02, 3.09877079e-02, 5.75431362e-02,
       3.05583254e-02, -4.41664830e-03, -1.56299509e-02, -2.32798513e-02,
       -1.67369489e-02, 1.25318225e-02, 2.62428913e-02, 3.14945318e-02,
       5.55140860e-02, 3.97132635e-02, -5.65031404e-03, -4.53560147e-03,
       -2.64813341e-02, -2.51682270e-02, 1.21684987e-02, 1.96606219e-02,
       1.18826265e-02, 1.04207601e-02, -1.38302287e-02, -2.91766729e-02,
       -1.31195616e-02, -3.88876460e-02, -3.53549197e-02,
       -2.21457891e-02, -1.03410417e-02, -7.58880796e-03,
       -2.59199813e-02, -2.65985634e-02, -2.28109043e-02,
       -1.21616116e-02, -2.20293626e-02, 1.35655166e-04, -6.33953721e-04,
       7.05433823e-03, 3.74286808e-02, 5.38840182e-02, 2.92693283e-02,
       -1.16517593e-03, -5.87881543e-03, -1.99447200e-02,
       -1.69603974e-02, 2.29018871e-02, 2.97332406e-02, 2.38516759e-02,
       4.75443117e-02, 3.12549435e-02, 2.45482083e-02, -8.17301869e-03,
       -6.30164891e-03, 3.63786006e-03, 3.36057842e-02, 2.08702721e-02,
       -2.15693694e-02, -2.83554401e-02, -2.03961395e-02,
       -1.88343432e-02, -1.44400587e-02, -2.49135401e-02,
       -3.17409984e-03, 2.82694376e-03, -7.44403247e-03, -4.11833487e-02,
       -5.46273589e-03, 5.35960728e-03, -5.82756288e-03, -1.13744326e-02,
       -2.20701005e-02, -2.18985416e-02, -1.43537316e-02,
       -4.15887646e-02, 2.52844933e-02, 4.88521457e-02, 2.60623135e-02,
       9.90826637e-03, 1.37205552e-02, 4.46261326e-03, 1.34513332e-02,
       3.92260700e-02, 3.95296328e-02, 2.76161935e-02, 4.42010649e-02,
       4.20897678e-02, 2.44417619e-02, 1.97131429e-02, 9.40981787e-03,
       3.20833176e-02, 3.76484171e-02, 3.87501419e-02, -3.71506847e-02,
       7.79478624e-03, 1.56671423e-02, -9.41948558e-04, -1.31270448e-02,
       -1.66936591e-02, -1.66254248e-02, -1.38521530e-02,
       -3.78992744e-02, -1.36121456e-02, 1.28273098e-02, 1.78440753e-02,
       -6.30535278e-03, -2.54852814e-04, -2.61829086e-02,
       -2.95569617e-02, -4.67565842e-03, -3.79579291e-02, 2.63225548e-02,
       4.42852825e-02, 2.44167764e-02, 5.86418901e-03, 5.63986460e-03,
       1.57541446e-02, 2.00621355e-02, 3.28913406e-02, 3.87131721e-02,
       1.88851040e-02, 4.95297201e-02, 2.36604717e-02, -4.30263625e-03,
       1.57041010e-03, -8.93790741e-03, 1.21428410e-03, 2.41381247e-02,
       3.27131823e-02, -2.04401254e-03, 6.26069261e-03, 1.78696420e-02,
       1.01858340e-02, -6.49982179e-03, -2.43182592e-02, -1.85515825e-02,
       3.23174801e-03, -1.67397168e-02, -9.71847028e-03, 3.04387952e-03,
       1.46843623e-02, 3.61348689e-03, 1.13380272e-02, -1.46349403e-03,
       -4.70649404e-03, 1.53294776e-03, -2.51580514e-02, 2.65406482e-02,
       4.60327826e-02, 3.03753316e-02, 7.26179220e-03, -1.69817302e-02,
       5.20881359e-03, 2.26634089e-02, 1.71538442e-02, 1.65815838e-02,
       7.60079175e-03, 4.46044095e-02, 1.60524175e-02, 7.32550258e-03,
       5.89755923e-03, 1.96976718e-02, 1.20805372e-02, 2.61829002e-04,
       5.68008225e-04, -8.74883123e-03, 7.03806709e-03, 1.13136061e-02,
       -5.31624537e-03, -3.31935612e-03, 5.60858659e-03, -3.75695003e-04,
       -9.22794174e-03, -4.27100845e-02, -2.38366444e-02,
       -1.49900792e-03, 1.10199526e-02, 8.39832984e-03, -1.70363616e-02,
       -2.10319716e-03, 5.96938841e-03, -1.83259174e-02, -4.40641455e-02,
       1.74620785e-02, 4.04605605e-02, 1.37444530e-02, 7.22905854e-03,
       1.85520183e-02, 1.38763869e-02, 2.29627462e-04, -1.47737353e-03,
       3.84083280e-04, 3.22926277e-03, 1.58021655e-02, 8.60731676e-03,
       7.62635202e-04, -8.20741756e-04, -1.59075542e-03, 6.85363868e-03,
       -7.81666674e-03, -7.59053743e-03, -1.39134042e-02, 2.65250891e-03,
       2.20491402e-02, 2.51132157e-02, -4.08249628e-03, 1.03454571e-02,
       1.49588697e-02, -9.59668029e-03, -2.80200914e-02, -2.34145094e-02,
       -1.36352945e-02, 1.89885721e-02, 4.97401552e-03, -8.32465291e-03,
       -3.26139177e-03, 7.45241856e-03, -5.55595197e-03, -2.66394075e-02,
       2.66774581e-03, 2.29320228e-02, 9.23820026e-03, 4.24795505e-03,
       7.93670653e-04, 1.21105416e-02, 3.92548814e-02, 1.91172920e-02,
       5.00245660e-04, -3.58367781e-03, 1.60229625e-03, 1.01024508e-02,
       -7.97268003e-03, 1.13147858e-03, 6.16161525e-03, 2.48071887e-02,
       -1.50759704e-03, -1.10777002e-02, 6.76510390e-03, -7.17562810e-03,
       6.41028024e-03, 2.83501693e-03, -1.56755354e-02, -2.14437991e-02,
       3.61146987e-03, 4.97403881e-03, 1.28235761e-02, 3.91717590e-02,
       -2.30512284e-02, -2.04369184e-02, -9.30029899e-03, 7.63085391e-03,
       -2.15788372e-03, 1.65123418e-02, 1.12593481e-02, 3.13086025e-02,
       8.62050056e-03, -9.11912043e-03, 7.56672816e-03, -3.75060923e-03,
       -1.41866694e-04, -2.41104756e-02, -1.59702846e-03,
       -4.99109784e-03, 2.75091175e-02, 1.64100658e-02, -2.70029530e-02,
       -1.26287118e-02, -1.25525212e-02, 4.38865088e-02, -1.78618133e-02,
       7.02674408e-03, 1.04439501e-02, 3.97577770e-02, -3.80754694e-02,
       1.08931651e-02, 1.32045411e-02, -4.12889430e-03, 2.76288437e-03,
       -7.03039812e-03, -3.36028375e-02, -1.16686067e-02,
       -1.98736545e-02, -2.56880317e-02, 2.85178963e-02, 6.92743622e-03,
       -2.93893330e-02, 5.74907055e-03, 5.81317907e-03, -2.22090986e-02,
       -3.97189893e-03, -1.53448991e-02, -2.90650371e-02, 1.91619229e-02,
       2.03964300e-02, -9.36527830e-03, -1.13449050e-02, -1.12647489e-02,
       -2.39284486e-02, -2.78469026e-02, -2.41870992e-02, 3.81689752e-03,
       5.76152280e-02, 2.07734741e-02, 1.78863015e-03, -2.20267121e-02,
       -3.71800433e-03, -2.36311574e-02, -1.87677592e-02, 1.09462359e-03,
       -1.08606508e-02, -2.49334122e-03, -3.44046019e-02,
       -3.98517810e-02, -1.28334593e-02, -5.03680622e-03,
       -3.20575871e-02, -1.18982298e-02, -5.58059011e-03,
       -1.45077528e-02, -1.57236271e-02, -4.26378809e-02,
       -3.09905950e-02, -1.83569677e-02, -5.57306316e-03,
       -2.44690068e-02, -1.64678916e-02, -1.33707058e-02, 7.89263379e-03,
       3.13359275e-02, -1.57700479e-02, -1.71530452e-02, -2.60887463e-02,
       -1.00991409e-02, -2.71130353e-02, -1.42704872e-02, 9.35246516e-03,
       1.25211691e-02, 3.40388380e-02, 4.09875438e-03, -1.08673116e-02,
       6.99988427e-03, 1.19925477e-02, -6.93827216e-03, 1.15802512e-02,
       2.35934183e-02, -2.47810525e-03, -1.32173980e-02, -2.98468247e-02,
       -2.99786292e-02, -2.45898534e-02, -3.46583524e-03,
       -3.16067636e-02, -1.61101390e-02, 4.84604388e-03, -1.85167808e-02,
       -4.73210216e-03, -4.27646842e-03, -1.75467934e-02,
       -2.33563147e-02, -5.04833320e-03, -2.25566365e-02,
       -1.52384862e-02, -7.40606757e-03, 1.00557674e-02, 2.07950268e-02,
       -7.47260358e-03, -2.09165681e-02, -3.82258999e-03, 1.24361226e-02,
       -3.13511975e-02, 2.89121526e-03, 1.29744867e-02, 2.61653517e-03,
       1.93397496e-02, 2.52751987e-02, -1.94482948e-03, -4.67178645e-03,
       2.29385234e-02, 5.63218864e-03, 9.11198836e-03, 1.37826568e-02,
       -2.63077281e-02, 5.64258639e-03, -3.03498493e-03, -1.61504131e-02,
       -1.26858940e-02, -3.17980386e-02, -2.58378908e-02,
       -1.30197257e-02, -5.52361226e-03, -2.66860314e-02, 3.27956281e-03,
       2.02889089e-03, -1.92634985e-02, -8.40021390e-03, -1.72166917e-02,
       4.38339636e-03, 1.14817079e-02, -9.19270422e-03, 2.55792658e-03,
       1.06460527e-02, 8.08156561e-03, -1.13079567e-02, -2.74472218e-02,
       -7.59076618e-04, 9.59092460e-04, 5.39885878e-05, 1.13145299e-02,
       1.26262074e-02, 2.34002657e-02, 3.70080732e-02, 1.03432462e-02,
       -1.83665231e-02, 1.16721643e-02, 3.06280460e-02, 4.11469378e-02,
       3.63962203e-02, -4.40793447e-02, -9.38257482e-03, -5.40353032e-03,
       -3.42332833e-02, -1.66452602e-02, -1.23817837e-02, 1.05892932e-02,
       2.24858001e-02, -1.13602821e-02, -5.35242334e-02, -9.89013910e-03,
       1.09063918e-02, -3.01373266e-02, -2.05752235e-02, -3.01030111e-02,
       -2.28093774e-03, 1.27320513e-02, -1.14869568e-02, -9.71202459e-03,
       2.30876133e-02, 3.21229100e-02, -1.52297718e-02, -1.70151014e-02,
       1.29439477e-02, 3.94356735e-02, 5.22999018e-02, 3.36695127e-02,
       2.93179811e-03, 2.40556877e-02, 3.41015235e-02, -8.41522869e-03,
       -5.55719761e-03, -2.87611363e-03, 4.08175774e-02, 8.22633207e-02,
       4.08208519e-02, -4.11351547e-02, 3.61170713e-03, -2.59628822e-03,
       -3.88420373e-02, -2.73300037e-02, -3.83665226e-02,
       -2.33336203e-02, -2.36473585e-04, -2.44363640e-02,
       -2.11562477e-02, 1.42091019e-02, -1.00698397e-02, -4.71479595e-02,
       -4.22101989e-02, -4.38724384e-02, -2.40509938e-02,
       -9.28909518e-03, -2.15079132e-02, -1.44984794e-03, 3.26468311e-02,
       1.24859959e-02, -1.57800242e-02, 1.03743921e-03, -6.07482204e-03,
       1.18455170e-02, 4.63749170e-02, 2.04330981e-02, 2.56714933e-02,
       5.33138700e-02, 2.70968173e-02, -1.97928734e-02, -2.85856496e-03,
       9.04965866e-03, 2.24214308e-02, 4.94165719e-02, 3.71844023e-02,
       -3.32182609e-02, 4.38986579e-03, -9.77683626e-03, -4.79478426e-02,
       -5.40135466e-02, -5.09383865e-02, -2.03697234e-02,
       -9.74127371e-03, -1.85931288e-02, -1.81812514e-02, 4.35138540e-03,
       4.30527795e-03, -2.89132930e-02, -3.23991813e-02, -4.42328267e-02,
       -1.88298468e-02, -7.04159087e-04, -9.20339394e-03, 5.42163895e-03,
       1.33335190e-02, 1.42107103e-02, -1.42413713e-02, -2.04721559e-02,
       -4.36838809e-03, 3.74320112e-02, 4.74334322e-02, 1.92701407e-02,
       1.64358821e-02, 1.86346639e-02, 2.23024208e-02, 1.17591470e-02,
       -1.63611937e-02, 2.87148287e-03, 3.21145989e-02, 4.36508842e-02,
       2.93925367e-02, -5.68391196e-03, -2.11550575e-03, -8.36927071e-03,
       -3.16076279e-02, -4.73620333e-02, -4.21437398e-02,
       -2.15687752e-02, 1.87844492e-03, 7.23149907e-03, -2.95168767e-03,
       -1.52497215e-03, -6.65746303e-03, -4.91700843e-02,
       -5.53919040e-02, -4.43552807e-02, -2.77156383e-02,
       -8.51298333e-04, 4.75828582e-03, 2.37030871e-02, 2.47956701e-02,
       9.93316341e-03, -1.25886155e-02, -2.96210498e-02, -2.48298352e-03,
       1.20114600e-02, 3.04863118e-02, 4.30655740e-02, 8.58079083e-03,
       1.93092395e-02, -5.65941818e-03, -4.18308191e-02, -4.60056365e-02,
       -1.55178327e-02, -1.86611563e-02, 1.28359506e-02, 1.72864683e-02,
       3.33914277e-03, -3.88902915e-03, -2.16618441e-02, -3.85540687e-02,
       -3.77953127e-02, -3.18140350e-02, -1.90077052e-02, 2.55550467e-03,
       7.79407192e-03, -6.82077894e-04, -5.01257973e-03, -2.03807801e-02,
       -2.00823024e-02, -4.20740396e-02, -3.11609469e-02,
       -1.23346439e-02, -9.41632141e-04, -2.08100192e-02, 1.46019012e-02,
       1.52743943e-02, -2.71836836e-02, -3.61548886e-02, -1.90013126e-02,
       1.61222636e-03, -1.73319187e-02, 6.74082618e-03, 6.68936688e-03,
       -1.25631057e-02, 8.53986572e-03, -2.60664299e-02, -2.64905151e-02,
       -1.24705285e-02, 5.08044939e-03, -6.28130417e-03, 6.55801734e-03,
       1.30164446e-02, 1.45385973e-02, -8.11360893e-04, -1.92110315e-02,
       -3.32283266e-02, -2.51327120e-02, -2.77491622e-02,
       -1.21189822e-02, 7.18160579e-03, 1.43291652e-02, 5.10937441e-03,
       -1.92094091e-02, -2.96232793e-02, -4.27117757e-02,
       -4.82698716e-02, -3.80743481e-02, -7.82631524e-03, 1.45778805e-02,
       7.82697648e-03, 8.28726497e-03, 8.64243321e-03, -3.13732438e-02,
       -2.85516456e-02, -8.34191125e-03, -5.10450592e-03, 1.02650439e-02,
       3.11929546e-02, 3.92397828e-02, 1.19010778e-02, 7.75702950e-03,
       -3.72143574e-02, -2.98826322e-02, -1.65719390e-02,
       -2.69283075e-02, 7.87171070e-03, 3.05540431e-02, 3.69364619e-02,
       2.37669796e-02, -5.29294275e-03, -1.82889961e-02, -2.80175935e-02,
       -3.51465717e-02, -1.49509581e-02, 1.17069976e-02, 3.16890702e-02,
       3.00859716e-02, 9.28912219e-03, -2.84162606e-03, -2.33529303e-02,
       -4.74599190e-02, -4.86757495e-02, -2.67712027e-02,
       -1.17834099e-02, -6.95992308e-03, 4.45414614e-03, 3.32197286e-02,
       7.83990044e-03, -1.72903407e-02, -1.06941815e-02, 6.82390481e-03,
       -3.44896223e-03, 9.73742828e-03, 4.41025048e-02, 4.98545505e-02,
       6.63752062e-03, -6.79086312e-04, -1.79489981e-02, -1.91765446e-02,
       -1.66454110e-02, -1.19949831e-02, 9.01106093e-03, 2.46115364e-02,
       1.62227713e-02, 2.77354959e-02, 1.86408311e-02, -6.60029240e-03,
       -2.67964229e-02, -2.54896563e-02, -8.37090251e-04, 1.24903200e-02,
       5.32609923e-03, 1.09333061e-02, -7.23176310e-03, 1.25569841e-02,
       -2.15597413e-02, -2.51888614e-02, -1.40592577e-02,
       -1.10547533e-02, -4.22554836e-03, -1.02060698e-02,
       -1.51424166e-02, 2.41244473e-02, 7.12622236e-03, -4.05221246e-03,
       -6.39679236e-03, 1.22808609e-02, 1.41403032e-02, 2.76356246e-02,
       3.89591493e-02, 3.81438918e-02, -1.11563122e-02, -1.80537999e-02,
       -1.30956518e-02, -8.45430139e-03, 2.01471243e-02, -8.46166816e-03,
       1.42902620e-02, 2.39694230e-02, 4.71555255e-03, 1.26757296e-02,
       2.29355283e-02, -2.24781036e-03, -1.25992242e-02, -3.08388658e-03,
       -1.09698372e-02, -1.01346793e-02, -2.48264079e-03,
       -1.07215745e-02, -1.24501213e-02, -8.30216985e-03,
       -1.01680998e-02, -1.31559800e-02, 2.81876628e-03, -1.11159217e-02,
       3.01971403e-03, 2.90041004e-04, -3.05738430e-02, 1.13631021e-02,
       -1.06719546e-02, 6.43794052e-03, 7.04508554e-03, 1.84718911e-02,
       -1.19227609e-02, 6.24324521e-03, 3.20740230e-02, 1.51567152e-02,
       -1.29915206e-02, -6.00714749e-03, -9.21678916e-03, 8.13765917e-03,
       3.06364149e-02, 6.34239893e-03, -2.01875879e-03, 1.66750140e-02,
       -2.90688612e-02, -4.33364417e-03, 1.32782920e-03, -1.09612569e-02,
       -1.41106611e-02, 1.77791764e-04, 5.46044251e-03, 1.97676308e-02,
       1.41639197e-02, -4.87939036e-03, -2.08840836e-02, -2.42900774e-02,
       -1.07544214e-02, -2.28513312e-02, -3.05450652e-02, 2.14935819e-04,
       6.84823096e-03, -2.17331853e-02, -1.55046172e-02, -1.79613824e-04,
       1.12655666e-03, -1.37857022e-02, -2.21041194e-03, 2.92388741e-02,
       3.33829336e-02, 2.45510004e-02, 3.12838331e-02, 1.07506542e-02,
       -2.08781473e-02, -1.70705114e-02, -1.66353583e-02,
       -2.19364446e-02, -1.42716840e-02, 1.76070184e-02, 2.80290190e-02,
       1.65184122e-02, -5.69946272e-03, 8.40324443e-03, -9.64418519e-03,
       5.27578872e-03, 3.18848179e-03, 1.83911715e-03, 2.99935136e-03,
       2.18093414e-02, 7.20442366e-03, 2.02562362e-02, -2.08008587e-02,
       -2.67077349e-02, -1.53374868e-02, -6.83448883e-03, 3.66045348e-02,
       -1.24060437e-02, 3.51864519e-03, 1.70189049e-03, 3.93901812e-03,
       1.26206991e-03, 1.74358589e-04, 8.15847330e-03, 8.34011845e-03,
       3.53289135e-02, 3.53194103e-02, 4.71424684e-02, 3.93847711e-02,
       2.73987334e-02, -4.52919044e-02, -3.13373245e-02, -1.34801883e-02,
       5.31170191e-03, 1.96543001e-02, 5.43527352e-03, 2.85184793e-02,
       8.88252724e-03, -1.31854881e-02, -2.05411892e-02, 2.74518225e-02,
       1.03008142e-02, -3.34723806e-03, -1.62068959e-02, -1.60472691e-02,
       -2.79453360e-02, -2.91114617e-02, -3.22117768e-02,
       -9.77882929e-03, 3.47212926e-02, 6.58172043e-03, -1.96512099e-02,
       -1.92433055e-02, -7.66197499e-03, -3.16997543e-02,
       -3.72868143e-02, -2.67049689e-02, -1.59500763e-02, 7.87259638e-03,
       -8.84724036e-03, 1.26119927e-02, 1.19970050e-02, 6.50412729e-03,
       -2.96402327e-03, 9.33280028e-03, -1.27316974e-02, 1.31009966e-02,
       2.78912149e-02, 2.10581310e-02, -6.27147825e-03, -4.65563717e-05,
       1.29367290e-02, -7.04440661e-03, -8.26601638e-04, 2.00449023e-02,
       3.12830717e-03, 1.42142661e-02, -2.55730599e-02, -3.09768990e-02,
       -3.86792533e-02, -1.81869194e-02, -3.69928963e-02,
       -3.06335744e-02, -6.89414702e-03, 7.99450185e-03, 2.72586178e-02,
       6.53177314e-03, -2.13839840e-02, -4.74567944e-03, 1.06424596e-02,
       -1.23196486e-02, -6.21170970e-04, 1.30704269e-02, 2.04474498e-02,
       5.79697732e-03, -1.61965601e-02, -2.93199196e-02, -1.92299802e-02,
       -6.81328680e-03, -2.31345277e-02, -3.10088228e-03, 2.99419798e-02,
       2.86049563e-02, 1.81946456e-02, -2.18419562e-04, -1.62031432e-03,
       4.37953090e-03, 1.88143291e-02, 9.83111747e-03, 2.89295968e-02,
       2.85661034e-02, -2.47336552e-02, 5.25794551e-03, -3.18497745e-03,
       -2.99268719e-02, -1.66597925e-02, 9.89566930e-03, -3.15212458e-02,
       -8.97563715e-03, -9.45075508e-03, -1.93633214e-02, 1.02155572e-02,
       7.04144733e-03, -7.05083832e-03, -3.33704874e-02, 1.35497712e-02,
       -9.62207280e-03, -9.97579750e-03, -1.24284532e-02, 9.34046321e-03,
       5.58040245e-03, -1.51401050e-02, -1.44648394e-02, 3.95139388e-04,
       2.85107531e-02, -6.00266224e-03, 6.64677471e-03, 1.22933248e-02,
       2.51494534e-02, 3.34609337e-02, 1.44550325e-02, 2.51790099e-02,
       8.07811692e-03, 4.07164060e-02, -8.78343731e-03, 1.27733331e-02,
       1.44406380e-02, -4.36185487e-02, -2.64908820e-02, -2.53484957e-02,
       -2.30263434e-02, -3.60393040e-02, 2.81240500e-04, 2.59626098e-03,
       -5.11252275e-03, -2.44874321e-02, -3.18407752e-02,
       -1.90538894e-02, -1.02969701e-03, 1.29224616e-03, -3.15873437e-02,
       9.78267565e-03, -4.05509549e-04, 1.80470236e-02, -1.38118621e-02,
       1.66096725e-02, -5.60065906e-04, -1.21206036e-02, -5.08722500e-04,
       3.00815403e-02, 2.94305012e-02, 4.22771991e-04, 5.95928868e-03,
       4.02788213e-03, 2.83927862e-02, 2.20509768e-02, 6.44469541e-03,
       2.66063977e-02, 3.47234383e-02, 4.34812866e-02, 1.46371312e-02,
       2.97427177e-02, 1.43866548e-02, -5.58800586e-02, -9.64442827e-03,
       2.77084275e-03, -1.47426166e-02, -2.45161336e-02, 3.65742925e-03,
       2.00374369e-02, 1.30351642e-02, -1.38668166e-02, -3.53147313e-02,
       5.11203008e-03, 1.12701003e-02, -2.43450813e-02, -3.11193075e-02,
       1.18176732e-02, 3.47406492e-02, 3.92653458e-02, -8.30394309e-03,
       -5.80411917e-03, 1.37323048e-02, -6.88143680e-03, 9.34037566e-03,
       3.11547741e-02, 2.57735960e-02, 1.46542490e-02, 1.47404904e-02,
       4.14593471e-03, 3.12460214e-02, 3.17710899e-02, 1.49372667e-02,
       1.07062245e-02, 1.35517935e-03, 1.58397611e-02, 4.47157696e-02,
       3.74754295e-02, 2.18649302e-02, -4.30555791e-02, -2.07263026e-02,
       -2.20741611e-02, -3.09126135e-02, -2.21780892e-02, 1.91054749e-03,
       1.01315212e-02, 1.72524303e-02, -2.25057900e-02, -3.26620862e-02,
       -2.23541837e-02, -2.55875643e-02, -1.93825066e-02,
       -6.39933487e-03, 1.29733104e-02, 9.64655355e-03, 1.62099823e-02,
       -9.45073087e-03, 1.56412646e-02, -3.69583978e-03, -1.53885046e-02,
       -1.04712904e-03, 1.24575170e-02, 9.25825536e-03, 1.14262616e-02,
       2.68588178e-02, 8.99012666e-03, -8.80308356e-03, -2.89849956e-02,
       -2.16948893e-02, 2.57712766e-03, 4.00999337e-02, 3.62177081e-02,
       1.94449257e-02, 3.21681574e-02, 9.69573483e-03, -3.29307318e-02,
       -4.32761684e-02, -3.33389528e-02, -1.58326011e-02,
       -2.80453023e-02, 4.56500519e-03, 4.07717787e-02, 3.66191790e-02,
       -1.06824422e-02, -2.81084292e-02, -3.05823702e-02,
       -2.23934408e-02, -4.76688612e-03, -1.39501886e-02, 1.76592860e-02,
       3.18833403e-02, 1.72654483e-02, -1.24444244e-02, -1.39946025e-03,
       -1.94142573e-02, -2.56967805e-02, 2.72871275e-03, 1.74371935e-02,
       3.01749483e-02, 4.65266295e-02, 3.68167646e-02, 1.89693682e-02,
       6.85349386e-03, -4.34633112e-03, -1.75544992e-02, 2.15466507e-02,
       1.37733882e-02, 2.83465106e-02, 5.12369536e-02, 2.80311145e-02,
       2.97200475e-02, -1.62626300e-02, -7.21452013e-03, -1.86544564e-02,
       -1.59660950e-02, -2.09877603e-02, -1.51633006e-03, 1.02164000e-02,
       1.27407694e-02, 3.11833969e-03, -2.13929471e-02, -1.61735862e-02,
       -3.67965810e-02, -3.74575332e-02, -1.89405531e-02,
       -1.02883996e-02, -1.64132882e-02, 2.32513133e-03, -1.41141536e-02,
       7.12065957e-03, 9.87491338e-04, -1.76412035e-02, 2.61867186e-03,
       -3.88750923e-04, 1.93158984e-02, 4.11660150e-02, 2.89597660e-02,
       2.28373054e-02, -7.49268057e-03, -4.53364430e-03, -3.09745893e-02,
       -1.23360679e-02, 1.33921066e-02, 1.27329202e-02, 9.53846239e-03,
       4.34642807e-02, 3.73784969e-05, -2.33107656e-02, -2.28274874e-02,
       -4.67414409e-02, -3.31045091e-02, -1.96970515e-02, 4.51136427e-03,
       -7.49092037e-03, 2.19304417e-03, -5.57768205e-03, -2.09681615e-02,
       -2.47455034e-02, -4.28537354e-02, -3.51396017e-02,
       -2.28615776e-02, 7.56841758e-03, -1.21346097e-02, -3.98308923e-03,
       -5.93612203e-03, -1.08380206e-02, -5.82326110e-03,
       -2.03302559e-02, -2.30245292e-02, 3.49559868e-03, 2.86777429e-02,
       2.00413056e-02, 4.24061231e-02, 1.43307671e-02, -1.23578785e-02,
       -2.24674377e-03, -1.74675360e-02, -1.02920504e-02,
       -1.74056515e-02, 2.39096377e-02, -7.87596451e-04, 2.43651699e-02,
       -1.31330593e-02, 1.02324248e-03, -1.41381547e-02, -4.30774949e-02,
       -1.82717498e-02, -1.90237490e-03, 1.88103188e-02, 3.72971664e-03,
       2.05396954e-02, 1.44118196e-04, -1.44460956e-02, -1.53871542e-02,
       -5.24187684e-02, -2.22459994e-02, 2.52996135e-04, 4.04623058e-03,
       -1.00766579e-02, -3.97144770e-03, -1.89360436e-02,
       -3.63351731e-03, -3.77081917e-03, -2.20314376e-02, 6.37960061e-03,
       1.36491423e-02, 3.46674435e-02, 1.75784365e-03, 1.91343110e-02,
       -1.26617774e-03, -3.64585854e-02, -2.94536129e-02,
       -2.69717984e-02, 1.04022736e-03, 2.50410801e-03, 2.68060174e-02,
       -7.13594165e-03, 3.22891306e-03, -3.52398194e-02, -9.36689228e-03,
       -1.81382690e-02, -2.80031413e-02, -2.41421250e-04, 3.91866080e-02,
       2.30223481e-02, 2.91330717e-03, 1.19265607e-02, 6.16151746e-03,
       -2.07032003e-02, -2.38702688e-02, -2.83318758e-02,
       -1.54452967e-02, -1.82786677e-02, -1.85346473e-02,
       -1.83875673e-02, -3.02474154e-03, -1.10225342e-02,
       -2.93278713e-02, -2.22463552e-02, -8.36361665e-03, 4.02081311e-02,
       3.27708498e-02, 3.62140238e-02, 7.42699392e-03, 8.98681208e-03,
       -1.09630665e-02, -2.28835735e-02, -3.53767946e-02,
       -2.06505060e-02, 7.49750715e-03, 2.26052292e-03, -1.21297361e-02,
       -2.57043131e-02, -2.23996937e-02, -7.83691928e-03,
       -3.84824001e-03, -1.12063773e-02, -3.38889239e-03, 4.61169425e-03,
       4.47223941e-03, 1.15755843e-02, 2.33952282e-03, 9.98209603e-03,
       1.54244376e-03, -2.77648494e-02, -2.52553336e-02, -1.05562164e-02,
       -4.75131115e-03, 4.13571671e-03, -1.32778632e-02, -1.03284754e-02,
       -1.09015889e-02, -3.31971869e-02, -1.43297121e-03,
       -5.62049309e-03, 2.49821786e-03, 3.06844506e-02, 1.80517528e-02,
       1.23671154e-02, -1.63178239e-02, -1.27413888e-02, 3.13585461e-03,
       -3.40600163e-02, 5.96936385e-04, 2.00429895e-05, 1.11691123e-02,
       -7.26313738e-04, -2.50805784e-02, -4.13257368e-02,
       -3.12100127e-02, -3.66466977e-02, -3.81925073e-03,
       -9.45929252e-03, 6.98667252e-04, 9.46982298e-03, 6.49570161e-03,
       -3.99971963e-04, 9.47926473e-03, 9.19917785e-03, 5.42802503e-03,
       -3.85399559e-03, -8.85679945e-03, -7.77534908e-03, 8.16936512e-03,
       4.72060824e-03, 2.18185764e-02, 1.72863679e-03, -6.42605266e-03,
       -1.19816894e-02, -1.56369377e-02, 8.56320187e-03, 1.66358352e-02,
       2.08150093e-02, 1.55277802e-02, -2.31726728e-02, -1.82083100e-02,
       -2.41044909e-02, -2.31606144e-04, -2.63233809e-03, 1.00284414e-02,
       -4.62183147e-04, 7.01624318e-04, -1.97518039e-02, -7.52052898e-03,
       -1.57673024e-02, -2.54859701e-02, -1.28703648e-02,
       -2.90551246e-03, -5.74390590e-03, -6.49719732e-03, 6.56369003e-03,
       1.82021521e-02, 3.52707244e-02, 2.74619758e-02, 2.82247458e-03,
       -4.21671011e-03, -1.70817152e-02, -4.94352542e-03,
       -5.75087639e-03, -9.71710123e-03, -1.79656446e-02, 1.30897877e-03,
       2.59212330e-02, 1.74833871e-02, -3.87126510e-03, 3.51641211e-04,
       1.19157294e-02, 6.43432653e-03, 1.15808109e-02, 7.53289508e-03,
       9.81607568e-03, 2.69446801e-02, -3.06588644e-03, -3.09186033e-03,
       -2.69199051e-02, -1.44089330e-02, -2.81072082e-03,
       -5.39003126e-03, -2.22832654e-02, -1.77940540e-02, 2.04011835e-02,
       1.30259106e-02, -1.93020608e-02, -3.26680299e-03, -1.26394109e-04,
       2.13285927e-02, 1.31209549e-02, 1.63405370e-02, 5.68548776e-03,
       2.49359161e-02, 2.56139766e-02, 1.54583529e-02, -2.95534022e-02,
       -2.03511138e-02, 1.67804258e-03, 2.21194280e-03, 3.00153904e-03,
       -1.08325938e-02, -4.12920304e-03, 2.39749858e-03, -9.46077425e-03,
       -7.94083718e-03, -1.57447904e-03, 1.61456969e-02, 2.22679712e-02,
       2.10877880e-02, 5.97659452e-03, 3.63014229e-02, 2.26741135e-02,
       1.20818336e-02, -2.16970947e-02, -5.53389499e-03, 7.63114775e-03,
       -1.02210231e-02, 1.33542810e-02, -3.70676839e-03, 1.42271072e-02,
       1.20933652e-02, 1.28201034e-04, -4.66983393e-02, -1.61193905e-03,
       -5.72883349e-04, 5.59294131e-03, -1.21324426e-02, 9.15805958e-06,
       -9.94179514e-04, 5.66467736e-03, -3.46457064e-02, -2.88873725e-03,
       8.53135809e-03, 8.25556833e-03, 5.11873513e-03, -2.66544484e-02,
       -1.52066816e-03, -8.19435157e-03, 5.11196861e-03, 2.14358512e-03,
       -3.12277023e-02, 1.38448365e-02, 1.65624563e-02, 5.09521738e-03,
       2.23295600e-03, 1.71957891e-02, 6.99243182e-03, 1.40174208e-02,
       -1.91353261e-02, -2.86034364e-02, 1.38100944e-02, 4.47778637e-03,
       -4.61376272e-03, -1.00800619e-02, -2.73077842e-03, 1.64482147e-02,
       2.15022471e-02, -3.63055733e-03, 2.59107165e-03, -2.56337766e-02,
       -3.94479297e-02, -2.83581391e-02, -2.25850921e-02,
       -6.15185220e-03, -2.47405842e-02, -8.41371901e-03, 5.25170239e-03,
       9.62672569e-03, -1.60073414e-02, -1.95129365e-02, -1.20052714e-02,
       -9.13683604e-03, 1.96589902e-02, -6.56425068e-03, -1.41156244e-03,
       -4.14380850e-03, -1.23012410e-02, -1.34549607e-02,
       -3.33052613e-02, -9.97058954e-03, -2.01586597e-02,
       -1.44247301e-02, -1.62139833e-02, -3.94623820e-03,
       -4.44250088e-03, 4.93652932e-03, 1.15892878e-02, -5.03311981e-04,
       -2.39514187e-03, -3.14477794e-02, 4.50094027e-04, 8.23282730e-03,
       1.12935959e-03, 1.14446739e-02, -1.68556068e-02, -2.36803051e-02,
       -3.18339020e-02, -2.69996803e-02, -1.98473837e-02, 1.60127953e-02,
       -1.89015679e-02, -1.20018236e-02, -2.38733646e-02,
       -3.33438767e-03, -9.17777326e-03, -1.21902223e-04, 1.42480535e-02,
       1.20766200e-02, 3.18794623e-02, -2.89966855e-02, -1.31471967e-02,
       -1.01899663e-02, -3.82186915e-03, 2.42023282e-02, -2.48712804e-02,
       -3.83317508e-02, -2.03470625e-02, 1.11503592e-04, -1.90586895e-02,
       -1.75079610e-02, -5.11080120e-03, -1.69758424e-02, 1.26736462e-02,
       5.88237541e-03, -3.47755593e-03, 1.38464775e-02, 1.82316694e-02,
       -2.39393003e-02, 4.23189066e-03, 4.90766298e-03, -2.02167947e-02,
       -2.29640547e-02, -8.99402983e-03, 3.25019401e-03, 1.50681110e-02,
       1.56904589e-02, -3.21548730e-02, -3.24509107e-02, -1.56198833e-02,
       -1.89742725e-02, -9.87641606e-03, -1.26810856e-02, 2.96822004e-02,
       2.13726498e-02, 2.24066190e-02, 1.16248312e-03, -1.10943569e-02,
       -7.09256297e-03, -2.90151481e-02, -2.28365250e-02,
       -6.66371780e-03, -1.58280763e-03, 1.57139245e-02, -4.20091348e-03,
       -3.16782668e-02, -1.69617515e-02, -2.23234552e-03,
       -1.40292719e-02, -1.46948984e-02, -3.30658653e-03, 3.32662836e-02,
       3.46223675e-02, 1.78948212e-02, -1.90654118e-02, -7.87653681e-03,
       7.13229086e-03, -2.61201989e-02, -2.62300353e-02, -3.70594561e-02,
       2.42165686e-03, 2.04732306e-02, 1.27026774e-02, 2.56726821e-03,
       -7.34975981e-03, -1.07767908e-02, -1.44575434e-02,
       -2.00873651e-02, -3.29389125e-02, 7.76202511e-03, -3.98310041e-03,
       1.95005219e-02, 1.25512443e-02, 1.07555054e-02, -1.52033279e-02,
       -4.49559605e-03, -2.77074762e-02, -1.59856509e-02, 1.59793608e-02,
       1.30378315e-03, 7.03093549e-03, -7.96260219e-03, -8.74285400e-03,
       1.27900066e-03, -1.12223933e-02, 7.96462223e-03, 1.47553086e-02,
       3.72027941e-02, 2.59268787e-02, 1.08698737e-02, -9.97923780e-04,
       1.81686096e-02, -8.25959351e-03, -2.48384625e-02, -2.92193871e-02,
       -4.16023247e-02, -4.98797139e-03, 1.40563436e-02, 1.49332853e-02,
       -1.06319902e-03, -3.78215406e-03, -2.48371866e-02,
       -2.65648048e-02, -3.53519991e-02, -2.57676020e-02, 9.47162975e-03,
       4.21891622e-02, 2.99367160e-02, 1.71360020e-02, -6.96619973e-03,
       -3.52561809e-02, -3.64620164e-02, 8.58821813e-03, 2.63436064e-02,
       4.48524430e-02, 5.31380400e-02, 5.26993116e-03, -2.79105529e-02,
       -1.39993280e-02, -3.38268541e-02, -1.76418256e-02, 6.67100120e-03,
       1.71822011e-02, 5.27093560e-02, 2.97822617e-02, 3.26540098e-02,
       1.29280484e-03, -1.69322379e-02, -3.84880602e-02, -1.93498321e-02,
       -2.22407728e-02, -1.67878978e-02, -6.36613881e-03, 2.13526282e-02,
       1.17971366e-02, 1.45095270e-02, -9.29160602e-03, -2.73488965e-02,
       -2.99612228e-02, -1.95376482e-02, -1.76961552e-02, 6.89387601e-03,
       7.02442788e-03, 2.08378565e-02, 1.85522642e-02, -2.89496989e-03,
       -8.82386602e-03, 2.69187521e-03, 7.21986545e-03, 1.54572604e-02,
       4.26438376e-02, 2.79142968e-02, 1.78152360e-02, -5.74973226e-03,
       -1.44596389e-02, -1.85470302e-02, -2.16126703e-02, 2.02202005e-03,
       1.41926901e-03, 3.27400267e-02, 1.45808514e-02, 2.01504324e-02,
       -1.73449004e-03, -1.32264961e-02, -2.32545305e-02,
       -2.01730020e-02, -1.50885871e-02, -2.20465325e-02,
       -2.43144319e-03, 1.15464665e-02, 1.36609161e-02, 2.78940126e-02,
       1.60996988e-02, -8.92855320e-03, -4.00244892e-02, -1.20284697e-02,
       -2.36544553e-02, -1.19067291e-02, -4.02038358e-03,
       -6.54336391e-03, 2.39058444e-03, 2.01140177e-02, -2.94594187e-02,
       -3.21797282e-03, 5.67403715e-03, -7.16691546e-04, 1.49967466e-02,
       5.62862167e-03, 1.80047881e-02, 1.42702106e-02, 9.75983217e-03,
       -4.13377397e-03, -1.19420774e-02, 5.56554692e-03, -9.12017247e-04,
       7.52833672e-03, -2.27996008e-03, 2.88827973e-03, -6.97060442e-03,
       8.44379421e-03, -1.22164907e-02, -3.48125882e-02, -2.31613312e-03,
       -9.84200183e-03, -1.90308318e-02, -1.87516548e-02, 1.55431172e-02,
       1.15603041e-02, 3.71484235e-02, -2.24754494e-02, -2.51684338e-02,
       -1.61469020e-02, -1.63777526e-02, -1.23951500e-02,
       -1.50218224e-02, 5.69991535e-03, -8.59055296e-03, 1.17727993e-02,
       -3.15106921e-02, -6.67770114e-03, 1.71663687e-02, 3.46705946e-03,
       3.86408297e-03, -2.92732753e-03, 1.02476524e-02, -1.22169452e-02,
       8.10525473e-03, -1.12874219e-02, -1.64851882e-02, 1.83257740e-02,
       -1.03814835e-02, -1.18225347e-02, -1.81589723e-02, 1.57310721e-02,
       -6.67151203e-03, 1.63086653e-02, -1.87034179e-02, -1.53185884e-02,
       -1.52729545e-02, -1.56699661e-02, 1.08425990e-02, 1.88866220e-02,
       1.80812888e-02, 1.15860701e-02, 8.21324624e-03, -7.42614409e-03,
       -4.50662896e-02, -4.03772779e-02, -2.87257954e-02,
       -1.54759400e-02, -2.71230377e-02, 4.29519406e-03, -2.76885345e-03,
       -3.56879260e-04, -3.84910554e-02, 4.36033076e-03, 1.64197162e-02,
       5.48156863e-03, -1.25770364e-03, 1.85537164e-03, 2.22098473e-02,
       2.81564407e-02, 3.92327569e-02, 1.01634180e-02, -2.41754595e-02,
       -1.59718711e-02, -1.30936243e-02, -1.55625930e-02,
       -3.88325937e-02, -3.21338163e-03, 2.48386036e-03, 7.85013475e-03,
       -3.09495982e-02, -2.27666590e-02, -2.93837301e-02, 2.08604080e-03,
       2.74895076e-02, -5.34267211e-03, 1.73866171e-02, 1.50988651e-02,
       1.23847015e-02, 1.46545339e-04, -2.29699742e-02, -3.84772979e-02,
       -2.38325298e-02, 1.70060806e-03, -4.31010053e-02, -3.01748030e-02,
       -4.26478758e-02, -4.06260714e-02, -7.14852428e-03, 5.10864053e-03,
       -2.12873239e-02, -1.07512921e-02, 6.93742000e-03, -9.81351174e-03,
       1.69668198e-02, 7.80172506e-03, 1.48933334e-02, 2.20226776e-03,
       -2.32645008e-03, -4.04537693e-02, -4.47066650e-02,
       -8.11265316e-03, -3.40135358e-02, 4.40440817e-05, -1.35338856e-02,
       -9.00078285e-03, -5.57605270e-03, 4.94856294e-03, 1.64618902e-02,
       2.92320959e-02, 2.78009493e-02, -1.19291316e-03, -6.18326990e-03,
       -2.48959847e-02, -1.27863456e-02, -3.96039337e-03,
       -1.52014792e-02, 1.16150500e-02, 5.01491246e-04, 2.54972652e-03,
       -2.13518906e-02, -3.21871638e-02, -4.74914387e-02,
       -3.38289216e-02, -3.51322927e-02, 1.54777654e-02, 1.14404568e-02,
       9.70868673e-03, 1.64710302e-02, -1.99249536e-02, 1.44891478e-02,
       -8.36552307e-03, 6.34664064e-03, 1.52870070e-03, -1.51183261e-02,
       -6.25325600e-03, -1.77987255e-02, -1.28067126e-02,
       -3.16290259e-02, -1.66346207e-02, -2.76080333e-02,
       -5.05098840e-04, -3.42720933e-02, 5.50864097e-05, 3.29388566e-02,
       1.56418718e-02, 3.00307609e-02, -7.76270404e-03, -2.80166734e-02,
       -1.12401424e-02, -8.58818926e-03, 5.97800419e-04, -4.45179176e-03,
       1.56665891e-02, 3.02632898e-03, -1.76967159e-02, -4.01741229e-02,
       -1.26847094e-02, -1.19376276e-02, -9.76301078e-03,
       -1.38787786e-02, 1.61524564e-02, 4.09997720e-03, -1.23462705e-02,
       9.66221187e-03, -2.35049594e-02, -5.72719611e-03, 1.55791258e-02,
       3.42718177e-02, 1.72109213e-02, -4.76633460e-04, -2.58146971e-02,
       -3.23729105e-02, -3.90222222e-02, -4.51900028e-02,
       -7.11991335e-04, 1.83564750e-03, 7.32447440e-03, -5.28207887e-03,
       1.51946107e-02, 2.69982927e-02, 2.72416938e-02, 8.57408624e-03,
       -1.97334476e-02, -1.61340256e-04, 2.55910996e-02, 8.81994050e-03,
       5.65361325e-03, -3.20691243e-02, -3.37388669e-03, 8.14648997e-03,
       7.97920022e-03, -2.02633720e-02, -1.74982063e-02, 1.77242812e-02,
       1.24177672e-02, -1.13436794e-02, 1.37191052e-02, 1.34213874e-02,
       6.99914899e-03, 1.06684014e-03, -1.44280335e-02, -1.43172196e-03,
       2.38655088e-03, 5.95228327e-03, 1.45378420e-02, -1.56257506e-02,
       7.46029522e-03, 5.71676949e-03, 6.67750696e-03, -1.07975444e-02,
       -2.65856963e-02, -1.38877984e-03, -4.28435800e-04,
       -7.27951853e-03, -2.11298801e-02, 2.81337928e-03, 1.38847549e-02,
       1.07165594e-02, -4.96311998e-03, -5.35021420e-04, 2.27838308e-02,
       2.47500720e-03, -4.84266039e-03, -1.23593463e-02, 8.15908145e-03,
       2.00506579e-02, -1.35587957e-02, -7.38873705e-03, 2.67875846e-03,
       1.38067668e-02, -7.37891253e-03, -1.36612020e-02, 1.13482727e-02,
       2.61687525e-02, 1.61483325e-02, 9.93360113e-03, 1.26275243e-02,
       -8.64442345e-03, 2.61538732e-03, -6.72339043e-03, -3.54713458e-03,
       5.98666538e-03, 2.11411063e-02, 1.39199393e-02, 4.56435652e-03,
       -3.33376182e-03, -3.58560076e-03, 6.17736299e-03, -1.51648941e-02,
       -1.30184442e-02, -2.86235139e-02, 1.75873041e-02, 2.39151195e-02,
       1.71295553e-02, 1.42579793e-03, 1.70708559e-02, 8.89506098e-03,
       6.54274644e-03, -2.34408956e-02, -9.21193603e-03, 1.44541422e-02,
       4.21394082e-03, 3.87592986e-03, -1.60627328e-02, 4.49875556e-03,
       2.45673507e-02, 1.97813082e-02, 6.39434613e-04, -4.95814644e-02,
       -1.94002641e-03, 1.38946213e-02, 2.46339664e-02, -1.75359957e-02,
       7.08775315e-03, -6.33542007e-03, -1.28537426e-02, -3.55411135e-02,
       -3.14167142e-02, -8.34062113e-04, 1.06347604e-02, 2.72047557e-02,
       -3.33523490e-02, -2.04722341e-02, 1.39654905e-03, 6.73591858e-03,
       -1.46736307e-02, 1.22718152e-03, -5.94786461e-03, -1.00856610e-02,
       1.26274247e-02, -1.14146639e-02, -9.53895599e-03, -8.93522426e-03,
       1.52049540e-03, 5.71386423e-03, 1.12464856e-02, 1.28279943e-02,
       1.27468898e-04, 1.13490745e-02, -1.37821184e-02, -1.00426271e-03,
       2.41205208e-02, 3.56499739e-02, 2.45873611e-02, -3.32255363e-02,
       -3.00236661e-02, -1.31745888e-02, 2.17165556e-02, -2.65342905e-03,
       -2.92386934e-02, -2.67637465e-02, -2.22327784e-02,
       -2.99493801e-02, -2.83222701e-02, -1.61867365e-02,
       -4.89167264e-03, 2.22855993e-02, -8.42404179e-03, -5.65136969e-03,
       8.83187074e-03, 1.50032369e-02, -8.52320343e-03, 1.11070415e-02,
       1.47901308e-02, -2.14951225e-02, -1.84132401e-02, -1.65845025e-02,
       8.16817954e-03, -8.93770065e-03, 1.17928442e-02, 1.61157809e-02,
       8.11232440e-03, 1.25251692e-02, -5.17664244e-03, 4.22087312e-03,
       2.03116760e-02, 3.50114889e-02, 9.00653657e-04, 3.33023444e-02,
       3.99465486e-02, -2.91813891e-02, -2.32805070e-02, -3.00707072e-02,
       -9.31543019e-03, -2.92849354e-02, -4.40348918e-03, 2.67549325e-03,
       4.61531337e-03, -8.95168353e-03, -3.19119915e-02, -3.65165882e-02,
       -2.87626404e-02, -3.46580171e-03, 3.73183936e-03, 1.40246153e-02,
       1.57194622e-02, 2.70591509e-02, 8.38231761e-03, 4.32824017e-03,
       -1.53973838e-02, -1.70506258e-02, -1.22228544e-02, 7.12460326e-03,
       -6.49333745e-03, -9.16656945e-03, 1.98007859e-02, 3.78085561e-02,
       2.43119765e-02, 3.84299853e-03, -9.80450958e-03, 1.53052052e-02,
       2.46294290e-02, 1.98018048e-02, -3.79322120e-03, 3.17660831e-02,
       4.15807217e-02, -3.99022512e-02, -3.96576039e-02, -2.76707262e-02,
       -1.53758936e-02, -2.90326634e-03, -2.15078704e-02,
       -1.87295079e-02, 2.74751778e-03, -3.64305160e-04, -2.08218880e-02,
       -2.67895535e-02, -1.77171063e-02, -2.49244858e-05, 1.62923429e-02,
       -2.01926939e-03, -1.74294300e-02, 1.33736227e-02, 1.07705295e-02,
       1.06600570e-02, -2.51500309e-02, -1.52081251e-02, 2.58483225e-03,
       -5.33974744e-05, 9.91806481e-03, -3.87551752e-03, 9.59455874e-03,
       2.33167708e-02, 9.73533094e-03, -1.59452334e-02, 1.04193492e-02,
       4.55040075e-02, 2.41655502e-02, 3.37457918e-02, 1.06093213e-02,
       2.93084159e-02, 2.85929367e-02, -3.15583646e-02, -4.59889397e-02,
       -1.23893088e-02, -8.98488984e-03, -2.25984473e-02,
       -1.41828004e-02, -2.60291398e-02, -1.62761416e-02,
       -8.19995359e-04, -3.71230692e-02, -4.46656235e-02, 7.05103949e-03,
       1.98005047e-02, -1.68101732e-02, 1.38643701e-02, -1.01614520e-02,
       -1.70471016e-02, 7.72575103e-03, -2.56447792e-02, -1.27430558e-02,
       9.45174042e-03, 5.40934056e-02, 4.87797372e-02, 1.40042128e-02,
       -2.02178322e-02, 3.68351350e-03, 6.89396216e-03, -1.54216662e-02,
       -6.41259924e-03, -2.55471841e-03, 5.33351637e-02, 1.85696594e-02,
       2.84454655e-02, -2.56875460e-03, 1.64361263e-03, 1.04788947e-03,
       -4.51982208e-02, -4.20020595e-02, -8.70180130e-03, 1.99011322e-02,
       -8.06257129e-03, 8.05493968e-04, -3.23063284e-02, -1.68300588e-02,
       1.80825207e-03, -2.01801937e-02, -2.49603931e-02, -1.87303629e-02,
       2.64645983e-02, -4.92937956e-03, 1.35253966e-02, -1.01197383e-03,
       -2.99756438e-03, -3.21652205e-03, -4.61481931e-03,
       -2.34405533e-03, 7.71122659e-03, 4.71471027e-02, 1.53014092e-02,
       3.10414303e-02, -8.15340411e-03, 8.04765150e-03, 2.43392102e-02,
       -7.25108711e-03, 5.43168606e-03, 5.73568186e-03, 1.99652296e-02,
       1.01455888e-02, 2.23033801e-02, -4.07383684e-03, 2.73293834e-02,
       1.61273237e-02, -1.01987198e-02, -4.03996557e-03, -1.18375430e-02,
       1.47741484e-02, -2.09262874e-02, 1.10185603e-02, -1.13487989e-02,
       3.55142611e-03, 2.92127812e-03, -1.14306621e-02, 6.38984190e-03,
       -1.97275225e-02, -7.04113906e-03, -3.51598486e-02,
       -9.07865725e-03, -3.21787298e-02, 1.88494846e-02, -1.37471862e-03,
       2.47882642e-02, 2.83139572e-02, 1.25630200e-02, 1.04897395e-02,
       -1.32922819e-02, 7.61269499e-03, 2.45539231e-05, 2.36884393e-02,
       2.76070219e-02, 1.08320601e-02, 2.65190136e-02, 3.44056124e-03,
       1.22050941e-02, -1.26904752e-02, -6.05855836e-03, -2.35397182e-02,
       1.47761246e-02, 1.39843207e-02, 1.41017102e-02, 3.12469341e-02,
       -1.51253659e-02, -1.82536859e-02, -4.37761657e-02,
       -2.99853571e-02, -3.47998776e-02, 5.44500817e-03, 1.78400390e-02,
       -1.09754838e-02, 1.88428834e-02, -2.92131379e-02, -2.52752602e-02,
       -4.50296290e-02, -2.47841086e-02, -4.71276231e-02,
       -3.17373895e-03, 1.87828511e-04, 1.67007111e-02, 3.84508856e-02,
       7.11014960e-03, 2.02759430e-02, 7.56153185e-03, 1.58984419e-02,
       -1.66744683e-02, -1.98777299e-03, 2.35396661e-02, 3.01020336e-03,
       2.70281471e-02, -1.61776673e-02, -7.99165107e-03, -2.26850063e-02,
       2.13130489e-02, -2.24260031e-03, 1.39115611e-03, -5.09828283e-03,
       4.76089399e-03, 9.43096541e-03, -2.80065071e-02, -3.34231532e-03,
       -2.08281614e-02, -1.61720812e-03, -3.53642181e-02,
       -4.64177178e-03, 4.21909429e-03, -4.95020719e-03, 5.55763068e-03,
       -5.08511923e-02, -1.95899867e-02, -4.50965166e-02,
       -9.70410556e-03, -4.75547537e-02, -3.22976448e-02,
       -3.39659303e-02, 1.97606497e-02, 3.24918665e-02, 1.09665832e-02,
       1.52553720e-02, 7.24683399e-04, 2.01292392e-02, 1.51904207e-02,
       1.72495507e-02, 2.47758254e-03, -1.41424369e-02, -2.35490617e-03,
       7.66655104e-03, 4.89722146e-03, -1.60033107e-02, 1.05015244e-02,
       6.97213877e-03, 4.56850883e-03, -1.90535076e-02, 1.17388591e-02,
       1.41701410e-02, -1.86196174e-02, -1.34659903e-02, -4.49904017e-02,
       -1.06121460e-02, -3.15606110e-02, -3.08018047e-02,
       -2.07630359e-02, -4.00662348e-02, -1.26500176e-02,
       -2.51652077e-02, -1.16814263e-02, -3.15158144e-02, 3.31425341e-04,
       -3.02131586e-02, -2.24378090e-02, -3.23704407e-02, 7.38926651e-03,
       3.32761439e-03, 9.22191702e-03, 1.23541942e-02, 4.62521426e-03,
       3.36934254e-02, 4.07223077e-03, -4.63212607e-03, -3.54517088e-03,
       2.17921729e-03, -1.52977081e-02, -2.72327047e-02, -4.71716328e-03,
       -2.41691712e-02, 3.39040207e-03, -2.30926834e-02, -2.30183993e-02,
       -2.11693924e-02, -3.78334103e-03, 5.41626057e-03, 3.67440698e-05,
       7.93213677e-03, -7.09547708e-03, 1.58930495e-02, -3.60325836e-02,
       -7.69635756e-03, -2.06660423e-02, -3.11235432e-02,
       -4.18556714e-03, -2.09084284e-02, -2.03312896e-02,
       -3.76802683e-02, -1.25007099e-02, -3.89648750e-02,
       -4.55615707e-02, -5.12141623e-02, 2.25948505e-02, 3.45797613e-02,
       1.95882991e-02, 4.13942561e-02, 1.29262824e-02, 2.84091197e-02,
       -5.65396016e-03, -4.96301567e-03, -9.69886873e-03,
       -1.20873218e-02, 3.09033692e-03, -8.77827220e-03, 1.75243337e-02,
       -2.06481013e-02, -7.38402922e-03, -2.55624726e-02,
       -2.00772677e-02, -3.53950635e-02, -1.75635461e-02, 8.09499901e-03,
       6.97762426e-03, 4.39344207e-03, -2.02337746e-02, 2.15442237e-02,
       -2.13077981e-02, -2.11156309e-02, -3.64708863e-02,
       -3.05385031e-02, -8.30678642e-03, -1.68240163e-02,
       -7.90257100e-03, -3.23092341e-02, -4.53496771e-03,
       -4.04349640e-02, -2.06731986e-02, -5.06455526e-02, 1.96410287e-02,
       5.11264778e-04, -9.00080334e-03, 2.52308585e-02, -1.01423291e-02,
       5.16378693e-03, 9.58952587e-03, 1.47899650e-02, 2.02849954e-02,
       1.02104684e-02, -2.96457987e-02, -3.20846625e-02, -9.98197217e-03,
       -1.98688246e-02, 2.03248858e-03, 2.69388056e-05, -2.17802194e-03,
       -1.04163727e-03, 1.41171068e-02, -3.13863903e-03, -1.60717219e-02,
       9.81347542e-03, -7.51005253e-03, -4.40973276e-03, -1.31284883e-02,
       6.20409288e-03, 4.54208767e-03, -7.49312295e-03, -2.49829311e-02,
       -2.90985424e-02, -6.24800380e-03, -2.90816873e-02,
       -1.94724761e-02, -2.07020771e-02, -2.13673487e-02,
       -1.98029689e-02, 3.05398218e-02, 1.47590823e-02, 1.03334179e-02,
       1.63838156e-02, 3.06435372e-03, 3.20631568e-03, 2.93131731e-03,
       3.02124186e-03, 2.57154759e-02, 1.71289500e-02, 1.79823060e-02,
       1.79233011e-05, 1.35277468e-03, -6.29621372e-03, -1.14231613e-02,
       -1.57685913e-02, -8.47468153e-03, 2.21684631e-02, 1.54943261e-02,
       -5.70491049e-03, -1.83767490e-02, 1.97143108e-02, -8.36595800e-03,
       -1.27933174e-02, -7.64226867e-03, -1.01716314e-02, 9.19376034e-03,
       6.73974352e-03, -6.78836741e-03, 1.03161531e-02, 2.33697370e-02,
       -2.32425760e-02, -3.03060543e-02, -1.76395867e-02,
       -1.07578505e-02, 1.22989584e-02, 2.59187296e-02, 3.85499522e-02,
       8.83697253e-03, 1.28062917e-02, -1.31460838e-03, -3.40923201e-03,
       -1.47591596e-02, -1.08721554e-02, 1.56819019e-02, 1.15863606e-02,
       2.41020005e-02, 1.14433542e-02, 4.88745328e-03, -7.19840592e-03,
       -1.23607842e-02, -1.09197339e-02, -1.30185243e-02, 7.05669075e-03,
       1.21355914e-02, 2.71438528e-02, 3.66225466e-02, 1.59878433e-02,
       1.04128267e-03, -2.14157440e-02, -2.81272344e-02, -2.33451203e-02,
       2.70171417e-03, -3.10137891e-03, 2.30009388e-02, 3.43850888e-02,
       -1.09763246e-03, 2.50381865e-02, -1.31219355e-02, -2.67126542e-02,
       -1.97438002e-02, -4.18731896e-03, -4.00210656e-02,
       -1.41738914e-02, -6.17922097e-03, 1.78549550e-02, -3.37235746e-04,
       2.45399922e-02, 3.52838710e-02, 2.07277406e-02, -2.35961322e-02,
       -3.59748080e-02, -1.26783671e-02, -4.25456837e-03, 1.21870898e-02,
       -1.38562052e-02, -2.53409008e-03, 3.23845260e-02, 4.85720858e-02,
       -4.43460234e-03, -4.79849540e-02, -3.98244485e-02,
       -3.36298011e-02, 6.91142771e-03, -1.66796688e-02, 2.25415900e-02,
       2.78229434e-02, 2.45032106e-02, -3.96245271e-02, -3.64742167e-02,
       -2.12962478e-02, -6.56253472e-03, -9.25331187e-05,
       -2.80497558e-02, -1.00068748e-02, 3.30357812e-02, 4.65813428e-02,
       -1.61798615e-02, -2.49820892e-02, -1.34697473e-02,
       -2.61740119e-04, 1.64076369e-02, -2.14239974e-02, -1.82841867e-02,
       -1.58287026e-02, 1.28026726e-02, -1.98843032e-02, -1.96178854e-02,
       -3.38130607e-03, 1.39506441e-02, 3.19244787e-02, 4.04706970e-03,
       1.56266354e-02, 1.42018730e-02, 4.22910675e-02, 1.66809186e-03,
       -2.81821545e-02, -1.82599612e-02, -1.37570743e-02,
       -6.78135408e-03, -3.01784649e-02, -1.59509927e-02,
       -1.41147841e-02, 2.19626743e-02, -1.88050736e-02, -1.07766660e-02,
       -1.00606196e-02, -1.68154221e-02, 2.63197813e-03, -2.02825312e-02,
       1.77548325e-03, -1.83718316e-02, 1.60537325e-02, -5.15915826e-03,
       -1.57566294e-02, -1.24508459e-02, -1.50630223e-02, 1.22830458e-02,
       9.90141183e-03, 2.63349134e-02, 2.56153587e-02, 3.73559594e-02,
       6.24011271e-03, 5.29173994e-05, 1.08501008e-02, 3.27010243e-03,
       1.08381798e-02, 1.29228253e-02, 4.60366793e-02, 4.79827188e-02,
       5.78360707e-02, 2.42821760e-02, -3.14437933e-02, -2.77015399e-02,
       -4.71477509e-02, -1.53825050e-02, 1.28522736e-03, 1.23327319e-02,
       -1.68194026e-02, 6.15989417e-03, -9.89453774e-03, -3.21553759e-02,
       -1.45506887e-02, -2.46930327e-02, -1.58723798e-02,
       -1.27014313e-02, 1.67325065e-02, -3.80317710e-04, 1.30185029e-02,
       -1.82430726e-02, -1.37932249e-03, -9.04908462e-04,
       -5.03730075e-03, -1.26931369e-02, 6.42238511e-03, 2.30215713e-02,
       2.55225338e-02, 3.33789736e-02, 1.58094652e-02, 2.43363455e-02,
       7.81610049e-03, 3.03926598e-03, 5.69926808e-03, 2.10903883e-02,
       3.00499294e-02, 2.35568807e-02, 5.01934737e-02, 3.77923772e-02,
       -3.35770994e-02, -1.56037761e-02, -4.03278694e-02,
       -3.44406255e-02, -3.11440323e-02, -1.42098861e-02,
       -9.84932482e-03, 1.00651775e-02, -1.88795682e-02, -2.75127087e-02,
       3.94981209e-04, -3.35400142e-02, -2.43900325e-02, -2.86360495e-02,
       -1.98090058e-02, 5.23263996e-04, 8.78760498e-03, -4.76254337e-03,
       7.25223590e-03, 3.68310511e-03, 3.74151510e-03, 1.99321774e-03,
       -5.98386955e-03, 5.19276969e-03, 5.56232501e-03, 1.92800574e-02,
       1.60853826e-02, 1.25555741e-02, 2.06431635e-02, 3.99695560e-02,
       4.18912396e-02, -4.46653320e-03, 2.42616497e-02, 1.95999350e-02,
       2.56187953e-02, 2.82350779e-02, -3.32966261e-02, -1.09248925e-02,
       -3.20418589e-02, -3.07020880e-02, -3.02470159e-02,
       -2.10767891e-02, -1.09909512e-02, -1.27910133e-02,
       -4.33299579e-02, -3.69288065e-02, -1.11872572e-02,
       -3.92707111e-03, -9.19367280e-03, -2.75428779e-02,
       -9.57372133e-03, -4.51653963e-04, -1.47580309e-02,
       -4.35474552e-02, -2.90584797e-03, 6.05827989e-03, 1.72716994e-02,
       3.71125415e-02, 1.10062142e-03, 1.30535532e-02, -2.82743224e-03,
       3.27028707e-02, 3.30372192e-02, 2.36611161e-02, 2.96091214e-02,
       2.01112200e-02, 5.15436307e-02, 2.39126906e-02, 3.42152156e-02,
       2.96359137e-02, 3.84795144e-02, 3.94146033e-02, -6.24892786e-02,
       -2.92190723e-02, -2.86667570e-02, -1.37469228e-02,
       -2.44822595e-02, -1.47634530e-02, -2.41632685e-02,
       -8.57455842e-03, -4.90763262e-02, -5.51310591e-02,
       -1.64787453e-02, -8.23113974e-03, 8.31677206e-03, -2.50871796e-02,
       -1.11483699e-02, -9.26829316e-03, 1.12628825e-02, -2.17214376e-02,
       2.69990526e-02, 2.45322287e-02, 3.16518289e-03, 2.05771364e-02,
       1.93585141e-03, 1.11651774e-02, 1.59728024e-02, 3.62847969e-02,
       3.96363810e-02, 2.78078280e-02, 1.97149869e-02, 5.77477878e-03,
       1.41951488e-02, -1.34717894e-03, 1.36454618e-02, 1.21869519e-02,
       5.25044315e-02, 4.05966826e-02, -3.00381780e-02, -1.26858987e-02,
       -1.95353664e-02, -6.47650007e-03, -4.84190732e-02,
       -3.50407362e-02, -2.99882758e-02, 1.31507646e-02, -1.20854350e-02,
       -3.10135204e-02, -1.11669423e-02, -1.35481060e-02,
       -5.40254219e-03, -2.57765055e-02, -1.98371019e-02,
       -2.61606164e-02, 1.47550115e-02, -2.45108344e-02, 4.96843792e-02,
       3.75097096e-02, 2.01463494e-02, 9.01672349e-04, -2.61816185e-05,
       -5.68092056e-03, -4.71230038e-03, 4.68863435e-02, 5.65676950e-02,
       4.27432172e-02, 2.47641169e-02, 5.21098124e-03, -2.21812148e-02,
       -3.13287973e-02, -1.76003631e-02, -5.94936404e-03, 4.23106104e-02,
       5.69899753e-02, -2.31068954e-02, -1.72083694e-02, -1.94461942e-02,
       -1.23264063e-02, -3.50045227e-02, -1.40168611e-02,
       -1.31577039e-02, 2.11567488e-02, 1.08425226e-03, -3.98354679e-02,
       -3.29491757e-02, -5.17165996e-02, -4.33361046e-02,
       -6.17901012e-02, -3.63929085e-02, -1.17232045e-02, 3.11106760e-02,
       1.09530622e-02, 4.47937846e-02, 2.61496808e-02, 2.66861031e-03,
       5.18423598e-03, -1.17439800e-03, -3.91149987e-03, -1.99751109e-02,
       3.10170930e-02, 6.12960681e-02, 3.06126326e-02, 2.47442108e-02,
       -1.96709391e-02, 9.58349463e-03, 8.50015134e-03, -4.18801937e-04,
       -2.71797832e-02, 1.33134918e-02, 1.66712403e-02, -2.56439969e-02,
       -2.14915257e-02, -3.54995988e-02, -2.59280466e-02,
       -3.77321094e-02, -2.23610997e-02, -1.72709189e-02, 2.93827616e-02,
       2.32788268e-02, -5.93277961e-02, -3.93400341e-02, -3.95405032e-02,
       -2.62263753e-02, -3.48321199e-02, -1.04361633e-02,
       -2.74590589e-02, 1.30569628e-02, -2.19713971e-02, 4.98159453e-02,
       3.09340041e-02, 3.81248654e-03, 4.75715660e-03, 8.47188930e-04,
       5.91583957e-04, -2.74915770e-02, -1.39230932e-03, 3.08251083e-02,
       1.27347847e-02, 1.09369271e-02, 1.53548666e-03, -2.48941244e-03,
       1.83807090e-02, 1.35105401e-02, -2.01136991e-02, 6.18457654e-03,
       2.07967963e-02, -2.76899096e-02, -2.43344624e-02, -2.44429819e-02,
       -2.17334665e-02, -1.55503703e-02, -7.31974794e-03,
       -1.75068285e-02, 1.81860942e-02, -3.66685912e-03, -2.99934447e-02,
       -3.65956053e-02, -3.07306517e-02, -2.04673167e-02,
       -7.74686877e-03, -2.61014625e-02, -3.25007476e-02,
       -5.43138525e-03, -8.15962907e-04, 5.62993102e-02, 6.37010038e-02,
       3.58633101e-02, 3.37299034e-02, 2.49565318e-02, 1.39072957e-02,
       -1.87343545e-02, 1.46420682e-02, 3.36545147e-02, 4.84923683e-02,
       4.07609791e-02, 6.66436693e-03, 4.71864548e-03, -6.82684081e-03,
       1.00234626e-02, -1.48009080e-02, -8.69311299e-03, 1.40289906e-02,
       -3.60676553e-03, -4.07138700e-03, -5.00733312e-03, 1.96837797e-03,
       -1.22327683e-02, -3.17110308e-02, -4.13040109e-02,
       -1.06862020e-02, 2.41967645e-02, -2.83646788e-02, -3.39820310e-02,
       -3.79150026e-02, -3.70348468e-02, -3.09940223e-02,
       -3.48379649e-02, -5.50600253e-02, -2.95461416e-02,
       -3.64881125e-03, 5.22978120e-02, 5.22674769e-02, 1.14340354e-02,
       8.11718497e-03, 1.11724215e-03, 1.55352298e-02, -6.45477790e-03,
       1.51516777e-02, 2.82189324e-02, 9.45091620e-03, 2.17566546e-02,
       3.02429078e-03, -6.42229058e-03, -1.27245551e-02, -1.76824182e-02,
       -4.45210934e-02, -6.85266126e-03, 6.60772930e-05, 1.21570909e-02,
       9.73754656e-03, -6.04763580e-03, -3.15134935e-02, -4.93442221e-03,
       -1.64449681e-02, -2.99321078e-02, -1.21991429e-02, 1.97095629e-02,
       -4.46216166e-02, -1.39491735e-02, -2.20576376e-02,
       -4.03187834e-02, -1.03518227e-02, -4.53178696e-02,
       -3.80958393e-02, -2.30445731e-02, -4.33782823e-02, 2.43045650e-02,
       9.94618330e-03, 1.29875671e-02, 1.39920069e-02, 1.45417945e-02,
       -1.47482445e-02, -2.49531902e-02, 9.31918342e-03, 4.40857224e-02,
       -9.54915595e-04, -2.02283375e-02, -1.83474217e-02,
       -2.62399437e-03, -6.91484753e-03, -2.24584043e-02,
       -3.10845897e-02, -1.44109800e-02, 1.49249652e-04, -2.57819723e-02,
       -1.60844568e-02, -1.37429927e-02, -4.84821573e-03, 2.39735059e-02,
       -2.35619377e-02, -1.29578114e-02, 1.26690036e-02, 5.06628491e-03,
       -4.63051312e-02, -3.89167033e-02, -3.70752029e-02,
       -1.95811857e-02, 1.72296248e-03, -1.67244356e-02, -3.30292061e-02,
       -3.88731225e-03, -1.40996231e-02, 4.41750698e-03, -7.64784822e-03,
       -1.36633171e-02, 2.71121226e-02, 3.20821442e-03, -1.58713143e-02,
       -2.11410578e-02, -1.29763512e-02, -1.83300849e-03, 8.80270544e-03,
       2.68914667e-03, 3.33856754e-02, 3.07551790e-02, 6.44816738e-03,
       -1.83970835e-02, -2.86581237e-02, -1.49409827e-02, 4.47027758e-03,
       -2.73884367e-02, -2.12682392e-02, -3.45833390e-03, 7.40271388e-03,
       1.45981843e-02, -2.24318467e-02, -2.58919820e-02, -1.40228719e-02,
       -2.47195158e-02, -6.00690255e-03, 6.54723356e-03, 1.60450786e-02,
       1.17428079e-02, 1.48762120e-02, -2.91778427e-02, -3.56692262e-02,
       -2.32091062e-02, -1.60337577e-03, 7.50622153e-03, 2.48735137e-02,
       3.20247859e-02, 1.17991120e-02, 1.03963837e-02, -1.25050573e-02,
       -2.64104828e-02, -1.66267846e-02, -1.21779589e-03,
       -1.78178621e-03, 1.76162329e-02, 3.54363881e-02, 2.14155447e-02,
       9.81562864e-03, -1.36997094e-02, -2.52323858e-02, -2.29876786e-02,
       -8.46397690e-03, 6.87382463e-03, 7.44665880e-03, 1.87893081e-02,
       9.33365524e-03, 6.15543174e-03, -9.94999800e-03, -2.81974059e-02,
       -1.69978552e-02, 6.67163264e-03, 1.54601606e-02, -4.40253038e-03,
       6.36203215e-03, 1.64573602e-02, 1.64082029e-03, -1.16822720e-02,
       -1.92844141e-02, -1.48838516e-02, 5.86154498e-03, -4.44168672e-02,
       -2.28133854e-02, -1.53796272e-02, 1.32967988e-02, -2.16157511e-02,
       2.52323295e-03, 1.41768586e-02, 2.89484356e-02, -2.89033521e-02,
       -2.00032443e-02, -9.53719299e-03, 7.43305124e-03, 1.00515867e-02,
       1.89207047e-02, -8.63311626e-03, 2.67584808e-02, 3.84926200e-02,
       -1.00176325e-02, -3.34521383e-02, -1.78312957e-02,
       -1.55178709e-02, 7.77510274e-03, -1.21153304e-02, -1.59148872e-02,
       -1.01065114e-02, 9.74752847e-03, -2.98850965e-02, -2.58981064e-02,
       -2.70506311e-02, -3.27778794e-02, -8.11134523e-04, 9.59609449e-03,
       -1.72008779e-02, 5.15222363e-03, 1.22994287e-02, -2.57061254e-02,
       -1.58467982e-02, -1.18057709e-02, -1.00671854e-02,
       -4.57975036e-03, 4.27800510e-03, -1.36051159e-02, -1.05970418e-02,
       3.47980298e-02, 2.65523931e-03, 1.75953340e-02, -3.61473067e-03,
       -2.10285485e-02, -1.11425640e-02, -1.26325712e-02,
       -1.02116559e-02, -1.01071401e-02, 1.93208009e-02, 2.17681825e-02,
       -1.29156476e-02, -3.39932889e-02, -4.56355587e-02,
       -2.45061107e-02, 6.10022573e-03, -2.17100251e-02, -1.74812898e-02,
       2.74566431e-02, 1.95014582e-03, -1.01655563e-02, -2.53998302e-02,
       -3.21983919e-02, -2.10920162e-02, 1.32392235e-02, -1.43697690e-02,
       -1.56934652e-02, 1.33930817e-02, -4.35062917e-03, 4.81690699e-03,
       -1.16473995e-02, -4.73601371e-02, -2.03579199e-02,
       -3.53286066e-03, 1.25650167e-02, -1.34604070e-02, 1.28602441e-02,
       1.22110369e-02, -1.10419533e-04, -2.70318030e-03, -2.55440325e-02,
       -5.59912529e-03, -7.12239277e-03, 3.25435735e-02, -5.79911983e-03,
       -8.50575569e-04, -4.80097579e-03, -4.91274521e-03,
       -1.18729081e-02, -3.78469601e-02, -1.48447929e-02, 6.66808803e-03,
       1.00787729e-02, -1.68769434e-02, -1.18965339e-02, -6.48295507e-03,
       -3.40723968e-03, 6.95901364e-03, -1.44685376e-02, 1.56134041e-02,
       -9.02889855e-03, 2.43307855e-02, -2.36750674e-02, -2.14016270e-02,
       -8.38684104e-03, -2.59342743e-03, 4.63678967e-03, -1.73883215e-02,
       -1.61248364e-03, 1.76970451e-03, 4.92943870e-03, -1.01832543e-02,
       4.25305031e-03, -1.01943704e-04, -5.30810736e-04, 3.70585881e-02,
       -1.19596776e-02, 1.19482139e-02, 2.13511474e-03, -1.42856454e-02,
       -6.36806362e-04, 1.15498370e-02, 8.22295807e-03, -3.05900420e-03,
       1.86984222e-02, -9.63774603e-03, 9.96432081e-03, -1.42263416e-02,
       3.28191044e-03, -3.02110631e-02, -3.14109623e-02, -1.78085510e-02,
       -4.46631527e-03, -7.30401778e-04, -2.68682260e-02,
       -1.19414926e-02, 1.43154385e-03, -1.37114292e-02, -3.86801995e-02,
       -2.37492155e-02, -1.93636566e-02, 6.68954011e-03, 2.44234037e-02,
       -1.08368900e-02, 2.23413878e-03, 2.95617525e-03, -2.31095793e-04,
       1.25290779e-02, 2.66575050e-02, 4.11362201e-03, 3.75661463e-03,
       3.64977308e-02, 4.35449369e-03, 2.36695190e-03, 3.13741388e-03,
       1.55121814e-02, 2.86210049e-02, 5.24039231e-02, 1.23119671e-02,
       -6.54283212e-03, -1.21914847e-02, -3.78672965e-02,
       -2.46141553e-02, -3.80097255e-02, -1.16044870e-02,
       -1.86689589e-02, -2.52083177e-03, -6.47380902e-03,
       -1.07880943e-02, 8.10813438e-03, -1.69513077e-02, -1.96367893e-02,
       -2.38942392e-02, -2.43756399e-02, -1.49338264e-02, 8.62058159e-03,
       9.28547792e-03, -1.83565412e-02, 1.34962210e-02, -1.03919776e-02,
       -7.46324332e-03, -7.75615312e-03, -5.47096570e-05, 1.50682789e-03,
       4.00695205e-02, 2.19285451e-02, -6.14356855e-03, 1.67204253e-02,
       -3.16820247e-03, 1.69036128e-02, 2.43407604e-03, 2.04705410e-02,
       2.67850235e-02, 7.07221180e-02, 5.31777218e-02, -3.80064994e-02,
       3.64075229e-03, -1.80305410e-02, -2.73135975e-02, -2.53430922e-02,
       -3.48653160e-02, -3.18626538e-02, 2.02798075e-03, 6.03240402e-03,
       -4.53613810e-02, 7.66564393e-03, -1.80950237e-03, -6.32786611e-03,
       -2.09970307e-02, -1.17283389e-02, 1.97872799e-03, 4.96341139e-02,
       6.59663882e-03, 5.50135691e-03, 1.98543388e-02, 1.93615226e-04,
       1.22482004e-02, -1.97501443e-02, -2.46151304e-03, 1.42190056e-02,
       5.61336018e-02, 5.26286028e-02, 1.39277112e-02, 2.42204368e-02,
       1.37311574e-02, 1.29823666e-02, -2.00665090e-02, -9.64341220e-04,
       6.29319157e-03, 6.17590360e-02, 5.15085943e-02, -4.11662571e-02,
       3.44667560e-03, -1.45731466e-02, -1.70132630e-02, -5.22141680e-02,
       -8.32807925e-03, 6.69357367e-03, 4.33812700e-02, -8.38839391e-04,
       -2.08732300e-02, -2.63723750e-02, -3.53001505e-02,
       -3.96851376e-02, -6.23710118e-02, -6.95499079e-03, 1.11415507e-02,
       4.45342101e-02, 1.40295047e-02, 2.94478852e-02, 1.31512964e-02,
       2.59226025e-03, 1.05777690e-02, -7.10310740e-03, 8.22738744e-03,
       1.62605625e-02, 5.92074916e-02, 5.78861050e-02, 1.09294681e-02,
       -6.86917640e-03, -2.48224679e-02, -9.73040611e-03,
       -9.37413517e-03, -6.81890128e-03, 1.13776121e-02, 5.83745986e-02,
       5.87279461e-02, -3.08809094e-02, -3.12327612e-02, -4.16604057e-02,
       -4.23081145e-02, -3.38780656e-02, -8.14590137e-03,
       -7.55826803e-03, 4.28457409e-02, 1.58317089e-02, -5.05819768e-02,
       -3.42608579e-02, -4.47821170e-02, -3.08221914e-02,
       -1.40382657e-02, -3.11087854e-02, -1.73644535e-02, 3.34580839e-02,
       -1.13129439e-02, 1.59047414e-02, 7.07337027e-03, -6.66986033e-03,
       1.02963410e-02, 1.25277294e-02, 5.52066462e-03, 1.10394158e-03,
       5.85575774e-02, 7.35915303e-02, 9.52659931e-04, 1.61524136e-02,
       -1.37206819e-03, 1.17252406e-03, 1.60855614e-02, 8.04566033e-03,
       4.14288789e-03, 4.51415367e-02, 4.35877703e-02, -2.51510162e-02,
       -1.99872777e-02, -1.11377677e-02, -1.07461456e-02,
       -9.01538134e-03, -2.56583076e-02, -2.07567438e-02, 3.15495245e-02,
       1.64866764e-02, -3.76730002e-02, -1.02656437e-02, -1.00076245e-02,
       -8.43987335e-03, -4.37412858e-02, -3.86215821e-02,
       -2.54649855e-02, 1.59394965e-02, 4.02188208e-03, 5.56327822e-03,
       2.29712911e-02, 6.93170400e-03, 2.72858306e-03, 1.14328666e-02,
       1.43320356e-02, 1.97904631e-02, 3.91498171e-02, 3.32050659e-02,
       5.68675064e-03, -5.91381453e-03, -5.99187473e-03, -1.97471911e-03,
       1.44701945e-02, -5.24340104e-03, 8.75700545e-03, 2.25966610e-02,
       3.30130681e-02, -2.26172470e-02, 1.36717400e-02, 1.69601524e-03,
       -1.53411180e-04, -2.78956555e-02, -2.65743174e-02,
       -1.28528606e-02, 4.82816063e-03, 5.46173006e-03, -4.20002192e-02,
       -1.49621279e-03, -1.14794467e-02, -6.59686560e-03, 1.69353690e-02,
       -2.17094161e-02, -1.86989608e-03, 5.99323679e-03, 7.28341099e-03,
       3.46743502e-02, 1.68027468e-02, 1.31762316e-02, 1.79421976e-02,
       2.01087352e-02, -1.27909435e-02, -7.53261568e-03, 2.27302331e-02,
       5.78415096e-02, 2.20860709e-02, 1.78746618e-02, -8.07702448e-03,
       -1.93551928e-02, 1.59969330e-02, -2.67052632e-02, -1.01476861e-02,
       1.62568074e-02, 3.36971544e-02, -1.85885020e-02, -1.84367632e-03,
       -8.24731961e-03, -3.41706350e-03, 5.00235856e-02, -2.24673208e-02,
       -2.82695564e-03, 1.45283649e-02, 2.65231598e-02, -1.17366537e-02,
       -4.61271359e-03, -1.92586780e-02, -3.70317213e-02, 9.74257756e-03,
       -3.60494778e-02, -1.06778368e-02, -5.49459830e-03, 9.27532464e-03,
       4.73147556e-02, 3.97107787e-02, 8.28976464e-03, -2.93059740e-02,
       2.68847607e-02, -1.27855139e-02, -1.06404275e-02, 7.75505463e-03,
       5.22416122e-02, 1.42849106e-02, 2.00102851e-02, -1.29132634e-02,
       -2.87306979e-02, 2.11115014e-02, -2.20307130e-02, -3.94406822e-03,
       1.06463833e-02, 1.84753649e-02, 2.13655513e-02, 1.04667526e-02,
       -8.64722952e-03, -3.85447778e-02, 5.42903459e-03, -2.12968532e-02,
       -3.14088445e-03, 1.83001359e-03, 3.55723761e-02, 9.34157241e-03,
       -5.41934092e-03, -1.78413466e-02, -3.79072689e-02,
       -5.24714729e-03, -2.61032898e-02, -1.64723806e-02,
       -1.19968681e-02, 2.88809072e-02, -5.97273000e-03, -1.74730923e-02,
       -1.62506383e-02, -1.69522851e-03, 2.33691689e-02, -1.56537686e-02,
       -2.39243521e-03, 1.68779660e-02, 1.75242946e-02, -2.38772426e-02,
       -3.81817147e-02, -1.06591117e-02, -1.03790313e-02, 2.19598040e-02,
       1.16595197e-02, -6.16345135e-03, 2.80063152e-02, 1.70838144e-02,
       2.14520143e-03, -2.31343862e-02, -1.57526024e-02, -1.97773837e-02,
       7.19372602e-03, -9.22669657e-03, -1.09869372e-02, -1.11067314e-02,
       1.65699515e-02, 1.20146973e-02, -1.48320179e-02, -1.75523497e-02,
       -1.03722662e-02, 1.19936969e-02, 1.00522777e-02, 8.99338629e-03,
       9.95507184e-03, 2.21690219e-02, -4.80592670e-03, -1.78542491e-02,
       1.00971712e-02, 7.27132661e-03, 1.77128222e-02, 4.35596379e-03,
       -1.51892460e-03, 4.81649116e-03, 1.98456571e-02, 4.98264981e-03,
       -9.20394529e-03, 6.56331365e-04, 1.47898886e-02, -4.68038255e-03,
       2.61222012e-03, -1.46129290e-02, -1.11997398e-02, 2.33202353e-02,
       9.54270549e-03, -5.31828450e-03, -3.52755678e-03, -3.07654991e-04,
       -2.43075687e-04, -1.13950372e-02, 1.03579815e-02, 5.07035013e-03,
       3.67390327e-02, 9.97676980e-03, -3.52496793e-03, 2.49171117e-03,
       9.09829885e-03, -2.87359934e-02, -6.49828138e-03, 4.21303921e-05,
       -2.72690482e-03, 2.77164504e-02, 1.11337360e-02, -1.22133596e-02,
       -5.54495928e-05, 4.53738915e-03, 3.53519921e-03, 1.07817561e-03,
       -9.71850380e-03, -4.72463714e-03, 1.62740517e-02, 4.06043567e-02,
       -3.79670132e-03, -4.30012494e-03, 6.48924476e-03, -1.57128610e-02,
       -1.09376293e-02, -1.66997872e-02, -1.66081861e-02, 3.28974240e-02,
       2.82360613e-02, -4.51606046e-03, -1.17344363e-02, -9.96189844e-03,
       -1.02812015e-02, -5.12979738e-03, -1.55321264e-03,
       -2.89405789e-03, 2.75805630e-02, 5.44287562e-02, 1.16262110e-02,
       -1.66222323e-02, -1.52357863e-02, -2.36749165e-02,
       -2.17916947e-02, -9.34903137e-03, -1.32467579e-02, 3.53171006e-02,
       4.73858267e-01 ]
